0.1433925145932561
-0.028701580582797138
-0.03897985777729963
-0.05672982858453236
-0.040052105032015124
0.013820337075956375
-0.03950841823214205
-0.06440445876598894
-0.06916564750293301
-0.052046918198110075
-0.08819806306211829
-0.07046807068635394
-0.04040758419765091
0.05466227047686023
0.04791677923044999
0.006507816810136594
-0.06333902370980708
-0.20069923819761387
0.12092598900590734
0.0442651393814739
0.015072973675545385
0.12525506956388896
-0.1856363380897942
-0.11486037250554207
-0.08442526195394687
-0.09397073159970318
-0.07965861390991145
0.028518709759348598
0.13054203766734004
-0.16755573992109515
-0.07903219135645675
-0.18400491387633783
-0.045842987731512824
-0.04778205703687399
-0.014054049302662555
0.004010491240406488
-0.061254503391495324
-0.09439914929045354
0.04607274005392293
-0.028439510775476625
-0.06832739036846505
-0.08988742038867749
-0.12945742324861484
-0.021639326958734894
-0.08592176788248763
-0.04179849139971387
-0.16432577788000408
-0.04042384155512213
0.09638887974049633
-0.018635562628808913
