-0.12024052733724434
-0.06471864588256708
0.022703136421122164
-0.02947526663432415
-0.028180857582297426
-0.02615607156374294
0.05536536011367726
-0.1816770862335187
0.07575205983361584
0.03714861297704332
0.056891000357231755
-0.05214891920820637
0.06414495488091163
0.009319739271577724
-0.1347886592593712
0.04091388381233567
-0.04004945007715218
0.06653987742365323
-0.07619367510076834
-0.021277035667937205
-0.10772193806336704
0.06705521230320967
0.01147149357580311
0.012453415999749353
-0.12984289276553243
0.014468018454410347
0.12161425672030803
0.06594609055172028
5.652661530361899E-4
0.12971815107027504
-0.013749258977133187
-0.002556313990105025
-0.03462143174278053
-0.013778937512527088
-0.012739632389936974
-0.04212293535565786
0.10277256300253043
0.04140870039545519
-0.061290150293798
-0.0437807843426538
-0.11833576386344222
-0.07856129920684539
-0.10862746958475322
0.07221835870802831
-0.2067963057521467
0.28061186537469246
0.15734523589753907
0.13372756043417205
-0.2718057961252601
-0.06936466725986476
