-0.039252535799015775
0.03081289581272842
0.008216962375159969
-0.007936474755315974
0.003909737805126425
-3.5638188394110235E-5
-0.009049476826620792
0.004242107299363172
-0.003048729267510954
0.003637213280355288
-0.004071423041849112
2.3038046046871738E-4
-0.00613371380448973
0.013339244591689843
0.004717543857285471
-0.013406494423529135
0.005695977239634643
-6.891725528043999E-4
-6.741651182889228E-4
0.009886236943376935
-0.006965579647660318
0.0049803506017171385
0.0026919417719813653
-0.002944984982870957
-9.251495410208975E-4
-0.009055247163736777
-0.004443321719149575
0.004678055209865533
8.604655873459115E-4
0.0024729099627527973
-9.584447297644778E-4
-0.0017452109175110173
-0.002551973320737402
-2.992257323840494E-4
0.00172729229500065
-0.016685314246599237
0.0079017184951646
0.0029390057258340415
-4.1876536058065716E-4
-0.011252178599164258
-0.008929844295525752
1.8355266822800173E-4
-0.015130315447861378
0.0062889886435295705
-0.0026921535543393696
-0.0026435302085278107
-0.008417116499639894
0.020531090989386453
-0.001872193601666978
0.001918866611452072
