0.9320958356428191
1.1546587798096521
0.6561451904208352
0.8949377862748922
1.0775810269809052
0.3612011757210996
0.5611354531510887
0.6148442737909583
0.2351851486846148
0.3319842243233918
0.21543673509487207
0.08565531619805299
0.48090874834798536
0.44019984303274384
0.7092660365954189
0.22968185760736926
0.9195591331518506
1.4897597880262545
0.8296780740480127
1.2487728197587329
0.5438997503836805
0.595687578758118
0.2688950028152106
0.8998165705314076
0.373287511991814
1.1399252874308898
0.3912332864459868
0.7389966015260016
0.7537876107174941
0.19263642387524008
0.41616525298606044
0.43263742541206973
0.14161526814555223
0.27697182418045696
0.6647531703002323
0.46190181737323033
0.626059479558247
0.8129723581270923
0.17507702848992268
0.06498001463540407
0.5911052449234447
0.4472669704631243
0.46517979555567096
0.916386435943941
0.8514690458852968
0.43807897441306526
0.9315741277797001
0.9424667131425603
0.1974834426492485
0.2724581990258571
0.3065193884481504
0.3092164330765359
0.12074643146547065
0.23383471170799788
0.5653399055127711
-0.06522901761550169
-0.15929888654705107
0.15693016396694
0.2640254109582213
0.7362337752627022
0.5243523451941852
0.6419013003662455
0.3278139493298152
0.44644217103313255
-0.05394916949009299
0.131450645282429
-0.156297677265713
0.27349108094149766
0.16951627320646961
0.5134763153356251
0.2581897762922423
0.16770967612087695
0.30177979780967135
0.20321748762230968
0.1898410839287402
-0.1872706260289575
0.5173381346729513
0.6252972085418332
0.458640385151557
0.42311153607094076
0.10353527777426748
-0.050559197120087794
-0.2117702881041229
-0.06519370802601689
0.29996453095113773
0.29286980475965246
0.04749293082743183
0.18814078606143905
0.0626156077973697
0.4193001114970525
0.16880167080310596
0.1167295295807828
0.7445181886529169
0.5559951266034803
0.028705258760487098
0.17936147071881575
-0.39928754295649455
-0.16448227453163575
0.08434066138184061
0.46609094222156244
0.1620469529175021
0.20128960782701832
0.3610489579696249
0.3956261392464879
-0.33527607171968726
-0.13156819017048735
0.10572016712010182
0.1477552894005072
0.21905177197951126
-0.11235282644387606
-0.22550938923072678
0.36084310398757746
-0.1357770665450049
-0.03092060205134784
-0.021891120140795525
0.42960024430452
-0.2654649252089181
-0.12467817152587483
0.2578468172068991
-0.06349784165766444
-0.3772253515229369
-0.19342030772575713
0.03146059552909876
0.13390302451036187
0.15968714979956575
-0.1022977141451595
0.21459879200025297
0.2891030885217456
-0.41774893987755374
-0.28741809731722573
-0.4578569263832772
-0.29638373921806244
0.005931094222626106
-0.4961203194196988
-0.32895402104031884
-0.2603908979144257
-0.20907318279173503
-0.33042249356907993
0.04611442616955255
0.19889104293708867
-0.1868771398103595
-0.28157279952865405
-0.16744702855997048
-0.08248793045912275
-0.6395766120403519
-0.4271080573877646
-0.19518333813491393
0.5826368256483851
-0.1162052536483592
-0.529703353635777
-0.3996080516977357
-0.20169826988440387
-0.06715797586189237
-0.6973634503412822
-0.3469238667005315
-0.021079240552741088
-0.10554970134669729
-0.5288715754469352
-0.6493819345580896
-0.80653190152353
-0.5220262660434005
-0.007443527092966808
0.031253983528479946
0.006108894238345336
-0.05522647451222642
-0.6986814458938976
-0.146339760001587
-0.6461755469582183
-0.24930637169499223
-0.23839652498967773
-0.42197304239931366
-0.05509264407873251
-0.5798464398799077
-1.5175296201769144
-0.6238667566396868
-0.43660751253909597
-0.08484653383649968
-0.13215021366416316
-0.30695536973403426
-0.34667626262738827
-0.014633144312351711
-1.083478916041047
-0.9233409344538791
-1.225121085293339
-0.3448082503692838
-0.836828641447253
-0.3552066654540293
-0.7256084263230322
0.2547850725481232
-0.20647625767322983
-0.11798145693234353
0.10090031120326468
-0.6892057798137116
1.373218234904065
2.6115961664496594
-1.4840785475609197
0.7174721652934956
0.05563997114512871
0.2303191334530916
0.4218910210575953
0.40433025070019407
0.3035174647149245
0.26695560733282686
0.08138375255797467
0.1908152710953649
0.021019133455989557
0.2103796671662231
0.32513831219072337
0.034401944214540035
-0.006028487414692039
0.17591377255189644
0.2522528757957194
0.2533588777693166
-0.012204962079381024
0.2561378118603773
0.3758381335288555
0.1641679999094609
0.48054279647535414
0.14481930023894315
0.04947342850153627
0.08430335404610398
0.25749156221594777
0.07856562548250516
0.27820824270545913
0.02986821059727872
0.391298903131625
0.29724379391441524
0.08700688503261683
0.10199582486642807
-0.022967796605432928
0.08645164563363028
-0.037082720112674314
0.14919936233761288
0.16247055470645325
0.044359199856757264
0.29105513678074396
-0.03925708314787883
-0.03547893871542801
0.13472379777021123
0.17650189933985203
0.1797030747149507
0.1701223233739765
0.25852631183069913
0.10677707431448168
0.2170481517160849
0.2607468135869957
0.007398495455446543
0.04785775740114982
0.13831653996128612
0.21282902205096174
0.171842144474401
0.15207285678712407
0.2088365797415577
0.050662561764123176
-0.060724136463356296
-0.01657243209592595
8.835770618177549E-4
0.20363224085233017
0.19497493822729556
0.056897382850977826
-0.015457764535037406
0.1592773514501893
0.07308686236694562
-0.0354774660370316
-0.06735815543062172
0.06523365524934531
0.14155906270769436
0.14094218192423763
0.026676796795837968
-0.07128844136381844
0.03422414286920073
-0.030950567713710228
0.04517204177999683
-0.08164193223946596
0.19947727737600374
0.22721936787423536
0.09474780697099108
0.20677987430302358
-0.06298105821807842
-0.021149795074303826
0.001313971985635535
-0.03501599283401259
0.05464675237503257
0.051655079430590105
0.03775352606300461
0.08123270919370727
-0.0978416979097533
0.2547223239585646
0.07840629664380855
-0.0031013131772950017
0.2223855860857619
0.18779175229871195
0.07761671988754108
0.04286392576190503
-0.10901747860442604
-0.14833197638540194
0.14978191586817272
0.0787323535855914
-0.09626629695180297
0.061820310887092104
0.17452526420755118
0.20653275570599408
-0.17135883482597714
-0.11248545434282185
-0.03505913517483458
-0.07788101690094168
0.11316861254083672
-0.011273962982724524
0.022017978274861346
0.21366122230327012
-0.0804066204573575
-0.15285341826545204
0.08392841232330885
0.03188254929730606
-0.030092397540625024
-0.06042911331565929
0.08941213920610806
-0.18720733965061073
-0.23176806464102165
0.015579471212827994
-0.08689040509807706
0.06163876095594051
-0.038843321947677534
0.0156065633436461
0.03970925510005024
0.04353389688405556
-0.1446303544026054
-0.17361054180771715
-0.058757335966904585
-0.02000221437766415
-0.06074342371074704
-0.11134991980469601
-0.09143384465457956
-0.06166385528130004
-0.2524557202355656
-0.15352548785774148
-0.03470627646509589
0.1521768939765878
-0.09586159421759263
-0.15808337800349903
0.11009937740444217
0.06975270425375507
-0.2803321535747769
-0.0625276045495202
-0.10870653703061314
0.33537716894199127
-0.1577674953549338
-0.22828060382931648
-0.07573478088409426
-0.0419713583395381
-0.08493606449580164
-0.21308869224434857
-0.057322717821107476
-0.013377903112076225
-0.07347017556436472
-0.12000186972854325
-0.19506161632659647
-0.23943027629209643
-0.17496829808260708
0.04246160703018635
-0.07988108963993826
0.09342780579095696
0.047122908409371625
-0.21493933874755053
-0.07303247650017582
0.13710579824098446
-0.04470530556123777
0.001200613977739007
-0.13671160931859666
-0.06663077078071065
-0.13717007622119004
-0.3610288860357458
-0.12856259993667257
-0.24129620889907508
-0.05629175409809469
-0.13482227496479168
-0.10380598382020716
-0.04564201199377457
-0.13328709320916904
-0.3337436377228388
-0.262250894421967
-0.2912959143988451
-0.14074584947836805
-0.2665494410944111
-0.07528028829179492
-0.2213339895983818
0.12238484322445077
0.12135696341006563
0.029418756686223384
0.066705624185573
-0.25273805867601745
0.4209189533350852
1.7700116029019115
-0.6913635341603078
0.2163859688319273
0.01789776271307744
0.06387939206520231
0.29566903385543947
0.4408587206602299
0.33055454535174494
0.06211917833529307
0.03714878097988937
0.17175445611439413
0.08733265941017403
0.16506905565916838
0.17992036640712503
-0.06782763280498988
-0.030501511363129407
0.1985239069608917
0.08378944145540553
0.12490403683466744
-0.009407123239000606
0.0811738616121913
0.5314666399812592
0.269177326781867
0.4653024176910878
0.01635750392059908
0.0019893482940046723
0.12200948937415751
0.26611258468818066
0.04512167722501508
0.27843400875094676
0.08212075966345256
0.15932363478168343
0.2853021154040843
0.09309927289389758
0.1570687873774851
-0.09434649328401591
-0.11325269248896254
0.013598997806818608
0.1586066216657776
0.08751403105977199
0.026800395400599315
0.32134652379947815
0.044645243085592944
-0.12493762740144602
0.039094289714771566
0.13834246377463982
0.16004525678389095
0.09189309119452088
0.18274098005169187
0.02830775934932774
0.12625311114539342
0.24608342790814708
0.024141149176974467
0.02330953099566026
-0.03118619175352755
0.12431192601324748
0.0878705286744946
-0.09682054076251759
0.1330744288589089
0.011975710303609619
-0.12424401245779053
-0.040596322864435645
-0.034347301957769964
0.17043201486887066
0.12460627061719932
0.18815673849484563
0.2137580736639764
0.07876149721458321
0.15026235272301872
-0.014241096967311961
-0.07634114398797688
0.1399448323250932
0.013566464373182778
0.08984462641718978
0.03400593733550691
-0.024796334203887407
0.07430101179246396
0.0024295286513463144
0.05098175614419883
0.06819908073438731
0.24660642594222373
0.2276563782105314
-0.06472736021933424
0.07499057757318611
0.16589091649809506
-0.10653683756435443
0.030454603350641377
0.01458897720876803
0.13014740636059777
0.05516907625653658
-0.08150132763424393
0.1009823167472503
-0.11391916686648937
0.2166214356828335
0.00533410833905722
-0.0866752412426376
0.11176386151666586
0.025978631906837437
0.13270377925178578
-0.036186148208998646
-0.0959334479836056
-0.010952698871521472
0.05332787086791295
0.20017246367838215
-0.10981510813185585
0.05758309957815314
0.09095275786643378
0.2541520860803442
-0.22684289796366608
-0.10219089470998027
-0.012439219300334162
0.1110295399895021
0.04882906494348353
0.05118379033429768
0.07528352805975637
0.2287093247338133
0.03385492843411296
-0.10760844787483467
-0.1274252716676935
0.05055960996266999
0.0654425769509191
0.08153729152881779
0.08704078135205535
0.09048457861372998
-0.24406864738865583
0.12640190432878623
-0.014701686160488937
0.1963489450147178
0.05068660803936275
-0.13050916724710537
0.07025058301564273
0.01109437664508911
-0.2652130289736732
-0.0010434650566541023
-0.04849204794310588
-0.09161738267552316
0.09191206844020339
0.0029607802782069363
-0.11853936030792521
-0.053500528471313584
-0.2125404350103878
-0.07169799243291064
0.02242988871769454
0.23377358637409695
-0.13550380441180757
-0.11447506573065738
-0.04723772176716658
0.0378569135176366
-0.07874521555131758
0.05754420594016953
-0.03960929004718965
0.1451789038974307
-0.07140919555646318
-0.07070831623477596
-0.061804519265991176
-0.0836673747923753
-0.09324063940795162
-0.0690968303515088
-0.044247521818819746
-0.025560804327800776
-0.008095355571624097
-0.1578320713647318
0.0831222851282763
-0.16346819025589868
-0.03738832556791347
-0.1600452538649238
-0.04956962375920603
-0.021043432143806676
-0.12421638984782843
-0.09336565635787505
-0.10327116865776097
0.012483190526773724
-0.07206039744609942
0.015336955338512578
-0.021987324667585444
0.015399603551843461
-0.24373058369429537
-0.3391431218299527
-0.24876079866967613
-0.2706351976020729
-0.07983556675493968
-0.05907060904833076
0.0015402090110905881
-0.004158254224891659
0.031251338585243746
-0.39677485920008737
-0.2112593211852447
-0.3093731840797142
-0.14460267344777122
-0.26312919859093514
0.005425313445201782
-0.17969814906856516
0.26267604149374396
0.07985696822348216
-0.07337050242333891
0.05364710843105706
-0.23447303535956418
0.3882291755024225
0.9705863823250624
-1.5501402118846722E-4
0.20136377694830138
0.008363135940657004
-0.03671186688026939
0.1431998783461393
0.33946985485065045
0.3945756088185242
0.21404002281886592
0.11750757161952584
0.17556024616770832
-0.0016785033881452993
0.17008198155066817
0.022541990477364902
0.20899639122755503
-0.040890302350906474
0.11984389308171793
0.10286279500343101
0.16613326056557112
-0.08511277314051927
0.13500184244912503
0.45951302323228
0.10854059429295701
0.29744095122404485
0.17550735282831087
0.22580925240336505
0.17704299976459612
0.1756095545673242
-0.05168224292541866
-0.020702204752422626
0.11867813963729064
0.3738879997425139
0.20306881884582673
0.051713687061739955
-0.0027795050030945062
0.008667513773303957
-0.1028019010013027
-0.03487028507225979
0.06909970766077071
0.20776925008353292
0.13802501043116774
0.07826898849846985
-0.10797710263639033
-0.10141647585482348
0.0969248913727569
-0.09511864735677092
0.07260349184167261
0.3482984845265153
0.17402213463005659
-0.019530265542157286
-0.021405661574571185
0.10358540343059379
-0.2591739532647253
0.15937854160871623
0.04456115731908156
0.07167989616068011
0.015058729541716954
-0.014793590526050856
0.3153235733266458
0.03884105908559263
-0.11076655111186999
-0.0280892243321299
-0.12992166526074067
0.13962833892769608
-0.01600647989236061
0.0024775611748370768
-0.011512294716763741
0.053713577849064595
0.08528576033136398
0.11549931766020538
0.1457285425919319
0.021199324048334255
0.12965312813982
0.2987657281022741
0.1368725314852438
0.08800104077507066
0.2547127016092189
-0.16920365294292047
0.08851966352828275
0.030343645024479466
-0.07507544450020222
0.33444519936271894
0.004905793410445517
0.15675008290585746
-0.19160671217948616
-0.022694502453591236
-0.10351616852848963
0.14558436720033308
-0.042376876289802634
-0.0763858314038926
-0.05516065726529217
-0.010563585911847572
-0.0016944076878397775
0.29466801192192404
0.08640774371519991
-0.11158402233319929
0.3379411088484156
0.19751001157888554
0.06904512736572758
0.06177204873380082
0.2240106590975933
0.052520740464524374
0.013752474803424744
8.182455088698599E-4
0.09972288082627298
0.09847779950245884
0.22802246557523648
0.2321348976452413
0.09554740143056742
-0.07520812161587917
-0.09492079598716041
0.1615683027843236
0.07156068083858359
-0.12676080365059156
-0.1043271702091139
0.12056873829954619
0.16426554898868295
-0.026020149394832267
-0.45221960206991435
-0.09429047848014467
-0.08983310057515405
0.08978448465227355
0.05374407234161055
-0.1965470620817763
-0.027240085927793655
-0.1552901250550702
0.003303935555865868
0.16082973104079415
-0.07106226889837539
-0.0062630704994303295
0.13382677213186303
0.035994411984966064
-0.09062519118794403
-0.32182477152694317
-0.22767640050844654
0.016947626393326542
-0.04638295928652183
-0.04098961888116321
-0.08328441716229286
-0.21583821535346592
0.0818770497128516
-0.04221984422080469
0.015051773483601443
0.25842895357452605
-0.16498488640842232
0.050212125868381224
0.09866758930997412
0.1953674811936485
-0.3582234143495797
0.21094866769890463
0.027541182540675085
0.07368262437227997
-0.10747963528307523
-0.1911355753076688
-0.06508289848817977
-0.16629824133300836
0.03681053710312229
-0.14570951599690493
-0.204665390928455
-0.04532074741457333
-0.18362945235794437
-0.09705193888437409
-0.12676203903149186
-0.19465286154255632
-0.047075445038114096
0.027034435453319496
0.07315585024739442
0.17305501746881763
0.12139940781170629
-0.30004032047411866
0.05360852973889916
0.11492972124214144
-0.08295229528626442
-0.16421610628447667
-0.18332652966647311
-0.031058881162445044
-0.0696298781120515
-0.2487082362834255
-0.018928088595811826
-0.1235074035172295
-0.05512502203146892
-0.03611718180510199
-0.11287930133275881
0.09321073494846117
-0.291347799873733
-0.5139943376446787
-0.32323597403366566
-0.11994908244529562
-0.25742063234836854
-0.2323487547919967
-0.04763593774023259
-0.2492015962907262
0.14565903167219763
0.0010389403106953793
-0.1113010643844008
0.17991257101584182
-0.18629382417775298
0.31851773173295683
0.4214782316288916
-0.476553489616363
0.13298615772096858
-0.009445055457216859
0.04631330377442708
-0.19463401834440344
0.14724310170674765
0.029491594488676148
0.09632648983414953
-0.07563904111019663
0.17052182905399238
-0.028567657458600668
-0.26061214607454314
0.09135071826321559
-0.06777642975801987
-0.17530459696648124
-0.1511427099552052
0.17584595425067365
0.20720001037815114
-0.16626368899276603
0.3008108953066635
0.37435317262719453
0.10852085738513452
0.37741823488136
-0.12714212819630796
-0.026735519851542412
0.15601078821263653
0.26839335403000847
0.2667346483837403
0.25733774511539803
-0.03657849320639274
-0.11824062237363632
0.2111881435732001
0.23036923697795486
0.19721451632386297
0.06253643325935285
-0.17230831147918915
0.4437926578857466
0.16645586457858688
0.29603993222982306
0.01704585705792318
0.22858004333702797
0.31364767685863304
-0.17825351427518313
-0.3234135510503151
0.1599773352205558
-0.08988566821960334
-0.08284796391122778
0.18776882445264176
-0.13351289699130564
0.0691363771866561
0.18590150807546976
-0.1678712482136724
-0.0976930176610086
0.1387005634464364
-0.00518478609157186
0.02826292421140987
-0.16713819259722384
0.08460815497752298
-0.14867610057765926
0.11770233096567188
0.2870560878013007
0.21720772649014122
0.2915379851838629
0.3517653871318753
-0.009283948443397807
0.11535718683333937
0.03742721154688697
0.16513175133430286
-0.3283434838450095
0.4785982362310499
0.045919947613719966
0.1345029467378401
-0.03153763478342969
-0.14999250988672766
0.012649796155785592
-0.04161623204716617
0.13829429611347235
-0.06323462911488159
-0.027146316579795132
0.4784312694468202
-0.07240279610065957
-0.02873494585225929
-0.0025090237570163203
-0.09987139714625727
-0.13362232776470812
-0.23279509819359923
0.09007350392154133
0.13719249381374746
0.038285211466624954
-0.25708128569949035
-0.41067885612754257
-0.04863481231770928
0.2128998562328343
0.1618363543454016
-0.03089109036678102
0.3699046703836038
0.08915569368630545
-0.11840381621772238
-0.032618237101347786
-0.09648544728353248
0.027775624508367337
-0.0745104602259407
0.011644699482424728
0.05404740824963359
0.3183614556143477
0.08317106649432926
0.20677415847441488
-0.07256448370842883
0.034948171544762124
-0.26809118085119915
-0.0626218001402171
-0.07281124072869556
0.13348552244034495
-0.19432647516856008
0.10661774084711054
-0.10640553298270568
0.12372532043983905
0.024378229128447775
0.2841994279747696
0.008735676865634659
0.09089425991801371
-0.02790327875994462
0.1393934213081848
0.04715473548876988
-0.10696038475723356
-0.07117481460225109
-0.15988111666721028
-0.013064387604352336
-0.0047210295457062405
0.06660800474349321
-0.2536033802141278
-0.008938689353128651
-0.13241611974040593
-0.2118398649344487
-0.09075421928478948
-0.06724447858942718
-0.11788891044794882
-0.16674171106357125
-0.02514566200435441
-0.07723857849847042
-0.3427675187462934
0.03473300214722246
0.08952227731736581
-0.4295203823831302
-0.2305477296129
-0.30299416966450426
0.4496037755204546
-0.4325758284666967
-0.2938365269115118
-0.12731346191218584
0.14575405850929857
0.0356253872706687
-0.16574881185432816
0.08030708014826315
0.15580293285684338
-0.1411509933614792
-0.13553513372756837
-0.12318060674503525
-0.15853198459983348
-0.13008444817094256
-0.10198348957686128
-0.1110300671819958
-0.0951546310960818
-0.015530831622669876
0.09117031783742366
0.12250926370399937
-0.009617218162300618
-0.03445282907965089
0.03417825676913489
0.0014150708394341119
0.22951737497177896
-0.09441093050915526
-0.16132373487233875
-0.2766338739057723
-0.19597872034587172
-0.11098915563037524
-0.34055997725449094
-0.03809119589712401
-0.038219132882257346
-0.028186325512510994
-0.039403540875594674
-0.048396498440637474
0.19075593104011954
0.32904603188302783
0.058357857142482865
-0.39033690151219697
-0.3028683957139569
-0.2318487517757868
-0.23355808723507526
-0.1518144719023652
-0.10941127309431126
-0.042947959556169146
-0.003532039121471501
-0.22007865311563113
0.1627548701108264
-0.235618455309621
0.19019654855365298
2.1995905028421134
-0.7601468993383328
0.07001068080151611
-0.02726334006064755
0.07182250557907895
0.2583341040340757
0.3448214047915781
0.7793938835978176
0.19867474586494316
0.374877050915858
0.10592614194426288
0.12495065404935897
0.07038421225926192
0.28914118974393394
-0.1856836600267299
-0.021993796800408714
0.4516558155049601
0.25566675704748903
0.10685361242767501
0.008910452497354554
0.1389192345063117
0.5843759744630096
0.5208412171718886
0.05106966712975079
0.38023479885903905
-0.13644460979059667
0.28385580175255665
-0.04612308334451578
0.036621193195043374
-0.16133125134340798
0.008664121571890953
0.19295548789178452
0.32256969805491875
-0.38729620856092245
-0.037125805235816794
-0.01972229994049503
-0.13029044002758794
0.028963345716752457
-0.2687638087265098
0.3491429144464626
0.25819897653536317
0.12063210050494946
-0.01698528970604724
-0.016826397046865397
-0.013188522316155357
0.2398774299633019
0.1720046858490596
0.030082399559193666
0.5407957096206292
-0.08910375762701514
0.3191260592709523
0.09887896965591327
-0.2324510196952313
-0.13559700024373353
-0.11045874544474195
0.16996261842592827
0.1059326710656851
0.017803558940326595
0.016625688460260232
0.20146941562981655
-0.001610289368178521
-0.15366105412149092
0.049943158579465935
0.4510984991701467
-0.07989889745987652
0.25976225048178453
0.2032483968718918
0.0845136360960906
-0.12841876997653465
0.0360149863636431
-0.0011154468665917564
0.03939404131408365
0.412565693602248
-0.0053156592106312775
0.1333904424708646
-0.09397842658160861
-0.0931307603032365
0.23244334689440047
-0.021968415595842113
0.086241327440445
-0.1308161764487339
0.07499461354435495
0.12823592864969408
0.14797548882506345
-0.13092073292658649
-0.04719227095042167
-0.20071275731033963
0.03313691571184078
0.0807417152294617
-0.09162460687750539
0.1700303441405841
-0.16625627600994178
-0.02051305333888631
-0.40048513486167925
-0.17706131717905488
0.09103176676194052
0.03865928745478178
-0.11193983490847172
-0.10826190290175101
0.06829787074700198
-0.14587636114480812
0.14472828166265359
-0.035629670258564096
0.16619781901097647
-0.20375902928541445
0.14924554042767632
0.031134740049639915
0.1905111662373946
0.15406526953934532
-0.13723172815365642
-0.07384613722124606
-0.5067963039815911
-0.11557021549767674
-0.09542767509821683
-0.11572241272458438
0.021430573505143446
0.040177337836743446
-0.1582488008437124
0.11998218825919534
0.3400377847522281
0.08400556038966266
-0.05016233711317793
0.0391660360108647
-0.24939576089726098
-0.09745873605834825
-0.2713180645620614
0.1732156609606881
0.021422756192392235
-0.05084969700200522
0.08665814469833298
-0.1929782947650793
-0.0181159488894252
-0.03754026947762836
-0.3298558721089039
0.082573747215438
-0.06205133667756298
0.3520692203185886
-0.2020760623787811
-0.23080449587226815
-0.051568622138281756
-0.2818537044647749
-0.11774999309534898
-0.08864747937042149
-0.01827885732119654
0.11582700101019196
-0.03887862435745009
-0.0735332433823436
0.020881843592980263
0.5585591105862835
-0.27975542738230513
-0.40451061571228086
0.09317717246233286
-0.1020324829973744
-0.25256959931081724
-0.005810810646998479
-0.16304438114838643
-0.40372819970729756
-0.08183367713137264
-0.040335417360990944
0.3235571009651816
0.13240398188404381
-0.04391523796815021
-0.21108035889368088
-0.619187453638881
-0.018932831325576317
-0.1991358841856734
-0.002223777947677497
-0.14625491391617557
-0.455738180598556
-0.12913303969730502
0.04884689889798987
-0.11443352767684112
0.0884993877449179
-0.023537362651928136
-0.2058340192530928
-0.11724697837279519
-0.1957829130824638
-0.08681736063727456
-0.12930703241735894
-0.6747077768164136
-0.0038841891757575527
0.17858558601306468
0.29508785617531613
0.10104915873776243
0.17656429648156707
-0.3213988381211362
-0.045389424758114395
-0.32850209642989286
-0.012041249787318955
-0.27921743816372097
-0.25686670882472684
-0.11586517356215306
-0.05436552690573214
-0.12473433465639017
0.08561765102324224
0.30583324521952987
0.07840279129620874
0.44548681243495714
0.3131790108653596
-0.4244856212735476
-0.06761719598723138
0.13912646634756096
0.2457400869979794
0.20995759536677402
0.39503187545955276
0.3338623676600612
0.2199382443463835
0.08185769925871078
-0.11348910442061674
0.05998992752176949
-0.13081684849969152
-0.07116960875484658
-0.27157353578723425
0.18810237988279038
0.37593174945612007
0.12765154746538213
0.04380393655705003
0.13090775181909511
0.4562639308667272
0.4639263975308721
0.1213624954976007
0.6271303121879296
0.4163433138284836
-0.1669998895019896
0.06922606229235906
0.29619050442978856
0.13866826017402253
0.087991015000814
0.09698353323459687
0.6337016980243346
0.6435683874025049
-0.332171576468054
0.15923677996066818
-0.03818441480799377
-0.19220162431351365
-0.048863856904629015
-0.1372777465236063
-0.19213498689987832
0.5148711896392988
0.3152985771789002
-0.20961916440451614
0.1931777844113386
0.1409595312988945
-0.3020752355288224
0.18955095711259887
0.488448989472512
0.09857905613836525
0.1457827045382669
0.6134349525864025
0.3839139939701665
0.2707369115685651
0.30186952671439365
-0.04791184438299581
0.1795133479361201
0.05906681380038652
-0.006874467110952954
0.001674741137481774
0.04299010911044515
-0.3352723464189373
-0.11903002974692999
0.07952292264420743
0.20107778720947853
0.02405179828135202
0.06473050797431025
0.0017874530609755107
0.05515025126448114
0.012728228470884626
0.24703293474659624
0.30685790614717345
-0.13682775072928305
0.23612638299800112
0.046602775403910106
-0.2087144926940759
0.04072313422581898
0.17686191974930657
-0.03273063550874235
0.0489899403039816
0.10756805761633728
0.2080490592122487
0.060884972120258264
-0.015657622111004726
0.04813303843942256
-0.03527618576817273
-0.25784605380017916
-0.03874932931318068
0.08649539571762238
0.17570966597242735
-0.030068499470025458
-0.1805134376369558
-0.3158611522546451
-0.010681707902192
-0.21703481381405726
0.09717284056659513
0.02398957095685414
0.21560235502956088
-0.1214009267718229
-0.14120460092521078
0.222061038356467
0.09447902370415823
-0.294768731525109
0.28614514730226803
0.15661151354861974
0.05069931927746749
-0.014903205943673923
0.07789367375362397
0.1312889393080867
-0.27757060570095987
0.12096585975845532
-0.07640267999918836
0.021649928095284418
0.20289716635685104
0.24263224446352077
0.033541575654678975
-0.28184458530795353
-0.2954220277735046
-0.12870829908181128
-0.04445499622099059
-0.25824153825237023
0.18326811210570718
0.10103321958222396
0.19459066270213873
-0.24347733222814524
-0.4814992432072037
-0.340113289476643
0.010562315265716759
-0.15708323565801877
-0.09052239365160826
-0.17077538610482484
0.18694031994465216
0.054747272804779055
-0.060491936233278094
0.03488120629651691
0.12848924058550282
-0.07131289031826492
0.4043201253422795
-0.3284685315208707
0.07426856476128971
-0.16418536524110172
0.09404993814819526
-0.20326011669939165
-0.201746350312795
0.25320906464032844
-0.01844211074805915
0.08242994057024332
0.1813585751141651
-0.1467369209095533
0.21113447201761976
-0.17523269175698883
-0.12921624228348824
0.016156722217154647
0.16739693668195263
-0.45309106956464534
0.24785506458165432
0.0346996337522481
-0.26110282707172044
0.5293957930461568
-0.3956744589595157
0.08455074408483988
-0.14509612599724925
0.16246101123744633
0.08837495299526513
-0.484234018151031
-0.0922681930846694
-0.2939948525393046
0.13334873982113582
0.22413983762316356
-0.02759564865863752
-0.2955690889020809
0.017843013216870034
-0.23093299894575042
0.21297472967268857
0.1252901882696994
-0.07357330992612686
-0.060010977141786985
-0.21126923299519887
-0.2185044440457767
-0.591030002896601
-0.5033799121206836
0.18471145493586055
-0.22070062888397624
-0.043719754656192295
-0.06822036943500406
0.15805106464369517
-0.738703371943269
-0.21713025445013054
0.04182085685916256
-0.13279195771751143
-0.28509687728742167
-0.2819199917931435
-0.07153802272337063
0.1746142692479805
0.10629741160850303
-0.021397703244914086
0.46439387855464115
-0.27822915663601744
0.27968327067310855
1.6627958801474088
-0.40076521798997156
0.054781440776288694
0.1380543399660646
0.44149279239341316
0.37917559361565606
0.3707005163176405
0.6835258605679171
0.09221245690486762
0.2116256277418476
0.12263502984921085
-0.12242818432233389
-0.3754248580294051
0.08506976506562942
0.31884761297900616
0.2095564692724535
0.09014971470758487
0.37340462467331936
0.4294925437088258
-0.10595420273716157
0.002665888590021292
0.34592154541406744
0.4384801629973079
0.26449615640005136
0.2163219523012562
0.35373422427255424
0.16086589480759284
0.20464729690698494
-0.2329552211471344
-0.04343488674837919
0.08137398853543876
-0.06509590184378711
0.09955041040608235
-0.153419013052784
0.22602232975774447
0.259191185491314
0.24333543871480487
-0.3649138591211918
-0.031190923540267524
-0.3853499170228543
0.26439748777602845
0.475425018881442
-0.3635520442857296
0.21456222302621095
0.5493933941835584
0.15022362600643535
0.3498565770732111
-0.23777881889085567
0.17864461099519813
0.3530069852111961
0.16730092046020256
0.1587819641147609
0.20657092072786187
0.07866237733911469
0.176430540970215
-0.053068219658578844
-0.317482027463968
0.16833818089267036
0.38755649237499923
0.07436309747274623
-0.2914367334816901
-0.035961293520112965
0.20378349508823154
0.36118912431115924
0.24885665157764397
0.2039012103455654
-0.14145855380275005
-0.1847696096965066
0.5159352589568627
0.04273593490666968
-0.08204711004696102
0.07044132016242716
-0.1146200029103473
-0.1646856797378821
-0.009513629942068991
0.05048176691668818
-0.2677231548317128
-0.052854923654299155
-0.21378375024626642
-0.09266900044878301
0.052432029506637626
0.19022919805996938
0.19661738880510893
0.027256558556671924
-0.3533512452253114
0.4346864985403679
0.16333182071138327
0.11245105409824453
0.38534656572457643
-0.11321944474530096
0.044121972452986574
-0.24895532676163193
0.29586075032137965
0.44577126940855516
0.25952863537549264
0.21901845788335417
0.08487143496400285
0.12288669659712434
-0.1935012010588689
0.11267073361186426
-0.006483023544444248
-0.0418777483371255
0.1802719977298918
0.06125001445953598
0.5384164636521179
-0.2073115596890686
0.2612098124797765
-0.014284797513993674
-0.3641212059132993
-0.3732710545303671
0.45077588511760275
0.1486372897898266
0.20458828213210487
0.1795384027075223
-0.016813936382348814
0.262857953743751
0.6472917110633031
0.20841455361149086
-0.6132265689071213
-0.09006436857864072
-0.12508642963018005
0.24626412692794564
-0.055430746811800616
-0.18125375840347657
-0.39408051901670693
-0.09468809852966165
0.10646773446812646
-0.39979738416751776
0.07960736329870234
-0.27633518166947296
-0.07946074913726503
-0.04046670900870314
-0.2904373619975174
-0.21704858558923243
-0.049532310605672494
-0.14637869001806472
0.1628512757547283
-0.33807967795388527
0.05302642155570711
-0.012042785059603168
0.041757180332760914
0.3110384291339469
-0.14279063626091956
0.2470173343574956
-0.20563340645034633
-0.4564010656786828
0.3375801891535848
-0.03663960733628421
-0.31466729981161917
0.007126299354811149
0.03948119405414975
-0.059770119470887
-0.37510725655497984
-0.382366973412627
-0.6271493101742592
-0.13539275365394846
-0.06616024822126726
0.23135970296925903
-0.17030428502393094
-0.2149202787957177
0.02300295196006017
0.1158505511718086
0.060433736047660995
-0.1551269452492748
-0.3258861268189901
0.06317402240120744
-0.3172672952931054
0.24274137861669423
-0.14323339731520987
-0.15878607659899677
-0.302657058965173
-0.5636293496885858
-0.16307799607101625
0.07235731610312479
-0.2795452793737267
-0.08880033933812743
-0.018326755015459283
0.09436488977671277
-0.11517750862093866
0.14508320373106964
-0.3767837275348764
-0.1190996453402101
-0.21392137078185225
-0.012353908288999457
-0.020739024506822516
0.3197937841609374
-0.09655762122244727
-0.5777099722334715
-0.3968072090323544
-0.3667730538076151
0.2979665004034929
-0.507161951162498
0.3234439749249264
0.1955390148336309
0.07762701058177675
0.05539351438996402
-0.004979639249670294
0.1991542244603554
-0.17268073711014129
-1.9031927587686164
0.19812886167849053
-0.11571681853889494
-0.07730582418690293
0.3853955694433851
0.05672690850426638
0.1640370879983281
0.19601180003192928
0.09284217594423251
0.23650850005088664
0.183536102169676
0.3039857324353741
-0.04253946097055091
0.24750109538634585
-0.5474888017610536
0.32377108571464347
-0.02518045155327907
0.27555578596618935
0.4375229785755478
0.26694391822663444
0.22603931165906824
0.4779012534555553
0.0656764248778916
6.206823473744876E-4
0.874584338296965
0.17477965070056423
0.2645805352863162
0.17396433941519968
0.4100896509457187
-0.06204700425173517
0.2474176750860331
0.11479254284808957
-0.09773910540830841
-0.2001825974286103
-0.2568757648856912
0.45372211762320036
0.5666958801268566
0.15358646693753292
0.8427291423671799
0.17097972590872712
-0.010085361587340289
0.030711074265277194
0.05034846902067661
0.12142966951994033
0.07866147146564888
0.1628072182395604
0.22292560251548332
-0.11673948556681878
-0.09869002491373015
0.2721276647611419
0.20309883213482458
0.028755752344723516
0.13059188624257825
0.04485037257408502
0.29505049502169595
0.3492685872657536
0.33848361150390116
0.4535620678164508
0.08061773083299503
0.12972954874435316
0.303404968206757
-0.09442493925366166
0.6099511780968345
-0.051278766860218886
0.27393484458996625
0.004574441553247641
-0.038404782059135084
0.14316555480375398
0.2775708651292959
-0.01675206070644131
0.7393699218519252
0.3857260880101512
0.34037248106071577
0.45753832361205304
-0.037917020026891846
0.08888716034342757
0.004379089504556774
0.15649693438029
0.22456570167551748
0.4375091378114895
-0.15596075254124023
0.353835438825178
-0.17832351251283027
-0.03557733980555295
-0.620563037927451
0.0726649627624971
-0.20274695590718722
-0.007751599477358836
0.4443979555864323
0.6469472146084704
0.3536119958253409
-0.41065318392470473
0.15537648180596048
0.09779608498307567
-0.5108033448237955
-0.5386835945978714
-0.04327058201816756
0.06376533441518495
-0.022773948657859113
-0.6409994366507177
0.21220516071644213
-0.033135156612210295
0.2934792850170408
0.05975820662928835
0.12726586020632216
0.45942444098317825
0.01969349494798115
-0.09941305169928898
0.21607657361658827
-0.27469207509571875
0.5309074168615655
0.03371428433402036
-0.3734209971626014
-0.10020307825366485
0.47333345098445334
-0.1577122940618847
-0.41180478123491915
-0.24178226705209474
-0.38468901760149904
0.22842090587801192
0.13713325411410957
0.031788777939195254
-0.04561073293310879
-0.18201492802774574
0.015949700858901898
-0.2014722796129494
0.20859080659402138
-0.12713768295254205
0.011077269412519576
-0.2960672914368545
0.034949200044632034
-0.4002950854417806
0.16453861676832904
-0.0056195827702268525
0.32750050060143326
-0.20058545214432338
0.035788699345552816
-0.5798078166136703
-0.11981995255369686
-0.03828299951056346
-0.2746456977659649
-0.19480984685190927
-0.1385729168913653
0.3027115050982405
-0.27775929716326747
0.08428515735828317
0.3170631599403264
-0.4938800695275449
-0.3315407611992047
-0.5621840351317541
0.3822774910301335
-0.08909851953631508
-0.17355902849115284
-0.2713193522246029
0.051780197217876536
0.24781148829037672
-0.4064035999663851
-0.3415910691198506
-0.2930337315484842
-0.03727830877120447
0.024068011877826465
-0.34411315909953155
0.25538953423294775
0.06005938609496322
-0.05621622163786195
-0.270929730580787
0.37608738635707323
0.1745221609662828
-0.12608898714147218
-0.17008451905624694
-0.09975387648469636
-0.03469371667468286
-0.1445123198570608
0.03438558153971967
0.2606058373383947
0.01097695009119001
-0.2585894986795244
-0.10801959140155468
-0.5695015234643191
-0.09936564356582123
-0.09659370713555282
0.36532905780589814
-0.38098565659457817
0.07515040592797786
-0.43767718097234504
-0.29382319471767293
-0.15917667297919894
0.006791657443569843
-0.23694373339627883
-0.10700710922160939
0.22437671627061942
0.4007996741775377
-0.1924703069622868
-0.40750286283316667
0.47879605144011633
-0.2853665725033729
0.38331192776201994
1.7844741028121536
-1.6299919554749684
0.17709115259232278
0.09532253800035762
-0.032002642076885336
0.09834674130665509
-0.02489388199314943
-0.22916077709092758
0.25353930636028865
0.10849868917514603
0.08521602670173438
-0.06345734763918885
0.04133160074132726
-0.045411368487092305
0.07159594685442734
0.7534601777854526
0.3231552991507727
0.041788906505206114
-0.026398160414443473
0.22570842090817833
-0.42024689559358747
-0.10791857197298328
0.48300557667554556
0.4726051467260547
-0.12418199010664006
0.00438391083144597
-0.17282975872950349
0.13063192651032954
0.5643271487167644
0.06421169412263798
0.0977955776891343
0.2214193902651438
-0.10873811782916722
0.27342601807606093
-0.025514478513667078
0.1625779064000221
0.32043750442790025
-0.47947864202610047
-0.5988924387662636
0.3133962814408652
-0.09756889068104367
0.13037130373637926
0.3687628213698619
0.04863522123261456
0.34593197947369997
-0.014238894307037902
-0.2901546429688544
-0.1257676537089399
-0.02869808672743344
0.4440122149255179
0.505279081167797
-0.07227096315242175
-0.019375083100002546
0.23555175607786907
0.3406067905144
0.4696494918278692
-0.1776605528305494
0.13412016272321228
0.7795471008968078
-0.07026550400588945
0.09193733302422928
0.12495010895473135
-0.33604812873167766
0.1472064660733074
0.10603495182172944
0.5218518915579143
0.12229434116144806
0.3291482524736483
-0.0780561154376527
0.39312857520949046
-0.2917682565391759
0.07978844827989937
-0.2639275888873967
0.41123722419568237
-0.022231281571266234
-2.7505568900517164E-5
0.010049788693281022
-0.014258115170686989
0.1563113271176237
0.0674125582081474
0.5233104254416512
-0.24848893317672907
0.3810133710398867
0.6229767364025565
-0.528448075951268
-0.46749236695959545
-0.5503329367844595
-0.5828756466895794
0.17853036154820726
-0.1825792872834627
-0.0016296942283214391
0.025584576121635262
-0.0516041109917616
0.020012457985514837
-0.3047442303088443
-0.08509400386254257
0.13397489887159073
-0.21953070408396524
0.04646841802354787
0.4212967645370033
-0.2677895870375779
0.0708541999160066
0.09149526349290113
0.40737268360159623
-0.7099923908049272
0.4193113568944448
0.7398839229998861
0.1852752853041696
-0.3931074573136562
0.0467861933989893
0.153097746585644
0.3872592545887343
-0.14648064308550915
-0.7034869701861537
-0.34503960719973426
-0.22430479267024478
-0.5726886685965135
-0.06913297103388819
0.4470725609912157
0.33793045034727676
0.21871700225300653
-0.20353021781451866
0.20472283757667684
0.5004716382654654
-0.0972839388158977
-0.12913516880072862
-0.1679126399013035
-0.08893638466675895
-0.29682170453404205
0.12107269641439253
0.19830363732606657
-0.05376248086378231
0.3104091149797288
0.9013202266190097
-0.33597773605339376
-0.16607561285910655
-0.005813472533812413
0.16872876815418725
-0.1859942548238638
0.4375248678822113
0.11094294751531003
0.3254071083070257
0.3463908544257242
0.3355507108374081
-0.3309893459597638
-0.04932489046992079
0.18504077477213965
-0.15156384202913226
-0.2499229483718554
0.44160060065080564
0.4383788550577292
0.35871091889018625
-0.26629423213432113
0.2632203293112993
0.4684199187599847
-0.43631570116960644
-0.031733933642408625
-0.6897682672835953
-0.056235354385540184
-0.4217807019709542
0.3274065732788674
-0.09508411921969574
-0.5474552324287236
-0.11980176362209032
0.21048830983499026
0.22278475407735746
-0.08859870744930265
-0.03844781350545863
-0.011514655325905343
0.537649371310876
0.45382343837630545
0.38570512729766837
0.05068143919811816
-0.19310238807031066
-0.04613157888463544
-0.23325554951484176
-0.3882740859725915
-0.336554716399714
-0.3181759701244642
-0.36772230434515946
0.16520060375821452
0.11325459006705511
-0.17277745040109865
-0.1604935660816553
-0.1726430424395473
-0.7725106513148596
0.09701433609163773
-0.17073341852195792
-0.19776463737118108
-0.19063319349947772
0.44104025405976893
-0.46972995860867695
0.40187710815938155
-0.02678335538428891
0.05398351098990905
0.15566008447142163
-0.19928491423643702
-0.4585109016648633
1.5403232428996747
-1.476638851717637
0.1791134524841663
-0.006045926451160202
0.12211090651405583
-0.09157100080663656
0.5075217128610907
0.5259250936222883
0.17569904476026435
-0.27006105663130653
0.14051505776444034
-0.30613311140555777
-0.4332842239574634
-0.11230725272740603
0.3105542642083029
0.16762774184343146
0.012663313979344204
0.8333402234815767
0.31288837754955146
-0.02450708915331133
0.8514808823799811
0.5070338658454582
0.3540821888360608
0.8914464394545404
0.2358887319028444
-0.1559367099050176
0.3394294232974165
0.13718830308525562
0.10958560826523034
-0.014639547783801452
0.461632552403697
0.7554073022781091
-0.29773753513621554
-0.15799632451878262
0.20870297849920386
0.08992906854728298
-0.10975289718987698
0.7652988375845029
0.1785714745015208
0.7120267251447014
-0.3333734315915201
0.3663927946777611
0.9264616590420074
0.08338099978145677
0.09603774843227117
-0.14900086358177336
-0.10852625421601032
0.5102051756406404
0.25254483230473906
0.5590661679360359
0.31785044016315894
0.2583180642389578
0.38595425104462966
-0.5661236407052844
-0.18685209694060775
-0.469404859194011
0.3888574706172573
-0.10105763211992735
-0.0029625364464454028
-0.20286455149322177
-0.2521434409403153
0.18112392357299875
0.49718289996763354
0.1313473397195118
0.150751138767588
0.11898425983320508
0.005266123584333834
0.29579517054869225
0.13259894525356616
-0.33982060734689323
-0.2094512049916709
0.02924369112589538
0.39825879697667077
0.43139404777063106
0.0937522112839042
0.27681910717550506
0.33842204153160027
-0.11559188297466655
-0.4500400760527195
-0.7014268057524005
0.6195649522071733
0.2035732668585224
-0.2876707228995887
0.24100981045750097
-0.4690207407686792
-0.2736452296703417
-0.45793928831474434
-0.394694760186366
0.23834110593603514
-0.5683079352389948
-0.3159009918628065
0.10240754848581457
0.8850774297347895
0.08491338894647112
0.34817611441964796
-0.19175817711214288
0.5949310617982825
0.7385928218743076
0.35577008107508734
0.08122706998797871
-0.24867639374629363
-0.41973412321947856
-0.07909991398957615
0.20614008126095262
-0.6322064100911898
-0.3705843562336215
-0.007608143290889612
-0.21699385667251078
0.10945618272078964
-0.2889341035138066
0.09706515238741167
-0.32935430213812167
-0.20355102860117608
0.10383054384852412
0.12815557664096283
0.39718776432813235
0.0317155579988894
0.12893368218021478
-0.3656104472682419
0.6216058111701043
0.29498296810886443
-0.06702699768757543
0.04546196533897782
0.0047328902847062725
0.4194037983081468
-0.03607493508791235
0.14509989980686705
0.2168613917283119
0.18386631593636937
0.3654282101232935
0.03688421120863885
0.05960707675127997
0.2527457424345195
-0.8219965596704328
0.14258569942478994
0.3590710356668931
-0.16311252727887074
-0.2914395090311731
0.07075543782953879
-0.07976343833341033
0.5276970073193363
0.031071848720072355
0.1378300441200569
-0.22997009916694366
-0.5522451170735574
0.5201711354299384
0.10922180542857676
0.16120989110400186
-0.21308630962273542
0.20827397359289163
-6.539708597798968E-4
0.3731372686168892
-0.5521335189473985
-0.3144403031896228
-0.3306964568222149
-0.13124543454191825
0.09630631010716313
0.11988251417614151
-0.14224722295003733
0.519303629612072
-0.11281316127415991
0.1946547616199674
-0.7438129987234227
0.016052335264100635
-0.5983205061039191
0.09068711603924429
-0.04162584229090893
-0.19963442637118461
0.20616477020919988
-0.015516621755191353
-0.06994199336378512
-0.8534267189545524
-0.3944820770847198
0.15341464341328873
0.05791730821343631
0.14957829462001865
-0.8059900323053203
-0.2661602224151481
-0.5820045204081674
-0.4553716601584964
0.19697872742700662
-0.29671901858047023
-0.12242398813643289
-0.11310386749463336
-0.007818649535227715
-0.03236560219655865
0.6788122854388353
0.17774027945131854
-0.20998629664113083
-0.3366667013703789
-0.035702204943022925
0.439434460858212
0.15223316855499677
0.08574731246050261
0.16942542543875522
0.4462181441697711
-0.5882809001863698
0.1888295723179416
0.6844660215800983
-0.1276738323038401
0.07465050205544631
0.2269504251984833
0.5116086609882905
0.3031589094172329
0.30179022125532584
-0.02146792375590261
0.017934965614567443
0.39175541298612776
-0.11498730073505281
0.2155923243201854
0.022413664583467368
0.19804281908778512
0.04379219364617092
-0.44742342891548426
0.1362450918337265
0.4851238136465401
0.006437794074273453
0.3835710192089549
-0.1695942220788164
0.30664825376015603
0.4332168017754052
0.37387993755866683
0.9869482413056428
0.03751840782970915
-0.1958155303538879
0.45241802003839005
0.31065591740979265
-0.3336194238521994
-0.1107884990029187
-0.7612056220884575
0.2276865181205188
-0.04141024319575456
0.745001941085558
0.23083886041344423
-0.3950480864186674
0.11775437293703253
0.18439418492998666
0.7614701397258274
0.4700915061031694
0.2880877940677298
0.38777702425675453
0.4650922343059975
-0.1515924100414998
-0.2520197086557987
-0.22804605061482644
0.7210717837415586
-0.05976751528276783
-0.03660986566040111
0.19919681105611525
0.7081521509428702
0.5843024889542575
0.052983286402706616
-0.505530480664682
0.02618808900924608
-0.41626639308908225
0.28934136953144785
-0.19503277211879558
-0.3839575326073688
-0.0065499034162057514
-0.18927328406385094
0.28552883086512215
0.19476524791671
0.8616577242199805
1.0354294543651437
0.164720005899541
-0.1838903204228377
-0.012730546595396498
-0.21919987667627872
-0.1327354508445972
0.37881420974153635
-0.11041845836895134
0.366030338648951
-0.21318168836916193
0.13203432028683387
0.1677384572207576
0.3885124482691762
0.7081293881037608
-0.05972184412958813
0.11244748824243114
0.21330836208533716
0.7082602317754751
-0.15939664782713975
0.49585440537629294
-0.3225674976525326
-0.21039114119025698
0.7734050698550587
-0.5806662936236077
-0.17042283377295728
0.23570210978520229
0.32488422132849565
0.279720344746638
0.06521801923503635
-0.13140519351325042
0.2517053262369422
-0.25672508505901226
-0.10040226012808096
0.09644245821914828
0.306466141391894
0.2693842900257908
0.31837032359241285
-0.3059296509607875
0.23696563072447568
-0.2055136060301836
0.34441757377426485
-0.6102562561112665
0.5045363331976309
0.3373121710899914
-0.1812127117266735
0.10967056112943835
-0.33095083835723516
0.0908656821447754
-0.16669536264418308
-0.1478139121245866
0.17742795467896583
-0.5205191382014402
-0.280899121152273
-0.13012765304722287
0.17238687955861162
-0.6487066235148917
-0.008635688154296418
0.26799206232218
0.5473472212747967
-0.3685653434451809
-0.15017421369789535
-0.21634486094322883
0.7823026791335942
0.06668248809399137
-0.0818719771998689
0.28824369421586105
0.6803856930320876
-0.15971055878454476
-0.5517385527078855
-0.18930842616051125
0.15176601393286263
0.22352452717366283
0.03730474563517991
0.7278054571308465
-0.17505793926037444
-0.1725820403416215
-0.4983989810400012
0.18931652677564959
-0.14711066772170298
-0.36727982767235656
-0.35261285152584626
0.3420785532590195
0.13135632448791676
0.08905757488777909
-0.01728409068741082
-0.4900347018863849
0.630246216495657
0.07617073119608868
-0.5765731570891698
-0.473682375068994
0.240848212705989
-0.4104342607566715
-0.17947495962161428
-0.05743191100074502
-0.2249934024791145
-0.5720683080463607
-0.2641698449592599
-0.056046367164213615
-0.8350206802983816
-0.40894424060461243
0.18833125039784177
0.22485047284033485
-0.5647328824256834
0.10860722725411207
-0.43338152002928465
-0.49949482748358437
-0.05607364748676057
-0.0488001055016872
0.019576113392835024
0.06379243357922296
-0.009098448177354924
0.08544742138076909
-0.22662442260219204
-0.8452097916552762
-0.3336389751792569
0.23104112533601542
0.4154788573248673
-0.44432176717005795
0.0678130888290834
0.07272196826361373
-0.24895119626871726
-0.8435204336635282
0.2940024113744475
0.46060134809607156
0.1582454267671814
0.014882172763980551
0.04529369527500113
-0.013431196518424504
-0.2043953676414531
0.1225342226729532
0.08916604648382857
0.0021515509733659797
-0.1660958224327388
0.9824633991760248
-0.7204704641737727
0.4356326473745704
-0.1930915814006159
0.3194445737815193
0.8803094901294434
0.5646466980663396
-0.7063024138814472
-0.1258406379756341
0.9592509616043506
0.48843248265079
0.6510444615005747
0.3725108210414891
0.3041188464123425
0.5486838902612395
0.3393112511510325
-0.25493941406031956
0.4694526102253597
0.32466546620839387
0.19976522348433684
-0.0021842805011882066
1.0603529742355466
-0.5577633688014847
-0.20597546885281515
-0.21950625344273858
0.13066175276496983
0.37088985284282244
0.883454128443177
-0.5870175726886923
0.014036838401987115
0.09643403603577301
-0.44574046986000115
0.10415570846805143
0.4170035662241725
0.2643132697644773
0.46263947201024286
-0.7203283599188506
-0.5987344971887055
-0.06849645121207884
0.38334843361517407
0.18584436455769493
0.12983422668584452
-0.5943505864281365
0.3631812763851163
-0.12573295151917424
-0.41443931896823366
-0.12787039408056328
0.47141111415306414
0.2229957004437394
0.8207900624474026
0.5262491205402784
0.18695060573565056
0.6131876971095052
-0.30214547674765535
0.006820272148940178
-0.02578783858328655
0.16398896003376695
0.87985687068231
-0.4383411188319158
-0.16971079289269703
0.3870204891613845
0.20949204433642296
0.5589090281255266
0.2886224639562615
-0.14349243411865936
-0.2138062991126908
0.4271582504683021
0.36286161406797673
-0.14047157222151946
0.024185550715369653
0.12167725486194629
-0.20065994606589466
-0.39560270428279626
-0.08913986381506435
0.21223769295310452
0.10219633053631454
-0.5237046917734055
0.10444493436627658
-0.41078851780085057
0.301789088988645
0.19288351712536925
-0.3500371203913834
-0.06254704413833254
0.4155507309988028
-0.32423232829284065
0.5840466536196182
0.48928854302818464
-0.01879008597832369
0.06302675887878104
0.22560353621392706
0.09674539587105734
-0.120411388853514
-0.6238202888521492
0.32106653682311115
-0.8298338003516615
0.14734912387027835
0.1555744230709508
0.41243917158557986
-0.11419734425764519
-0.2094639040283113
-0.0911047633040122
-0.018198650842658665
-0.7223095015193183
0.6283484309882541
-0.047044392589573485
0.20384020035589928
-0.576505251972294
0.619735258850055
-0.4274102252567222
-0.017150284606228153
0.28443004591414484
-0.5069620831819937
-0.4584278006561238
-1.0606921276630543
0.04157976082241725
0.3199126370143935
-0.13562873510595636
0.15247923375515718
0.26253518780440616
0.2125122846627864
-0.23217600812333508
-0.23438368057278064
0.06873302195214998
0.3614243303349871
0.1330400404876141
-0.06899300558958328
0.13207703476760566
0.2158542459237377
0.7240028708056128
0.18748407743829362
0.005881321618836375
0.08871413336646412
-0.3601578988259518
-0.04708781134498981
-0.14392241112106197
0.4435607457226339
-0.5764988422511368
-0.19795782698153036
-0.38232368097711955
-0.7353333776079607
-0.22442608078676102
-0.016990874646783498
-0.106463355065025
0.6288415157498735
0.4090840634884744
-0.4305414900904629
0.23400594046107695
-0.19224227936167246
0.08323591740773341
-0.44968028961752604
-0.155344798381887
-0.4596388968675347
-0.2786846955224606
0.7634515854278968
-0.3597641101698584
-0.36224509426527035
-0.3832744181053265
0.2333502574829862
0.11446965401092997
0.16692125809564567
-0.5388682276324346
-0.7366836600043584
0.27274509903764876
-0.8828253183561435
0.19913607493380528
-0.21259154843596645
-0.2524115341966516
0.2993704046503772
-0.3757574004408577
-0.9329698000134864
0.7459779093490485
-0.021237626180384616
0.2170434315131805
-0.37340604504399766
0.3319583049862049
-0.5327747083527902
0.010539495152733924
-0.34554331087673934
-0.22006746814205982
-0.8157318398793609
0.19385990845031015
-0.16562709033500206
0.6162090848010846
-0.8336692482512433
0.9990162868687249
-0.4287844740953546
-0.64196667279214
-0.27840248171509635
-0.21568016464033407
-0.27676822196644874
-0.17737751799151563
-0.315776478356277
-0.18477879407974435
-0.031236516584876417
0.05639146870812638
0.5555690999982957
-0.37417509745631233
0.8268183708564936
4.053789111269885
-1.4128216180659123
-0.03778546743358265
0.21654008639520395
0.7185748620767592
-0.08474138317894113
0.3364803693052554
0.32199363239952367
0.768311273414394
0.3468712338009327
0.1629838327920196
0.9243168859535316
0.4776521455219743
0.7140471385432082
0.07540078517668188
0.2705231494996907
1.085134081091331
0.2934276207146241
-0.5802900815002836
-0.01715839010133502
0.45577755668449815
0.8256124977787718
0.41726729016035397
0.39329124057275666
-0.8881568174101013
-0.2661049525628489
-0.08365443747334617
0.5293690368407103
0.2863822408040007
0.0046667993775384685
0.08342585658302049
0.05503070832773547
-0.012732710078810326
-0.6160517866907121
-0.15463214440625708
0.3180238106261671
0.44721363034166345
-0.23800706663328214
0.293059426771338
0.11307472627354787
-0.24847700185123756
0.18961864167374073
0.5226942539468644
0.37288649409170954
-0.06300641917175681
0.19643118768470308
-0.3435018777334543
0.6279493207022041
0.836510165470064
-0.44366128580797504
-0.19619854896798536
0.5505955612717671
-0.08284763612220261
0.01427767877260587
0.7201105064053104
-0.02687240962515405
-0.41732046240643006
-0.8067123976031019
0.14933295567495913
0.4297963331188983
-1.193018485074213
0.04270558476551111
0.011860159549912121
0.04437637495931606
0.6841959721001838
0.22489435986161949
1.0722714698548355
1.0652750198347691
-0.2526861239071666
-0.8734356624842374
0.10053292037736794
0.3511979035640128
0.16834763964655233
0.15700469455634516
-0.17351931437844623
0.36286706095961657
-0.3494021214712116
-0.1460413373631117
0.3548477351515983
0.11609701077512044
-0.0039986943903361155
0.8756626967008279
0.1494075512706612
-0.07122994201915417
0.7039356518223621
0.02737091384529552
-0.10818295233867084
0.28282785022299267
0.16233252910572676
0.27782187742790865
-0.6556359039137453
0.18837275045470334
0.6843224010266157
-0.5156731348355096
-0.09152590977193119
-0.059157255469756954
0.44936760045730617
0.3580494058569162
-0.14649978526930674
-0.5647906644825991
-0.13721515457981318
0.05731656978562352
-0.4607120369702084
-0.13427418523442536
0.2706690490587438
0.11045018306916489
0.255055388827903
-0.02727089877595553
-0.829326329837134
0.017559950997394394
0.27614959507729625
-0.2553421752912956
0.01898861956416321
-0.16297626338195542
-0.30338948609885164
0.34585138798982273
0.05562819538820203
-0.04344794308672862
0.22749435948310665
-0.4233720186782135
-0.14992031879096365
-0.44935113724512565
-0.07251888231874427
0.23773988380259256
0.40715998751167976
-0.4939254465125594
0.3262305119531132
-1.0088511021333424
-0.007050108964586339
-0.159853021747742
-0.05348385305717376
-0.03915138344832097
0.4019216272725483
0.33148876938878247
-0.4251322937227825
-0.11037418288321088
0.024159344996584085
-0.12037356086691396
-0.05510565536732772
0.27650662022665917
-0.008012733559097812
-0.03633716325205251
0.04612532388506137
1.323339910165605
0.506559128824602
-0.4018309112446229
-0.7158256327444668
-0.5566373680326274
-0.009614336300110578
0.24647114450093593
0.24254814915675615
0.47183210413903065
-0.05089378919672206
0.36852683299785965
0.05228860118423392
-0.11997519095645302
0.2414837393129446
-0.47759677967924763
-0.2079585912872507
0.3076440538845169
0.08634065213187023
-0.0314538762146261
-0.45730502853606153
0.26069304558604023
-0.6676467863504895
0.14468251239100707
-0.010028108192007867
0.15378137620607887
-0.44553031817093536
-0.7529087622402308
-0.10031461866145905
-0.3861144530032547
-0.1417061012075858
-0.43779151973786656
-0.6425641756698738
-0.160807124702261
-0.08828766792608246
-0.6963059980937212
-0.17792287728968212
-0.15103787710487168
-0.9754336029157278
-0.6397126653304785
-0.2194502904809276
0.16036632710966783
-0.5028281421863481
-0.1307798974349551
-0.30468666692809826
-0.7340115343595269
-0.046788201846970655
-0.13236396390512675
-0.39371659097751
0.05359268147884002
-0.5018571736797186
6.061983418742706E-4
-0.311792209015998
0.24170446918923244
0.6151891384134434
0.5752184759286325
-0.6291055713443424
0.3891790111996123
0.2884470773945137
-0.11100507129170505
-0.21711275267145266
-0.40763779522927823
0.5512429301194858
0.8111291248839413
0.36153121167883945
0.09236219433763605
0.16255575726022556
-0.0881448834682125
-0.28942577515935003
-0.5169616647634216
-0.05481050319112428
-0.020624607031338824
-0.32202716403922343
0.1247194739126671
0.7009891281300277
-0.48052832089751163
0.11184010956445506
0.09426951595918025
0.5958976554564097
0.6326884813610422
-0.2823712010055755
0.7284167201287939
0.49340235233079927
0.3446323869888576
-0.01203957383447712
0.2550581812203127
0.09622282318011811
1.0191061292225907
0.5065432908742874
0.4530811864503854
0.6453645969130943
-0.14244618039159787
0.17737980607916792
-0.5460655139944227
0.44088453783968
-0.189708166394702
1.289147005748676
1.1817108871452122
0.42898373245557553
0.32917444910942567
-0.6058982521497241
0.21513440894732425
0.7670611089442765
0.0032291330392192254
-0.17656738733225583
0.2826085134224141
1.4584038875494822
0.49889989174735744
-0.2875633412687085
0.10484853202329636
-0.0737835279475196
0.46412622075169935
-0.06896599857168274
-0.49205171335996944
0.8794691463500448
-0.5336406610844792
-0.24015864673958992
0.08247551431112836
0.09161006854851901
-0.33581030187318783
-0.49243745447204834
0.7195409682168936
-0.054922685534412874
-0.18233231795140728
-0.22425671226135666
0.15447943104921089
-0.12848270965233885
-0.20885038254368563
-0.6506714208416317
-0.342510116851908
0.6286214850269123
0.43081929922863427
0.922982119578853
0.3957447686318459
0.13927951243138953
-0.1967020025046946
0.4547685122804838
0.8870018169201529
0.22712122251483569
0.9674347318543198
1.2546215317169633
-0.426925206295741
-0.15968570197963441
0.1572635691551584
-0.2207638210618248
1.198644533530053
0.385265134325112
-0.8821724009521299
0.6811713003561424
0.15379658182321915
0.0877629780094177
0.7601780176078885
-0.4619281038280035
-0.6807178252540487
0.07641696308559365
0.5302235574373249
0.7506895370231669
0.18412018982228218
-0.16930560039987416
1.2473553229529273
0.03629886307727404
-0.16177439976190874
-0.29608597841263495
0.5178422978513416
0.14545759617591464
0.20787499728396894
0.4828784996331188
-0.8151207311514982
0.03378698574765945
0.39646521961563225
-0.39793076401534827
-0.516625146419947
-0.5484733668991502
-0.03478870725086362
-0.0034500325404143535
-0.3556609947180713
0.2370715767539326
-0.029605634482612827
0.17842642214009882
-0.25849663479829765
0.002872136504220085
-0.011503606300210054
-0.34465455932555833
-0.8071882008496465
0.20710536339685354
0.5389847514680738
-0.2265727914780673
-0.3623998592051544
-0.7474334212171514
-0.26575187573342224
0.2768794880698171
0.6721638318383465
-0.43323519724548065
-0.4398545123057545
-0.5010827863538857
0.23490570839398248
-0.13580357266942963
0.3630160881086747
0.612228249113652
-0.6588673425141982
-0.7350908246650019
0.38982420375102667
-0.04787993764162936
-0.032380224910695525
-0.007132983164369493
-0.10701832798529727
0.3866781292124516
0.31392072599740783
0.33623759782442886
-0.3115591268081119
0.42949545014246554
0.4193843761611619
-0.35617160485491095
-0.0733891209630262
-0.35327357584729335
0.10719253598935474
0.20175133570534018
-0.5352173400830922
0.29274445499160795
-0.5867440355023529
0.6792755299970623
0.48170748045819306
0.11206694228739823
-0.21260761653671612
-0.4647471676795487
0.29508023560076785
0.3608086245055823
0.19189671634787397
-0.5914566240718545
0.35155038823961043
-0.7072649397625269
-0.42074374416785454
0.6231518928035679
0.3502471221380811
-0.5483091225723425
-0.08781808011514748
0.17187068489915924
0.2751418552511754
-0.5548613734685803
-0.06165906928237269
-0.0705676675067238
-0.06923727939509967
0.4532155921333557
-0.7565352522832886
-0.84581804339429
-0.3608106510572949
-0.11904518035177733
-0.08685131917216662
-0.4028040268094336
-0.39465967744309455
-0.33778359475769926
-0.34074641974537534
-0.2605883891187906
0.4997224715226768
4.086927747840376
-1.5843967720837742
0.2915046192728581
0.22020209599742388
-0.47086444189855287
-0.39554882563203614
0.19710414505285948
-1.3763595419085357
0.4591941340263445
-0.3189177199808864
0.4694152023347269
0.5048115376055528
-1.13279128386443
0.14494620724170426
-0.27804941825269014
0.12183404531297676
0.5542691066698526
0.6445590011273978
-0.3927922966244091
-0.31993356398287476
-0.24699127427883732
-0.08098373057650339
0.3922909566483388
1.0969603645609387
0.1513014190568113
0.5962180677378761
-0.07027033821742582
0.49898473273913757
0.8568328876679154
0.37933408112132533
0.6760913467416355
0.40041870316037764
0.36649867332034364
-0.20178298185507385
0.34037174901006295
0.26205843794311817
0.1255827002793941
0.8087145765649972
0.39341003709674965
-0.12372179194329262
0.7601776754024323
0.418029455250648
-0.41450676654989244
0.13380124990166128
-0.0314184609790002
0.15886930870033358
-0.6378008482731494
1.0956366725388873
0.3165519320667213
-0.2490085664677959
0.9140043129754851
0.32824980832474054
0.6831560192877207
-0.1889505774371107
-0.32941754783857086
-0.3195625492564263
-0.2844947176312174
0.1212844732104476
0.890902195319111
-0.2046330643117076
-0.3676239643180042
-0.5543264767094704
-0.4782938150577087
-0.260229553443483
-0.4963055455959613
-0.36467073701522834
0.5812244491694026
-0.17518159362058938
0.498280205084748
0.39744120493265994
-0.7920592119476796
0.5443448327720393
1.2449737025539185
-0.6637436522448401
-0.5363208583297819
0.04513066274422059
-0.003096899898147849
-0.37339993572638136
1.4222853651494647
-0.012085088992131777
0.2109493240178636
0.6321400511906722
0.1555987285357233
-0.8512361533569165
0.5046023507864232
-0.546288452500523
0.4821814445808934
-0.4886080052339037
0.8521857711643381
0.6428303976793511
0.07714811562460619
-0.3351907136127955
0.08741743267158285
-0.4914073046579195
0.11249522621130317
0.14091660216743673
-0.3100830937735759
0.8449402446546127
-0.39543911161725026
-0.33065462993509365
0.6175887906881762
-0.25359689818081055
-0.28568912001326763
-0.41698155082166494
0.24728192017198403
-0.3827785029869333
0.38990279503715625
-0.029880441402869117
-0.6267430981900765
0.33392989219653296
-0.48265056704203496
-0.23098501340711253
0.11493116523605595
0.5738161612760526
-0.017108094178959
1.4282426698577513
0.16307111495566545
-0.4072089977963487
0.18588880974215136
0.31374556809049836
-0.21195835373001534
0.39344439188711045
0.7310591059697101
-0.7863572916034531
-0.1523535066572831
0.19849561180427888
0.29844756423719787
1.2875167261727878
0.5726543117140795
-0.51490894132373
0.3890691097790934
-1.1650810851362892
-1.0892294704574252
0.4527847383608117
-0.1626549286227566
0.13677291306870956
-0.37176852517536874
0.19566104763285863
0.6169278834212798
0.044400099142084724
0.2273705555532664
0.26719372437316813
-0.2523554074460735
-0.21011646680373436
1.112238366480052
-0.03094929068794858
0.3194669579125262
-0.802763401627268
-0.9135231400958933
0.2694867360784478
0.5943791506718207
0.5631791965964065
-0.05169775924626587
-0.4795900692411933
-0.20764069331930574
0.16578393661846202
0.24816893960860575
-0.09873828520919756
0.23535194224613162
0.564505795902067
0.23686094438967797
-0.2734917476705566
0.15578052975594317
0.4208055441707425
-0.6456430121886185
-0.6799577934534654
0.5614590089765175
0.5377936178445409
-0.44384839154844635
-0.44603190045122554
-0.6469613234125049
0.12362773026382708
-0.3722464265197632
-0.37185117287561303
-0.05411876256665921
-0.2128100826678932
-1.1963649323201273
-1.1304386484280948
-0.35174915253801387
-0.9320250608982323
-0.5694274929389633
-0.3478121658530724
-0.5128698834047899
0.07259553083780382
-0.5190341788753686
0.27782751561561153
-0.48550338732994053
-0.17935102499971048
0.8556213798882376
-0.22162508431441638
0.4638361373754157
-0.3049301088059598
0.367440657034955
-0.10660947972527543
0.5725619732386203
0.3969505476263164
-0.06476309484100476
0.011176354588656573
1.7180661362921656
-2.3101767103686544
0.15718104696448823
0.033684678600274354
0.1375460764044856
-0.7164758186880793
1.0946373569427654
-0.02678563687758305
0.5316753796123069
0.17761718530113266
-0.16229410369493405
-0.1122007412918207
0.02823072309070547
-0.6797782023311357
0.7061999051483996
0.04214090771277262
0.24003386455877815
0.9205378706578613
0.41884292166847054
0.04036341838934365
0.3253331653971313
0.9219726293568344
-0.11633351690923012
0.9849251749324657
0.06757401124353894
0.2180040340561359
-0.4293336071581235
0.7842226387052715
0.20572909432243827
-0.007366554724436917
0.8136396587255122
-0.5474748331847644
0.6120020855876938
0.5805049836547811
0.9378860283907178
-0.1710548463928232
-0.3424751960508324
0.21287030058635983
-0.6627495600943575
-0.5057225222927092
0.4037877228407465
0.30063510743812116
0.25082793464235664
-0.643190333991631
1.0342351178975204
1.0145011641355213
0.6313334128021788
0.2472494278033766
-0.010425098059094787
-0.23900777626632771
-0.25843875661133253
-0.08975700863740799
-0.059632892538621786
0.28755156731800413
0.040963722105343665
-0.12103957702359947
0.09176136340966486
-0.4918849367985125
-0.08728909776985688
-0.7431272088830851
0.36221760276300136
0.1644300264400651
0.16915984245219196
-0.008993917211418422
1.219501479496081
0.21415537410519597
0.5588574421400824
-0.02931395203869345
0.8550034022425107
0.07017665903835506
0.2570675591160423
0.12526288376487135
1.2853552706384812
-0.20731939153781426
0.49022185992343215
0.1487956719774402
-0.6818018208377568
0.1835714237214116
-0.18975957183294886
-0.8649008674150092
-0.7773945766926207
0.8201556372059319
-0.4317035049830023
0.4988666866090505
-0.016645787763938685
-1.0244923430347623
-0.10720818555906957
-0.9675072131040542
0.46799164748098865
-0.4977806373391325
0.30682994979975386
0.5264022545218837
-0.7219023771124279
0.06162793039948833
0.4247514917847747
0.03521714240881617
0.8291855360464091
0.005904385669642365
0.3651277742456026
-0.7960015003446966
0.6175199707886965
-0.35358645411904494
0.9632773725360455
0.1425142198351356
-0.887221622796381
-0.40585209874888856
0.5962304994163447
0.13977862550316592
0.3227758014488145
-1.201576312904953
-0.06579849752096123
-0.4006801879759041
0.2077406593192106
-0.10640611185531519
0.07353156271652393
0.7378005645083439
-0.3331207675803322
0.587684591167273
-0.3373568458506191
0.006864617437024703
0.06943766066221771
0.10821072288855066
0.6391669286447431
0.2911236570338422
0.6528880766519516
-0.473358218726319
-0.023435008567438433
-0.0040001504660182536
0.960883719676612
0.04473236254144478
0.2623208557597992
1.183630757084814
-1.154335193394089
-0.25228458336321663
-0.8934867672262219
0.3011344851924103
0.5401436877932414
-0.26799633428328284
-0.9514665903908847
-1.6275083175520073
0.29938983617014864
-0.5076143288497432
0.3774426859306133
-0.2794115987569196
-0.7680029611370458
-0.21441181277704618
-0.36695141644787777
0.5842064761606024
1.6805333578379253
-0.3758768363310595
0.6929118955201582
0.19014114312873162
0.2796329915861041
0.5127160907391676
-0.8018222553451507
0.4740137158746937
-1.7327882592125985
-1.0859114778418457
0.2919771716448607
-0.038238082894963304
-0.10848003712332523
-0.35657954667959074
0.5633299734225978
1.3220541033147275E-4
-0.14302928956891506
0.4894753869681189
0.42647523593767955
-0.04032068133660145
0.15110243090436512
-0.5110455607354185
-0.12350957165508253
-0.3189838999139568
-0.8333908784734164
0.3363943649723394
-0.26527838240689744
-0.9099432960661763
-0.7822769883306955
-0.8362488297089499
0.09874913048715037
-0.06561434123261797
0.9407148300315589
-0.5250906002571788
-0.3634554220453713
-0.061602968095395665
0.7605317650414929
-1.0095503585706826
-0.4001483556378744
-1.0367649012723532
-0.423140835234912
-0.5953992817792954
-0.6908380962922149
0.44182005174270994
-0.9845818400343769
1.142065395211318
-0.7094209130372428
0.6682601226888729
0.6206766807572984
0.521650018566593
3.179222973770732
-3.7416370664866694
0.8426787990066903
-0.65357097750542
1.528434542775996
1.18596971575831
1.5886666643614464
1.3822146057798472
0.30496216733145043
0.05999622336577641
-0.3264049205469114
-0.08522237584664466
0.06072328338719882
0.04581732617815344
-0.7542122292443202
-0.5695035287459574
0.8041097636203746
-0.1163077902561497
0.5413775933905192
0.6147136969352032
1.328332350800326
0.7904893458361456
-0.43943749706748403
0.2410277182925604
0.6427351724068382
-0.8653525418741754
1.0089394762030985
0.12166341119298377
0.09062985670544901
0.034002342336583224
-0.058380189509607085
-0.0518092457953229
-0.21069351541851516
1.1225673415906758
0.3050278649346279
1.6377504929818196
0.4948049270850847
0.7149561951298562
0.014259073792571542
1.6485716723480057
-0.522830332753553
-0.0018852978301775478
0.3165010771913535
-0.43633583359390715
-0.5821115801338208
0.6648891233323504
0.30440214338677557
0.7877184403995612
-0.046028716027781004
0.4494417952430314
0.6275789361811311
0.6737252218948341
-0.08327257146113483
0.59425445831861
-0.2213321077887916
-0.07232331803869163
-0.24725440321321757
-1.1753946377639988
-0.6178358667089835
0.8723912806006454
-0.07256183775383294
0.06673375857221571
0.20502379304632057
-0.18781535181411024
-0.07232386073456168
0.11598566116723033
0.1630771720985152
-0.05612237692526256
-0.40440626128468754
-0.05940715283669569
-1.2998882498199247
-0.2050925236869704
-0.4126758514601663
1.0160693623747081
0.21181063533516484
0.07629113324267482
-0.05807609116900837
0.12747047314418106
-0.1537615387352503
-0.054764750764261946
0.48616596543609647
0.3412022397625507
-1.1810943937853173
0.3032795113001468
-0.8807178352310185
0.1642195573289835
0.76749262130975
0.6626335936869627
0.26157426663630134
0.5423379550098627
0.7333803814021433
-0.30506668134574605
-0.08010398861298229
0.7008359252576863
0.3960125377388546
0.28029452856100767
0.1942924249577448
-0.8476538860426575
-0.2941073443649298
0.519494824213808
-0.9334628796607126
0.04304147591939663
0.512734058688345
-1.0187407033497953
-0.7816302662427121
0.2808554071470093
0.45152618258385574
-0.3138237687003248
-0.9020283150101354
-0.04025724294297449
-0.3029898803979074
-0.6131187901499685
-0.6904321089033391
-0.3975561961400171
-0.7597812023214634
-0.8870718594184568
0.16253750648782847
0.16646877408579266
-0.34926343046186215
0.33819907807429567
0.7980942561008799
-0.1456607149044332
0.8316149735032705
0.15742762722751497
0.0591245742946585
-0.5340699736009376
0.18933213375106156
0.05578854333022861
-0.2177097415497146
0.3185000264356838
-0.13653297860500183
0.2096508314641938
0.7504016296976868
0.17190229622891107
0.5221857729160754
0.6747879506753623
0.0801558254798796
-0.13452140579476426
1.1046989417818724
0.27181111280618186
-0.7456889555360133
0.08289027963535926
0.2765886164266137
0.49705051837014164
0.9978214356294075
0.2662362563321554
0.5870275354028318
0.5487855630669425
0.8876441612072115
-0.1065533628054851
-0.7966755042517818
-0.8980839001317024
-0.05038160698924251
-0.6742156733927283
0.45101089792949717
0.2779357064452667
0.043198294074134704
-0.2714213997288247
0.020920784788719275
0.8356743460942367
0.9100625826163955
-0.7343305232680847
-0.5320397159190723
-0.35421937070951137
-0.42215452150321886
-0.10241666536421447
0.42955062680189043
-0.47370387872595454
0.8625779026014379
0.1916901838278496
0.047898538441650235
0.15225211473296946
-0.07084458079849255
0.32917609410704035
0.7412743821923035
0.741857610947712
0.9196372104146684
-0.9856537214038007
-0.5533165942842253
-0.7730382200701718
0.1599264690613876
0.10628718606431481
0.2745032137735157
-0.007082032298725838
-0.10758774807013359
-0.04342849059013051
0.48851237282970644
0.27234967169324437
-0.06930479373824164
-0.9476441335878603
0.27006894626444233
0.0443873485921863
0.4524580454063097
-0.14437788135122823
0.559515388179894
-0.31234087605718824
-0.5205857267689372
0.8691069982013511
1.7464480278700143
-0.6793333192839376
0.7590885139351142
-0.02299535091647972
0.4637913723382262
0.25657063945605285
-1.1063892394646535
-1.5177394060768952
0.12347255942794434
-0.342192505060807
0.022338258470662627
0.1579085279618153
-0.21908527515751322
0.6272686295347958
0.06536700039708436
1.2584229006036156
1.6908537499122305
-0.15216175649177272
-0.5338867671415714
0.6530283402758443
-0.5921250318914273
0.48961202491732553
-0.33688792284210517
0.14931192104614624
-0.060131086967419554
0.02804362001129436
0.4371913038239584
0.6136716404386244
-0.04500814670083288
-0.142818996359418
-1.0724815318525474
0.32686683668457484
0.957393464914982
-0.2532962216166251
0.9383930911248468
0.47900028075449574
1.3998808825028681
-0.14002266566297078
0.21644414572956777
1.0220539259552193
0.09496593723734524
0.8702087889067318
-0.28340857867628627
-0.9076108328481904
0.7396200010930978
-0.3438304966274277
0.17878651318353833
1.0355271211399053
0.5087472521332338
-0.6395612104060305
0.9526663757010291
0.7068459178474796
-0.5649498780412264
-0.0566752155024609
-0.6497482386932053
-0.024095619726822948
0.4519035250344851
0.6983875442737857
-0.7070608211412941
-0.3873244360650168
-0.8368989745339221
-0.08144997069342953
0.7384868948127367
0.7035616604204887
-0.4590117015999319
0.8934113318914078
-0.1401514618871303
0.08635067566900256
-0.37094951978939156
-0.7260316973360212
-0.8754919882358335
0.8826095461110773
0.3746041739788654
-0.8633672094463619
0.4018178060376357
0.21507319414291176
0.3692154134044518
-1.2993436183447624
-0.9372289173267344
-0.8577949464938514
-0.3049813152884324
0.3740357684315668
0.22762653258193452
0.03689851572822481
0.5166434972124708
-0.41977456872571045
-0.003996967755901688
-0.46647893783994737
0.11684348132830852
0.6413005726442431
0.5420410168511902
-0.6114043550127272
-0.40579233487689553
1.0321114289671602
0.2304313112761337
-0.09493855161546166
1.0639986054377402
1.8598108096793025
-0.2077539297394278
0.1553966289918352
-0.5310219723698767
-0.004816563363291926
-0.3699982129439851
-0.16860066789410916
-0.2986779153817716
0.7809225520785453
0.1995762892010895
0.8325189333504969
-0.4983898135985319
0.9632501189701551
-0.200221130649387
-0.3504582425927317
-0.5492280954700794
0.5062570048946152
-0.18398823994451496
0.22118910400967895
-0.3996827957619366
0.005431881006460873
-0.25064231084682875
0.48314965988640096
0.40354210702115917
0.4713655913602096
0.11902832723043519
-0.2186362885980813
-0.3952261766428111
-0.1731884052183309
0.3352237854038662
1.9848388282455862
0.10045009453348965
0.1791402183896702
0.1382172531409737
1.1824041509037
0.964997514588374
-0.3065018077922695
-0.8405476095049789
-1.9944765031022336
-1.8441545306518443
-0.08208924961191029
-0.08657720009329813
-0.8020678719440323
-0.40386548882441037
0.04994223004388204
0.19347072764665602
0.43205556043905124
-0.21814682073944425
-1.405570188110093
-1.661586307365147
-0.2259339554870565
-1.4514284723666893
0.2811857818922707
0.20599466590418886
0.8584463204236658
0.23393590572280962
0.8927328591261935
-0.23607761138704655
-0.6010850984101901
-0.5269125997371813
0.5632191409888058
1.2249404175103038
-0.726402390201245
-0.6654144453302417
-0.13711668878892475
-0.747455265937136
0.2225320211516129
0.39852488545762677
-0.4983563459420319
-0.5327093705700747
0.4803438450621645
0.24804016263522963
-1.817403928827498
-0.34412869407672364
-1.1106293750891985
0.09774020837765153
1.0693353470666296
-1.207836023672962
-0.7062410218540424
-0.06838344126850968
-0.7566407876043512
-0.7388615143821392
0.4313263695177912
-0.4675396409688091
0.2977356121755087
-0.09979748270239476
-0.20083278813995298
0.5116613955850914
-1.149956486384223
-0.45523127200724256
-0.8913415305027603
-0.08849800487797498
-0.3828624953768788
-1.1021001111756292
0.26252513721742987
0.6766340750375428
-0.6043200016210949
-0.273649074502305
0.14732263362603246
-0.7068429818569875
0.022515768967084016
4.367455606631036
-3.1455582693504316
-0.29046990128551226
0.137846564504508
0.9070198973326632
0.5359769712823197
-0.6983143183256821
0.8264978873309134
-0.047511693497997845
0.18705423127580212
0.561517460458959
0.06698038945747684
1.2328868597086946
1.0110906829750628
-0.20578348054173745
-0.8061861685074427
1.0597305321914192
-0.9904605456515738
-0.3658944023367353
0.4231624098743242
-0.7048147546782969
1.5544787626881982
0.3550748954683511
0.22013168453213092
0.802014193477769
-0.23018112595086407
-0.6499660292020182
0.534992262121892
0.5714250612464887
0.7110884828408329
-0.2946693319408162
0.8893799271756684
-0.7497348852178054
-0.1736147814025961
-0.03254115395706322
0.17424133533833283
-0.49527937916898923
0.793851688425003
0.014320824498020806
0.34520822563094383
2.062833328691267
0.4071828661615751
0.11968049643762856
-0.05121437018366177
-0.1348230868632624
0.29118721334146747
-0.31657749146578923
0.2766468367408387
0.8505377406643304
0.031022877809984795
-0.48016689097391013
0.6728668425275366
-0.36724754560829054
-1.1642420390527013
-0.13372305230521878
-0.29835715665192225
-0.549834491268689
0.5176962305545157
-0.24944852880501664
1.0634794147497182
0.5188790680003279
-0.11459057872348355
-0.1143563931565263
0.03334185934260757
-0.9278824358227062
0.8271311393804245
-0.4889689616271723
0.2604233771460997
-0.7009983322075033
-0.002858115607734963
1.5342991771033263
-0.261739414204388
-0.47035042278883105
0.1713610576700733
0.6140921705669958
0.07418906998593726
-0.04396645390217249
1.3682636378126858
-0.565709674615491
1.0111389606175707
-0.06527256666805016
-1.1399876128038338
-0.12377517688976898
-0.5645600783626095
-0.6220512124300024
0.5951439825447897
0.19620128211192253
-1.8221231321222362
0.52967100796157
-0.7144979721586087
0.1480605126458452
-0.09316842725595212
-0.023476254060572365
1.1272320533903324
0.37783540923263464
0.05092190219423854
0.3654415405075772
1.2649755564049265
0.19831846389455524
-0.4567958364245698
0.09294567339386055
1.404079902666069
1.578195142316267
0.6071924337135072
-0.21271334450295307
0.2960356688758172
0.7282186740799631
-0.6579679309282699
-1.6736872733422214
1.2846086069868272
-0.3819999140364619
-0.8935002928613263
-0.5326009189000536
-0.2536250842105115
0.43769944195717103
0.6187336398379427
-0.8602444108221451
-0.6029101010254545
-1.2334876725869728
0.10013646894710569
0.5481282050892567
0.2567738232309977
0.9912051337021587
0.19262684604244626
-0.33267000875050146
-0.36280216808131477
0.10857797278373511
-0.2598958812570609
-0.9823755578512963
-0.7224147014797173
-0.5910819055327805
0.32270733808030094
-0.5066645813924027
0.4296826642136814
-0.11762536166007352
-0.31815479233987753
0.3589875716396888
0.6051641461452039
0.24382869149980388
-0.09592635684247335
-0.0700246091332587
0.6531414314016045
-1.5493717074172089
0.10879274936446641
-0.23679389755436836
0.13423663054157553
0.2576506416741636
0.5090638666289596
-0.6281664435080027
-0.7924911185285554
-0.793135190417486
0.7607208037076489
-0.2650051686597367
-0.529163900367586
-0.7510861094446667
0.11704228357050168
-0.012392943788132226
0.3342881760709907
-0.08123791385302032
1.3373379794016047
0.3485083860479831
-0.5160424894517128
-1.0865269756653055
1.3551703332692497
-0.6856543931134642
0.0314087571939748
-0.6108114039017115
-0.38732537605919326
-0.16022472327764195
-0.6704084022778576
0.3807898241484573
-0.5652982483749864
-0.5973968318497703
-0.1645211538825707
-1.1864775012044497
-0.1694490351504805
-0.7271883350899031
0.09371372656881331
0.21857052010490466
0.7126426495696861
0.2779538825753265
0.049799260795619936
0.0013423951925736692
0.038343091529113645
0.5368201188742625
0.15561281208275413
-1.4012987140600892
-1.0732421447774154
-1.4665013064545678
-0.009642821829161714
-0.9429120082631394
0.5110479746764983
-0.836280470716923
0.007988630981189678
0.3342386850313376
1.8925482845906607
-0.4423190670054144
0.37045008805414525
1.0797070213486597
-5.233294121520404
1.010381634296749
-1.0340561836447255
0.7335323023540545
0.6481367819476516
0.4350259183603238
-0.5539947415368239
1.249322594680405
-0.5777053970840992
0.6519137398664604
0.12486528280392148
0.7827468803717124
0.05516940073533145
0.7462998444534032
0.13307462990991678
-1.2406027076797903
0.2848708642733146
-0.5332172593094563
-0.6458213540569736
0.2007090258742177
0.3707043876385781
0.44112896997976275
0.3580324731662998
0.6645800385325744
-0.06626261841175121
0.540925292401578
0.15672194556989152
0.534873132093771
0.18315298492652946
0.23026917564555904
0.8806233973486967
0.7436155204254609
0.16060575770192567
-0.6509215108585418
-0.5570138452414811
-0.8197266062156341
-0.4221408288697851
0.10831941837315281
-0.10572062834502026
-1.506234875695164
-0.15577335093848216
0.5381707080564883
-0.21192354896236443
0.5785637151065749
-0.6255418372500724
0.7285320077610183
-0.5585190850913087
1.1035991234685705
-0.26848046547923987
0.2468305290257506
-0.4475557968753932
-0.46196267116614953
0.6628547051741268
1.1890807321869397
0.24898133711430712
-0.9844392364116786
0.4034278897823589
-0.04324343268102081
0.2273648520884619
-0.5839428988613794
1.1578273092201652
0.8036915693374083
-0.02442098376315481
0.975613883578406
-0.3492381079419577
-0.03227662725604377
-0.33321337167780407
-0.10684404272489448
1.1333227004519841
-0.41319133875793324
-0.12013958245832222
1.7305485417878956
0.8481055286565491
0.3555609019674287
0.36953457112388166
1.4992295124350685
-0.3053681768911325
0.5039949022553736
0.020860062778818148
-0.17332761785746603
-0.15229075501389291
0.2297533564491258
1.1813980116473892
1.3123495564633794
-0.2124163767083356
-0.6771253361443248
-0.9914336283903947
0.07724468435514052
-0.3744129546337124
0.5095756784626218
-0.5281073543946432
-0.5157018453752085
0.43802822431019056
-0.025713087613438976
-0.5570142222737933
1.3329232572964653
0.13325782511336992
-0.1562169164119956
-1.4253079976604752
-0.30199471046895837
0.9982249126862202
-0.8367452256606045
0.9200103346110837
-0.01128723565669433
-0.24960752689097368
0.6019343135727189
-0.08107250234998829
-0.12376467757847943
-0.14729135809451943
-0.3350287062433658
-0.2599746076656289
1.0614777449049533
-0.027728369608015793
-0.5315617186719623
-0.25586231009289223
-0.6147236198729292
-1.1015881899672573
-0.38833725544007425
-0.2874060181715241
-1.4545997188962791
-1.1812320795909477
0.04402087823789766
1.1436135396548694
-0.4573110715435043
0.8107590118493926
-0.7925118398800512
-0.1199192892942315
0.08337387873946216
0.9160649008235506
-0.12709109132594557
0.1082742800037563
0.3799373564952593
-1.8909372760096077
-0.9241074586207175
-0.4808037689339218
0.007356236680887999
-0.28408511017556354
0.146013943875291
0.6141015144036395
-0.7428553678804571
-0.4122312306878943
-0.27312443166930994
-0.1673494790948195
-0.7612891622764392
-0.6054246429701027
0.2469788357941862
-0.536216219839812
-0.9521204701116803
-0.48227505070111265
-0.1685202705782325
0.7799814942925445
-1.2855661092608055
-0.9144577382920042
-0.08926630868409514
-0.34472611281805066
0.7203218609609953
0.2971269511765414
0.3669825811800488
-0.7332977445148556
0.5443524721221326
0.05537612991768047
-0.922252685184865
-0.6885982981240928
0.19341255073710117
-0.18125589481870066
-1.044134891480102
-1.5492362168505374
0.10850760647335782
0.32442755667016965
0.34489235121045
0.31954026909543637
-0.07032486578032487
-1.1221805778907825
-0.7500056681774078
0.3144017598731129
-0.638678214100461
0.090120129592989
0.5957595174121115
-1.022462643148429
-0.29875556426196476
-0.0074172771345591935
-1.653015859578387
0.6155828353810303
0.8150083028768431
0.3113780126023853
-1.0780079555321225
-0.7927204396656771
0.12170531584044489
1.477181377000571
-0.372781161742999
-1.3816566240173427
0.4643288663407134
-0.6087969207444692
-0.5380199613174997
-0.3512835760637885
0.2979536546557193
1.2581558275666795
1.690472323967678
-1.609843797260849
-0.2608536790375637
0.11779848830655176
0.35802980339838963
-1.1673561895441145
0.655627676093138
1.1847451676410818
0.6668944866949837
-0.18859507181329913
-0.23963141657709477
0.44013585090730933
0.412232195024248
0.8670221428723337
0.1360824542745912
-0.15714669667930564
0.6440407598633296
0.7243588220411492
1.344283857897499
0.5304499284597602
-0.4018954684722374
0.022067454291996608
1.1722247402915251
0.8937316877095104
-0.26640047498332337
0.5395831632716229
0.25913162189981886
-0.0372491982675521
-0.0625252876987107
1.532073385244567
0.995521900208673
-0.01910127688460386
1.0173709950255916
-0.6992052989418077
1.1170939650882026
-0.9637257601496649
0.0035023957593654535
-1.0742997596018264
-0.1527733014859836
0.006578450982595621
0.6249060726457946
1.1315992510093396
1.2465195407096044
0.4610132342677636
-0.23537371456358872
1.0679139969141178
0.3848916990680683
-1.791023628839434
0.12398926306720395
-0.8085302557460278
0.22678619118289128
0.09526329724608522
1.0777134822018446
0.8992792377611996
-0.20317621496139873
0.7002514832459313
-0.41134546762162005
-0.9146874241056796
0.7560881641594498
0.9569566806840812
-0.10102891285569789
-0.15501616603456808
0.7911478253397175
-0.08038215878096254
-0.5553531658766911
-0.2999446787224227
-0.320281839122683
0.063544729279543
-0.5080429270887872
0.1006466873765178
-0.12337959627504673
0.09405588621882631
-0.1883085340090415
-0.3009005418610989
0.5547702957350533
0.0910458746218408
1.6656003029671616
0.8309392006402024
-0.5303272394374253
0.8559857317831795
0.9178697961685477
-0.25858493109221525
0.7828563499162156
0.29179762469976445
-0.466221522225124
-0.3227200857710966
-0.7053184359670914
-0.8515554741511012
0.44315102366256437
0.9315569294242564
-0.4062520983674277
0.5034764554519943
-0.11052417945007324
-0.5795932278667849
-0.6837040110820806
0.570745638449573
-0.2502520838732378
0.02290918885409769
-0.2502056401354237
0.34306357557771555
0.29793176784513486
0.8423383080797402
-0.28999764411293294
0.8331273992266598
-0.09084579484819666
-0.8730736667213096
-0.05543668055951843
-0.2818047354400406
0.46624041758903567
-0.5437592164464656
-0.12344084779889948
1.1215407896555483
0.8214561219615683
1.1807230982310721
-0.15104325909431926
-1.019004951091217
-0.8167432697731537
0.9417060447871498
0.2326560757144979
0.1270486001688309
-1.5425985387219858
-0.6605753112517205
0.4099757584266103
-0.31821200269987493
-0.7183959998942134
-1.110823338790685
-0.744873483915902
0.9760941428755516
1.3836600082638568
1.084983847424955
0.25901997838558694
0.053389155614590116
0.6072208014935193
0.2566839369940732
-0.1369543924007205
0.09453882930701059
1.0372451418517408
0.6050515458105719
0.9354316236076468
0.2542077407794015
-0.030763933721818456
-0.22615719019908445
-0.11213101243929499
0.012842972934087597
0.05370404536002694
-0.41883675712377005
-0.1295883456681055
0.23745217831362486
-0.8660795311569488
-0.546353861027372
0.3028918070752335
-0.31184128702275393
0.45298406250956536
-0.6278093298216986
-0.5909475437348033
1.0997087139737187
0.586270092264156
-1.3969887884623247
-0.3631414819634147
0.09829407766614547
-0.017290896406574937
-0.06928332501606399
-1.1082795026679777
0.4452194308644929
0.9460362931755212
0.3064760983490728
0.3103336805200228
0.7289063040800611
0.33093804671992044
-0.5672946715624655
0.2543465836531513
-0.7220588449310701
-0.25632915111970067
0.6236913925485328
0.8191708847377512
-0.13878315285619336
-0.1351831867204556
-0.6179541483923544
0.02977378673594246
-1.197742228346216
0.18149266854601226
1.173135334171609
0.43122548183681914
-0.28474363269042097
-0.5504323492109013
-0.13382953306413575
-0.018515795144425497
-0.15387935079981516
-1.1008138025860383
-1.0014552195112145
0.9705342110497671
0.20725611635906901
0.2561651448759743
0.06838881870053201
0.9799601720651007
-1.0660660894193361
-0.5977652702870264
0.4680191502360078
1.5516949397651445
-0.014589606609026709
0.42917673661083766
0.27001190931996605
0.06786299260741428
0.7284387214525772
0.17345858977710416
1.5268080241941122
-0.6773075326199437
0.24436677757012978
0.2981607426359432
0.5841382707776653
-0.1295791949937712
-0.977563749851886
-0.6146626726068516
-0.8399124198073832
0.03760610557372325
0.0011836696638789978
0.19307270472033877
-0.0757934792829634
-0.10031098496740692
1.407069703863132
-0.11006176472189437
1.0238407238003562
0.3559603201167014
0.25123560327897554
1.0559064643334044
0.9940717083413382
0.9743203390240707
-0.2973099350720911
-0.5727305497917164
-0.4346547279237753
-0.05156349402588123
-0.7314950818450794
-0.5358358666112404
0.5384584193252322
0.952419396698324
-1.112638652464181
0.601648780099673
0.7792274559479473
0.47787440711296475
0.9263116308369557
-0.42562984748190424
0.5846098173094817
0.11425489881320625
-0.387256608982306
-0.4292299667438618
1.6030714139337972
-1.2959764037558965
1.1911306428411594
1.1042461582245573
0.23871951682198805
1.2185645365037452
-0.10713347349624498
-0.44063974394125505
-0.6213456467990591
0.13652639582406612
1.2609108409233503
-0.12224147310687274
-0.2555458303617214
-0.4967654791533434
-0.1478552714010148
0.2479243126635964
0.8567718854402688
0.5760567640585188
1.1496901771895096
-0.14760595367740714
-0.0238038712980119
-0.3141937316880774
0.07169650136979225
0.04875383109638602
1.190681220572195
-0.8929629691421686
0.4478055304992004
0.31740096095694037
-0.15236788700659556
-0.9246794359463834
1.0904546972696991
-0.07851451766296169
-0.08477281592488557
0.9289260784502299
0.572642679680211
2.3110160733331684
0.009144131599424099
-0.16352576623847817
0.04443707865577082
0.1396550180219168
-0.08633941872944746
1.2253199479110874
-0.4670797267421074
0.6612340709698123
0.6684373398363871
0.28589162966101844
-0.3919809233481743
-0.42040846190007863
-1.2910719807799669
0.9652231077177809
-0.900783729161758
-0.43750999967891396
0.07938341793354281
-0.16629446543208204
-0.26229029705567797
-1.3136893586059377
0.18511261755195152
-0.6543031006498826
0.9202458641513829
0.4775268931373125
0.7883283739003824
0.2823826547970563
0.608261951697344
-0.298227921345853
1.6485671086742886
0.5728510494280797
0.4140141499141811
0.5583270773363824
-0.2645942346986066
1.9497772062038459
-0.07501234905741068
0.6727702074398203
-0.002846803802714241
-0.38103633850238705
0.4263986279880884
-0.5545716201986323
1.3153538511393361
-1.2781414703553038
1.5880546570049492
0.5645705595822738
0.23968074186380586
-0.46263502728272893
-1.9817818704018149
1.0492308149121587
1.4340803571997949
-0.6729324362510212
0.9390465565550226
0.3247545242068398
0.4007289488609061
1.0068145613814983
-0.45817975522043725
-1.123053675877847
-0.08512030766289791
-0.18613262340741807
0.683157203080013
-1.4465556765753385
0.08688522955058167
-0.24272419651833102
0.4629737655386588
-0.22597549446080223
1.0687713290353367
0.21076055453407924
-1.0853301687254864
0.025411847597816055
0.057450684036889535
-1.4869867102416083
-1.4105148508062217
-1.058696442749195
1.2622683366404783
0.5484266068119508
0.6110615100155358
-0.7852436072905501
0.05908118256353687
-0.5318022618465474
-0.4209704937415034
1.0809516161258177
-0.287584045434927
-0.12543712266727558
-0.5507683186940373
1.1097817725763877
0.41699981676076114
-1.1531047502938339
0.2748903823321833
-0.5255235418001556
-1.1495800106434981
1.161937663655607
-0.05971554461362696
0.5084535465882097
-0.006899914028241326
0.5742203529921612
-0.1508213204547152
0.9929330989815935
0.49137898094931487
0.5905990345498727
0.17567833420448462
0.08538462773807225
0.06357982260332701
0.24268281753214613
-0.591149601075341
0.5564118744600822
-0.562317479503668
0.3063755418695955
-0.7911458951152469
0.20516301197056644
-1.2307061393739764
0.515901363692136
0.23940083175518587
0.7327717595107864
-0.3898625380656366
0.40226868307947616
-0.3214484070888506
4.516472508937557
1.0063940276901808
0.054172724810991287
0.9337673446488802
0.5197662948594729
1.6248287235704368
0.48049065621314535
0.8281928617312148
0.29320916171494976
-0.11552996604151308
-0.027386524206140513
-0.11854296860908649
0.4287565896817974
-0.16442222014114846
0.23031873500764574
1.2199858172799136
0.43137548541885185
0.29765067371731746
0.489605580732659
-0.1857087075532393
0.323293122334915
0.8868055441991275
1.6947614751862534
0.9170424608753323
0.9509487241055959
0.8232454727778684
0.7553765540054684
0.40451070300529846
0.3152390905554691
-0.592866703177872
-0.03485328167902406
-1.5902074555105148
-1.0334282141763973
-0.41272594028546367
-1.0184159365242307
-0.05880235965011137
0.5938359119381368
-1.3957595405487127
-0.2618251885193841
0.7452234271839068
0.362727024138692
0.4054968228361699
0.8684615896497574
0.28078564064323674
1.719779871730883
0.22369087681488214
0.3292702469290284
0.18215583088221393
0.5018679806865554
-0.6013077767093651
-0.02484754513106967
0.6578092369819318
-0.41277466397526996
-0.197836623451323
1.5681582906940073
0.28408176754220515
-0.1770112821099142
0.5995358591447839
0.3711838185469475
-0.2852413534439617
1.5677010762453882
0.5414125310893774
-0.11159270085086839
1.408815027281366
0.5375954846796112
2.2662427557489897
0.3028401467251307
0.1308387915665762
-0.7843217744827004
-0.7646095622814766
-0.28525636766517676
0.9463835532762879
-0.6584581223419043
1.5060583259511642
0.6422245327287169
-0.2585217071272775
-0.21003910573677614
-0.18253111874405734
0.6309317090555838
-0.5462779240332677
0.6591221352314754
-0.20654275174866107
-0.02551946549360844
0.7385721731176502
-0.9256046441941522
-0.20595909920824954
0.8359102956267279
-0.24648524801788868
0.6653178852519522
0.17767796260579286
0.030239909817157594
0.6613677086117119
-0.7448457531323375
-0.220125589187276
-0.14432431375534055
0.7575451686212262
-0.9773064929084718
-1.2151398954523167
0.4541708831813194
1.200560022361576
-0.1282341151744058
-0.37789806329157155
-0.07721182968598087
-0.5664037368779798
0.41662581465705745
1.4917497842163114
-0.5967115137099781
-0.17514793515698462
0.38766543805122733
0.6045538916317612
0.8420872230033034
0.6988997206893434
1.377675801218658
0.4495896534471806
-0.3239190862452349
0.39540096385452
-0.9942679958997728
1.1073387326375197
-0.4972658808081323
-0.014199306896912432
0.29527109624958486
1.163222053325728
-0.3859593939606346
0.7183521890134938
-0.7201734664184147
0.4665872651538385
0.282621656481309
-0.18815819598970185
0.8178357763114239
-0.5512456009348706
1.04841569031552
-0.6653788946607331
-0.726999836545141
-0.7180450239507195
-0.05921400206270257
0.057674872764570215
-0.07953739345054918
-0.3578171782202206
-0.9813129525635483
1.4313633907066274
1.0548884286079043
-0.5325096943398686
1.5666899163987196
1.0854682903647799
-0.36791715392950936
0.047498239141398196
0.11840659379238341
-0.36440044034865476
-1.023672789181298
-1.9272775636597068
0.1891078319842577
-0.022419183458458794
-0.8158838719946635
-0.297506293512289
-0.30316916691716794
0.31257404092617885
0.4415481573100343
0.4244470682527725
1.229071506832191
0.06379921960418289
-0.4135521543055236
-0.3576730789169453
0.7138338612934849
-0.5721995111532792
-0.5523046105893951
-0.7992446262630534
0.5221727345081579
0.5191551367609865
-0.7782291570301011
1.0911479231404848
0.04102521315410714
0.26209274651163317
-0.926203639828888
-0.9074054624173037
0.5122563657021031
0.2264724055063476
0.20381176083972408
0.16045925743000838
0.3290632916470776
0.4022691824206458
-0.80566292729478
-0.6470242430978138
-0.3400795272846634
0.4667499078919705
0.33258018934616207
-2.0651157019669566
1.7373679035585483
-0.20089567863990848
0.12646978070121143
-0.4766540981778282
0.6992258288397631
0.48292745689675953
0.2785235182571295
0.20364674069975894
0.7975018355930663
-0.0761778530700927
-0.8548072336056513
-0.5289227431891581
1.881869876174699
-3.9285553489457934
-0.2974257046233503
1.0943735649536461
-0.21126669303355225
1.6892498129036708
0.42784548419409213
-0.1942129874103932
1.4593906658281213
0.5958345801980904
-0.10570900068198628
0.04099077407176382
-0.37458361825236797
0.15701221244229388
0.5589224346109137
-0.9395331685361363
-0.8343661062477742
-0.5183275458798436
1.8695572310525577
0.2651817375996455
1.5446409991384455
1.6155979482960905
0.6464100240703452
-0.16636920839792943
-0.2662948472672268
0.9186700997287334
-1.1066332784999493
0.15455104028222624
-0.08246273778790195
-0.647570203072427
-0.06806002853369278
0.9571285573432915
0.8040457074332447
0.45185973786853645
0.16409662856234636
-0.2781556337004989
-0.1738412604519643
0.46150705566104255
-0.2864415365278063
-0.07759110487592437
-0.7152507225673526
1.1004703519987995
-0.336087302443098
-0.5867151691570768
-1.6513667539378971
0.6926906164152258
0.18074696327196416
-0.4874731611772291
0.5243123495988566
1.7775067071984831
0.011326933977007434
-0.14091009212662034
0.5762125683511391
0.08960252204226074
0.16753728327709147
1.8887340459342787
1.520841881100985
0.42595376500804044
-0.6238788131366327
-0.3201651225942662
1.1946000563362704
-0.2749025334930591
-0.8204758495022938
0.7216168042912362
-0.45701433562549776
0.3620105115402462
0.38808221207545596
0.5840547723624622
0.6448592381404772
1.4569960799881798
1.5914826402325954
-1.0763234680284528
-0.17669948764891769
-0.018145031787016194
-0.11626204826025217
-0.06749617884272507
-0.889379461894868
-1.5524501861780395
1.1780942321679833
-1.5441782043009589
0.04942664001431883
0.3592038103584141
0.18850482461658263
0.13287149191805284
1.0308311126817922
1.2271591010840823
-1.1372229045075888
0.27036284627922214
-0.2637800715664037
-0.5224176206825885
-0.16075513922066426
0.6769773777852095
-0.40914495193448935
0.6440061598134967
-1.318478283596624
-1.1733019459518685
0.8485714354414723
0.567267015732434
0.5423481527341832
0.8419104857761172
-0.9260969440121962
0.45468747496509887
1.594035132215932
-0.3835815458268748
0.2793647416028236
0.646074377950079
0.5323752673453933
-0.045569818722121055
-0.7261088039623685
-0.6778897800247098
-0.6233897002595239
0.4466819395165134
-0.6251731665097701
0.23163017255815058
-0.6135214352989115
-0.670649349036622
0.6570887259237449
-1.7092080113964139
0.058113971618322664
0.32069856843968697
0.44277512995305357
0.35033533172038467
1.2459068198721364
-1.4262747930666992
0.15737725710651726
-0.0722440736643074
-1.9562031182288866
-0.4077524043594181
0.041468266728154485
1.9081365633903489
-0.47773595268415703
0.25232723907817384
0.6804708487354182
-0.11371750828266891
-1.011294351530876
0.022327505717913067
-0.138606954467669
-0.795025287885894
-0.6069203466121904
-0.29825650169406615
-0.2179394015694325
-1.0479105494610115
0.557867492591081
0.05563675231517953
-0.9265710202288907
0.8079511843888443
0.16900655956029145
0.37180296490722536
-0.6510135259756377
-0.01220406539053443
0.14517888018515945
1.1263908402487184
-0.3243702937907674
0.8175107393120709
-0.14802800401630659
-0.3412290630863208
-1.1751007664162292
0.1260846642634695
1.4599224735268879
0.3095977786038886
-0.3671800869809338
-0.14950174447920217
0.3874465407470798
-0.47259778821840154
0.2580019965870426
-1.4198897173606086
0.2762432971041208
0.8531834370755074
-1.7341354539316127
1.2604828591424169
-0.6117466069048061
-0.45909076836273643
-0.6056607756164462
1.3653206209058697
-0.5512980494451577
0.019317109484637187
-0.8259310351199579
0.21078905050752206
0.15777892845170774
-0.7094479790542808
-0.7077946969099226
-1.0697233405989388
-0.16442383367403288
-1.2711999910877092
0.34996299510342577
2.0699912587475477
-0.027560030492935827
-0.6343436180932996
-0.9173736723293434
0.1106584980759169
0.3812271852099023
2.2494579587302073
-1.139991015423879
-0.5476956222488917
-1.5439526640664099
0.024663953229572464
-1.4275533131656895
-0.5685702594285573
2.8404700859845806
-3.4625653841974673
0.6256711745750523
-0.5407632878733226
0.44394028235630917
-0.48968906509187743
0.41662009248559173
1.3626697180771794
1.1381005794456163
0.049818100633565905
0.32036876117457397
-0.327444000939041
0.7740524973933961
1.01708581710344
-0.6581871072062132
1.2476629950120486
0.3011508756311037
1.3381158151132992
0.3545556854896952
0.058959576759014025
0.10685382522927588
1.4954915023570672
-0.2582793886058474
0.5232510774585011
0.6403965840387837
-0.35326950957672165
-0.6566104149136979
-0.3503736355241658
0.31849876740801686
0.23647625676112602
-0.4220368085578586
0.5112146108825341
0.4111337003011
-0.7770143694427074
-0.7258347969041256
0.2758132119853929
-0.026894357100478487
-0.10298241717474756
0.03469656157832964
-0.961388504769471
0.07290292067968511
0.8321496704751118
-0.2560656538958839
-0.018671862274313226
0.4104630692111065
0.429736672257179
1.3418194538089627
-1.724703975796313
0.4017589171111801
-0.7679458602664667
0.37929855360248743
