-0.015183704395700345
-0.02513460054295864
-0.05952083810631025
-0.28891576382224465
0.06258217933887103
0.006320627893674546
2.4546910947721446E-4
2.744551360242237E-4
-0.08039513079476991
-0.07583988548347843
-0.07474705883592273
-0.07466445207245496
7.022414919505568E-4
2.3789798121225114E-4
1.1930513477792093E-4
2.4581814553776594E-4
-0.06458666117915503
0.008329746062791745
9.665022772198622E-4
3.734401129638303E-4
-0.0014717744852915278
2.1928086414596647E-5
2.6982418551899535E-4
6.607485778946403E-4
0.03585322359432762
3.060999992909258E-4
1.8984580840395338E-4
5.703448571896197E-5
0.1556926919897488
0.09786637092241206
0.06017019603367853
3.761368744803396E-4
0.1589493714492503
0.15336078619245389
0.15345805402203447
0.5194355371686815
-0.004165502905092843
4.4738767127831336E-4
9.993144698797667E-4
6.107952056082302E-4
0.10237630290849259
0.16322577396731616
0.16364072260479365
0.2394841672032181
2.8869920997091013E-4
8.15855977032219E-4
8.075942792753967E-4
1.9753747436193213E-4
-2.4352789530942415E-4
1.0297081831708065E-4
7.667248837928735E-4
8.177866604183937E-4
-0.007676557479507859
9.270846844346721E-4
1.5115625675137846E-4
2.833183064635977E-4
0.09443136649594079
0.08430948297826875
0.06384005413673059
0.06120044507680214
3.931554650350316E-4
4.89588234342514E-4
6.032826962079961E-4
5.594624839112312E-4
8.762725873022924E-4
3.8268752639778657E-4
9.035957476487785E-4
7.939614517143047E-4
0.029992241000188304
5.926214306018313E-4
6.290637635165554E-4
3.5401583681864493E-4
-0.00557030409447091
-0.007634244250004863
2.9168116187298985E-4
8.234591378310378E-4
0.0869577687822544
2.3528265990474905E-4
6.456362777752605E-4
1.6824911825641964E-4
0.002754293815388744
4.604143120744525E-4
2.3509356644601064E-4
1.3881738043252211E-5
0.001421422983719712
8.691060851598558E-4
2.9993461043519076E-5
4.893458243734008E-4
-0.0013935959449481623
8.067428335780805E-4
1.917702765592708E-4
3.0281031075600815E-4
0.1038062989642883
0.1068068584813088
0.10472941118826966
0.07232576294796138
0.045382818459055764
0.04606987197305124
0.044632987150074695
0.04165052296292919
-0.010489531557365641
9.347780401188238E-4
5.454198626550757E-4
2.4609310107046023E-4
7.791512578802411E-4
7.932928825321209E-4
2.063050059007534E-4
7.586943173359283E-4
-0.007865840793512024
7.446694423693422E-4
3.3166017239527357E-4
1.5706743186453588E-4
0.04620188931576745
0.0037522958248407626
9.723208227168117E-4
7.92693303181048E-5
-0.0065366469904380355
-0.01180406359251408
7.571422427809454E-4
8.967170462380676E-4
-0.012488179688681562
9.44637457768527E-4
2.2992252461084096E-4
5.157071558451254E-5
1.2889211253320132E-4
7.744002488185927E-4
3.349511148443265E-4
4.8073771820145205E-4
6.606876786932121E-4
1.6647077241380736E-4
1.6911130069550028E-5
7.936431124517391E-4
0.1230677058677709
0.12418985349231708
0.10744226085191746
0.10872991582522261
-0.00370722524309847
8.849580744597036E-4
7.651218182465851E-4
4.934822012625435E-4
0.014773052747564094
4.055455391111291E-4
3.098247031264345E-4
6.580526108716955E-5
-0.035526375257533924
3.8691524998962654E-4
7.6804202286334E-4
6.109742111690779E-4
0.0918489618095604
0.07927548954156514
0.052514149869704145
0.03677249418696961
0.051416891035930126
7.481669211289601E-4
2.463907603596186E-4
6.470353218603457E-4
0.08627286527540447
0.03868979830285081
-0.009728110765069225
4.8584107767379175E-5
1.0413537631191937E-4
1.5027809898553768E-4
4.374408209349813E-4
1.869817780897498E-4
0.006839693105883452
2.6835473766137095E-4
1.770157636372005E-6
9.257438295684211E-4
8.726845435187457E-4
8.846023010185942E-4
3.8386466508536E-4
1.751624485547082E-4
0.11242441765617561
0.08716625672480537
0.029558239723551507
0.0294052588047177
-0.005359131689095593
0.0014218581366383341
3.4788572133099773E-4
6.27884700138261E-4
0.21335037002018278
0.1832672359299081
0.12158525423655153
0.20656381608017751
0.09587747561071525
0.022427650691787718
2.6515935190878025E-5
2.4166499868967628E-4
0.12470264733411816
0.1057012932994511
0.09632132878082322
0.13199780962268787
0.004354537796351668
0.002874382952935996
0.590812622023168
-0.9692595775160577
0.05497818751486571
0.09012203770768161
-0.05115581645347702
-0.04933611336483304
-0.06060007295922358
-0.250564952999434
0.011568845928552441
-0.0011611289107997212
9.361859763603986E-5
4.911188339551494E-4
-0.060975304628425334
-0.06612184289744452
-0.07579954132013511
-0.07551639926016161
3.70544016648114E-4
7.631354371796941E-4
5.045699607384979E-5
6.401109504429022E-4
-0.07178807614531417
-0.0010560173754420453
6.525664312886126E-5
1.9552412413137034E-4
-0.00468977298992726
4.080752239352766E-4
6.239024711493493E-4
9.951951122268133E-4
0.011789925074140714
6.698115614474843E-4
6.581179619848469E-4
5.729156810154749E-4
0.023585558439001064
0.014377765315937128
7.69285888503372E-4
2.0671664602470375E-4
0.03637364321660492
0.022731781839101083
0.022500132644627843
0.06667917199709145
0.0011166270005515256
6.5575729541764E-4
8.027727318907228E-4
9.761341952671831E-4
-0.04410725321910619
0.026576043731439767
0.027064774005107855
0.07180529523342959
6.748428107386945E-4
7.064903250934197E-4
6.774641440632047E-4
9.699496528586573E-4
-0.002132082149641973
4.651937308058235E-4
1.492905175328726E-4
1.5954906857968188E-4
-0.008003301952149714
3.939188264162211E-4
5.382532367190979E-4
4.072831528989095E-4
0.005705111095790409
0.022569609467342024
0.009072184524116633
0.013288186613146647
8.445932048140525E-4
6.167645083931759E-4
4.624362401564034E-4
3.4062426897798006E-4
1.8444150668542092E-4
3.537696254184375E-5
2.2535395392289892E-4
5.028262682370659E-4
0.008494331642968565
5.761983024377378E-4
2.731285029813203E-4
8.992907640974544E-4
0.004979747711693906
0.00889784268542347
6.588888970919099E-4
5.859723640703251E-4
0.008069981652884872
8.967251925627605E-4
6.975106296926023E-4
1.5126121787271352E-5
0.05534957255888637
9.626811409528501E-5
2.570079715288629E-4
3.311903259173554E-5
0.017510426607799685
6.267688510421636E-4
9.247936484993419E-4
3.999670768112895E-4
-0.016827087867272855
3.4874192720149686E-4
2.113120679185545E-4
9.09363982640815E-4
0.02766738751620185
0.017283784411910637
0.02075523879734686
0.0076918979688086085
0.0029390461214740655
0.0033732327870393606
0.006733747443747526
0.006334169671439019
-0.02304321295402917
6.963500689789901E-4
1.5713546520030485E-4
7.57424353347735E-4
7.867527725571726E-4
7.1336824158858E-4
9.714430908014262E-4
6.970554880476439E-4
3.895938198926682E-4
4.640106993354679E-4
9.841506364513454E-4
5.162934740628903E-4
0.0066680776174792705
-0.002709448205403802
2.568462197337842E-4
9.202432149758166E-4
-0.004776316259090091
0.004219472068152343
4.8444472324705876E-4
6.464990809494763E-4
-2.2442073192897177E-4
5.46355060482045E-4
4.964665124438569E-4
8.10614584124405E-4
9.391586214020476E-4
1.6978535672774575E-4
1.967212622912653E-4
6.009953565383575E-4
5.134652987493851E-4
6.504218013145724E-4
3.7148108011794635E-4
4.976846594252043E-4
0.036110375128731935
0.020671975458586008
0.04118849893206796
0.030481504619729462
-0.014471465949692626
6.835447621392559E-4
1.774989851763088E-4
4.081887912354998E-5
-0.0023182390269594474
4.2229511101970975E-4
6.782914040439357E-4
7.100040060667126E-4
-0.06147954033472103
6.231098872638164E-4
4.287606190031378E-4
6.206591361641136E-4
0.009078224168970365
0.015520046481671506
-0.0027392597104744626
-0.002396654100356393
0.00784580447470068
8.491694258686832E-5
7.31197029004182E-4
2.4208589018252758E-4
-0.06318575251045447
-0.004632278411802904
0.01687037338605075
-0.004323003003057942
1.7970276180431698E-4
5.847199993917843E-4
7.876301782262881E-4
5.932469092352426E-4
-0.0015611375513592248
2.1059757650555033E-4
4.1418013299516533E-4
2.7939718984514283E-4
7.504743242070059E-4
6.970456089391077E-4
6.48395854655345E-4
9.551842266019551E-4
0.040043558857436136
0.031412164021217825
0.016348648256434888
-0.016509172679089232
0.022492981331268484
0.053245627664706856
5.706699377554412E-4
3.065904546853916E-4
0.03956773501525028
0.033718088476073764
0.025987274218478247
0.06229255360141164
0.011693660893806305
-0.010321838324656201
9.977964250816251E-5
1.8225914682915122E-5
0.02520145400374491
0.019459633490467573
0.023661204797227026
0.04058133908216231
-0.01776959522826145
-0.0020963964534487095
0.0037318391613441752
-0.965367434814202
-0.02182008671675484
-0.0069292602650106285
-9.729988915949167E-4
-0.003196537105956825
-0.017399920489272948
-0.17986194679071035
-0.0355398920823236
0.004461243977048764
2.0077169466475532E-5
8.908387733383755E-4
-0.1248808956507871
-0.0757286568808901
-0.07672563505432448
-0.0758015214271157
3.549016290219862E-4
4.4950475756063227E-4
6.553007164354964E-4
1.5033833968733755E-4
-0.051897823270987506
-0.00213561115718546
9.941444175643403E-4
9.610494374585699E-5
0.029368112389855282
6.172284429270532E-4
1.3120661644667987E-4
5.925814799550711E-4
6.826360122183096E-4
4.6324863633851853E-4
5.292911923888093E-4
2.1078907435954607E-4
0.029586263189176627
-0.0038164353541199304
-0.0025063444258369375
6.861923113492658E-4
0.012904048973306421
-0.004138966996690691
-0.004204761283461045
-0.03280606468626388
-0.011478049209333107
6.510002615869507E-4
8.479159809446177E-4
7.932799723936068E-5
-0.06185145276148999
0.015288505801630027
0.015578674697866234
0.12044039071105074
9.346371966288546E-4
9.96871309720482E-4
6.439526158993319E-4
1.7081983815731293E-4
0.0011500867570812569
8.136682186276341E-4
9.723317784682177E-4
6.944164153880941E-4
0.02867232602369863
1.702910129669487E-4
5.680121075339361E-4
9.086705955092842E-4
0.012753942504700815
-0.03504576594852807
-0.008183675247948824
0.004847651600395003
1.620901125576335E-5
6.563683709151756E-4
8.960354978748225E-4
7.729387960735835E-4
3.3678131120718456E-4
8.863695306162043E-4
7.861437660271525E-4
6.649184816601107E-4
-0.0021697743748866614
2.5466046185342506E-4
1.2682973234216953E-4
1.5004164825400967E-4
-0.03960520831807151
-0.033319147620905404
1.2098928533626251E-4
9.960074594891934E-4
0.0029173504247659125
7.989190157642465E-4
1.0672911138791696E-4
5.555076236377358E-4
0.03401822186780216
2.678495439828733E-4
8.024901119714324E-4
4.573129865489509E-4
-0.06479657812523855
7.008726622286098E-4
2.0924935775828502E-4
4.122099548472654E-4
0.0906133802433936
9.694848670780506E-4
4.919749755995835E-4
7.276896013244607E-4
0.01940241791328465
0.0016740648123172296
0.017199320784344167
0.006901874445983822
-0.008900620446910335
-0.01234900077950188
-7.677821473812159E-4
-0.0023270244155927096
0.022164746570892607
5.518572564984153E-4
3.124617417011211E-5
1.7155832496051126E-4
6.325836817997544E-4
1.429639906236848E-4
7.412268455090989E-4
9.601448304166002E-4
-0.05023509155367681
2.853940725197898E-4
7.860711041062609E-4
1.2813486810667218E-4
0.005742143046973855
-0.0027617591549954114
4.878048453156619E-4
9.281137000516338E-5
-0.033306705840206646
-0.049009088720888355
7.909705726240437E-4
9.01142491731077E-4
-0.0537884177441703
8.641562572086887E-4
8.498088054665922E-4
5.059223985346338E-4
9.559483110600558E-4
9.543120089252835E-4
9.796106021248909E-4
5.577022110676378E-4
9.569126547940738E-4
9.236870166435319E-4
4.0574333329848535E-4
9.958663748584051E-4
-0.042800209148788355
0.023977164615233294
-0.02116247094658213
0.08110983193721404
-0.044287631825914026
8.138718737120262E-4
8.605572664560582E-4
3.0151040050874103E-4
0.01534620155782122
3.923178935496262E-4
6.47766190549705E-4
9.314174336721516E-4
-0.015524357569081935
5.572379392091556E-4
7.56395106148567E-4
2.5703695136865745E-4
0.009074562243150506
-0.03430171081259934
0.004124778709683834
0.0013622166801335735
0.005761787264850243
2.877465621362775E-4
8.262319157414443E-4
2.2877732063335265E-4
0.05016296421685615
-0.01344817327188395
-0.05754268413254893
0.024013957595665804
5.683365642080794E-4
6.595351321096221E-4
2.9117269306315154E-4
4.180728359235527E-4
-0.0026291768156131486
1.1535544130101949E-4
4.302012930736987E-4
7.240702259196473E-4
4.1788317726041904E-4
9.410229779841726E-4
6.521975265557614E-4
8.62195081051208E-4
0.02637018901542898
0.07240392179168673
0.05002122961039338
0.18259229990519915
0.019758824436773556
0.01051649303726595
7.771339087277205E-4
2.1535658018068183E-4
0.0153947744237167
0.016278027655641736
0.011489837261843317
0.06348182159133071
0.043050715895782445
0.003909204423416538
3.3363712215653095E-4
6.418430184236713E-4
0.023646950520626618
0.015436288601498444
0.021102213760976922
0.05227622509027286
-0.019779202398009333
5.925043035204365E-4
0.03721794381521661
-1.0716338008803266
-0.00272633005940088
-0.03648578219442826
-0.08474192826215113
-0.050133983691893175
-0.0864254806914796
-0.21724247724973467
0.04597137006376484
8.923318800203778E-4
6.991179161084674E-4
5.352020069591412E-5
-0.14649862635221497
-0.08502121726351755
-0.07723804391170216
-0.0769322232354961
1.2546850776259778E-4
7.53511424335875E-4
8.596043475793747E-5
6.951608888140887E-4
-0.052756498318983165
-0.0021089100878445423
2.9794949164072405E-4
7.360808650770891E-4
-0.07022557864597963
7.466780457962896E-4
2.8354146901830025E-5
6.843776218062425E-5
7.984757968940125E-4
6.497692202893109E-4
8.425309669179481E-5
9.480167382403078E-4
-0.022158114259443584
-0.003278034886503132
8.796601067754255E-4
1.4559162034456208E-4
-0.025849988477606705
-0.00874319449576254
-0.008749148417630435
-0.025597101598583385
0.018505326794157118
7.980362540659988E-4
6.086237804607271E-4
8.520376739185096E-4
-0.09749379204873206
-0.017595197081203037
-0.016900514247757015
-0.031148148040374257
9.992407708830202E-4
3.3874976862697924E-4
1.9771974394820112E-4
9.424229833281675E-4
0.006880064912061912
6.902589521001374E-4
7.131709266207574E-4
6.359451791899947E-4
0.05187882288916002
7.744438901735878E-4
9.497267407569502E-4
7.358760881891111E-4
-0.018849373850812604
0.04816580243573963
1.1788918257462155E-4
-0.020412257168076667
4.268345587731365E-4
6.565417728051611E-4
2.193769725358141E-4
6.049796675871005E-4
6.404396061080158E-4
8.800884457161054E-4
2.3028667717432062E-4
6.530628833943499E-4
0.011035597027609994
9.414238234632216E-4
2.912232897443372E-4
3.629975371994837E-4
0.056697437954289394
0.040153490588845535
1.7243607442246235E-4
5.665795954767586E-4
-2.3238501014194354E-4
5.309598170148437E-4
8.977179465035445E-4
9.438874419321552E-4
0.041190490871033124
5.392565655339918E-4
9.227902212730962E-4
8.559846723132396E-4
-0.06963362537289937
4.095375894464377E-4
4.006824654255937E-4
1.9630525326537194E-5
-0.01552032203353029
7.971404779398669E-4
9.300119475340692E-4
1.0959980942526037E-4
-0.0023410227585582938
-4.616087272780639E-4
0.008579264943074587
0.0031677098086519196
-0.0036300246665547063
-7.467367836183037E-4
-0.020072714257515445
-0.004527034662958999
-0.0029384122277335695
2.878582486620597E-4
5.789615101383235E-4
7.051642740943744E-4
6.342334136837284E-4
3.467383316090735E-4
5.672984650790062E-4
6.810486311465883E-4
0.005358746223608015
6.438024986237188E-4
6.109566622830065E-5
6.680625955749732E-4
1.0082246310759362E-4
-0.003371026277533523
2.6568787773332013E-4
2.3146645574454182E-4
0.01717880538167918
-0.044563681424635036
3.7251666903987866E-4
4.404068508546276E-4
-0.07300427501226116
6.525468299675661E-4
8.216081692360525E-4
8.087148231193384E-4
5.152799948590227E-4
2.1810105111638633E-4
8.923179769508228E-4
6.751840746167792E-5
5.808742769060444E-4
1.8137055911282695E-4
4.733257818004872E-4
6.384751364149918E-4
0.054691939221420655
0.045948810078636694
0.013443742375614269
0.16510493568235035
0.03440006184392366
3.092512790280856E-4
2.53475742028354E-5
4.458052852543274E-4
0.0012233710177125322
6.558442923630009E-4
5.362792041912163E-4
8.897807691080245E-4
-0.08908048560671616
5.556947346728059E-4
6.928883616226588E-5
6.865455161562262E-5
0.06612890287600204
0.04564100082684207
-0.003489471455381696
-0.0031097181333574722
3.186572570878582E-4
4.2360597728352924E-4
6.747732749833409E-4
7.05960951618828E-4
-0.06968665508784462
-0.03568614999123823
-0.04079645378915131
-0.056082876377397596
1.0547078644707897E-4
7.474692043609845E-4
2.886456950621793E-4
3.1986264512182913E-4
-0.002813186932022165
3.9268347119623335E-4
3.487886719789075E-4
6.190443359210063E-4
8.359709399415439E-4
8.431023527388957E-4
8.307792419723753E-4
9.615538566596086E-4
0.024261968755720294
-0.02609379477112237
-0.06073439594406054
0.09770115045465938
0.06794643712662851
0.019975971401727466
2.2475784977560843E-4
4.031760272844431E-5
-0.02887887999827941
-0.02630054304654273
-0.023109322819433786
0.057051250203827765
-0.017449911559880196
-0.01718008054154049
8.517155621072966E-4
8.052655273869712E-4
0.041288098749572656
0.03457114577876285
0.04135307737751899
0.08529282895173645
-0.011458209963362442
-0.014019184430001313
0.26442429877746476
-1.1489495920736974
0.012082248054559422
-0.06846981054620666
-0.02873616819315732
-0.06765284436718876
-0.08052380024228371
-0.31368847657470306
-0.06219076567373632
0.019486200064821723
4.3510990464795153E-4
8.331157651966424E-4
-0.07574555399665243
-0.07286325387474177
-0.07719625162577162
-0.07742856008105636
1.2194729488279377E-5
3.3123676493067387E-4
6.324708511766256E-4
9.781644075513562E-5
-0.07845950576216794
-0.0022834012400556026
9.961755291096272E-4
7.423220846423101E-4
0.16886967589548724
5.417577606439152E-4
4.7329696481784644E-4
5.720653744756303E-4
5.343914046077176E-4
5.6395157053063084E-5
7.74785707489524E-4
5.8811573631095E-4
-0.1342996049495164
-0.001753758130089115
6.08964502866739E-4
8.706168356467796E-4
-0.06712208927286414
-0.00421512094825378
-0.0048395162227478266
-0.019123650816656793
0.153255639133126
4.6159169632569065E-4
6.636415406070786E-4
9.802014608725263E-4
-0.07121939592927042
0.008704027985121255
0.009219050466094305
0.13067694207665986
1.7582971149346672E-4
3.371352871062872E-5
3.821589141364825E-4
5.3049057088120574E-5
0.0784952322786859
7.080441216806109E-4
2.413454429388121E-4
5.077731483864297E-4
0.008850571218753642
9.897766438493683E-4
3.8942117029625554E-4
5.195642292523033E-4
-0.012837124507977027
0.040121348317888064
-0.045007423909123184
0.01536803337686272
2.735353674310833E-4
8.036030539266759E-5
1.7575461346308385E-5
3.521862420300245E-4
3.975758559998167E-4
1.1683875559612656E-4
4.7007404218798164E-4
6.457939333102296E-4
0.018407659753800057
4.590609191073144E-4
8.584576502062367E-4
5.62463932458906E-4
-0.04898307521293379
0.0043606075466964475
3.303903843846939E-4
5.463402545719572E-4
-5.572702113361718E-4
7.930773657035808E-4
4.731840696684748E-4
2.633774926957506E-4
0.007818361342022198
1.493234772996036E-4
9.185245407749675E-4
6.342307811771984E-4
-0.1199607643984628
3.208787556024185E-4
7.6658133909294E-5
8.78937962188047E-4
0.0029787710575767297
8.932331809340171E-4
2.5873615405051044E-4
2.2574693475467812E-6
-0.03536820286318187
-0.03460140936899943
0.042079998753688654
0.037994155607361656
-0.038276418556300984
-0.04303774887978429
0.0169843880083372
-0.0019860204220787502
0.09339717310947583
1.4989750152195625E-4
9.660878354010595E-4
2.9998959457786623E-4
2.0131123211767377E-4
6.698130051134338E-4
6.152270958429492E-4
4.752389293232906E-5
-0.06075234525344557
7.031938110570238E-4
5.257715194278637E-4
8.475669628504976E-4
0.0011853623015212326
-0.003149166194005592
6.717288199668196E-4
6.430390230105301E-4
0.08220382593941992
-0.039967452951917226
1.2757359862577934E-4
5.660756350301344E-5
0.051820128149558664
4.1622996367925304E-4
1.3240233665823742E-4
8.012955150120735E-4
2.91123797606448E-4
5.0765669971790664E-5
1.9962536715438216E-4
4.471805184426787E-4
4.1400171991356485E-4
9.259393190857697E-4
8.297215630875162E-4
3.500026951871993E-4
0.018572745059324543
0.010463063336837674
-0.02345897649407627
0.011719936621011331
-0.027990119383770707
4.488967489579696E-4
3.5853326890443216E-4
8.091497009896795E-4
0.0036249545367605046
4.519720279805899E-4
2.866913095810123E-4
1.6668080791554607E-4
0.004200889914261343
7.844090014097731E-4
4.5669987021389126E-4
8.043097229584658E-4
0.08236333456254548
-0.06386174984714438
-0.036219026029160974
0.018610423235103927
0.0027379904442407094
3.834920540456449E-4
8.860475856273748E-4
7.932378357701623E-4
-0.015399059043116945
-0.02317896095242867
0.005454068478197002
-0.10142599080180408
5.134079280561032E-4
3.3106895914771027E-4
9.894008491488086E-4
5.627935614184356E-4
-0.002561192261153675
7.147500679756925E-4
4.956159800869903E-4
6.908210289680307E-4
3.036620518916601E-4
3.240781660989371E-4
3.4948459363452945E-4
2.0321914728899215E-4
0.07310629028820435
0.10054581346027495
0.01241435097432078
0.06393382566227115
0.02651257664114235
-0.02072791997803942
2.2547521762960644E-4
5.168054247925487E-4
0.026309854161120173
0.0269978636140655
0.028373136116569223
0.08929291668667914
0.08911355006916673
-0.012446301798417868
6.929818716719329E-4
6.797573213552976E-5
0.031607579623745184
0.023186079137487773
0.030693626359283667
0.06273726322085878
-0.007640241043953188
-0.02217628519698198
0.23998236925264607
-1.1268455099743393
-0.08198841850681571
0.042700303607339445
-0.11346529285437236
-0.05579796708795596
-0.04311023609377123
-0.33002063735446113
0.0027683776568485446
0.02191763850770119
1.487714695462774E-4
8.104161586333766E-4
0.04722085922237917
-0.02685175205387266
-0.077830753444903
-0.07771305432432421
8.609586278262009E-4
9.378221371231989E-4
4.553869178653747E-5
9.583022522359294E-4
-0.08397660370774682
-0.0026227617387549113
9.993530991392373E-4
1.9149805917914185E-4
-0.05359488613978218
3.89217167234303E-4
7.051976028473648E-4
1.9453138425472405E-4
1.5269492433803053E-4
8.616027082921625E-4
8.202166971843977E-4
4.864657461119386E-4
0.06958087264443642
-0.017452300343916725
-0.011497773878309688
2.202216436805936E-4
0.05168287354575286
-0.02751488719901956
-0.026919155005519477
-0.09130907354971898
-0.07432216789607435
6.759541039930694E-4
6.643416324355377E-4
5.756894289106864E-4
-0.07410887000528749
0.004096132084866319
0.003687093860557334
0.03785733888845972
3.614904276260845E-4
8.630721966713448E-4
1.3378386222404103E-4
2.4133005715741286E-4
-0.10226551015117531
4.8113213732773665E-5
2.946473511830521E-4
3.137562952543986E-4
-0.038706300302354286
8.868695490515867E-4
6.071799099877873E-4
5.957371755420083E-4
-0.03099420079650479
-0.031115594164435798
0.049419389385386
0.0012240299132221816
5.875682880010899E-4
4.892622318027307E-4
4.31020330898501E-4
5.005921773647904E-4
4.453391043548941E-4
2.6219716291871653E-4
4.689933837769591E-4
7.007440439938264E-4
-0.002262570783516415
2.5003023116913634E-4
5.777789784292784E-4
5.31854845670643E-4
0.07893270696704278
0.025924393135749478
4.7497703744538443E-4
1.032922614257954E-4
-0.020700862091987706
8.565669862537346E-4
5.287074278705756E-4
6.267866138663183E-4
-0.023028401849363687
8.88884950372037E-4
2.5819823777129913E-4
9.218240940233639E-4
0.003994916419069829
9.994226356126118E-4
8.961922850280378E-4
6.663374345400917E-4
-0.14347568590572518
8.234181873358565E-4
7.987245833224543E-4
8.91381627689884E-4
0.04571221714660949
0.045707054897708044
0.017252249178029776
0.04684415471573638
0.05624376530264133
0.053611050748178644
0.0025273032847134705
-0.007911287529615143
-0.08544274374568832
3.3213677227116555E-4
5.3388188320009914E-5
2.6965748339261155E-4
2.7973527708946366E-4
6.193450697202651E-5
9.389023626096663E-4
9.61100743995048E-4
-0.03724026057905344
6.304998502086323E-4
1.942709182619905E-4
7.909701280334571E-4
-0.011843555098010336
-0.0024325001154424566
3.7103664723992094E-4
6.817901100495898E-4
0.016830036216503943
-0.10819084803367082
1.8820910240228893E-4
6.968090324210991E-4
-0.021103931486037703
3.180334431672971E-5
6.493557310009578E-4
5.252525835369356E-4
4.319700906592483E-5
4.740692952366875E-4
7.030173284524238E-4
9.272911420182465E-4
7.76745716234062E-4
5.602744977432567E-4
8.745792888109819E-4
1.0811210047434394E-4
-0.08825050171773445
-0.060172474419584725
-0.008737799583653602
-0.019920950497642708
0.02706697593680517
1.1935353871806298E-4
6.175784728075588E-4
4.6948714477305833E-4
0.019533601706559083
6.751288198317089E-4
6.369354425052778E-4
1.714588673710482E-4
0.10101243216457072
2.2136789621228547E-4
1.6804554446163034E-4
7.755396343775852E-4
-0.02487427384561593
4.96396036547194E-4
0.0759446932421037
0.03975818568837223
-0.009626837007801987
8.738542174228761E-4
2.668671675439015E-4
9.415321479374983E-5
0.08575364932204721
0.04790018827651363
-0.047448235252854846
-0.05876760443680871
3.575040495710876E-4
1.0519783770120883E-4
9.35482430859563E-4
6.342720312498003E-4
-0.0030370803437394294
1.4554520775550084E-5
8.779773018557434E-4
9.341153629217076E-4
3.3354877239963874E-4
5.086439177662398E-4
2.6550713532860727E-4
9.443156109960727E-5
0.027845881294969305
0.10659873210445742
0.03174882511438814
0.27355848815149786
-0.017360756366298115
0.04362795383866455
2.819053174701527E-4
1.5012480854681986E-5
0.12664738443899431
0.1319687934384023
0.14695678836344273
0.32775534688946206
-0.12296735330330263
-0.01783650300098101
2.4298941720816535E-4
2.7874906749767326E-4
0.07264860411786604
0.0760059602698338
0.08196933440279225
0.17272928876416593
0.024166947932951977
-0.0261683315770581
1.158073594510882
-1.087099324953417
0.03987896683211076
-0.026664493344372115
-0.16930474852327845
-0.19126538958471712
-0.056512566651223554
-0.31752593529206546
0.05916712406736974
0.03361474771000641
6.182048087189255E-4
9.571278492095241E-4
-0.029319269977085064
-0.09356306388309216
-0.07806837016780448
-0.07872440098859164
7.37039023501628E-4
2.0646074206774013E-4
2.1585119711000654E-4
9.422552917144647E-4
-0.08509215389486845
-0.002378446417569473
6.844169527729739E-4
2.3476081274235295E-4
-0.043993544716679656
4.7789497584102656E-4
5.296225213632405E-4
5.65483638131385E-4
5.583164949641746E-4
4.3922475216829113E-4
3.102371038919588E-4
4.2889396281988633E-4
0.0018868073415295177
-0.009828760647666527
-0.00522912762130847
6.986241376544618E-4
0.038648609973211845
-0.01646180288014413
-0.016652793269552234
-0.05538387633639009
-0.05868251782883743
4.7747447085184013E-4
9.94480148583996E-4
2.3428295599520253E-4
-0.08396887784625007
-0.005305286527604055
-0.0049371082666204635
0.11098373789147332
4.935577728717557E-4
7.647065490051434E-4
2.5158181643595613E-4
9.738357727751716E-4
0.05118619104975271
9.584182784602765E-4
8.960511282950274E-4
3.9497076089727425E-4
-0.051549496056515376
2.3539277061035923E-4
8.655443116089794E-4
2.3885230313093608E-4
-0.02478096123757073
0.03244891451429428
-0.023828181119552705
-0.012440684125073544
6.440674082708904E-4
1.3126693118166587E-4
1.7365855587204182E-4
9.130016368928914E-4
1.8778869552855338E-4
7.040851939262288E-4
7.049765833375643E-5
4.186389069625126E-4
-7.904805564865586E-4
7.423661470240163E-4
4.6031592742248206E-4
8.714699182736882E-4
0.011640679887684763
0.007041086718031612
6.904567582582428E-4
6.676515844482937E-4
-0.012696718549550132
5.774000430603428E-4
9.907883499692951E-4
4.921386087793578E-6
0.030640027517119858
6.639810376241239E-4
9.97755689328488E-4
9.188205430679478E-4
0.030507295483764827
9.167491850660891E-4
7.523448831230263E-4
2.950341111733923E-4
-0.0915846337564263
8.325140032986342E-4
2.3430703370442728E-5
2.7922965486771533E-5
0.002269394105137496
0.002278988995739961
-0.003797199381462802
0.014131309900017784
0.008536253200312907
-0.019136793722773052
-0.009892079762387505
-0.005398879500904517
0.04965245963537582
4.909178222818999E-4
5.82076111213557E-4
4.4751262966152914E-4
5.748922993309269E-5
1.3230938378113488E-4
9.700350231774279E-4
6.755104927086878E-4
0.08568968192465354
1.1927697923165903E-4
7.315804353466515E-5
2.0796779304158242E-5
-0.004622123006585785
-0.002962687518642055
8.052151356107867E-4
8.242852761768847E-4
-0.006475806711177954
-0.003795232593410764
3.8722664114100493E-4
4.97173411352166E-4
0.1252975901649348
7.847987338042186E-4
7.002677783622996E-4
1.8262497439123303E-4
4.8498156248450895E-4
4.83817889353771E-4
7.997466512198148E-4
7.437287878176952E-4
4.608022679512892E-4
6.996975122461961E-4
9.28954282108739E-4
3.122606277623425E-4
-0.10799287254873788
-0.09157598583464827
-0.08698654227525277
-0.18310450479101303
-0.04434709479603963
3.4044106878801194E-4
1.2105528541261945E-4
5.3519575196773E-4
0.010166050844904795
8.1641675027989E-4
4.689026070045761E-4
8.543913869026996E-4
0.07368853177073854
1.5938147827527382E-4
9.584128637489617E-4
8.857984597177066E-4
-0.03956651430799303
0.05732590860777092
0.018781418666540765
0.04470559755442041
-0.0021110807752001614
9.24353709980933E-5
4.119956810243197E-5
7.179840505046919E-4
0.06766823052632971
0.06267250706490282
0.014052024965192936
0.04311686553865755
4.6356466309312786E-5
6.493285109704594E-5
9.751958993302058E-4
2.995189933625838E-4
-0.0029730994275492285
5.767902428792237E-4
8.762429351009969E-4
1.4815158404827368E-4
5.772863701934602E-4
1.1642385530249133E-4
9.808571670659114E-4
9.754779317426832E-4
0.02596847800079288
-0.009759357447164694
-0.059863575504675984
-0.260756991033806
-0.058382253578302165
-0.008173434139078643
5.74951415822198E-4
7.328846131810547E-4
0.11515036221569395
0.1186890652432833
0.12662873365794722
0.21943136740349442
0.03640539208764072
-0.016802879171398513
1.255491062969596E-4
2.485682313027938E-4
0.036236017167145806
0.035682838236055545
0.03963513890027751
0.08672545316614291
-0.0012964835034553889
0.010886656954873713
0.5001232693362225
-0.9629319976540516
-0.12581364921177357
0.08596686236636752
-0.19545344751132554
-0.1952901729435308
-0.07141151061998392
-0.3076873710242162
0.04881836421880437
-0.007901929741591993
9.36086261067247E-4
7.306668642626469E-5
-0.11109890685276129
-0.21152413538935408
-0.07916175638843988
-0.07897011455443614
1.5337280621546424E-4
1.9879218542668843E-4
6.102554798051471E-4
8.490033003828766E-4
-0.08195485972916988
-2.0464914940090175E-4
1.5971859035804703E-4
3.1907184898943543E-4
0.027546542093372702
9.376402087614378E-4
8.032866195461985E-4
9.728010926920881E-4
2.1102367338027125E-5
7.85602875599711E-4
6.374043371768448E-4
8.399784389489572E-4
0.05077185247901756
0.028797062070670842
0.027187172833144528
8.94710676311096E-4
0.06399541400399067
0.05363404191034144
0.05308981257774935
0.14186373025013893
0.04409838644984943
1.0843923003926071E-4
5.988867224012462E-4
1.9773547332352704E-5
-0.07036182558188808
0.008162606770348786
0.008405111361341712
0.12067688249317236
7.264788521784395E-4
9.191263485715863E-4
8.760638795394655E-4
2.6497081586407834E-4
0.09954299942122875
6.758631035686602E-5
6.111747263413345E-4
2.6474387110678512E-5
-0.017958385632790057
9.08290101824456E-4
8.784608318321297E-4
7.841579913340062E-4
0.0621405286855875
0.07617956224625963
-0.10999753745300797
-0.08093328216056185
7.253707043427384E-4
2.0054228036281752E-4
6.648057198675008E-4
5.053162415348305E-4
4.827672918323445E-5
4.581476727688505E-4
2.8767196208311474E-5
6.372384621920359E-4
0.013370009037713427
4.6258173206801856E-4
6.745206754917402E-4
3.7465223228633237E-4
0.014650599018848931
0.07854808719630046
5.664831441008714E-4
1.1963871284691497E-4
0.03349290066522073
1.804818105044983E-4
6.98864597982148E-4
4.5207694468091643E-4
0.004824134561579909
5.443167066409249E-5
8.292572046315142E-4
5.820498790708829E-4
0.00773019872849891
9.045682176954245E-4
4.803107628998815E-4
2.5259547992998154E-4
-0.0292265780611383
3.517856278279005E-4
5.409460999658781E-4
4.1082660735221966E-4
-0.08436766037235435
-0.08419146589221183
-0.04118769875314332
-0.09734525539413835
-0.09491690909552083
-0.10016195258032903
-0.07744097895455909
0.019439560019498942
0.17381124708261214
4.251362302450934E-5
1.9063462874630566E-4
5.343669562099035E-4
8.732283553477112E-4
1.605424015150736E-5
9.299197942102733E-4
9.824855066939441E-4
0.14228576972309917
1.9075646026948113E-5
5.658426251369405E-4
4.7698122611669846E-4
0.03149648158149437
0.012275846955828298
6.903974512121105E-4
3.9428382393530615E-4
0.011457376351880131
0.11029240528215864
4.99712666184697E-4
2.8206579589901983E-4
0.1935901095698586
5.270465188541954E-4
2.225515225639474E-5
4.6210216538457094E-4
8.346440054559167E-4
2.4574432633768674E-4
8.993621880152405E-4
5.85000929376425E-4
9.661434190914026E-4
1.6538337895277165E-4
8.796299110368901E-4
6.130313903938913E-4
-0.041768955843040814
-0.04174970081875924
-0.025344809841520977
-0.1431274315377109
-0.12216976213438924
4.558260914036133E-4
4.485858312917763E-4
8.283474220260974E-4
0.06224471075772355
5.693800125102385E-4
8.141775260158136E-4
6.42110529401855E-4
0.047522587115619075
9.546820887217536E-4
5.534678511195422E-4
5.76789388834678E-4
-0.0454794838456073
0.050580133583911786
-0.03488847180976331
-0.05459848800615783
0.03526738193667739
2.5489505087467344E-4
3.7313135175859915E-4
5.660139825302824E-4
-0.0010911930360603009
-0.04751212694547187
0.00679599014286211
-0.022070993860432077
6.72492779859692E-4
7.487145708702799E-4
9.553282582996811E-4
5.81757287179891E-4
0.007263896891160994
4.702466481583802E-4
1.0481295782389278E-4
9.036712552004148E-4
6.801123647025143E-5
9.380341047403976E-4
2.675312171997053E-4
9.342354436182155E-4
0.018984857625999708
-0.06114587455433348
-0.11160975266441985
-0.1717431442920757
-0.12603974260676523
0.022094837747724087
7.724770219585417E-4
2.8131533766224406E-4
0.10980038809212615
0.09094063343799637
0.05227171986685813
0.07037607320743232
0.07724276604332111
0.03897381913066261
7.667104322431111E-4
8.479864895439812E-4
0.033408630943473704
0.030772031460004713
0.0018906263452893848
0.011673820715158528
-0.002885538895038498
0.0063890522072003065
-0.06139820349418674
-1.087354501612739
-0.21156994812766625
0.14745149234031166
-0.15499913653176103
-0.16034356999431384
-0.016225855709057276
-0.3207127846475661
0.0654508499531619
-0.0022369035888463607
8.768879040900296E-4
6.760818928053966E-4
-0.07773229955622875
-0.15942951314188536
-0.07955518721716533
-0.07903556945615942
4.592651656486704E-4
2.8075373997868023E-4
5.187764859238222E-4
7.840156391807738E-4
-0.06349287875491601
0.009879165390141003
5.187517963273354E-4
5.473743106313647E-4
-0.006799897252765105
8.331519763845792E-4
7.454954060763355E-4
8.499470877631084E-4
8.565457078490048E-4
3.8205502504442033E-4
5.146916081806246E-4
3.589842974131089E-4
0.01481515306383195
0.01656613906385023
0.021913506985742258
9.648601006968646E-4
0.0187531439512545
0.013346179664103166
0.012557225839593253
0.09327877836093414
0.058661572700624415
5.331610582505947E-4
3.438481680691492E-4
6.303949236768874E-4
-0.0696435936849219
0.010692182999087176
0.010134902991659507
-0.2885769889126468
4.961993791926401E-4
8.021478028515894E-4
4.7820914284754987E-4
5.820951606651839E-4
0.002769623508204043
6.856593450694716E-4
4.3650167877097037E-4
2.105192701916403E-4
-0.0792317520951301
9.1858268523897E-5
9.014989697931164E-4
5.2901311351299276E-5
0.07549224345298244
0.06079871257299613
0.022076287691226645
0.005318050749906351
2.33914824158711E-4
4.1530099067166516E-4
9.763103112807578E-4
5.892212793375651E-5
4.906773388404296E-4
7.694950672782717E-4
3.182831438915165E-4
3.758000495363497E-4
9.965866586016585E-4
3.907713041993631E-4
3.7328636424567406E-4
5.395151558334403E-4
0.009680947497130271
0.04028371503745144
9.710619480081805E-4
2.82629867751882E-4
0.016006289701640822
6.09699736222608E-4
3.8709689677209335E-4
4.33707409442589E-4
9.729081680439189E-4
5.255262299411738E-4
1.494349769481893E-4
5.080459510414244E-4
0.016126743409156086
1.3517664539915963E-4
5.04672786105974E-4
2.4987718883630826E-5
0.10692791091739128
5.449140090487553E-4
6.436349050034374E-4
3.6933833342794365E-4
0.04357073719315012
0.04302996578081615
-0.015201983751204049
-0.03740852420047167
0.054493194510310886
0.02845135472656758
0.0071181729430087656
-0.0011167515975650094
0.005827590200392527
2.856865011848808E-5
7.916139623560767E-4
8.682797973655455E-6
9.892276050516228E-4
4.312735773576033E-4
7.326339347344342E-4
2.925071690110515E-4
0.08167143211612783
3.3777850279051615E-4
3.0749743976478183E-4
9.413430999436443E-4
0.0011074502523124921
0.007945102350103863
9.213482060883602E-4
6.76438715976257E-4
-5.310532352098066E-4
0.0022622881214989
8.349595580591947E-4
3.226845942003376E-5
0.05783649836440849
6.895486522943791E-4
1.0907538207218447E-4
4.6304696337895544E-4
5.329447836908266E-4
3.6578673736222697E-5
2.2948114256193363E-4
5.943354520936941E-4
8.452110393791824E-5
4.752850728615199E-5
1.8712724152800098E-4
1.8923005102376578E-4
0.03223728831017977
0.03776403803207256
0.05146955612397564
0.025839154126788763
-0.12677732575413714
2.631745404235127E-4
5.865236046752459E-4
6.823857663029147E-4
5.688386854920634E-4
7.392766102660276E-5
1.1753591247838258E-5
6.175157318327113E-4
-0.021640734977641914
8.537867845646266E-4
1.5369124765145993E-4
7.983618796649182E-4
0.06987074980703199
0.06314922303036664
0.055168908431179005
-0.03469957835091277
-0.002281720107768632
4.705209078730197E-4
6.788119828545011E-4
4.687936042931969E-4
0.0887057092713078
0.06000926979876141
0.01617024210414745
0.08764758032851322
9.176425350710804E-5
3.46833371390044E-4
2.600736514916213E-6
2.6485970665563895E-4
0.014598391317465964
3.8540176635947697E-4
5.746164910578213E-4
3.470138893605064E-4
2.3021556930108132E-4
3.014312144867383E-4
8.772950994024048E-4
9.344881128579954E-4
-0.040059222842942284
-0.07103187105954002
-0.07879029847835615
-0.3946216626148855
-0.06097001390058645
7.147536164599144E-4
7.637651481662067E-6
6.20042559813865E-4
-0.011798604378068159
-0.011251743903488352
-0.021088675453943478
-0.02549807358831067
0.05710160357829429
0.08485101369855026
9.476320968372784E-4
7.13521516143764E-4
0.0191221195372199
0.025397607240548976
0.005627489049635472
0.0038453396164084266
0.011801101025272744
0.0023232774813038413
-0.15314410021869995
-1.2372042822805642
-0.018105893350308936
-0.04999771840740145
-0.05347343386267961
-0.051226392172796745
-0.02872576323547721
-0.2680951974678213
-0.038625110705219734
0.010505727511726319
8.52400935034385E-4
4.345312855074712E-4
-0.115160599749046
-0.13486924871796516
-0.07975877988958607
-0.08011298069171506
2.761549118838937E-4
6.186534426499949E-4
1.6182276099066227E-4
4.4975395229073265E-4
-0.08391290334208182
-0.0010398589701996212
4.4308926033456085E-4
4.052866688880205E-4
0.07499129794886611
2.797777240335718E-4
2.3792263747941456E-4
8.96352519568588E-4
6.005543237343946E-4
7.35952096472614E-5
2.7303954360191764E-4
3.4007298059987736E-4
-0.020214756942130516
-0.016225525430835906
-0.009918667932596407
9.404911351317537E-4
-0.004105052389523699
-0.021896852489864317
-0.022373231170074743
-0.07888557933749317
0.011964553326062326
6.198229317830206E-6
2.6903540938623806E-4
2.4701611432070814E-4
-0.05202464050426498
0.0283132355670584
0.028127915967116314
0.4183128197003234
5.060748368326488E-4
3.196955968321805E-4
6.790743876827608E-4
1.9306854924960615E-4
0.08919508792608978
5.900108574197341E-4
6.514572436449142E-4
8.60139058575728E-4
-0.04770864731483427
1.355958404887948E-4
7.76244384629808E-4
3.725294512629823E-4
0.031971787009946906
-0.01407681173986421
0.014631871867858288
0.053264111892661815
8.034161668845137E-4
2.4654128961134513E-4
2.4882109048754853E-4
9.108284475780957E-4
7.169134913134822E-4
2.6571779203740366E-4
5.513685227667912E-4
2.3250230417304896E-4
0.001250003005297421
6.068440015601303E-4
3.535446281148469E-4
3.5964774224447616E-4
-0.1612437390800313
-0.111871558189133
4.060923120394351E-4
7.159607933281085E-4
-0.0189107414228899
8.643813655939024E-4
4.174934007163827E-4
1.910522506148179E-4
2.0401629495547368E-4
2.5048839730000474E-4
8.131914564218015E-4
9.069625663526215E-4
0.06583942716324052
5.143788914775949E-4
6.693648175557659E-4
1.605772374791684E-4
-0.012338895603717768
6.50223824408598E-4
8.548493892718039E-4
8.555226864156728E-5
-0.03988722197208512
-0.03905679452690627
-0.039456004338601795
-0.007892713450237704
-0.026334525610642992
0.02058940693571694
0.05480478450790543
-0.004972347985509565
0.06478177116014251
3.9155501586542586E-4
6.095420216465652E-4
6.209598861818171E-4
7.361922640552829E-4
9.687303489811814E-4
7.170525118918658E-4
2.3119812223856072E-4
0.045556027060036114
8.270170092914306E-4
8.721835465376321E-4
6.140589817981353E-4
-0.012282500976528917
-0.0014051616064102363
2.3804193449405563E-4
7.483514890873831E-4
-0.07676299140153267
0.08361366833043077
7.523278353910384E-4
3.711392933625006E-4
0.09309980045416968
9.733121886031342E-4
2.924892562804885E-4
5.51630501776718E-4
5.09154189599582E-4
8.417992956864563E-4
6.649014367619427E-4
2.921033082895511E-4
6.340379473339897E-4
5.807537116138333E-4
4.6924966636402985E-4
5.451800609753361E-4
-0.018132075772182326
-0.017129834269817026
-0.03321861879854718
-0.11798719031790199
-0.0411412049885742
6.829150876448195E-4
4.42632025802535E-4
8.356984781428298E-4
-0.08331860129519453
2.823857540086493E-4
3.090196877910445E-4
7.372286353316614E-4
0.04730461476815618
7.28231268977125E-4
3.8506976014859027E-4
5.0089025403347E-4
-0.030133470276595645
-0.04237379981332784
-0.1080655836191611
0.027395892599456767
-0.007934684151568144
8.387359645118253E-4
3.283395304330031E-4
2.3664171860288496E-4
-0.0380202201779715
-0.017810222360012076
0.07723491634279174
0.04752230919777039
8.086712681479712E-4
8.380814497340608E-4
8.366080921216253E-4
2.7451329993439023E-5
-0.0012236799815172326
7.594490218339405E-4
8.370738665615112E-4
3.228756887693234E-4
6.351800623509848E-4
6.690239198647845E-4
6.045893646357928E-4
2.346454356216876E-4
0.14942191585599468
0.08421883383316943
0.03068818013790646
0.3032466046901507
-0.039756337243245975
6.258206271844358E-4
8.440924562520924E-4
7.469110322734663E-4
0.02582380062272224
0.026910500886711233
0.04168288031938181
0.046753985177935095
0.03513396629105432
0.043028033880628154
5.722420038700667E-4
8.767657409914675E-5
-0.01314234631417471
-0.006803317221891571
-0.005114584110646032
-0.0017186943043620065
-0.025237593062685224
0.009831195359995546
-0.16078587776162634
-1.1102532640226241
0.0745761044785376
-0.12584109085863926
-0.016232132193470833
-0.021725556645758128
-0.03015987392497184
-0.3119290842806722
-0.0789589018730677
0.003272018338118137
8.671870292982022E-4
6.27136153391311E-4
0.022680201102159334
-0.11596836098925037
-0.08037731282644173
-0.07978618923662976
5.671291605805875E-4
3.3625168371427083E-4
8.53614597345517E-4
4.885885535397739E-4
-0.07738463132913277
-7.032711439097119E-4
3.351772552861093E-4
7.776609966692217E-4
-0.002114390374205773
4.0258340914431845E-4
9.125032418057329E-4
7.43605757950015E-4
7.27880691014775E-4
5.231622028905422E-4
3.59531294627729E-4
2.3343792683705033E-4
0.005601846641768388
0.004006346997890678
-0.0024037043281787134
7.199940127932536E-4
0.060776029388233274
0.023805768459101293
0.02355821277220616
0.013076012386229489
-0.14334292124589476
1.6276474025209885E-4
9.462502925185929E-4
2.749136131290016E-4
-0.08750547198329041
-0.0072235890447096525
-0.007040251773454352
-0.019505041670486674
3.4984604229287375E-4
4.3801352699364106E-4
8.020979288202244E-4
3.6296842950829414E-4
-0.06422263813889088
6.712019079562215E-4
8.784011833292344E-4
2.988347978404602E-4
0.022201893579486393
6.942258946949489E-4
8.698375683946946E-5
7.38387410913447E-5
-0.08158691552214088
-0.10924850811407104
-0.009366983611045722
0.026072817616424507
6.980655670977671E-4
4.2255548842210535E-4
4.981983630453355E-4
5.964890248752169E-4
2.3418801835261183E-4
5.903481061254293E-4
2.579826924326514E-4
9.05884131793722E-4
0.010197101113419987
9.962289605018606E-4
6.766451664161208E-4
8.169814453815625E-4
-0.08690804665933999
-0.03764818790721337
8.557661713248481E-4
1.9338834129937365E-4
0.012382521334419555
8.423191578155116E-4
9.817704797765894E-4
5.069267167517593E-4
3.9438284889189995E-4
5.858988650599313E-4
4.888933486155122E-4
5.799546529568628E-4
0.05204424181160887
8.047410224153142E-4
8.761736936281886E-4
3.096034168756252E-4
0.041171303915654954
6.460780886761268E-4
1.8424203274048045E-4
7.451764746257877E-4
0.04192227274029672
0.04213878728399763
-0.024897706050255826
-0.02760181654430497
0.025799602971679648
-0.01858390754950222
0.006878618173997942
0.008414353309081789
-0.13511439527747096
4.6123916705590964E-4
3.0648979961443E-5
5.912491237824426E-4
4.595899540235375E-4
1.544154204406706E-4
6.227786886513401E-4
4.8740128033037923E-4
-0.04093315814493694
5.120702114059578E-4
9.943241865519815E-4
6.481711360311195E-4
0.00362141563021755
-0.00187894419492966
8.537362251496276E-4
9.145914387303087E-4
-0.07514612274621793
0.021801905932705232
3.0396516042352885E-4
3.42148329234641E-4
-0.07910260862034887
5.804404768191354E-4
7.868643416427346E-5
1.7928042396948808E-4
9.798934681445434E-4
9.174835351512282E-4
3.5058291214527137E-4
3.7717084558127554E-4
5.107260692024245E-4
5.645070932818298E-4
9.7877978982478E-4
4.4153156529169903E-4
0.02189726073116978
0.026898829553791265
0.05390066358243081
0.16921598803271604
0.015680655617853485
9.584960225393609E-4
2.590547055045802E-4
4.915374753157987E-4
-0.03040299862798214
3.847052777060609E-4
5.822781533294275E-4
8.188412955886966E-4
-0.028252299061963373
7.973219148610002E-4
7.868014121672931E-4
4.892488673675097E-4
-0.06689406510434827
-0.07137115883664885
-0.010573406857295619
0.006479935186857151
0.01368158218012581
1.9846199427204302E-4
6.774965220693449E-4
9.80187377696394E-4
0.010693096772054246
0.006481756435941873
0.06007625406069698
0.08295442158745121
1.088917007026573E-4
6.40693248486194E-4
1.2908978538785977E-4
2.69473865222307E-4
-8.413335686406153E-4
2.5818591564001213E-4
6.331487420075064E-4
7.792736195560576E-4
8.025947753986361E-4
4.5380719938969974E-5
5.542405932968697E-5
4.861030691344853E-4
-0.007936019876005571
0.0683827916048047
0.062411659045721185
-0.03741474700890704
0.1124968111960568
0.00750748748637419
8.195698557294346E-4
9.194963428567227E-4
-0.01033233842503398
-0.02113096384142105
-0.03225438925782559
-0.034159244278801924
-0.07479930255865887
-0.10668773157100168
6.178556282534116E-4
4.6036333725120617E-4
-0.0036575028625909695
-0.0017911159025223143
5.104021063767904E-4
0.0012162275881466332
0.00445605582679881
0.01814112006975032
-0.16309122056037514
-1.265183814517594
-0.10508913211321928
0.017817433734962862
-0.23998872818340472
-0.2597132710574232
-0.13124614546265692
-0.33081102845031096
0.15742212642218958
-0.013952545023759875
2.2434894501574743E-4
9.216130410263754E-4
-0.2625245817432535
-0.17598670555086765
-0.08030609377633346
-0.08024368542342007
4.1952267756763085E-5
3.610185078207617E-5
8.848080998451315E-4
2.0126651266279817E-4
-0.049723368406462604
0.012467718074058757
6.570632055840431E-5
5.297179151023903E-4
0.012142726338389868
1.0181849788276886E-4
2.50457839359292E-4
6.423091135155379E-6
2.792852582278494E-4
6.582694039353418E-4
6.062463092852406E-4
5.433275139675109E-4
0.027013436910433865
0.03154876376671518
0.03631222454279954
2.0406262208318095E-5
0.02560250012163925
0.0263651746569234
0.02712903073593972
0.18026790652631372
0.1871543192089178
6.112690446538445E-4
9.804781478213657E-4
4.926765419029078E-5
-0.06966994077188361
0.011074818336166315
0.011089698093180373
-0.3028798245456602
1.9310939977802366E-4
9.211646581480893E-4
3.210101003532436E-4
6.080838969867619E-5
0.0020575582613908115
3.076692518606403E-4
4.488661608578357E-4
6.239587081963766E-4
-0.040949263315572915
4.0474009096094267E-4
1.1748113627918566E-4
9.499800315460931E-4
0.151622396813216
0.15094138600966628
-0.03580044241832685
0.06370954858880994
2.5951575990387456E-4
1.9543319948625793E-5
3.5971661984119784E-4
4.251961641864973E-4
1.9524451417535528E-4
3.800167076030603E-4
8.016958193396185E-5
9.872332105029455E-4
0.0010137339037614727
2.669021229565217E-4
9.294730751182159E-4
6.600857303954545E-4
0.09724781511660771
0.19076102976661838
5.032800832739415E-5
8.357841871573691E-4
0.03049041400041404
1.9424815103993455E-4
7.941761721127217E-4
6.052196489140532E-4
7.038808563654253E-4
4.28770963166108E-4
5.867759927226415E-4
9.548870383220885E-4
0.001013263317972187
9.861252002164476E-4
4.373724214041819E-5
1.0434182527892477E-4
0.03232751732858191
3.83768573252205E-4
2.280129516912759E-4
1.59816275960307E-4
-0.015188374200894536
-0.014807758335583709
-0.004174143235602206
-2.8792414812917326E-4
-0.003306036083954904
-0.03140835238346121
0.06506038436065845
-0.002732024743071067
0.17556282766337036
1.6029555127035345E-4
9.482072062643572E-4
3.405574946805264E-4
7.549818871584756E-4
9.139331276712095E-4
3.7500807090359536E-4
1.895636832362372E-4
0.15449610078790224
5.485127207124725E-4
5.454423192560425E-4
1.8076860212588609E-4
-0.0011274737780554605
0.0070450897428736056
7.482155239258979E-4
5.391798478959009E-4
0.00711034143501015
0.12431845017600471
6.998713696654149E-4
4.576958295678608E-4
0.09887181456298988
2.2008169234868124E-4
4.483179107287312E-4
4.319733400982502E-4
4.1751070559309855E-4
3.8135541690613006E-4
1.0352218247710854E-4
9.99253520687403E-4
4.2713450569048885E-4
8.800685709831943E-4
4.924498431379598E-4
5.897948023792003E-4
-0.007173114485690069
-0.006415603984253647
-0.03529625035952014
-0.3238699175655403
-0.13680070776421144
8.49511249501188E-4
9.904889492945812E-4
3.6332510986210174E-4
0.08984717863838362
5.368484894918042E-4
9.95773233104741E-4
3.770591826722432E-4
0.02080069604789597
7.403300352018858E-4
1.314268661855914E-4
4.1089773583195897E-4
-0.0066598066049668
0.1546179491028828
0.08702431754376233
-0.019956134644358223
-0.004195442061942074
3.395845933630188E-4
5.694595306291795E-4
6.29091400020474E-4
0.025130945506843146
0.020267206957149193
-0.09437496646389336
0.0032994634225475905
7.064125866339994E-4
8.999145744008634E-4
4.480780183067971E-4
3.5462383429025004E-4
0.013008843522065197
5.885988849915553E-4
8.171061974050109E-4
9.835996751295048E-4
2.595874590032743E-5
9.73742283982318E-4
5.504409159390386E-4
1.0707808527707341E-4
-0.0745971626908949
-0.17781689676251317
-0.17747970008222946
-0.43930979804248615
-0.1956495774825283
9.982736612745553E-4
3.143099306832957E-4
3.9199262826286873E-4
0.04619664395266487
0.0475891745017148
0.035711533546435546
0.015597695591576057
0.1675568256240995
0.1597775161391212
6.998295653879255E-4
3.338464808702435E-4
0.03364472584669071
0.039264604567415984
0.01748058750774249
0.016970097368818157
0.009442017919141434
-6.009072511255415E-4
-0.16598804755816068
-1.1741902472411305
-0.008153641792140906
-0.06242160321116193
-0.06526306953533477
-0.07440604951444002
-0.09595202549101552
-0.30719656475330914
0.03903181866867326
-0.014847207236641978
1.4200277345196576E-4
3.9273992537818556E-4
-0.10027354954710639
-0.07811481961589198
-0.08064106024207382
-0.08127397895078625
9.546176484942034E-4
1.1281564670077204E-4
3.5279805400214827E-4
4.802431533283524E-5
-0.07451434779846373
-0.001174727529369646
8.42842367911036E-4
6.442006019972224E-5
0.00873171466435925
5.75253262410802E-4
2.1461809332632754E-4
7.984507543785251E-4
2.338373054662841E-4
6.282331160655507E-4
6.601178482524294E-4
7.990047424964341E-5
-0.017871197824553788
-0.005364008421567387
0.0010055462992349519
6.658653684221077E-4
-0.018944317548834775
-0.016456235537579012
-0.015725896199065087
-0.015257302243669054
0.07643204314425724
8.805286393395754E-4
1.8954459217178132E-4
2.399200165348323E-4
-0.040111498875644504
0.04191433008685044
0.04217599581222396
0.1405035414355612
7.401513586552218E-4
2.826249352202296E-4
3.350925209879637E-4
7.693245975554696E-4
0.0016329349225729997
2.5163974431924454E-4
6.5650709755788E-4
3.7323017059508624E-4
0.010518192506964957
9.116728102820285E-4
3.106171666547927E-4
6.443970593323423E-5
0.03383635109046288
0.036073897685048484
0.03291250409658166
0.05110501866679888
1.6072676807274322E-4
5.475933499397488E-4
9.569459592281903E-4
5.432409045638446E-4
6.053109027660317E-4
6.691811285439529E-4
9.142308887691287E-4
6.588837315166057E-4
-0.002516037572316866
6.102004133975114E-4
6.478933490370596E-4
2.6857817892158575E-6
0.0277371105855824
0.007501459901873696
9.148233243785433E-4
4.574438731781909E-4
-0.006493775540182856
2.1009352116871594E-4
9.1965234183481E-4
9.47515082665867E-4
6.411550429265504E-4
2.423287279121722E-5
5.234795985708114E-4
1.3195074448712162E-4
2.5797781958528896E-4
7.638205792032872E-4
8.797883372378773E-4
5.585192381347301E-4
0.04985834794096516
6.619924107174735E-4
6.484286393561856E-5
1.0982505159126343E-4
-0.034532551371023
-0.03626731741959117
0.051424976461444394
0.06662701614895195
-0.024310520143514733
0.03568268374224655
0.050959055999980574
-0.009181825215495092
0.0774094238695287
9.758277907443566E-4
7.197412488776757E-4
7.456837373775682E-5
9.227714848765988E-5
2.3576090570299514E-4
3.375428516225426E-4
1.2023600732789542E-4
-0.018858828601957586
5.738169858873092E-4
3.254787460051733E-5
7.789805266247318E-4
-0.012490287524248278
-0.00268055977037319
6.811577724210935E-4
2.246405696793857E-4
0.0577962132812429
0.0015804718060481227
4.87412681259122E-4
9.735922548037325E-4
0.06696839138801135
9.428537981729811E-4
5.151601402043921E-4
5.52036814167494E-4
2.242788513853351E-4
5.380701094209811E-4
2.4427873329576965E-5
3.669137041308552E-4
1.111430168629477E-4
2.2990302529195372E-4
2.2811993180468592E-4
7.385998001848918E-4
0.04251159926104363
0.04592586153126693
0.025507283440089176
-0.04353539497112192
0.014370170047402193
5.614697392912758E-4
3.0574060810867885E-4
2.4995890470673763E-4
0.05251550652168983
4.428214073775732E-4
9.69999641428826E-5
3.659780378700424E-4
0.0011212583723071176
5.433279445932315E-4
3.364555102717792E-5
3.070755028015847E-4
0.02700243851771153
0.036549988219350155
0.029956161936537364
-0.014345187420538953
-0.011596663699662314
4.404297628646004E-5
2.5515716079276387E-4
3.676014154247498E-4
0.04771596556993918
0.06682450186618327
0.0037245722580091945
-0.013828786742788004
5.573282778423171E-4
6.604456527413129E-4
8.598499628295501E-4
1.1974967723218744E-4
-0.0017631720981326365
8.206189947040223E-4
6.886879759862631E-4
3.8857471213375494E-4
1.4968494582827207E-4
5.462045399209734E-4
9.286587493388357E-4
1.9570871894220677E-4
0.025056075125806373
0.006734973904549308
0.007844656048678341
0.048287437786936026
0.010090026782461188
7.480305596355634E-4
7.11323276208065E-4
6.16313158173999E-5
-0.017048946277715166
-0.010599857274759972
0.0050472994505334
-0.004804168237348189
0.04685194729284759
0.04759388326466354
8.619506223432909E-4
7.912293595412164E-4
-0.0026169834834506014
0.0022966981547424313
0.007443039688343024
0.010453716588734372
-0.018025195975321068
-3.6728954819062866E-4
-0.16447733181125043
-1.219649391687807
-0.0256321585102395
-0.014126601028140099
-0.03150404542396627
-0.030260026008980295
-0.07282116954393233
-0.10592226739193059
0.09573520728419546
0.030967934264217276
2.4725091992561764E-4
7.979765251765117E-4
-0.10219110013446321
-0.06825481792363694
-0.08189980051935895
-0.08110021821432013
8.804180232573123E-4
7.021664121471526E-4
4.6995919551176936E-4
5.748391255993544E-4
-0.008208791929446055
-0.0017534689407337828
4.45606325120818E-4
5.4540595590326755E-5
0.0021091488760492127
7.231470819050746E-4
6.248441565266117E-5
6.194155389680571E-4
9.935997973989999E-4
4.836076050717889E-4
6.167276463020476E-5
2.0127924423423237E-4
0.061530954700198814
-0.010861653473005325
-0.008497755220712378
4.6052660503012155E-4
0.05916749967919964
-0.014107253692141213
-0.014079732995558543
-0.05605391303204263
0.07022234620653572
8.769288380108988E-4
7.552862572486077E-4
5.890190683062113E-5
-0.021160650609459927
0.06086579309699253
0.061171390098103816
0.10976591480477237
8.025738537365261E-4
7.289047700331783E-4
7.680002157324447E-4
3.093056544893402E-4
0.0012752187689615841
9.276724142063242E-4
6.311760129179313E-4
2.0986758722807498E-4
0.02937606585474272
2.96479722047843E-4
6.341220320131289E-4
1.708855436210088E-5
0.0930407808008913
0.09416732676177038
0.08091029415408282
0.05073649185711976
5.638275996498032E-4
4.5861821338721154E-4
2.4676973692895496E-4
6.186973662672553E-4
6.259325445658835E-4
7.246268043741063E-4
3.658680705656511E-4
1.728130668743245E-4
-5.859531223458922E-4
3.329951607753008E-4
3.809174035876578E-4
1.6567328893948751E-4
0.13575342005878865
0.014330120938590566
6.35935335572317E-4
8.362005011602938E-4
-0.011794192359920151
9.333186512119114E-4
4.5887998605254786E-4
3.4167019838906963E-4
8.78618568589944E-4
3.2291111196404985E-4
9.086334507299452E-4
9.060751238529577E-4
3.916022210878402E-4
6.946339599076559E-4
4.850485407657635E-4
5.320242444071654E-4
0.02544167450899913
6.077405957372042E-4
7.0870532778901E-4
4.897078687926186E-4
0.1435617368245462
0.06992099284740574
0.08716348906586378
0.19152596900001456
0.07340448055026313
0.08274641273012341
0.05105289735169609
-0.0013803678485698814
0.02525460883568704
6.810459448724702E-4
2.5936389228795986E-4
1.9708616371318056E-4
1.242267062268886E-4
5.517429737503335E-4
9.630881598950235E-4
4.0606228777184536E-4
0.006119777330053437
6.530114623228719E-4
2.24423096920364E-4
4.533468412721797E-4
-0.0070344486970351575
-0.002134994675663023
7.224170425674769E-4
2.90283278803659E-4
1.132456293606917E-4
0.03576075128777317
9.38237136257592E-4
6.065683018044391E-4
-0.029488734571129636
2.2173365436770564E-4
9.803253804963386E-4
3.0881818034061135E-4
1.0593588849277979E-4
1.7086311468443894E-4
4.400619007121362E-4
3.005238656481157E-4
3.064157407102179E-4
4.656987180643688E-4
5.771601061960686E-4
9.976293347467122E-4
0.06379388111484967
0.07253951489016447
0.07224548128409763
-0.07780884263510654
0.04329564004802593
9.75917350150209E-4
9.972001844468516E-4
4.400496667138236E-4
0.025275591310522576
2.766005455371372E-4
6.986217452766015E-4
9.521664575880146E-4
4.1892417110988813E-4
5.282713500957744E-4
2.1486028914710663E-4
3.999204966205464E-4
0.0416112856099738
0.09437136257336266
0.09971717495311815
0.13102096509068842
-0.0047630989810816295
4.120687494889577E-4
2.0428573915648606E-4
3.920460306611292E-4
-0.005459009799082722
0.07077297771707754
-0.002565438173700048
-7.115411347548753E-4
6.513838163137359E-4
9.487253271109796E-4
2.256198141993899E-4
5.844961279798983E-4
-0.002076568065483443
9.687764870909105E-4
9.248072367819606E-4
9.369128341413072E-4
9.778707299373036E-4
2.1005293508817192E-5
2.5122466503128783E-4
6.77288516638318E-4
0.04517251109565523
0.05335250448751035
-0.022957817613696405
-0.14526799634931029
-0.01147387921016662
6.94852553586098E-4
1.4513694638845908E-4
1.5198144025198911E-4
0.05011771019185405
0.052480490867134126
0.0614725340730096
0.21515411964169134
0.09642241130841939
0.09763141241227917
4.5903987121117716E-4
5.3670846591824E-4
0.06604887450374256
0.06742089956343213
0.07357822149579106
0.15053743147881612
-0.010922568504335957
1.2112994739961316E-5
0.369021285194658
-1.230359383347823
-0.041653815448026654
0.09632077800156416
-0.045111991207842955
-0.043555674217265444
-0.04567142232862844
-0.23649304055534756
0.09689833480703573
-0.008315077802550126
5.518631733787818E-4
8.243035530817964E-4
-0.0521078495116918
-0.08143442722957249
-0.081981562312882
-0.0816566656748757
5.8206560165604106E-5
5.822847525789989E-4
6.652005299964713E-4
7.368909225751366E-4
7.507571102474272E-4
-5.782996118059228E-4
5.144543001580147E-4
8.331485284909579E-4
2.612595505680749E-4
1.015736012521804E-4
9.983931209667641E-4
6.868770984576074E-4
7.009912479741723E-4
6.58155981419743E-4
5.511885531898976E-4
3.41153632169961E-4
0.07797214280674843
-0.004626216918912784
-0.0047581700728735864
1.0065383952600615E-4
-0.00610239150381566
-0.005423603132723144
-0.005229784890903688
-0.027318631900691098
0.10679091798688492
5.413917495391026E-4
3.3612389380254583E-4
8.246672307398563E-4
-0.037526920445966484
0.04493817956084126
0.04489213387394429
-0.014440010837379556
7.037596322547194E-4
3.3473089617096707E-4
1.4354622787010252E-4
4.869033048086564E-4
6.227892176665868E-4
3.9024938637005434E-4
4.762160806360805E-5
1.0072092725694814E-4
0.0014335481099647916
3.086182304984172E-4
9.511470196178035E-4
3.2401057983846794E-4
0.09595069310104765
0.09609014753108629
0.10214473718923252
0.04857210825166182
1.2499659303147003E-4
6.778063825638336E-4
5.039653304224236E-4
6.810913228209168E-4
6.138803199196673E-4
5.734658775801998E-4
8.45530694430462E-4
6.98392665156979E-4
0.0013120172589096372
7.501492762843161E-4
8.805371403763509E-4
6.41192324292851E-4
0.03379047496868484
-0.004785101998226866
8.506460121478731E-4
8.644698449104646E-4
-0.0050034877638433645
4.00559981865531E-4
5.910064894444946E-4
4.915267927840543E-4
7.988800197880179E-4
9.7763728473928E-4
9.96808865959657E-4
2.1555642476385684E-4
8.063296620808209E-4
7.947857823587059E-4
4.3726048523526215E-4
9.834582810411272E-4
8.870103031493323E-4
2.631421368626615E-4
9.020496898085404E-4
7.593162628064948E-4
0.0798435711393123
0.07993763440543106
0.01958159164392335
-7.013704997194073E-4
0.08194354028856317
0.10223830679226913
0.04873797094142885
4.3996631050995826E-4
0.016734145330380874
4.2946008646181985E-4
3.546144538658179E-4
2.408080818004552E-4
6.405080971781654E-4
3.3564930610957387E-4
5.6419634606829085E-5
7.287038946872913E-4
0.07658726545872108
1.0760954146908596E-4
1.6337992541309488E-4
1.7285747489600168E-4
-0.003167340787697978
-5.089601994184804E-4
3.8173915683475425E-4
9.585524327116345E-4
0.14734727890730875
0.07788465506333211
9.501986901138826E-4
9.685695627183209E-4
0.07487846131462227
9.401231902398836E-4
6.820493001740335E-4
3.019642118013901E-4
8.21823221314804E-4
1.8518405942882942E-4
3.5322449030518113E-4
8.736848530861898E-4
4.742765322686441E-4
9.239676557124082E-4
4.5766814934035816E-4
9.06904148247341E-4
0.13047902746679774
0.12211701688548561
0.122907772454334
0.04814307311575192
0.002266815712725138
6.009943325803035E-5
3.3505755277934334E-4
6.322994990689434E-5
-0.012333709085849206
3.595723786883934E-4
6.707200872634968E-4
5.423354614357489E-4
-4.295743858060231E-4
4.3476992964262E-5
8.545399640689012E-4
4.6813891594722713E-4
0.049364697864369034
0.09657315620938824
0.0690449586042639
-0.03025977607502791
-0.0017259589479778979
1.2983090923579808E-4
2.3292994190435856E-4
6.388923119029782E-4
0.14758174966425547
0.13665305265486155
0.05826506375152801
0.0021660730222201143
6.00906390976382E-4
6.130703697488761E-4
6.518612611669686E-4
3.048490571884024E-4
-5.403010996190218E-4
3.2610943041700715E-4
7.371267574846194E-4
5.634656174247791E-4
9.361190027837511E-4
5.38834807627467E-4
8.725912618540049E-4
8.608395420571946E-4
0.06427685996519598
0.038444596971483364
-0.04646244123623367
-0.40074685033730056
0.030683485252642913
6.737214960432E-4
2.280633809204996E-4
2.1391115468770926E-4
0.002351539929046995
0.0024801217646746227
0.007492461880785894
0.17882949785162616
0.0969020395714566
0.09820708157962194
2.9300927774398124E-4
6.054766557617478E-4
0.080401439587392
0.08154595926551828
0.08400810959625052
0.1707042583729386
-0.052938169385099154
1.5495844969367427E-4
0.6053347674164935
-1.237054657814813
0.07049573763200435
-0.022316662074328312
-0.0034952881420437913
-0.003735130277623671
-0.005341416171837994
-0.28836798859770146
0.013937305138734158
-0.023466962120434903
7.762220482915973E-4
1.7783220453963032E-4
-0.045536736714542815
-0.08138283962248816
-0.08241883922596697
-0.08248920645426681
2.5420647275024546E-4
2.2026254027102986E-4
1.6910326419787314E-4
6.918213932829837E-4
-0.08337471490014557
-3.674001359301926E-4
2.132884133753976E-5
7.929824337028627E-4
4.8340964690566594E-4
1.5561214014956626E-4
6.387398679554669E-4
7.821010123385917E-4
1.5643838925602017E-4
4.450036510845388E-4
8.397570278545572E-4
2.3135076847349012E-4
-0.0035927187012179886
-0.0030012085193429233
-0.0019318081076851526
4.2573356986016597E-4
-0.003333817510722693
-0.0031156368301263923
-0.0032114202100735037
-0.015553560174440133
0.038470560742536845
9.486200945046077E-4
8.122206362177148E-4
8.411139378829157E-5
-0.0595907777783947
0.023234678741874668
0.02322793091027235
0.02540505868065811
6.52231538662186E-4
5.400173895332089E-4
8.981896281002575E-4
7.746320636429699E-4
5.053841209567422E-4
2.627539907299081E-4
1.9922552637696966E-4
3.654512907596452E-5
0.0020015390335212774
6.478453632245868E-4
8.539359534216633E-4
6.773467265363846E-4
0.01372810154484838
0.013843945958028455
0.045611760417825574
0.04400457735766479
9.212788462170734E-4
3.1641518072270526E-4
4.959050579456281E-5
4.2111312488409447E-4
6.472906591861778E-4
2.22966459202268E-4
3.6072062770169897E-4
2.7565919100797044E-4
0.06769851036585796
5.89917394409189E-4
2.524100053229056E-4
4.4378384081480494E-4
-0.029539123408810965
-0.030871760153768402
3.884556263195267E-4
6.519278693856937E-4
-0.0029487990958272287
9.780638076143087E-4
5.626414092699068E-4
7.096187532955945E-5
8.804273903113128E-4
2.74899454687518E-4
2.0277020402519386E-4
9.990878143413635E-4
6.40645184438489E-4
3.8150734670751E-4
6.573087013895275E-4
2.078540746610842E-4
3.024989694961655E-4
2.3889631326199256E-5
3.4219021417013494E-4
6.091516393191576E-4
0.025301329536585534
0.02537170995815479
0.05415522195088561
0.07306536872815832
0.02665373503630015
0.045119681551086865
0.04422322817424562
7.504868448706586E-4
-0.012135315265831248
4.688165485270249E-4
5.663597474421863E-4
3.786858134255008E-4
2.624990228234587E-4
8.5665492871105E-4
8.692047155850382E-4
6.112252143112966E-4
-0.04042696512769677
6.498645018156645E-5
1.3929616609866213E-4
5.717390929567936E-4
-0.001980378827960958
-7.971468680431815E-4
2.627319854652471E-4
3.9904585052546093E-4
0.032493716431177114
-0.03858705442465694
9.693040326136529E-4
8.062811868329622E-5
0.01734694997011406
8.862706288632337E-4
5.506280850480202E-4
7.066422011077526E-4
1.7743352775065414E-4
4.934634317327863E-4
4.810650092425326E-4
6.6200442794453E-4
5.799001963294339E-4
6.824572846997663E-4
5.990559626309409E-4
3.226251130106106E-4
0.025879721413765138
0.047149148461855445
0.0477748182910437
0.06502686902684648
0.002363035451649134
5.887588667981276E-4
2.3146070763903681E-4
6.612607941622609E-4
-0.02841000475991775
2.8069930427897916E-4
5.677791429597327E-4
9.692105837941834E-5
-0.0016369182818639046
5.1020872784142E-4
9.394889184942437E-4
3.626190426518816E-4
0.026178817245427678
0.013657436715623387
-0.0024919241647304124
-0.005873788134242077
-8.325474708876664E-4
7.15592625772092E-4
3.334711046783233E-4
8.280852033264097E-4
0.09601162090412575
0.07523216093298608
0.053927167850454726
0.0012079186935684116
8.894501963287101E-4
5.189414298687768E-4
3.2074826454836025E-4
4.6076712979687404E-4
-5.652694670780392E-4
7.398136694774362E-4
7.389582948993048E-4
7.577918039019349E-4
2.3568318384916242E-4
7.508798108709202E-4
2.501239630031913E-4
6.303284633797505E-4
0.09457417114855425
0.07947196071043582
0.013083641905029331
-0.07685641100651865
0.03743047743223698
9.768624139196466E-4
5.107232517255701E-4
6.31779439916001E-4
0.0387156006219963
0.039235891673708
0.04246186133283234
0.17587221151743912
0.013516396763866801
0.014427195637001886
3.235393612176489E-4
1.5775637953110066E-4
0.06479291559167377
0.06427069877376651
0.06650979399032948
0.13328499474464073
-0.00718200877505948
7.328262591703741E-4
0.5704159376310307
-1.240543329486185
0.022755188973915097
-0.015477195566422717
-0.10758453427857939
-0.10650511968228481
-0.10616576827717696
-0.3588731671068827
0.049143514321146824
-0.016450193321773738
1.7869556777811913E-4
8.56595589147362E-4
-0.07919772595700536
-0.08235844978819495
-0.0826822275225306
-0.08217162771359005
6.091167919233361E-4
2.2279139584763908E-5
4.534138942796344E-4
6.679566951681761E-4
-0.08430369090513444
-9.519558114957831E-4
8.211947098729057E-4
1.6079734441709092E-4
9.91123290953973E-4
4.510259060957196E-4
9.127242744136881E-4
9.789983258337567E-4
7.697548904303753E-5
8.143096183730742E-4
9.94567356376374E-4
2.378094838157313E-4
-0.005031784345134636
-0.004568039208744302
-0.004376559395230856
7.786000693114948E-5
-0.004216383830225637
-0.004085243405711481
-0.004886253293287515
-0.024030005199613257
0.06626649079607429
6.821964932451038E-4
6.533353839366472E-4
4.359492522310885E-4
-0.08355061154564729
-8.477992612740258E-4
-9.358568054360218E-5
-0.20099633208865378
1.1004617565514873E-4
1.3165810952295388E-4
2.112887618113106E-4
5.548061175749275E-5
3.8733974210634794E-4
2.6243759587492808E-5
7.440015581746693E-4
5.515515767856192E-4
8.766679407309117E-4
5.548663523295465E-4
7.206957348417393E-4
2.494485763961929E-4
0.04812583877268605
0.04818575268041998
0.07805194006987062
0.031230142114638332
4.299425814756835E-4
1.1928803123295618E-4
4.8789748893684825E-4
9.360660648069307E-4
9.051052237281148E-4
6.424942137417142E-4
8.060994070726658E-4
6.334099831754391E-4
0.021367707178345158
4.015688654882167E-4
4.998270581287353E-4
7.796992537524891E-4
0.03154582051753533
-0.028437782768925637
3.438230146364103E-4
8.856182481727188E-4
-0.00462884538728864
2.972520144447528E-4
8.238478439698161E-4
7.603304405560914E-4
8.274639910505878E-4
2.067875539366607E-4
5.018375861840773E-4
9.375541291033429E-5
8.375076927837024E-4
1.783603959014206E-4
5.645377967704333E-4
3.5798552631194357E-6
8.192489221211752E-4
8.340770072503836E-4
2.1470200522647287E-4
1.6881840572629425E-5
0.06488930895261238
0.06410232009726599
0.08647082234239893
0.11784748784469812
0.06511870324302794
0.07800449786567873
0.031251477630453224
6.736738875300728E-4
-0.01617700476922071
8.541330344564397E-4
1.9588629444815343E-4
2.1889870661705413E-4
9.317432031945667E-4
8.409286903692447E-4
7.747585823371922E-4
4.494463600142633E-4
-0.03866050097322394
8.042000309894306E-4
6.556981888110689E-4
6.790471905761509E-4
-0.0028869153156808954
-8.109105067094245E-4
6.86866535771731E-4
1.2256993195566224E-4
0.022473509484254025
-0.03781084794299694
7.951751225867313E-4
6.744292909775817E-4
-0.01807891753588259
5.391876804245043E-4
8.686111491937674E-4
7.437029397414522E-4
9.562547253296614E-4
8.417340659098746E-4
8.045223115521362E-4
3.709381864590591E-4
4.751535407732899E-5
9.510881502956393E-4
8.067774784357226E-4
5.984805916864099E-4
0.00661656946062356
0.04757656938045567
0.04828284549695788
-0.0029118570451803012
8.377288733103959E-4
6.787560494382592E-4
4.3893669271608424E-5
4.965258225333141E-4
-0.031103687875559574
3.434526069176789E-4
5.585875288187303E-4
9.380187274535875E-4
-0.005614393166185571
9.089290975436048E-4
7.901359871285058E-4
4.985353283174025E-4
0.010246933049160122
0.04851224937769464
0.034738185366455655
0.013295955184181201
-0.0011986768964589666
1.4420544093856326E-4
2.425703928081283E-4
6.949404623459408E-4
0.034784854007427694
0.06901179373902713
0.01843229199166036
1.516984879096504E-4
2.63226865678606E-4
9.863279129320465E-4
3.751169681285438E-5
7.431737515441185E-4
-5.909182093169884E-4
6.912665636596169E-4
9.37130839608743E-4
3.871223392009967E-4
9.600045660797673E-4
3.4116005731156084E-4
5.117817458284195E-4
1.2057306274247003E-4
-0.011251068184011675
-0.023558504148357085
-0.04358359244243763
-0.2867320527691485
0.004110158363994345
9.398853812271118E-4
6.986476516059125E-4
2.9995385778206976E-4
-0.032545300017021266
-0.032494261476283454
-0.028603798475127215
0.012283169948231214
0.045584645563980376
0.0487576078360226
2.34221582850493E-4
3.0488129134121966E-4
0.01581825810828255
0.016786359297262143
0.019415582848157354
0.03992376033917915
-0.01644144321403584
6.119363829693022E-4
0.052870415836936205
-1.245765658565469
-0.06360502422472111
-2.1222418391275252E-4
-0.11878900977050029
-0.12328296269922205
-0.13074407825445336
-0.3767457255415497
-0.07880510916941852
-0.013826586722856866
6.291631871468476E-4
8.097767608762521E-4
-0.08280064016155768
-0.08347543523009521
-0.08264194086599513
-0.0829466569244214
4.4242768318291205E-4
7.652725191906241E-4
4.5696198623748564E-4
3.728183011791203E-4
-0.07359746354770111
3.891310594965317E-4
4.878595510514361E-5
9.790056354610163E-4
2.6641283310117404E-4
4.1136539602954403E-4
8.902408101520351E-4
9.356738515149686E-4
1.7602815225034263E-4
9.05986169946321E-4
7.963584679251072E-4
2.4663419221047645E-4
0.004012025338820993
0.0021750593156001077
0.005656724644245891
8.528002370077062E-4
-0.0017977086138984166
-5.839409880673305E-4
-0.0010263518891592694
0.019169459108372495
-0.060764562383875884
4.5362765638277757E-4
3.687387603984549E-4
7.698761306072385E-4
-0.21488911046817213
-0.13151334028402484
-0.13177102643890853
-0.6744639316869582
1.915970085591806E-4
4.8546594844374826E-4
9.567515029276485E-5
8.402221546072512E-4
3.797650952223025E-4
2.66282956670696E-4
6.482424499343784E-4
6.923688152090406E-4
5.967679293231845E-4
2.606684960289013E-4
1.3762024218318703E-4
8.492411088772857E-4
-0.08336593972811962
-0.08198598199257422
-0.0987330172679805
-0.07605990744478211
4.174965179001722E-4
3.7771307337804096E-4
4.683912838949311E-5
2.6640945852066686E-4
7.830476312097609E-4
8.357708216489159E-4
9.173783913514517E-4
7.06549104565224E-4
3.60164431235695E-4
7.189071644021508E-4
5.003489705721352E-4
4.943512919009482E-4
0.07984545707214612
0.020189220820093046
9.362945784733214E-4
9.916195647635528E-5
0.0013839249636797416
8.464192566277701E-4
7.235459602063125E-4
8.345260531117841E-4
2.2966884598130295E-4
9.776713528782109E-4
3.6177830326839465E-4
3.7631618809515834E-4
8.757351812497843E-4
7.623849375831595E-4
1.729264385104725E-4
9.390613566904431E-4
3.7040415278607433E-4
1.0074007817250386E-4
7.041511897498757E-4
6.189294401429685E-4
-0.07064819820840491
-0.07077155070055739
-0.07304008241600417
-0.017126208807877987
-0.06470996577530559
-0.09682388155876756
-0.07539000030299366
-0.001868512927453325
-0.013041568581736596
1.8346446720488553E-4
7.979605559945505E-4
3.2332644562387225E-4
9.929939910927076E-4
9.022965640450265E-4
4.957666633080603E-4
9.17901809363588E-4
-0.010052838710797613
7.21310722854264E-4
3.295422672763538E-4
6.738024002840845E-4
-0.0018689626207998064
9.267218061156104E-4
4.143332884310945E-4
2.1410730200303486E-4
-0.12489022747611203
-0.009877443735837276
2.907655495465661E-4
4.93118831932734E-5
0.02925687449834241
9.007962713903947E-4
7.018287198580926E-4
1.437981534351984E-4
2.0845642041203926E-4
8.408286312151239E-4
2.8243042859123256E-4
1.5077980453803596E-5
7.93124944924028E-4
2.663203663262854E-4
3.339923528645411E-4
4.69966081416329E-4
-0.08035219502488601
-0.07641993251983885
-0.0822436884271142
0.010475091928694807
9.327611653604376E-4
2.81106861853896E-4
8.657439246097252E-4
9.398927127742631E-4
0.014221973387647848
4.129947590458435E-4
9.893209434519094E-4
7.022962361311699E-4
-0.020704762320301693
3.2452822655135583E-4
7.304512123117018E-4
8.337534958816928E-4
-0.09238837556234829
-0.08019063087397507
-0.048301265694163105
0.03446529669732394
-0.0014462388388161024
3.8049244728937857E-4
1.6743275781684808E-4
7.591323623116911E-4
-0.16094673992068304
-0.05131716590251177
-0.02810899084885571
2.9382163366892234E-4
1.0052419674865387E-4
7.850674319565272E-4
6.409765421936355E-4
3.359783467555114E-4
7.247844832001592E-4
1.9709847799415526E-4
7.845135184734373E-4
8.825722722607966E-4
6.73233846704821E-4
8.557583011219026E-4
8.641560890485227E-4
6.665351991940277E-4
-0.06617949455569125
-0.03909447461510236
-0.05430586329102662
-0.37529077161547303
5.202042471494472E-4
2.34468605421539E-4
7.907252703709068E-4
7.347755634812829E-4
-0.04037393003143037
-0.03853832582267597
-0.03752967974663217
-0.01003781075904937
-0.11847287562648318
-0.07667439826529576
1.883727795149669E-4
1.2987061477048078E-4
0.019307501208394584
0.022982415602872515
0.017761700079305665
0.03558135080804346
-0.01816214571901822
-3.5737992613509885E-4
0.0031660223831594114
-1.2528702035101877
-0.21355225333721878
0.014492635550594971
-0.035497370294959245
-0.0347180316665062
-0.1203990258534304
-0.37183092226026315
0.1608079131114765
0.026063483147103866
9.100068899370699E-4
1.083511814093463E-5
-0.08336814694215583
-0.08382078918224137
-0.08374133819410147
-0.08375805487613514
7.382432414595279E-4
9.649617933431746E-4
6.56738847908587E-4
9.74861456698625E-4
-0.08501741430829236
-3.5998016641999533E-4
4.087955350673027E-4
3.299243631711134E-4
1.1148856139240714E-4
2.712207322810982E-4
1.1541194340590544E-4
9.422742770726074E-4
7.509369028676728E-4
3.682045638420517E-4
5.857623310084707E-4
6.629919572042019E-4
-0.004761756802794326
-0.004935843194466576
-0.004348990587474471
6.899552987149484E-4
-0.004415170244718384
-0.004541458283924434
-0.00459128575092507
-0.024313161842280346
0.13558924777407805
8.505870643182743E-4
7.402167266349791E-4
6.525257866247589E-4
0.03573585294149848
0.11990091208641873
0.1191772244800422
0.4382924530099853
7.35032924781042E-4
4.7125520777017816E-5
9.273407403350644E-4
9.405093405607177E-4
1.8048281908130884E-4
3.7775069740340016E-4
1.0352302483013154E-4
2.00667475305923E-4
2.1196133915099457E-4
2.879177277714051E-4
5.369639077417787E-4
7.022557121100893E-5
0.16096841974991552
0.1611270490972009
0.0817930039796225
-0.03275124206092842
9.929363486564713E-5
6.739101857643929E-4
6.770031631146205E-4
3.6244597764013565E-4
3.1249953091707174E-4
8.585596725050739E-4
2.5695481245306895E-4
9.755515556340668E-4
6.094826206829366E-4
5.147808114707691E-4
9.432216442333978E-4
2.1684331425504333E-4
0.24717880166317402
0.07995860960532712
1.6079182309875872E-4
9.330273224073496E-4
-0.004580674716134859
1.558631604002526E-4
1.7255227053517109E-4
7.192656349501495E-4
5.0863083398161E-4
2.1450918442190016E-4
3.187892378992807E-4
6.253308183831127E-4
6.122523869385963E-4
3.63481488921138E-4
3.6078889100810065E-4
2.8886632502545315E-4
8.426583598808437E-4
6.696147193503566E-4
1.1789981010401319E-4
1.443428435244668E-4
0.12592050058302837
0.12676850600477527
0.014282696779758595
0.08005621612918892
0.12758775931998775
0.0820332704016086
-0.03260662528747737
3.452149015730798E-4
0.034552991343366514
2.7571058784217606E-4
7.044319043983851E-4
4.0764533059863053E-5
3.577821173897899E-5
1.476726623468616E-4
5.563278204839329E-4
4.089623519934593E-4
0.14660095608372337
5.443118996762031E-4
4.717245725947422E-4
6.738955425654725E-7
-0.0030797765832340225
-0.0014100414335652637
5.205443568436414E-4
5.79963178319737E-4
0.09605602115258496
0.14709254603540475
7.201520987177366E-4
9.687369752567974E-4
0.03626402234586477
6.527701503225658E-4
1.1056640600754109E-4
9.214498106828003E-4
5.306599750878397E-4
9.540610178040013E-4
6.273796226818751E-5
1.2472987745569742E-4
9.517658390195176E-4
3.507730274798433E-4
6.205853245789395E-4
1.5996880594866457E-4
0.15658641318477012
0.1563074775338474
0.1564819968098146
-0.011247048186033915
1.8627042715404373E-4
9.02691081517798E-5
2.5367305749016676E-4
1.5747362792737762E-4
-0.006840574685053429
2.2090753028791065E-4
7.750164740859824E-4
1.766588233823576E-4
-0.01346608009279486
6.051684976531757E-5
5.158831822747246E-4
1.9087045932793834E-4
0.16038451780245386
0.16089341131848148
0.11974894102567694
0.091689936198379
-0.0015244412822463472
2.713115078641497E-4
8.626104696645605E-4
4.999355953160923E-4
0.14435629270440203
0.22159172242053501
0.04135270626935399
3.74596413789017E-4
6.905269834511535E-4
4.0484227607621195E-4
8.979897751773757E-4
6.856355411420213E-4
-4.4463097999788374E-4
4.221805684677331E-4
9.588173213655825E-4
1.7757289322653847E-4
6.637759343334608E-4
5.872883814340166E-4
6.781158698457026E-4
7.908814168673882E-4
0.08808117501597316
0.05009508181592416
-0.03585133024678344
-0.255242186754714
3.772476790302429E-4
8.496849064062654E-4
9.188653451276205E-4
1.4574847128378854E-4
0.04479277493313719
0.04480150363996651
0.0492880589693678
0.22166740330083473
0.1301326719255437
0.16108093866095788
1.5910165625846506E-4
3.0919233040381224E-4
0.08180493316916432
0.08178450879423586
0.08491670791273215
0.17204884001055076
0.0033866927219111903
2.2020387233853667E-4
0.9479397590057091
-1.2597400545189543
0.01926366056796566
0.10262834664163582
-0.07929480612456362
-0.07889019085694077
-0.1630309877651237
-0.4161825376951809
0.11381997626933103
0.06364011454350037
8.669372788225298E-4
5.932260806474343E-5
-0.08388979882605069
-0.08397460214396048
-0.0841384483519624
-0.08425550142209716
8.66335671678861E-4
3.548157804260668E-4
7.788552598565017E-4
8.071295725280447E-5
-0.08561069570468352
-5.688697532846084E-5
3.152278149279849E-4
2.9819632882085214E-4
4.3216258931044873E-4
1.7423069398203627E-4
6.852905761286643E-4
5.632859386981448E-4
9.474005754162291E-4
9.055287485215933E-4
7.368605940239551E-4
6.52559371344907E-4
-0.0033355274250977704
-0.003733114343861311
-0.0033299311099424557
1.0114338370585597E-4
-0.002901602556136612
-0.0032061894642133456
-0.0029639700697771314
-0.018577581835179924
0.05161380166824816
2.306055603272361E-5
5.346886936988531E-4
6.053270452014983E-4
-0.053676987319389725
0.03172416261441766
0.030983758077483402
-0.1795757595550646
9.837444777837658E-4
8.619464594721988E-4
9.979574549547426E-4
7.089291179297194E-4
4.5221436762921666E-4
7.133687400405217E-4
9.254538330562553E-4
2.7946741968469155E-4
3.928824808641181E-5
3.9312473926194525E-5
5.445370302193991E-4
7.657694284379788E-4
0.11390777911515679
0.11347522423738717
0.11652230968609474
-0.0023834159180044037
9.275531315562852E-4
5.786710482073849E-4
2.7196029492215844E-4
3.3717082057506474E-4
6.697876659163533E-4
1.5820170946079236E-7
7.132903844411029E-4
6.481794441987456E-4
3.6943167613420725E-4
2.537638327521746E-4
3.5763182118456573E-4
3.113639679361644E-4
0.1921862426263837
-0.0017746466370390183
2.7421070602947517E-5
1.9052509860470135E-4
-0.0032304135882597587
5.8029606687765024E-6
6.350132628566207E-6
5.00528484115288E-5
9.7115247502951E-4
2.0289603723376993E-4
1.1801237217988337E-4
5.82995301677629E-4
7.916679463454366E-4
9.415836729009111E-4
4.2059586310845256E-4
2.0667197070946142E-4
6.564767460694286E-4
9.064960794378653E-4
4.057167583959529E-4
3.911213551814309E-4
0.1178546392324663
0.11817992539947252
0.08523068402357697
0.16948947838092066
0.11880895732661298
0.11653387959578321
-0.0022359803581155913
9.676555414225616E-4
-0.003556496985980267
5.804931191215253E-4
4.813455110781417E-4
8.637294473163349E-4
5.712220386309995E-4
9.745113972696301E-4
4.392616087911152E-4
7.193916994189736E-4
0.029218391519636153
8.309689627650446E-4
5.881666776736443E-4
5.383173896796741E-4
-0.002158487946929133
-2.6336391732192363E-4
6.20146806114038E-4
3.113434017123817E-5
0.029575904728387448
0.02923497035194293
7.935890912091487E-4
1.299926822165679E-4
-0.016379250905776382
2.4928836855235337E-4
5.348852156295315E-4
9.660371755042854E-4
8.995800240988199E-4
7.708009942039159E-4
5.693298626498853E-4
1.5110666758848213E-4
3.8161874781579287E-4
4.979554726464323E-4
4.2438399774703003E-4
4.1215267122657296E-4
0.12348880830183798
0.11063946615366495
0.11058768007635121
-0.00971403193144773
1.236537426778262E-4
1.969527251623654E-4
4.136883990094219E-4
9.545378139688645E-4
-0.012431005870451768
7.490820727000667E-4
7.264120760731256E-4
6.008034414029198E-4
-0.03422176138260392
7.701470008392566E-4
8.419808869203541E-4
3.2250927382763115E-4
0.12666061366163564
0.11357863107252712
0.1062799197811827
0.1484026098377271
-0.0011695723850128025
4.5872406661965384E-4
9.21986745505016E-4
7.058559514624589E-4
0.034619613237277955
0.1485042041348871
0.008920847918934775
8.929909631949247E-4
3.153132210251971E-4
7.014897495151828E-6
4.670678654846896E-4
4.5954058625140894E-4
-4.492117387958565E-4
7.13379941268359E-4
4.5458397671415074E-4
8.615572745720223E-6
2.178367678187403E-4
6.342715933952796E-4
6.742855726009684E-4
9.664209584441577E-4
0.0259457620684867
0.019089837823895575
-0.07815780965444605
-0.5647825640771346
2.4695265879261767E-4
9.994244461324266E-4
2.0171413111238346E-4
6.77522816402277E-4
0.01571645102475685
0.014891023316385085
0.01818945742592319
0.21459605074280655
0.0694842236241743
0.11374385733257959
2.8285892659209776E-5
5.993949799100953E-4
0.09391134908810742
0.09431249153873568
0.09761091083096582
0.19519726465725085
0.007048466096818743
4.116233235003351E-4
1.1278163820442941
-1.2674398536946976
-0.08260653599594317
0.1282673207837434
0.01782713452019457
0.017560413825592213
0.01821573682092777
-0.23708437954170772
-0.08392872914078624
-0.010369732730130692
4.0637166979834904E-4
6.276682996257776E-5
-0.08408369068640008
-0.0841445479919523
-0.0845027166039267
-0.08401422651033742
7.008170605747235E-4
7.3386373910927E-4
9.427103609028255E-4
4.398605186725302E-4
-0.08518569337685789
7.162337251196725E-4
6.756807482474202E-4
8.893521971923398E-4
8.624556922526501E-4
4.0944690070874646E-4
5.14265920162058E-4
3.9833353268343177E-4
7.978945189737401E-4
1.8877637117249024E-4
6.027783230797804E-4
5.804103997579577E-4
-3.731872972778591E-4
-7.393434536140037E-4
-1.638717239876999E-4
6.033794478840855E-4
-9.760209826970233E-4
-0.0010155812275028846
-8.61482678166902E-4
-0.005758083962900145
-0.07382997133385952
5.038436397570886E-4
7.33135650452056E-4
5.670789660545425E-4
-0.06814393088861201
0.016388000404412642
0.016456801993559436
0.5126996732192364
7.492265366144037E-4
6.920144649735687E-4
9.508837266630896E-4
9.905066489207131E-4
9.300288771242033E-4
9.184564962835362E-4
7.1719552123179E-4
6.654282656371373E-4
1.1819657573221867E-4
6.30787567682415E-4
3.2182254611731997E-4
4.093655260124082E-4
-0.0843321757881792
-0.0848015902222701
-0.13878003179380619
-0.07524111216434073
4.308368345671122E-4
1.9398977840823884E-4
2.578569202269535E-4
9.751810154415049E-4
5.401295250085258E-5
8.484690150632087E-4
2.0667990401027102E-4
8.955853950986959E-5
9.097441214499663E-4
3.2093683428636343E-4
9.178506456878761E-4
4.540847957795099E-4
-0.01424505784088609
0.0550805977867004
7.360259573996879E-4
2.017009082614394E-4
-0.0010027341759976185
7.107589798329097E-4
5.849430728474142E-4
7.7522055243895E-4
3.0221126606600634E-4
5.294814412442211E-4
2.9821250469594607E-4
9.276806185222558E-4
5.619219112053973E-4
6.981838487920822E-4
6.281550856215296E-4
7.108023932000607E-4
6.976690384791415E-4
6.953559595015566E-4
3.0856854670367116E-4
1.8511432165891918E-4
-0.10076535962117474
-0.09996338984219305
-0.11971278932711688
-0.10576574257488854
-0.09984265401808248
-0.1391320135272914
-0.07579179169301609
6.917043074413596E-4
0.016478651055469414
9.138899595722092E-4
2.6434222559396146E-4
6.376840406599457E-4
3.773695092449265E-4
1.201865828121248E-4
5.975495646135955E-4
2.2350008640736207E-4
0.03615239616984058
5.526906129545617E-4
6.248997603520973E-4
7.430553607860082E-4
-5.377836986857305E-4
6.638397414344384E-4
2.4169667315456777E-5
3.8699417118862576E-4
-0.09787067251775478
0.035719637182748294
2.2248072954909903E-4
7.852027011286616E-4
-0.011115437610639965
6.879489443331948E-4
9.457982038028309E-4
8.589987634046709E-4
3.379201804370234E-4
9.566821379069276E-4
2.844258827361926E-4
8.026063245660213E-4
4.807903681781136E-4
9.468778920930101E-4
4.492101704670428E-4
8.044190111121789E-4
-0.018257676854509068
-0.08527847126543814
-0.08543131316868972
-0.002456155990531124
4.2127710077145554E-4
8.426377584012999E-4
9.078109782663641E-4
2.2710350273040037E-4
0.01769918502092234
4.797199107843366E-4
5.310210938290764E-4
7.25010771414652E-4
0.015610150887782693
4.6446034272197714E-4
3.346914695925333E-4
8.614200939788644E-4
-0.017355351481598346
-0.08409637418228999
-0.08311020612395353
0.004085375959528546
1.9349936538533237E-4
7.219840205836043E-4
3.453632066419341E-4
8.615001123428613E-4
0.019479218203229575
0.009318537486776373
-6.970954529709094E-4
9.761420320688648E-4
3.3875550188976466E-4
4.971293100265976E-4
9.059549558523988E-4
7.451824396506736E-4
4.549667195966593E-4
9.827085903284904E-4
2.787192929257943E-4
8.806487954197703E-4
1.623315158792692E-4
5.262600202931151E-4
2.926519821453106E-4
2.996883363218994E-4
0.18370450045025996
0.18568022770967513
0.10247413558975843
0.6492392223852763
3.5846609283579834E-4
6.571612067408932E-4
9.381593383042936E-4
4.0605866433303703E-4
0.18490424920517243
0.18482558188305137
0.18516945998372564
0.3519708454023014
-0.018220229220508564
-0.0843743523330858
9.097011502965092E-5
9.893844842183816E-4
0.0826220605417442
0.08259878928254427
0.08292224543482941
0.16659702099818333
0.02523248902728481
7.34043414953479E-4
1.0760054534925376
-1.2737147140972473
-0.12145565431390803
0.13668814342877803
-0.13505733459847655
-0.13527150932971405
-0.13559626403250688
-0.3917270896020202
0.23020457191013846
0.1325068756882043
6.459151980868729E-4
2.5634622125145126E-4
-0.0852385999250597
-0.08528591679831252
-0.0845897093415177
-0.08481967159200093
4.962817870484489E-4
6.929420779062251E-4
8.056500131921873E-4
6.717841227270822E-4
-0.08535227133124268
1.6800084266526118E-4
5.578716035964872E-4
8.462864071113119E-4
8.361094038488327E-4
9.133106108059285E-6
7.908883944382228E-4
3.583835821155237E-4
2.8256604298564645E-4
8.857506577569442E-4
5.509845317702977E-4
2.3741758263084146E-4
1.4978944065636494E-4
6.074890314716665E-4
7.355818819960368E-4
3.566166537045125E-4
8.294732828293298E-4
3.0267177036869875E-4
-5.209653327328517E-5
1.9003696502648449E-4
0.09938836623046327
1.5426189256383195E-4
4.4756233775080436E-4
6.859204195974626E-4
0.09427572591699002
0.1800119295391787
0.17985084042629404
0.45482876924490057
5.586648683398263E-4
6.409172485102231E-4
8.72952679271833E-4
4.511927997769869E-4
6.889892425107282E-4
8.832528467146513E-4
8.162366522542009E-4
8.17486680415433E-4
5.511183806046992E-4
9.932516944774239E-5
2.0429058393448284E-4
5.40902201804429E-4
0.23057060953512956
0.23065637227748614
0.05663689519772197
0.11060618187188107
3.460898364443022E-4
5.977943360539743E-4
2.493216625785717E-4
6.863421540428397E-4
3.1246326488485685E-4
8.840698605611517E-4
1.4527310539753303E-4
3.9566498234278513E-4
8.59838683045971E-4
9.665046899223129E-4
9.215377918935991E-4
9.015622637312211E-4
0.29409598009915555
0.17418295224270855
2.819670397102619E-4
1.2636575478122125E-4
6.16308343197155E-4
2.95528626681688E-4
4.664775026183082E-4
5.735065767422418E-4
7.579372435521995E-4
4.863515192238177E-4
3.796837646711656E-4
5.70510576197639E-4
2.0263731221924152E-5
5.430205526742223E-4
2.8696406921870934E-4
7.218908517146018E-4
6.651486446865704E-4
7.186851155357533E-4
6.056999575762424E-4
3.1238406965994337E-7
0.14729885813104895
0.14773498013614517
0.11107294688992102
0.19397319488351156
0.14778762141752289
0.05704899882326798
0.11127390772359076
9.12600823311525E-4
0.08381041217422197
2.930025588538416E-4
4.52540373290113E-4
8.443852815070754E-4
8.497226573741625E-4
8.455797263252686E-4
1.0149084371907913E-4
9.428827919445587E-4
0.11937592533327712
9.589010517778996E-4
7.176016864993721E-4
8.776480191445531E-4
3.537479058134802E-4
2.86375374434105E-4
4.893108091793215E-4
3.4996465081785666E-4
0.1474543833076967
0.11985452253734574
2.5369531797046E-4
2.6081604850885953E-5
0.04419612572911774
6.040340145837114E-4
6.961963923758502E-4
2.4200233808217397E-4
3.7812022253322906E-4
6.962192405339347E-4
7.711591834288117E-4
1.7946271060402842E-4
1.351399766737188E-4
7.092214450919515E-4
1.3505764232008222E-5
9.121757633144511E-4
0.23471765693693689
0.2300123521325362
0.230312309606816
2.6410503532802506E-4
2.8113439073416377E-4
4.2999411759688666E-4
3.0738951370020117E-4
9.443197793822285E-4
0.03693569741375677
5.696224736873622E-4
9.320378524609734E-4
8.065932123469567E-4
-0.05557891333274005
5.544948776346871E-4
5.406536899606999E-4
9.777755674897457E-4
0.23487260606631832
0.22995869871026256
0.18467229386700507
0.21467573249116817
5.128568102758704E-5
6.576369588793114E-4
1.3770137392349923E-4
2.7674675813685746E-4
0.12325489357096037
0.12939388543471142
0.046575846741618576
8.433119263859686E-4
2.5442789808136437E-4
5.659523331197927E-4
8.058341310712641E-4
4.986909569036832E-4
8.568621664760102E-4
9.324464692344436E-4
9.757382899212137E-4
9.333571396600893E-4
7.266506384890784E-4
8.251869256609609E-4
6.761946716043577E-4
3.0627825667003895E-4
0.026608830138197558
-0.01940526956424572
-0.05028273923164584
-0.3575176884703841
3.3979221387208825E-5
7.526735354925487E-4
8.776316303417299E-4
7.174479192726299E-4
-0.01942739666165108
-0.0189360965161216
-0.01916211493041321
0.042274597383890083
0.2360934063990645
0.2308194531635441
9.067682617252369E-4
3.3809438352595643E-4
0.03157343992819051
0.030897219653271947
0.03158733113677956
0.06193749986465107
0.019515799664074684
5.319511963201732E-5
0.29130768459607953
-1.2792690185768538
0.016689451076932982
0.1087377208405864
-0.03575420492435475
-0.035977648828649976
-0.036274849970419784
-0.29244733977225584
-0.1520941125232034
-0.04339883441538808
7.938483916244954E-5
5.990769999734536E-4
-0.08525385121208
-0.08534796040858003
-0.0847094606970404
-0.08503176966419561
8.364925194174797E-4
3.883219961840735E-4
4.467366626668755E-4
9.442971594719982E-4
-0.08539836521130259
8.143205968114773E-4
2.970894080083426E-4
7.542597176003025E-4
5.535937841946168E-4
3.768066254564686E-4
4.997538548621942E-4
5.439424442567499E-4
6.738243374319982E-4
4.558255015673891E-4
1.3598127413408712E-4
4.2555076866751827E-4
-4.981281917621632E-4
-4.659398845785928E-4
-4.664130786845008E-4
1.5613419284377672E-4
-1.536772538377712E-4
-2.5724442304182147E-4
-5.228840184852567E-4
-0.0019021707649876233
-0.10815324571327387
1.0384259084504754E-4
1.8717741336761085E-4
9.962471623151286E-4
-0.18906017219125987
-0.1033510955081928
-0.10306453825036108
-0.14875807780607503
3.975818789538221E-5
7.298316454447154E-4
2.327519007349693E-4
2.503074778769976E-5
6.661220859164052E-4
2.605499337821189E-4
2.6762790896819167E-4
8.296783646960543E-4
8.084043904807251E-4
2.3761533136875147E-4
3.6298242966102115E-4
4.4455492935241723E-4
-0.151974047686983
-0.1519236393773604
-0.13253293082558887
-0.09304477434856771
8.992419323315859E-4
9.223755893047066E-4
9.794546812695536E-4
1.0901207826399195E-4
6.040471679486493E-4
1.1911298883734268E-4
8.203122372296344E-4
1.958127399782108E-4
2.3881374669553198E-4
8.560165912974138E-5
5.115089181373537E-4
8.074061602181208E-4
-0.09970349598524357
-0.019014937601883268
2.1210525101338285E-4
7.692660707761483E-4
4.021754517330068E-4
1.5762046041425727E-5
9.068072485380722E-4
6.251602663306991E-4
4.8670908919131573E-4
6.29884352532796E-4
1.9246207348275614E-4
8.541438093688503E-5
4.3795829263388437E-4
8.598068709087237E-5
9.386122567180845E-4
8.416737786879333E-4
5.042473496192456E-4
6.853816548595268E-4
4.076723559278273E-5
4.729251784642666E-4
-0.1594612634848208
-0.15924118962455347
-0.083424530841759
-0.09263146711136959
-0.15941041554315524
-0.1326448989017327
-0.09311336648664464
7.55678168405065E-4
0.00723807654003187
3.737043102578166E-4
3.496965687755791E-4
6.017000019919931E-4
7.069346798156137E-4
3.20267139761277E-4
1.6463941706712838E-5
9.006259031137237E-4
-0.06761352420962032
9.185075764227204E-4
8.685959622996796E-4
1.4582954224468436E-4
5.322555883522343E-4
2.885169183974955E-4
9.996993997921902E-4
1.465863566044502E-4
-0.14332338529743877
-0.06814328687072368
9.472794240335133E-4
4.4921465898906966E-4
-0.021123863069681576
2.161788732843667E-4
8.32889926424674E-4
2.7554525723147796E-4
4.923291237189919E-4
8.466154211679055E-4
4.8577875029886186E-4
4.7492268359288956E-4
4.2730984121172675E-4
7.231757110406239E-4
7.550143427013543E-4
7.789530997554758E-4
-0.14327444160639305
-0.1519452632665907
-0.15223156769114926
-0.001135332647095017
7.336282038285174E-4
3.3651256349293967E-4
8.732435444596244E-4
8.48775502039666E-4
0.017310824453324804
6.233295369078543E-4
3.0829659005516283E-4
6.31725690373541E-4
0.012757687235370728
9.128101779294716E-4
8.704571345189875E-4
9.094195470299634E-4
-0.14272096043123902
-0.15202914139680013
-0.1427491917623966
-0.05226077386169886
2.8463595174410756E-4
3.22889715815292E-4
4.923621346925352E-4
7.891251054040038E-4
-0.09970736645130718
-0.10549549553278385
-0.008505077678493353
9.629265889149796E-4
7.816009095742686E-4
6.038618469400421E-4
8.649949908389687E-4
8.628530771946545E-4
4.86682992413507E-4
1.9970722848080503E-4
9.366309804532028E-4
3.749590818018117E-4
8.113753353569522E-4
9.645484112573105E-4
9.433882071607049E-4
7.487011384132161E-4
0.042695187983542916
0.052206041774958224
0.05024777420728734
0.3370381328522278
2.986089123102617E-4
1.6376784818255793E-4
6.421826218533598E-4
3.8987877451571553E-4
0.05223294377270346
0.052457600694822804
0.0526659329117893
