-2.3989710739138044
-2.0628229635072843
-1.710109366962363
-1.4982909062521237
0.3350261307471696
0.6734631991072271
0.5661095499440874
-0.3353348346624539
-1.440590640764118
-1.3359641323003895
-1.4804270249630604
-1.697992165846939
0.7022362720952817
0.7040194211096172
0.07766538004643936
0.6052108045940097
-1.2387806115946585
-1.4035484887081204
-1.3144582844808552
-1.1902278506019135
0.5830839968971886
0.7293595743871986
1.7609568991691495
2.8795419027134583
-1.4017401819589173
-1.475392501587894
-1.496284977694016
-1.4985634490418782
0.6690832255294009
0.4925478002573731
0.8008684914513776
0.8774772671920854
-1.5084404987800437
-1.7166908530173217
-1.6254802879622396
-1.6265536901648976
0.633860057196974
0.6160751881745208
0.6453125272668951
0.806095855513552
-1.2466237170426477
-1.4380057632711722
-1.4069202462076718
-1.6457559234901982
0.4758513431893917
0.653035011264661
0.4214155035323482
0.6652604885286466
-1.545398507431547
-1.4710786815590255
-1.48129199685603
-1.513247615795461
0.7185328938433834
0.7868314487047026
0.5136415016293889
0.5517366089282275
-1.2608368420169713
-1.1891790125746453
-1.2066402460930432
-1.132100196278168
0.5393425055327005
0.5909440482535001
0.44231134480154877
0.5427846347842327
-1.4036818278218572
-1.3202005304795934
-1.4684946065083482
-1.1983885159038625
0.7236208001209955
0.6445227406119056
0.4898974803270018
0.5110239347847627
-1.3484024955190197
-1.262795226244891
-1.3996329534081469
-1.2169279112409177
0.6605298238231596
0.6298398768539555
0.7992995717789061
0.7213790574358674
-1.2175434077650473
-1.0520214168482556
-1.293400847990236
-1.2442894410457639
0.716968183948547
0.9183415635239128
0.9837296720407294
0.9419952785271499
-1.2877545409891271
-1.2525444718813097
-1.1822814566064406
-1.0686570982193961
0.6295186852403175
0.7591353505871961
0.8553990751811548
1.023584890813811
-1.410267803912164
-1.249341601429272
-1.1827045542388661
-1.1595161196832107
0.3983652319167801
0.5733980972184178
0.7146023143510928
0.6956503197694034
-1.5304202828182618
-1.4475110867075878
-1.5322713104875352
-0.45564201925126535
0.9031656327741202
0.9034153372775738
0.8680460324319484
0.932317921814881
-1.3913246044224936
-1.5932280962168142
-1.3485120295675688
-0.8110794756601658
0.637876766942383
1.0167862241130323
0.9439017084256902
0.8460097911418544
-1.455477657114075
-1.5897103566254736
-1.3676868712905785
-0.8701170444383854
0.7266437212230231
0.46642025755869254
0.4724591035739396
0.5766280895608985
-1.3019485407014084
-1.1457328805025921
-1.2814230220797378
-1.32386605653114
0.5585173631270459
0.846394177959835
0.9426347468206783
0.46280852073652284
-1.2630242758081913
-0.9404673923105886
-1.3480330493063155
-1.5953471299820514
0.6673400173415045
0.8864029822830575
0.8760972323433686
0.9318546634934904
-1.5111219268986364
-1.6563212347459002
-1.5270688609660759
-1.311671170716583
0.8015422005003986
0.765584753874383
0.8126008389890625
0.40416400808151604
-1.0288152797456975
-1.0857595416698953
-1.449510937938879
-1.3494810650009865
0.631628574233395
0.5470042782779102
0.7444479585525995
0.2766057796616486
-1.3521446206543823
-1.3812674879046523
-1.307644630707751
-1.175014425208965
0.7703877287787536
0.4834373560046143
0.4705078329480421
0.5738368917240119
-1.4842171666683242
-1.550643880570159
-1.4995665955954836
-1.23159941825259
0.8446959989258382
1.074524003975194
0.8355950590805415
0.20821800486829445
-1.4433356475677144
-1.461989306720476
-1.4504166381811803
-1.2761028927598523
0.8462487460831192
0.7168117386260341
0.6057735516919269
0.5881662343109375
-1.5518253487758868
-2.0084727468005674
-1.8715771078948584
-1.968306162153099
0.5361269540724563
1.1140820080345184
0.8350000905981472
1.4354462337931422
-2.845459298759232
1.1973731119459503
-1.1154920020496675
-1.5174412364719143
7.904715808758391
8.127966922801829
-0.7230273442121022
-0.5964575413919109
-0.6228524131731826
-0.25749475275648775
-0.08059255433270822
-0.0035023450196611187
0.04631336829254697
-0.9218067301331656
-0.4072543711072225
-0.24571907773900317
-0.36174062774501936
-0.4668461189767237
0.008175746015515222
0.07670310915265159
-0.4242671322944606
0.0689914365536628
-0.22319881063944808
-0.4478817542950419
-0.34376224153896834
-0.3138465171226976
0.04394425887374158
0.0550682253167189
0.6516720826492043
0.8925740866405236
-0.3196910949439219
-0.4224003787291867
-0.4099318459699114
-0.3697976941231465
0.0439043298899323
-0.05923920499579206
0.05206823316656264
0.023821031621524307
-0.3493043829166999
-0.4041864805305772
-0.24503284901962202
-0.28463015011332965
-0.07273020183420546
0.005665209323944754
-0.06192564416349301
-0.0863980837480623
-0.2456243020611673
-0.3404036449685908
-0.3548246879295311
-0.43985530565938097
0.05813740387043909
0.09607384076352012
0.10440125659090464
-0.0680650261945083
-0.3893415038783014
-0.4558498329237521
-0.37873095480657937
-0.5122578927616368
0.008078295273049922
-0.0830830725270961
0.023567983794622296
-0.04760921540056762
-0.29755128582751206
-0.22177374918087905
-0.29331944833898643
-0.25432374802991425
-0.013301861432104368
-0.06454672544170573
-0.03396125261371038
0.1323030960330548
-0.47501341168512523
-0.432919633001724
-0.4417849444915462
-0.21233480850433895
-0.04274446263511349
-0.019631184285140622
0.017385518564605813
0.09802296999229623
-0.31455841116564365
-0.4618948303940796
-0.31159892603378603
-0.44898526279956197
0.08385033823058698
-0.009471131766991854
0.12755887060304583
0.20139736170145708
-0.3541772783065947
-0.3553699849981808
-0.3805720420490119
-0.3648329208509922
-0.024389874459920108
0.13169794469086663
0.15404407586164168
0.25537837435216243
-0.3149006794404365
-0.2515940790071645
-0.27677773613833734
-0.14017300128820054
-0.09822100218052814
-0.05333041030351301
-0.012620386836609637
0.0975749621324991
-0.4167953802678341
-0.36100269837164395
-0.2790496541248692
-0.2894888688091143
-0.07155658772695811
-0.09724956684805713
0.10027464386590197
-0.025932995781853915
-0.34080387508737914
-0.298793951275627
-0.48230715538412516
-0.11813437803153136
0.17001502311156766
0.08424454507183332
0.004603149515827972
0.09493511736822617
-0.2586172251246092
-0.3630596330141139
-0.3152626823757943
-0.23914324263961878
-0.12999297000692603
0.1309821232796382
0.25291520284880403
0.1267514273321925
-0.2913535960908931
-0.4390912739386132
-0.43124715581953127
-0.34706818604915846
0.05968915332753387
-0.06356506752875958
-0.13314415792686068
-0.16035024399025963
-0.4147207008809444
-0.11945822200004758
-0.34322437663049865
-0.4776376624437135
-0.007807203366512996
0.025952118615333156
0.11561012358094351
-0.018367266902692716
-0.4041888459394827
-0.24357158806267504
-0.3022662280199196
-0.4764605912606112
0.1801381513031919
0.11698378241176631
0.05932748203871425
0.1697757717918201
-0.21512276108721134
-0.5402052853015962
-0.44213838227865065
-0.22512361207976023
-0.050579856799513316
0.0434944996976921
0.05900374187553683
-0.10162163479450025
-0.29087953645259834
-0.25637453307592484
-0.41931377460357266
-0.28138549561666487
1.340709228413369E-4
-0.03532974027151976
-0.11651760397529135
-0.27385501145495345
-0.377237951709625
-0.4387502151493659
-0.32591983448384626
-0.26724862037282926
0.017075634219715093
-0.07180658059858555
-0.1002127704814369
0.09349390570170067
-0.40338664919415085
-0.3738903051321
-0.5240569783864644
-0.3510907626387812
0.07534679606438803
0.10355614862444
0.10731191587612617
-0.03855276500715788
-0.4180989722665719
-0.3779593977488455
-0.36085135984459604
-0.3214368518700277
0.06398501080054206
0.044584670513178076
0.07546923987120185
-0.17682435193007795
-0.3595781302826641
-0.44149509828445294
-0.47617097824361526
-0.4910880198719868
-0.030624105051289083
0.32229511284069545
0.14006238886596825
0.16271861413593405
-0.7222301486933483
-0.07267157962519422
-0.25344467641896523
-0.6292008000241593
4.270423862139999
4.341771859733318
-0.7178471873019818
-0.39309446188362257
-0.16791690175341678
0.005615530648626031
-0.1677031555895724
-0.1761939239441576
0.009481503833329352
-1.0418834753601653
-0.44779529278855745
-0.1910879070267904
-0.139343038765762
-0.22945407545081226
-0.10531694510065
-0.16026185652933578
-0.5837619285613025
0.13247464905197417
0.056170674149439666
-0.23645208818783336
-0.3409384870615159
-0.20137918457982398
-0.037718928206986406
-0.09961436079895832
0.4131044493173827
0.7244126723384254
-0.18986644591475446
-0.2459839487071813
-0.29599623593987945
-0.20074016880087492
-0.10067574347396864
-0.15552299645164158
-0.13767270673075127
-0.05825523774218856
-0.173316183242452
-0.18686693497950002
-0.17986452742304046
0.03133164500675421
-0.004035733387998473
-0.1873759765833225
-0.027029326000043232
-0.12986789331294196
-0.02821400528548675
-0.22688783133358584
-0.2004684312656356
-0.3285251787826219
0.10570680234710332
-0.13133643963055577
-0.08268657693575138
-0.026194752918039674
-0.21568927767643917
-0.31579650518244323
-0.28558457000690407
-0.22082062531599836
0.024715887677628598
-0.13656423160248957
-0.14522273439886937
0.006165911239925348
-0.199312323686635
-0.15952485359563442
-0.16839263472196117
-0.22786224346499487
-0.04853035828051624
-0.042748433949550343
-0.06344606880490221
0.13648187181534532
-0.2615027175454738
-0.3132193530671489
-0.30576045603331664
-0.1551662624188479
-0.3201089606282225
-0.12605462445457752
0.0038178900451103915
0.035333528320299866
0.044457768983939716
-0.1263561581421257
-0.34251612590491437
-0.3476278852468695
-0.0706006506417512
-0.21267979105443166
-0.0024786868597677786
0.09119499516864103
-0.3090868809255009
0.018957335236238323
-0.2200346135913426
-0.2283634413743789
-0.19592722251760608
0.097803648708516
0.012638596294305906
0.16586128297499012
-0.0991434007561015
-0.26341800373537194
-0.16104862015597454
-0.13934360097254678
0.15015145458685789
-0.06741437201404346
-0.06921192296089632
-0.021877701560035615
-0.19663113341813096
-0.18374356737938205
-0.11277290668578963
-0.16048495350465333
-0.21910148841640664
0.01690385502877784
-0.039340515368887566
-0.12623117847590945
-0.25893719403588533
-0.2260254184172938
-0.2615847975365256
-0.10744151768266082
-0.2442027370373087
0.08740315091881551
-0.16645992001467666
0.05149902438291383
-0.3106171787047976
-0.1666820230686985
-0.1943000799606843
-0.08048686416092804
0.06698747796673772
0.06892864283264108
0.002483764351758031
0.10441886946694047
-0.2877658802997539
-0.34257196244842386
-0.3014501979111931
-0.023075177322668068
-0.06495915880906465
-0.09078314990538558
-0.28064231809573364
-0.026848629289166447
-0.28653351214070816
-0.15897640566650084
-0.3161147001292207
-0.1461148956714913
-0.3066917415914612
0.016695308701317746
0.07051402309224582
-0.0457199472251153
-0.0842526488073366
-0.12511828430365632
-0.2255375666697472
-0.30580087819085205
0.11933752066367623
0.012335723846993737
-0.028694616103692224
-0.018744732422006007
-0.15416294860164914
0.040358928710992156
-0.21923375420219104
-0.377779549653292
-0.1058152442349224
-0.11489137828235094
0.023231876501948853
-0.12046374644746248
-0.20671364150262803
-0.19782228443174188
-0.31291762996323963
-0.16008412442384468
-0.12186433770628165
0.06702063134746256
-0.15679991750045064
-0.44454871471342433
-0.2290923109742587
-0.310585400024491
-0.30294045680892706
-0.07169589177704325
-0.1490574165453103
0.017654971884561475
-0.318160186612598
-0.029472803273425958
-0.2761939994856533
-0.27788736574055906
-0.16666088233214874
-0.2473797348164689
0.06035895679536257
0.07497420143898649
-0.016186334101060445
-0.06880433165902174
-0.1383461007497538
-0.19689487647894435
-0.23011336875873797
-0.2945189249470575
-0.10605614653653767
0.013585484336303853
-0.08187263860988821
-0.0818134205558548
-0.2329540090837701
-0.27226232538592177
-0.30826945342772893
-0.29161431865581044
-0.07231850093760504
0.03003002322067587
0.07424539245265721
0.005540442332195444
-0.3835167555225491
-0.09572571086161742
0.3116173849848445
-0.3245644984115441
3.299028313533629
3.222134438048899
-0.2253155575434649
-0.39691564946793784
-0.003851565394237218
-0.28301172730809193
-0.15480898406555835
-0.1442566634045266
0.05389822883625209
-0.1515271151006731
-0.25058442780440576
-0.09588728380087395
-0.23004484927278981
-0.336455295382123
-0.09276316846995955
-0.137361668571008
-0.3788276087449519
-0.1326246663198448
-0.05036120297648448
-0.23433575540959395
0.27606804315751043
-0.231361869770788
0.06145286241914104
-0.10188589108408339
0.44851444980029853
-0.09294044548252287
-0.2726637253915179
0.004950550340496216
-0.08232701906747543
-0.16213288274746943
-0.11158957230028857
-0.031378770291534845
-0.09023936612636722
0.015323099481555354
-0.378234955022894
-0.043855741612818064
-0.10944006718056233
-0.24528407714788256
0.0488686379942112
0.005046874109909554
0.03254976905722044
-0.1687586764625334
-0.1008939553028419
-0.22143117704664853
-0.0648709106758823
-0.16886004286382414
-0.01667798213152413
0.11914250144081932
-0.2308064209252155
0.1212336503558971
-0.06201885942967668
-0.22493535873399256
-0.18493666811320203
-0.2665328378480214
-0.1775737978443945
0.06419442291635048
-0.2512135241967338
0.09163156562830539
-0.08783389742224268
-0.11761494260157243
-0.1018842028934194
-0.13532698015678843
0.060897767998558706
0.05455761921745159
0.030207425386100748
-0.17767747290158642
-0.20416619810472622
-0.09545357681094369
-0.3102496135654627
-0.2944771532799518
0.20649072159947907
-0.05298701121555814
-0.06968606177226319
0.05108235748022665
-0.30893511162316034
0.005241184596709076
-0.0838547513597834
0.015380750008209125
0.17532979493573045
-0.11796100300959379
-0.1399297761158128
-0.005505474654166859
-0.4397534513804444
-0.21007195763114844
-0.06060945517256801
-0.2702549344558397
0.11354268002429953
-0.024494928186407756
-0.0921176697989451
-0.18018306862804373
-0.0752993835087019
-0.2929003980782954
0.06669030913002011
-0.2771318362295931
0.1385281696650881
-0.09765433454736977
-0.0806678187677122
-0.006223564362936619
-0.24321243095352588
-0.21817710469637544
-0.20276793038069071
-0.14026706899341895
0.015942626542156165
0.1433838589083713
0.06885466375069434
-0.1790444439054163
-0.32785416115878296
-0.15706240746102193
-0.1608902646823417
-0.023719609208475774
0.30554831662852655
-0.20303161177126616
0.01050579178913659
0.13086460651696694
-0.13994077347313033
-0.20406934998319273
-0.4907455332719187
-0.27077831159990307
-0.12679657552133367
0.03669328426393009
0.12834955956215677
0.013655701248317487
-0.1908049437880573
-0.29488879274358526
-0.1849398856163591
-0.11631923087509025
0.0406115329475244
-0.1680826208985348
-0.06483644470432166
0.15311627796257446
-0.10548912648152185
-0.009857165764483302
-0.13303818976522583
-0.18698082702347094
-0.049874976897479585
0.09993882943463891
-0.07240953174236406
-0.07173444629780655
-0.15765294062273258
-0.019161420892186233
-0.08867419063390777
0.07630560479818917
-0.012329206966651993
-0.005725899162925348
0.0062775430619523565
0.025141568941139617
0.10033274947615796
-0.26118922349796614
-0.24009435246048463
0.11354254502607954
0.03934791595592714
0.018800342679066117
-0.018956146677271513
-0.07294365818773323
-0.1061392682885187
-0.32139825050657034
-0.2693396839660524
-0.173944361444296
-0.2113832185940679
0.2195893352163695
-0.17923564062685451
0.1104944639644118
-0.2361799815577511
-0.23427339617458257
-0.39967702874846234
-0.051938534297122335
0.012126238937572219
-0.08526363757039153
-0.006247257814002996
-0.1111559271463946
-0.23102577091684132
-0.07006773112377117
-0.3060932763251707
-0.13239793710828573
-0.004053474313322321
0.08793132267065047
0.23342102159146913
-0.015086893207273386
0.001061869888825005
-0.1567661514749818
-0.13484739303100055
-0.02815845629489322
0.19122829505565556
-0.26038383790046055
0.06545022987019306
-0.5402350499500195
-0.31914177083524464
-0.2809578429233416
-0.4701273854895756
-0.26503261794499955
-0.11165667821039356
-0.05952648883532693
0.3444216834423227
-0.055216363281526425
-0.40454937204473823
0.07491618324109559
0.3664743187489075
-0.3533355800591814
2.538981260715204
2.597041309412205
-0.21110325158274207
-0.32630077105826794
-0.13992984251531423
0.1112577105017622
-0.21714110490284966
0.15980565048650225
-0.08531072048130375
-0.008820163692900144
-0.08840518377685935
0.028501100941273918
0.18034132770050249
0.05459785062767033
-0.20286609464656163
-0.17915246980244906
-0.2671325687149643
0.09794354603497529
0.031940132446516445
0.021504043697759993
-0.38772932641698615
-0.013483219214902767
-0.17068010731366476
0.07580250964916002
0.1484937154264448
-0.10645751581317842
-0.13791052468574924
-0.10016717561684266
-0.27805786354428885
-0.56361229300732
0.246413397378512
-0.23383720510135228
-0.07829341167365288
-0.1878836390938329
-0.21614234144360522
-0.21857336979144698
-0.10553173773416726
-0.11280858303843187
-0.0436771452249704
-0.10141988745388494
-0.46689296978785777
-0.2739454168200695
-0.1342207451415566
0.12603070660619292
0.06230072502166213
-0.1884397240083824
0.18442216659338886
0.17244232653406924
0.17855821016937942
-0.2184731812611902
-0.19507016156341475
-0.0901198885072961
0.07150976708861485
0.054116782746546736
0.09724470573009972
0.11061375921602146
-0.0927493026920732
-0.07502881377479086
-0.1983148008550765
-0.1848348646016337
-0.19953579006924213
-0.02015049760610994
0.1473044811381997
-0.13530768124288717
0.022519339173406223
0.1444572722707371
-0.32506405523914383
-0.3338139905103217
-0.3594350610504663
-0.2622410826643157
-0.26456539194367445
0.06817530468777051
0.2778338407068102
-0.12654836833616065
0.02181619348547602
-0.23175824610509946
-0.111123067235207
-0.20786090151596553
-0.13085950261798857
0.056069077035462524
0.20519067183507644
0.17931058956166507
0.08214046349986387
-0.06922475048321132
-0.12256347066572776
0.12136071770450674
0.23037261899835626
0.06819932362977606
-0.058625676989408015
0.12288875159676906
-0.0801488014207557
-0.11787894889067975
-0.24839768372645418
0.22977775502917308
-0.42639542650757617
0.1286591214534467
0.040986635447222905
-0.07402163201522952
0.1474779283037396
0.020173230165458012
-0.1167125912164768
-0.14287363083333007
0.04497138215477725
-0.018540361993808877
-0.027912100176047415
-0.17441098644436848
-0.3251723397490633
-0.12432223298044877
-0.17268031659216504
0.027685229416981278
-0.26363976647126464
0.250186710494471
-0.04409663700804801
-0.1570937659983251
0.01562545773412655
0.1597496873366677
0.09157097085998284
0.3809829063700955
0.03517264808462266
-0.164006814236903
-0.01279144718960901
-0.02197050659228868
-0.29429152313361856
-0.24299840039998177
-0.41464299607943383
-0.1013551176231182
-0.3985262326003325
0.07910190667902767
-0.20663535107901426
-0.1292366693356769
-0.2691143308842333
-0.015175571023795565
-0.03357613478388107
-0.20924201243673968
-0.025241587728074746
-0.08416432337618764
-0.23816577678913828
0.11610766704834825
-0.36574764726990155
-0.11505476555179503
0.113244764025859
-0.28787040210507864
-0.14119359496574238
-0.1271561002128665
-0.04294074889696493
-0.016407172391131417
-0.2530958881544257
-0.5941216114423367
-0.14560191006613127
-0.35949247914665117
0.07242307487455135
-0.06087444599887583
0.07263219280052904
-0.18536980144055262
-0.15532753748581415
-0.0995436766692117
-0.14500043347386207
-0.036891861883763366
-0.3618918458115061
-0.024097364716139748
0.2611280231593686
-0.33907912722748884
-0.290777268963469
-0.20434149040752678
-0.0882977086551922
0.057844267909496344
0.12564796587123547
0.32570036131937014
-0.3815137962637563
-0.05656365604602359
-5.567305559099262E-4
-0.0833875106339877
-0.1045952076525526
-0.10004316496469974
-0.36010584542429824
0.13861659957926536
-0.11882989326500033
-0.18895678060827473
0.03378006653334699
-0.20826862898451304
-0.012082670271832035
0.09477625223164111
-0.1784142547051107
0.06460887479706984
-0.07731171982061527
-0.0395305756856015
-0.2128943370106181
0.03431503504721402
-0.08058610112452438
-0.15224616802522598
0.09500879991702672
0.1889093288695843
-0.14543218661456297
0.11022268604262507
-0.29481778348027926
-0.11806833403576006
-1.0431945874901087
-0.12278325189362764
2.3957024847151165
2.3176468816296523
-0.08847805871495178
-0.3643224382320209
-0.22376164041750973
-0.5485591957301889
-0.4040201004370345
-0.011861459029144865
-0.3081274408512577
-0.2278274321550679
-0.260211997354223
-0.07182138383415111
-0.42602776363327005
-0.5675725205083962
-0.25903889636128274
-0.30252202985312865
-0.5071711898204712
-0.29423261633658027
0.08904319972674893
-0.13169865381324652
0.12060405415010172
-0.0023594931990010464
-0.19014705789917222
0.18433370307975053
0.455550827191859
-0.4836058366546645
-0.23456564512474098
-0.20320961565796028
0.13461044051067617
-0.2814780292497382
0.11528955250007017
-0.3386553351134439
0.1374541997946634
0.033421862466236345
-0.07858887177936653
-0.056847817186976464
-0.16669876395119873
-0.16069765983084153
-0.03192564736797991
-0.21014901106914655
-0.28635207642968735
0.03656579463540698
-0.4190313067783036
-0.18945308761640015
-0.03907432218148312
0.00769760409590978
-0.315030724029658
-0.45950005872195127
-0.25031188683188843
0.01967269240147113
-0.28240714723322724
-0.1786679354105034
-0.3822723842143369
-0.24726497235366365
-0.011692298516443198
-0.052377831044356164
0.25349888720010766
-0.29035968788411587
0.038116970977353386
-0.15878455073807826
-0.04816454726315058
-0.03947513459039259
-0.4516905667991507
-0.4390718895696766
-0.15928791597746025
-0.3933656428760457
0.04231589875246901
0.004131801224607063
-0.10981778256709433
-0.16058147723107907
-0.1607590325487505
-0.19828454723886765
-0.32981227585285317
-0.10629548921440411
-0.24789915515397262
-0.016351450873878504
-0.253036455412031
0.1494680559336508
0.051061621835554086
0.11431483801820863
-0.006470958217920776
-0.16620011845198296
-0.4475961788261721
-0.19235230394547284
-0.15145656787936
0.017811444874051466
-0.3593332754675666
0.09502279219938327
-0.011106454022367958
-0.285275243621531
0.027341895818289864
0.01807030891126859
-0.16818700091491484
0.15746691449360253
0.03120392289041559
0.2905165128163683
-0.019213753944937274
0.10856864203737003
-0.02947916030632685
-0.29492502413861343
-0.1916125847357151
-0.1617299183119082
0.22875627982173852
0.04801009405227147
0.01605290972751957
0.20242735622712899
-0.2512032310773808
-0.02258479756158658
-0.09911101977714322
-0.2960463939938655
-0.009358535211049361
-0.09603851039902805
0.20151642920742807
0.15110835315037094
-0.32239712539317156
-0.13125748533606324
0.04418322568474096
-0.14960730443467268
-0.15791403903967402
-0.020004154678082104
0.35249265009928177
0.053175555806999
0.2138574786987304
-0.4083195100253455
-0.06482110782541406
-0.41385759139902106
-0.03745780132712615
-0.6895775464926831
-0.11295752061641132
-0.36987546334964544
-0.177115783381062
0.4764684581931023
-0.022699418401251864
-0.03962575311712367
0.21795429627263516
-0.22637924510182747
-0.16541526532097836
-0.10653011056809449
-0.14450253502105884
0.34080780108796244
-0.32686048438585596
-0.15731269199445996
0.2033061397158655
-0.1112780175086606
-0.08052926454141124
-0.027309257842106437
-0.25280919065810864
0.010841375331255995
-0.09250465582412376
0.10538078479959559
0.11750142678110365
0.16549913016118492
0.09919661759676696
-0.07610879739596164
-0.24577377772427514
0.2436707372483452
-0.13754800688599975
-0.01054581206492002
-0.15534549015179136
-0.18768175694394051
-0.14253333849799085
-0.44469044624077914
-0.27316506807332086
-0.25006856012495926
-0.06324276964770491
-0.2575982192075897
-0.16207063370156286
-0.37117444181294185
0.13894008251546272
-0.32759271389473305
-0.1389086477068348
-0.07084943093008207
-0.23096293240246424
-0.015738062146170094
0.20692924660828227
0.6075443132327967
0.046166374480613406
-0.265839935229189
0.04934574739067877
-0.166243400456344
-0.09409509529159846
-0.40012173789869476
0.4163697434559803
0.053723452867010565
0.03152296254273752
-0.12158158544688255
0.030684466251943883
-0.3242221092720402
0.057464023574938065
-0.26796263132215636
-0.0038505721924642937
0.1829720789165111
-0.14797011607423477
0.4801025243429634
-0.03866608955882585
-0.16988991128544276
0.7760182937638554
-0.6830912299669203
2.0937687400389278
2.070140122173929
-0.274875831193606
0.12243175046112878
-0.027151173580515442
1.2821276815605525
0.009002213709498202
0.11971790220219627
0.005995051303934194
0.15029645088646013
0.2593608645418243
-0.051998189885561374
0.21132901427071707
0.7332321981050892
-0.33145822881843906
-0.5607094731002673
0.03750662724095265
-0.22875757985165363
-0.0597528183623421
0.057953997757588215
-0.07624843198101161
-0.19846804515689917
-0.04871144157571275
0.47929249580580413
0.5203162856646995
0.33151510923380256
0.48735583218025713
-0.27504224830750007
-0.10823639434553882
-0.10591237664678504
-0.41924951315737824
-0.22368590622843468
-0.4859416764949108
-0.17061127375720156
-0.016121226551904025
-0.021222693306313156
-0.1923377601763531
0.053468044893097415
-0.31411444892167856
0.028494913441278302
-0.2572854007863611
-0.40394157785255447
-0.2461483742590301
-0.36318017160094807
0.2931892184254138
0.13621674650725923
-0.14105272165618607
0.3436025554449359
-0.5380004587376893
0.016509412173484367
0.10668425183994155
-0.4344790099754157
-0.23993833397500888
-0.137998791879807
0.27909352079413086
0.09165515444190325
-0.41277091163541957
0.039819412459821124
-0.35123996859806617
-0.12986892301899353
0.06972380027248301
-0.18985994399182163
0.017744339157965534
0.40992855726049665
-0.12400702737092176
0.26223811140206965
-0.11064032077721367
0.10368824036207519
0.05992986505905711
0.4090771151843597
-0.509118478674904
-0.0642485769548229
0.10074776505897004
-0.2034891194649371
0.09062731099063089
-0.3120284458239493
-0.04097664641583663
0.08347565586454303
-0.3850264581802058
-0.2140122619673293
-0.2910809157509762
0.47412338182811375
-0.37656338003060547
0.017802621296462772
-0.058014649970283313
-0.0924068667961306
-0.2675328740655897
0.25956637410039834
-0.30753566009599603
-0.18459459017249258
0.5519999161985217
0.519140134791399
0.06448166383697786
-0.0754178123456175
-0.009038466808456665
0.13746637572791925
-0.006100887987818125
-0.16066136398330674
-0.5954726855325905
-0.14960459600810722
-0.19351824124178224
-0.04011419772049509
-0.39567167402308
0.07879715927916797
-0.5747931218438207
-0.10724447948414248
0.17336562626212654
0.15692996211716462
0.06703407957591524
-0.31345551946980194
0.07738944205158194
-0.21482603769621597
-0.1515785627243607
0.030797259215697273
-0.07362849873326197
-0.2435876082413799
-0.17214774777557917
-0.020812905636677273
-0.24002541158332114
0.08153895945041677
0.07269877803539455
0.028250283059495052
-0.6326846966960642
-0.14059117686907208
0.5523459402448794
-0.05386774982937288
-0.4661544391118787
-0.3314183230385802
-0.09299835691607608
-0.3340346752972596
-0.08870924579205007
-0.06687477369428083
3.7675495230815592E-6
0.1110492145476946
0.15258158263723012
-0.03516215061578111
-0.07824905571359221
0.015883393694942814
-0.10173856977081158
-0.2490542596562927
0.1688961380275888
-0.3182341397939568
-0.04480188936348498
-0.14395265491673695
-0.0799002675972536
0.04478804133309116
0.05620276373759898
-0.8727854384262962
-0.027731856787911256
-0.6849732883376307
0.25048257945981073
0.3490984938699986
0.16975530566907673
-0.25086182801428225
0.06935428812403824
0.19084879505792482
-0.39662717670468045
0.029647529723127737
-0.06270409080367562
-0.18025310706440803
0.2580780021034273
-0.7228545254460484
-0.31571199873620326
-0.1766827386183625
-0.16184984000082175
-0.6376761446223256
-0.29601833236910546
-0.260355347760682
-0.2560753004474983
-0.03453962943848912
-0.4135563932708823
-0.05936866649512948
-0.1316275589272909
0.14141612547998264
0.010218298779950943
-0.013752023907873044
-0.1212921545840935
-0.11459721936677825
0.027426692452858416
-0.031036043945290383
0.009284388982635495
-0.229408950905072
0.5759010578983187
0.2476615920421635
-0.34858358153036473
0.026899420635454287
-0.33195386192819076
0.2149170066944287
-0.35848433787630446
-0.029859504410892242
-0.07123227756859771
0.3123568516045961
0.558228723567426
1.4808527117269763
-0.7043952260267922
-0.18794295408402706
0.07090299140919583
1.2016914499476188
1.7978957502189787
1.8960330032142692
-0.45208561464298874
0.20554883773098934
-0.42838098819930104
-1.3113951052385038
-0.3291715078811238
-0.016410761391958986
0.10571898980667639
-0.31014213681924074
-0.30316224392338836
-0.02567987669153286
-0.17638710103115177
-0.4279328468895236
-0.14403197119523714
-0.11031101765076542
-0.13121404033435216
-0.004397360295672122
0.23512852315316854
-0.6666335072133582
0.023764348261955424
0.22535934444894154
0.39207945042635545
0.004617681850657122
0.048682626651466665
0.4232952784771566
-0.38639422716475075
-0.29182929230707166
0.3360204111550359
-0.33114729319943065
0.31269591167573996
-0.7955667619207101
-0.3651650848724561
-0.05025976850695462
0.11840040693397172
-0.27746961517534086
-0.31185675829040305
0.7717579421117925
0.00287033233029671
-0.32884565558491274
-0.022277677791843597
-0.3707739694879885
-0.13972678073759479
0.2891097105809693
-0.11259877255160053
-0.22590590082219067
0.3159700962057178
0.07132152499864507
-0.053160123204341804
0.1326218945788669
-0.41788235022385295
0.2695648432172084
-0.34603048900288047
-0.11885076855662191
0.09200127046157357
-0.06293916366923832
-0.25765115435136127
0.161877857326245
-0.1799274090885453
-0.2817868282671449
-0.035754989675027535
-0.06787671761964326
0.4166745963650133
-0.5617558979960312
0.2184515512359946
0.4124211256676439
0.4096098857904073
0.029637805143626385
0.07815334010318103
-0.07066026079686748
0.6663637444512898
-0.28773398592032334
-0.217908365991444
0.30216809770605524
0.09589741554386645
0.015420214176151248
-0.3504698952918389
-0.29795822630724694
-0.3086125077249037
0.04182173549849011
0.1319981779545481
0.3096217714163119
0.724272540369017
-0.44168207221151995
-0.40172001743328256
-0.018308099080400417
0.12151656835869482
0.20902307565339562
0.08605730245478894
0.2722813683518449
-0.6050306004218674
-0.5041819389429882
-0.21957730556525148
-0.0777203997586969
-0.028579466624707943
-0.3061745908694202
-0.03541516930698026
-0.014786928402840415
0.27295746105022256
0.12768513924372732
-0.07721579870494842
-0.4367934290409255
-0.38701063390779683
0.25824434736917096
0.11117044260306184
0.13182582704367904
-0.37780246511782595
-0.12418378795857203
0.3748345704790868
0.03395389488165866
-0.7304681755543931
-0.20471115946111884
0.16741955777191803
0.05015397463279893
0.024973836620909823
-0.5000887045296426
0.08714139547725652
-0.206804383355342
-0.09427259159716705
-0.05537177815159928
-0.37516004601559305
0.23366031372442256
-0.4104826576869206
-0.042145911169146136
-0.1426182647455324
-0.4253072684609057
-0.25765097228759815
-0.19693736627506495
0.19737105223836582
-0.4860671007122258
0.12398793562245758
0.14213536190341186
-0.18392831208573532
0.30864704708529656
0.47408101792587326
0.3207802571448858
-0.05163327188695847
-0.08323309859739528
0.14658844700892534
0.5101278207498862
0.06192354685349293
0.01844074516712093
0.016844325938174753
-0.14908551791204486
0.03715238788367709
-0.1586113935601117
0.45356772110298205
-0.10049563716591967
-0.0435327732166904
-0.1647560667212492
0.2589618455185495
-0.5001932868988734
0.0407756682610958
-0.24755959776961076
-0.136979818523181
-0.4070276253258442
0.14002339405777356
0.013387269636641063
-0.3694127608193829
-0.22134980906030746
-0.1991532256986996
-0.6218166073565854
-0.1296367677324686
-0.10080030286103281
-0.1576526327772793
0.3631375094196184
-0.09867301797236668
0.23429843553991164
0.5477615520856506
-0.13210986082379442
-0.2551091378437174
-0.2261980919017516
-0.05934783240954422
-0.19988341389824713
-0.21405027755518785
0.11774644814120645
0.19885785005883594
-0.5386172781153408
-0.4153791393885182
-0.11412206506338134
-0.07284566626665623
0.1916111631989931
-0.13473008717998383
0.13151577594759267
0.19190031980762357
-0.1191732741000263
-0.026396866577501808
-0.06233748797204931
-0.4677230976765176
-0.039766286684365174
-0.12380773993930591
0.21902602292091564
-0.014747421283239137
-1.4613482181120145
-0.7605286712168462
0.05074306860423055
0.11235299710924969
0.12840258068912622
1.4239707260321366
1.5477136009504895
-0.3005840746698329
-0.22060777443500384
-0.2874447928133914
0.02060034534683699
0.00966347104594703
-0.3399627552384428
-0.1556131857962318
0.08185537196464723
-0.5819941710363892
-0.4430398683019505
-0.24104342667308018
0.06879616743473477
0.29546683377695176
-0.05484700406828226
0.28133260269417276
-0.07412582077058001
-0.3637292060254726
0.29405516488108113
-0.17941705811288153
0.1354703084267456
-0.34203653931831446
0.4345565536652738
-0.3175315486891332
-0.042284054619641784
0.06764473927043488
-0.14870828309738623
0.014772536201575722
-0.797843601543194
-0.3450675600295558
-0.11341966660798668
-0.1566127152479449
-0.24188639461677136
-0.1310679507843987
-0.3049206820112279
-0.3479331961552028
-1.3562241587681472
-0.30642516954502774
-0.13523751850890062
0.27629273451048675
-0.15766954175160527
-0.31736366023482565
-0.33036459054848893
-0.25298238155473945
-0.027819609999272202
0.289643357269129
0.20084922913742595
0.7706141187862983
-0.3395559830772786
-0.5064417821044629
0.27778672308353536
-0.570370025428318
-0.08129486892115853
-0.35705904293957225
0.1448389793047706
-0.018641563401801148
0.5955311611804082
0.08590705446246431
-0.4383112153875847
-0.07565468486822977
-0.14086351407875622
-0.0834032369342401
0.07564051582514472
-0.5634552054678508
0.1493770386366188
-0.6935572001632541
-0.5237891424136875
-0.23766112968013384
0.03298334078234755
-0.7042807521207421
0.16021277620226687
-0.2224807337240585
-0.061148229486726643
-0.33413866137009424
-0.2678259241748018
-0.08323515847758406
-0.45952507902711087
0.5553722705982762
0.14885120910992974
-0.11469467444091434
0.22436660015001833
-0.4733482110770455
-0.16014669284343103
-0.20493830177855535
-0.5317180311613711
0.4273519228689693
-0.180016097534283
-0.16443842227113456
-0.4436612978981589
0.08805884657945232
-0.18721559988260436
-0.7483129389715867
0.3123710141229443
0.4167305647607215
0.07120829983289075
0.10449863819007404
0.0778956828850598
0.03405727417816125
0.00833460286829149
0.1285426369161981
0.183926042427693
-0.22454131623550552
-0.09172123573936777
-0.17729069788733365
0.5117284088466464
-0.13070141058275883
0.1575060702434882
-0.2948816551993526
-0.43463964230131313
0.27767493030582685
-0.47765279201076116
0.21625927755259922
-0.4392091587743606
-0.6105141378214026
0.27875967075233543
-0.12312922783437052
-0.2465108548234816
0.12019217096052466
-0.008082042114145274
-0.6194822224859039
-0.14057429757822598
-0.14071035498961723
-0.2834460582858696
-0.5194050321935432
-0.1020239400101835
-0.3077810960229562
-0.34636643385389826
0.35926655355201875
-0.08064445038875284
0.4823386773064161
0.18397721200173098
0.1776775780376295
-0.5417799793596889
-0.3467571048036135
-0.0026232610916317595
-0.0118259475516155
-0.020546861315095984
0.339526009837011
0.4410225481606579
-0.16098945304132115
-0.1399716844725501
0.2295249505506517
0.3098600840233877
0.4094434066266447
0.16362323153736985
-0.596319341481935
-0.40262273696478373
-0.9808437488247763
-0.5120266154376887
-0.0899615552547415
0.12725834326251534
0.11235799110920375
-0.13522510261298804
-0.6618704318838895
-0.20697928338797494
-0.19904921716530405
-0.8045190532501428
0.0691672024043352
-0.7129698689998774
0.08386149820467936
0.961385434923855
0.1527897446088525
-0.0863659176680825
0.040185326609467706
0.1126024466720421
-0.30740702103533785
-0.19510736996064007
-0.45304202123799747
-0.2622575167800658
-0.6567901688733185
-0.6718101699403863
-0.14047100789183883
0.25596888363588155
-0.08299897283938333
-0.1927812643529882
-0.3425131989168577
0.567299377742838
0.020089861342367867
0.06068567470033192
-0.44726808262676016
0.11465890598205855
0.012330837867375441
0.3607947918374969
-0.07184127221817124
0.1499162139949016
-0.047898471632541705
-0.42602856652621096
-0.0811092686688959
0.07757528966397799
-0.5817639514148192
0.029934397917668047
0.07385810588766457
-0.5559147789261611
-0.48272683316480103
-0.29720106113149136
-0.44259189651481845
-1.751967449347301
1.1500164605722611
1.3864758924085714
-0.6164186258585131
-0.2080724301987788
-0.2699622489248484
-1.6339531900203816
-0.7099199253789216
-0.08529802038812646
0.3004152164895523
0.12690942463980692
-0.1352758685338724
-0.3267402192776908
-0.11704974575686757
0.6716480773030266
0.8275198308542548
0.09254607611592822
-0.22899378458772202
-0.09920673227355267
0.16845021031761268
-0.4878261251687623
-0.5172403933752742
-0.1870150116051355
-0.4075711785756774
-0.2149449980216434
-0.08839158694314458
-0.06540357285479077
0.13266464915335505
-0.36606318804271726
0.10298587587784826
0.24989196898847668
-0.2073977936383234
-0.06020538688480923
0.04506909416903821
0.01565845391297282
0.4159836367256845
-0.23170828234770305
-0.817790124620723
-0.9419818455979557
0.4806844444520658
0.034757114985814894
0.1905270361218787
0.2252395898339059
0.14257082252595418
-0.22849285874591355
0.06644992916531145
0.20682731333619622
-0.30519207285359073
-0.2499856260596443
-0.815708622966518
-0.475218508635744
0.0029465912246714222
-0.3363548246825603
0.04053458926609291
0.053483965622249434
-0.7524267109749102
-0.24870810426840825
0.35651044032071844
-0.3388916314024513
-0.29511690208290897
0.14968197047328383
-0.38740342124619587
0.460445049610834
-0.25798988913173815
0.2803455074030587
-0.3669372535494365
-0.54820364876451
-0.32354081906451193
-0.04738456626936703
-0.3764420549439127
-0.6109673276221238
0.49889563695826444
-0.10054368221931333
0.22196945012207425
-0.1581822971865649
-0.10261786464254077
-0.1581067144601946
-0.09245193237166065
-0.38753148325647685
-0.23316377026102303
0.14525321183856515
0.04166511380574267
-0.06079813563143157
-0.7054707956591452
0.31092876826121885
0.21598667769040544
0.383167365268437
0.49547758852783935
-0.22722893882858955
0.32116700791169933
-0.13560058939048286
-0.1184576094682036
0.14738144431476272
-0.27558669029224786
-0.14959350010369862
-0.0837647886112083
-0.12007224658426109
0.09694072253574375
-0.22074761527936138
0.21499737811387584
-0.4011009376090545
0.07635322642845944
-0.20458926570802421
0.3321581295278949
-0.2625635322296216
0.28811656313948336
0.5691708094139157
-0.042227492716928036
0.01963337227244881
-0.32400636121421256
-0.22841560844572806
0.29019301236483597
-0.5813003094120668
-0.46859832049969496
0.6813795825445181
-0.21644186712643274
-0.23969728496235765
0.10277779433914883
-0.4454624764414316
-0.34187891257995523
0.01804950643568334
0.17305144513286186
-0.08161677575218078
-0.11738783623884007
-0.1213819703894495
-0.4909304795236925
-0.22231298354984966
0.4138463814040379
0.7034282383631328
0.27720755428946736
0.4262059809950975
-0.9435541901379456
-0.7271240565677468
-0.2998231647673674
-0.12516254546364572
0.4878610265508032
-0.37327223401215087
-0.3771967556631776
-0.13863362999652487
-0.03920577221926369
0.3016670743123839
0.112392462083815
-0.6459767695953953
-0.09438451272758071
0.1887770466037957
-0.3679994969465634
-0.15303850939112743
-0.4911471834922348
0.35488441133608645
0.5190317544534003
0.41600568708859437
-0.10650802159061776
-0.25481474253553965
-0.29490385478699344
0.3357353975665976
0.14540358558852992
0.03339677509652136
0.23910609175601893
-0.4803275385690506
-0.08380050814695139
-0.22543959919881634
-0.40602760850741937
0.3719835881705266
0.10901239237700348
-0.7381981373513749
-0.38153554546198387
-0.040559636127555934
0.06772087473893496
-0.06393494116048196
-0.596402162776767
-0.0020886217413126724
-0.006716936274448908
-0.23031022809689805
-0.06719710985610217
0.029630709415294606
-0.17491502762603495
-0.029321803334853007
-0.14027029211228717
-1.167164390837465
-0.17278359695369133
0.08477428871812
-0.5033212739524857
-0.6022528472532169
-0.15239766582333403
-0.39518638872436324
0.11461552855595945
0.395502671991858
-0.6334555055006108
-0.8063028716508099
-0.5652855505922179
-0.04225331342443579
0.11259771248093445
-0.02862943995378587
-0.13533208065554353
1.1900196891790296
-0.022869207595713446
0.2556485907387051
-2.1729096570177076
0.4320017019619476
1.4847614373582128
1.0860262844772324
-0.07901086047868705
0.32426485356047496
-0.5976226843171728
1.5203721154180188
-0.46966603561022807
0.2957849746065994
-0.29267205899247467
0.040361210906546686
0.49017110618543086
-0.27158988221843944
-0.6360633654000005
-1.0037172905162461
0.42584044411571176
0.21129103866925777
0.04674669296666144
-0.2757964284190052
0.08366664767679981
-0.7134103984249365
-0.5635882079913432
-0.23886839367905224
-0.20634841060475195
-0.016742106484116955
0.22095998731850192
0.2624884822651941
-0.8072049468386269
-0.5446004035204042
-0.06299384310263285
-1.052433599375038
-0.11402864036172272
0.3423130597768867
0.3758348500951687
-0.2821128908605677
0.8598305876389835
0.4795475233193905
0.28377989514426016
0.7723229972299313
-0.661144234439992
0.11427264597145624
0.02836102556235093
0.2633604012291759
-0.33368829438219477
0.19926726722615118
-0.29258687414408385
-0.5191597250449808
0.721751804345044
0.10353628306485833
0.3478755706998285
0.242002702253674
-0.5091885677634215
0.04399092238423999
-0.031875754921501506
-0.2968304164084466
-0.10470757653863438
-0.4620027607813681
0.1900577662686179
0.48871949531158604
-0.386733468028908
0.043694592883919185
-0.3089804270530007
0.3712067239867973
-0.10051557432599088
-0.3198159181582222
0.5375430206935969
0.3483730702789686
-0.479195190943241
-0.020281512837590214
-0.08627955143918749
0.3630616389888717
0.35133473600672366
-0.18144360064726375
-0.15820811667294582
0.010639161126974796
0.12016481594701542
-0.41353863486847975
-0.5117992297395373
-0.39755686591097605
-0.4100360595058156
-0.562134065090142
-0.03164106485792726
0.31566705667188416
-0.6604958034569307
-0.05686292774828888
0.15939992027518982
-0.8515664295443047
0.43478651754066433
0.24808672155545158
-0.3279095716005008
0.2944780238077784
-0.27962017389843513
0.17707975680606017
-0.23184465965309017
0.3715906035371792
-0.3680530073790165
0.16181828735218684
-0.07434767864913729
-0.03653884346181984
-0.22244855961572108
0.14892722388184226
0.3077637210906517
-0.15389717763750232
0.7159635327638934
-0.2998915134797268
-0.17439592419061045
-0.9713969142320806
-0.12125049291262228
-0.17892513918430683
-0.380617643797774
0.5197013651712001
-0.13589206575057178
-0.04438958937793919
0.06377224165489546
-0.1575274792861528
-0.04894446817846721
-0.10600032827903189
0.05494441194972975
-0.7054543544834602
-0.31588008701642767
0.4872723730279285
0.23591218938940686
-0.28987533398907306
0.013620083874300207
0.11725884366576089
0.046633255626629025
-0.571438468424861
-0.9004677869366147
0.39963319243217565
-0.00267157477304466
0.626956698542159
-0.19879272044061114
-0.40592079258517305
-0.6320609797273152
0.19974251598192952
0.04176589180063733
-1.6420742361581168E-4
-0.1676874586876448
-0.025636457929500058
-0.6308376868077241
-0.2416482941085083
-0.34618022214487654
-0.058997606577003675
0.2916593326443542
0.02349764102176558
0.06682014923120544
-0.020349661034454344
-0.49543448981859
-0.7850077254450043
-0.49141869605390065
-0.8370792604718337
-0.17892790902499472
0.39327736264249924
-0.020613972896000126
-0.42900522858020695
-0.35068405017797316
-0.17878505092619823
-0.393970772886439
-0.08128633933241114
0.3153297906494603
0.1256520955637644
0.7598297737621067
0.1685841042818326
-0.3321478475152191
-0.3380494965812882
-0.116154273497779
-0.0730104179047092
-0.24806704579439867
0.03901827210396452
0.18739793105953795
-0.5600450864202781
0.13111363083227529
0.28923689920561924
-0.4084372904814312
-0.17647114134360872
0.01749753437426403
-0.08209507636187795
0.5364665468632114
0.18483267186937277
0.22788261558815828
0.03654429348243044
0.024650858314329876
0.5501952529610654
0.4447370470681431
-0.04982493162781553
0.437291132576983
-1.7802374907684781
-0.509942201803376
-0.16073602202132767
-0.2690574179528829
-0.44590660386591363
0.04267036087675846
-0.09730820666760742
0.4133840455030934
-0.44156024045174364
0.01686850867811089
-0.37844048435477695
2.7195427185550356
-1.2178576844056739
1.372922668650691
1.6156884841445882
-1.0023792859119383
-0.36752194493550017
-0.5980516943399146
0.43429883591419804
0.12493100189977918
0.18357348375483895
0.41672627057000095
-0.48532444893017285
0.27896118038289475
-0.5383971778999667
0.1435416929823001
0.12466011292865936
-0.049558648036236067
-0.3026803372406438
0.03155524613460497
0.2769171959547049
-0.1396808574496119
0.16016668680009716
-0.16530272356346326
1.1873061637636106
-0.6903304418023484
-0.7665872814287013
0.061639876551911686
0.6099559820742191
-0.5617176985142895
-0.3184773991002204
-0.4505175236858214
-0.21322327053784496
0.0585301044773471
0.40667169693542293
0.5624889643710489
0.5791420409911007
-0.6062538243976773
-0.572701580040488
-0.5620891254606099
-0.8098446195299164
-0.10603555386085646
-0.600830945558676
-0.20242225399208236
0.3242336884896558
0.27308370466407994
0.19507453207144576
-0.20618307927213955
0.17565868994364459
-0.22933023915060993
-0.9850231385337254
0.7434752602575773
0.3339001521393364
0.18924725307987114
-0.20138834094473987
-0.007883601008603918
-0.07854265267408504
-0.15186472423776307
-0.4645918454540535
0.12115400069662709
-0.2714527685376004
0.7153446798544697
0.1413285986549248
-0.5956347229839533
0.03274191606310645
0.6270480792277052
0.08811258701130917
-0.23918978863519152
-0.1981549271914221
-0.31268769485217895
-0.35097031392957695
-0.40784338421469074
-0.011342044741572369
0.25110515918690074
-0.31671601449624026
-0.12914754399552342
0.1253841405461874
-0.6798979106665572
0.16295807136996907
0.12630024656495867
-0.11085877166016182
-0.2880355440573734
-0.5479812883434587
0.11871041645227925
0.11754062298219106
0.33887895559376635
-0.10941157172107949
-0.03260880618251499
0.5272274292981932
0.03416134201689337
0.4899205908744995
0.6409787724733015
0.24502592356876457
-0.08524737925718258
-0.4153917771539417
-0.18515473479349567
-0.32634815077375046
-0.593500920654697
-0.4804192027595592
-0.1019585927752976
-0.7495090787161405
-0.1717790444200315
0.12133176831424702
0.41477046145360075
0.40625488009306165
-0.9221453203950252
-0.12879958325379398
0.09353827802666277
0.6830267552710726
0.2756694752757221
-0.5251118083236759
0.07443157304838022
-0.19660945541139027
-0.4070797279754313
0.05119419838649531
-0.35880682494906896
-0.14297929655437963
-0.1731445276138523
-0.07351702910007042
0.18267570035171316
-0.431532735512633
-0.3414124041428434
0.6160249102130101
0.519382865704221
0.6444234646727622
-0.43649432312636394
-0.5474047207692837
0.021264825849074468
-0.17258349063062986
0.5959347239433855
0.9466391681633053
-0.2845071564967461
-0.09664982187656646
-0.5297928813010385
0.1154140329556727
-0.5230851908413404
0.020286053689095574
-0.37830993378163336
-0.011384744530319972
0.11528327112728874
-0.19957026909012335
-0.5408830585332743
-0.5251301245519622
0.1297322535099615
0.42487785106684745
0.16003881080952242
0.5450429963155785
-0.26463043562492505
0.6343330132117014
-0.30579289981152863
0.38865720963526684
-0.2335330658146504
-0.7462487661356544
-0.15971868105467252
-0.41453098031160696
-0.20299000265551073
0.14852579170278402
-0.0609897774982637
-0.22292172651343292
-0.6433110219252728
0.27282842009815755
-0.32760039835765625
1.1769366430874293
-0.19659592669259798
-0.7232074526844255
-0.8029402191204107
0.17259178344031076
-0.16944655063796893
-0.19221660823716638
0.022315242201605894
-0.35456448073604613
0.1269514715812055
-0.1554156275957985
0.022856157057859632
0.09002215816910208
-0.21229442021398817
-0.7044207998912441
-0.077372095041065
0.37335857672923356
-0.32355667612439165
-0.363301776649985
-0.6428577953130679
-0.06101441903129323
0.26695509498570563
-0.6540721682166765
-0.7926119599760633
-0.6631458518523252
-0.5335291070934947
-0.4346681241009632
-0.2246692331307201
-0.11712137194976878
0.24380819436466872
-0.7665919655956539
0.050357331562948145
0.3242864187714835
-0.38629971910077554
-0.3000280861796091
-0.7320233149703997
-0.3626117200125888
-1.741350250646956
0.2377460404049974
1.659153228653161
1.3030823717597382
-0.5509634788413105
0.009139801678696054
0.49782775819540337
-1.2056374381392356
-0.037626008996298275
0.17170831646434673
0.04793171420533502
-0.33069144657861016
0.3721091008580196
0.1458844884071181
0.3176766337130627
-0.3055022687321387
0.07804747513605167
-0.6173503991312564
-0.5179744669057044
0.05234024933768308
-0.933846908593752
-0.35864092895762145
-0.09111227550180216
-0.7444362736512986
0.10203420027117736
-0.5219453766532407
0.32612272461713726
-0.3119166413870346
-0.9395639536673414
-0.4424035677377763
-0.17331516654318468
-0.7869484894853902
-0.25098686702221884
0.46332519879442596
0.12475431481589977
0.03622609430915419
-0.3109226240783924
-0.13507956630774873
-0.6730640783822758
0.7063042668194023
0.25477482110546307
0.27501912089534275
0.09427061283607867
0.2345737798191705
-0.45961903184337904
-0.1732077304143954
0.6564848761556744
-0.5523933157879354
-0.8039761995553024
0.11042452029612422
-0.41775592397549205
0.23226939806878544
-0.3700347647837206
0.04124913936197854
-0.2641479030668815
0.014262919033873275
-0.2589941949508356
0.30582900401978863
-0.20168528367314925
-0.5042598454613103
0.02116332695908405
-0.2582307229334713
-0.7842559382448767
-0.5853744813782155
0.1515793928237073
0.06601866140284723
-0.7990439492592261
-0.4578020655662986
0.713351340052981
-0.15378383006666263
-0.696034716948788
-0.5778071484943301
-0.013414319385030219
0.09913200994282542
-0.35081090511292934
-0.27025275183716607
-0.10720183259302005
0.27059944336701164
0.41054995502900304
0.9980070207768359
-0.20245609620731825
-0.5017453252949226
0.11453196241260727
1.200999225071497
0.17904861843948267
0.19613883267345275
0.5080521892411203
-0.41675655213985424
-0.2613267292665318
-0.7356080829548053
0.2590959213260943
-0.17613492737484826
0.23598111285286028
0.037208436474808156
-0.17215151450974928
-0.49647333836946683
0.13971338537426176
0.4155919707643696
-0.2709774939520581
-0.21423967489298198
0.11320431547078788
0.1295728746122256
-0.40366888265919526
-0.07925131064832834
0.6124130879020825
0.568711134886303
0.9245446410220448
-0.4148818651319558
-0.059342937086313156
-0.37150423320223214
-0.5878923187404466
0.19930210708165894
0.264258356006793
0.6378387344026527
-0.19246488010260557
-0.30697977371980145
-0.18061359548602
-0.25387742332919827
0.18348616464342998
-0.16081935257536134
0.8811987721683459
0.3216489410739357
-0.22218570179372285
0.023465544783351083
-0.532962233346117
-0.40972355408307
-0.28773584137410535
0.03810943120534747
0.5327956899679106
0.3210482319906816
0.7919632404564041
-0.6347131126081894
-5.535211656243696E-4
-0.4316298879335837
0.7243306019476142
-0.345239042103731
0.3613247449806281
-0.3966690079044369
0.8107715372017783
0.37303162054588285
-0.2092234150120392
0.16614973032784822
-0.1923217125554027
-0.15511097411572908
-0.4851364311569929
0.6571934468640174
0.22348612979195986
0.13281164733611175
0.6349017280849817
0.37074689362504376
0.23633683969095576
-0.4729618871774188
-0.3195875256486981
0.16662012522823094
0.6032371321554805
0.04111109663254397
0.21750026674482043
-0.2074531255681794
0.846813521824784
-0.6555277140308015
0.05036432688255168
0.4446208682561371
0.01267898091183305
-1.02133700117857
-0.1384374711924634
-0.2066693087749913
-0.4450672030762741
-0.35146972941606286
-0.2099024773859537
0.2944947143181112
0.1011591105796707
-0.5607396733776723
0.23275870162039172
-0.035075963965740156
0.2755787865144281
-0.14068272793314016
-0.39037151755812016
-0.02224548961140208
-0.4252817104391945
-0.36859626656630134
-0.530175031597201
-0.5666337558315305
-0.4400551455227092
0.4430012578794743
-0.41271432156049914
0.8965858562503033
0.36467375209214015
-0.5008865497281988
-0.1784879421099359
-0.35148761473875717
-1.0328504329484012
-1.5389584649158479
0.1884180644991128
0.44569361869067403
0.3671355969122499
0.2726598972873779
-0.20252034865303886
-0.17657297199809285
1.7450032067301995
-0.580378352480287
1.2196431164477037
1.6595712703031233
-1.4758381024800757
-0.7060896892967543
0.8464116228433379
1.6285320339511777
0.41360991997205315
-0.07923181064920126
-0.22179812038651073
0.015944188894417614
-0.3399362684218623
-0.5230110841132455
0.17637179233485045
-0.04434208091139083
-0.17756332981820466
-0.5628773730273468
0.05512068189831169
-0.322828754637047
-0.6368500634423366
0.049235148826885976
-0.477803263995099
0.35805618748000423
-0.13811477928967072
-0.09976735171057327
0.5284273030129595
0.7036218217125331
-0.07111754565673277
0.01385039224533693
-0.2942457627967553
-0.2627956178008005
-0.1282144249592861
-0.347419585293574
-0.19382944473360286
0.36649329414753173
-0.18037948049767727
-0.8361639817648939
0.02764070265237413
-0.4728059780449969
-0.10114779287885314
0.006748124075388713
-0.5138910458949754
-1.096700292211351
0.21459545009857
-0.42501417647143175
0.24245777028406995
-0.1127635868328081
-0.49513140221721147
-0.8535448958822301
-0.4005763995803328
0.24362671700226848
-0.0723988447893113
0.08421231576598258
0.03316096378607331
-0.005938924182827564
-0.04146454130239176
0.7663298421248734
0.6667102934221009
0.06174066266515752
-0.24422316721153686
0.1168134948727263
0.21043082721618392
0.18548267514260286
-0.39823699396058737
-0.097678619547562
0.4166965982457556
-0.7618825104341721
0.40159544511557066
-0.8792092375887625
-1.2470569226044461
-0.042182515040038726
0.14963525946672376
-0.029090680090662003
0.020250536241529102
-0.2992964280327345
0.14316586764028177
-0.07927061083730846
0.5200622183653872
-0.08312251112250438
0.9683280953210563
-0.5674862639055062
0.5850325837167863
-0.1600643624082755
0.18134186647342063
0.5288034570119758
0.18689498588006598
-0.47200817651224786
-0.7108010134060597
-0.031939932152994795
0.43627403599212383
0.5537991002558694
-0.5463145733173584
-0.6452933796055993
-0.28369272256683975
-0.39153521708481964
-0.3283769921819925
0.7681978903808799
0.4013272284917562
-0.47690351843134027
0.013382959841225967
0.38784143361797446
-0.11333250169748807
-0.12058279410368446
-0.16982186210919684
-0.16599771452461362
1.0940177633774433
0.6789823970255758
-0.03914909982777312
0.13692047698082316
-0.22342920966703103
0.19573064729001682
0.48029529419257533
-0.20131832696222782
1.0835181042317628
-1.2296603722459236
-0.3386820226173105
-0.5112616384433651
0.04990631122315116
0.2500134911836399
-0.2920921189337833
-0.3640320060470084
0.4331703985264233
0.185373985157906
0.16666578064784487
-0.40227342180509573
-0.3073344385020936
-0.30615836784206624
0.7284505296297625
-0.8398138943822768
0.29510710193849077
0.11917934326667774
-0.05674591023286958
-1.1522665031678563
-0.3206634378252606
-1.0126213805102682
-0.028870830632876827
0.2698335600565882
0.3637254551782935
-0.46375466642360935
0.2889487589573373
-0.930093819435162
0.10089547897617979
-0.707570228826372
0.27293414316925935
0.3294357640864745
0.15207339681619675
-0.9099170705290659
0.8154250684820672
-0.06581504974410604
-0.009479168160298597
0.032736174925502515
0.47243991921040224
0.5748326050619252
0.04450929005739268
-0.023222493440637572
0.12741414453194433
-0.3072031975297195
0.5751497337293429
-0.028970338857092756
0.35926859700156655
-0.06424560265675115
0.41962362804865766
0.5052177853734846
-0.3959315681337836
0.13640530017919608
-0.15028665754732135
-0.8020232781656771
1.019658603475378
0.16632424330260084
-0.1420157968801563
0.19309384198853904
-0.15531216489106714
-0.10264422812926624
-0.08685962094404882
0.35611490115697464
-0.7246020062262836
-0.14249883103297617
-0.10654936107757837
-0.5814612183002036
-0.048077431005828467
-0.11503558578532186
-0.2794382084091057
-0.21196499924080556
0.6620541559101483
0.14171672389783643
-0.07964548043211965
-0.3272624854541482
-0.8725285135749427
-0.24248632895850414
-1.1293762591256493
-0.4095594857804878
0.3591943417992028
0.4135716344958761
-0.05972728005705163
-0.3316553279787977
-0.29673526566785
-0.3051175091810359
-2.101389634702976
-0.1949931203520898
1.4869031769688112
1.200194438972416
-0.23723996249212126
-0.9657143804554997
-0.4803244936071547
-0.26527269575538454
0.15787035616771675
-0.6082312447366615
-0.13982719120239753
-0.29052857285756817
-0.22538131598173833
-0.11208488419020259
-0.24133339661495334
-1.0773513484253066
-0.136258370302898
-0.01107941014601907
-0.09566849369805869
0.10743595670280393
0.3324122770173775
0.020552419210368746
0.3254351853662589
0.13223878628575558
-0.13859975942706473
0.12704144336839326
0.9502575593862476
0.28390329964016964
0.37380757748250987
0.5571304701946368
-0.27658339153425865
-0.07302132552346077
0.290344393952581
-0.12937601543147312
0.5988196482707452
0.03842607448844213
-0.15172583175436116
-0.6733021722520782
-0.35016750156146054
0.10433052141803373
-0.14851844620855117
0.5072187753551374
0.2307387170154962
0.29243871066886545
-0.5941512245519327
2.0830119452740908E-4
-0.01103165915618965
0.006438522210503755
-0.1269094884068048
0.2810489792190331
0.2624884089088003
-0.44002451698221123
-0.16459358649045416
-0.4901156476920247
-0.7665150734461263
-0.31715789752097795
0.40599081975708035
0.3123979639930808
-0.17068210098975709
1.2986695445734968
-0.09522022944139405
-0.2305261416642113
0.00975219863369911
-0.38654440672883666
-0.35962870489144927
-0.8751583968004282
0.039295540325211376
-0.12016544854625817
0.23948782852591902
-0.23198825880641338
-0.5817269716928071
0.5589575134517872
0.007229321155398342
-0.43184611186539895
-0.17629968914480576
-0.0061901977457426436
-0.08037905887692509
-0.4744297942065037
0.48869255992069416
-0.2274675633504139
-0.15526420473844033
-0.4750936088649097
0.9381035856544147
-0.617694912687347
0.2808352550249451
-0.6316020223204172
-0.424603157702504
0.3258118499738788
-0.7685413207657805
-0.159708817140766
-0.7552234210948054
0.6359224489739149
-0.14423840243417566
0.3375287199059898
-0.03946103848144987
0.5326154936545646
0.3492340828111592
0.5984334889958132
0.3317929357923701
-0.026009472920165547
0.055306921477271294
0.1935442427289963
-0.9482758653080746
-0.4500592330444228
-0.4479889209829025
0.5028927294910505
0.4888588111939549
-0.970697191160657
-1.1310316210335514
0.09439429399525227
0.775890356204019
-0.134233938113929
-0.3427461142067409
0.8775520562890812
-0.4494387986065335
0.36299996137673574
-0.6974967896234266
-0.45120707080533334
-0.07069711696215047
-0.397200964791197
-0.2347846351926926
-0.45685063467666587
0.3581735143603042
0.012767001149911465
0.3709420818468039
-0.5493493733366455
-0.2506559549952916
-0.675173625098212
1.0568257029529016
-0.43743020289009776
0.027740588809221756
-0.14394889773297412
0.020929107945844034
0.5266195487990305
-1.0104471814964857
-0.20536047468040963
-0.5024913183132745
0.6721010594325135
-0.2377951038409644
-0.3476600325420881
-0.26927965551579336
-0.5452256174342285
-0.399003257808033
1.0913671601202328
-0.6508727226860955
0.39767969402458475
0.6082311778520287
0.5201936858360797
-0.49965106331179676
0.04180317676327412
-0.2505327197378696
0.12849668713694895
0.9135977366027549
0.2882247601203157
-0.2225289747695299
0.33693288311502706
-0.114962653747828
-0.23439442040274766
0.5993829919636725
-0.2451636802137553
0.3138112598582723
-0.3548971292712899
0.54258818480866
-0.19583749472339462
0.4087761384618233
-0.061445570245072356
0.33402878794412527
-0.10211980000543257
-0.33695015434248865
-0.3328778438561006
-0.48562329342499433
0.5803891306857195
-0.09189504640457927
-0.6433110829662354
-1.129199915129614
-0.48256924766863074
0.7213520076772459
0.7213733387718577
0.3409582264845993
0.3095612095627792
-0.7468252321906944
0.21297819149101918
0.5097736480113211
-0.4602673371663904
0.5639297998743595
-0.7949377516623425
-0.46544472388929486
-0.6650921244329575
-0.18990038348436664
-0.01004934212128062
-0.47859637930827903
0.6048683059887339
-0.8966079093442647
0.8631398848396046
-0.06463729689811447
0.12055979569798746
-0.14970251343660343
-0.3355636493873372
-2.425480801611436
0.515894556265661
0.999751464976292
1.7410595307813774
-0.47619618788984863
-0.005621689786047077
0.05813089898857623
0.5460997820608637
0.3369793268806116
-0.2612770281472518
0.25381446167703725
-0.13209175913526844
-0.3981194195772659
-0.14101027854880277
0.5779187485628017
0.5884974418927182
0.6960832051696003
-0.06183204412455455
0.7273505069929607
0.7946973861455214
0.7362823024939434
-0.01906717913299214
0.15238997721015168
-1.095208300696
-0.39638824223990865
-0.41364300151424876
0.16821629945047828
0.7545081697400264
-0.31769910525798933
-1.2532696948727435
-0.6759120838291053
-0.5657043246206749
-0.9731348810826419
-1.006378254602928
0.025769001080939626
0.4237107427557086
-0.8015070037213217
0.08657097471004732
-0.2765445718603089
-0.8177757628338155
-0.35844703247364823
0.39803489037644063
0.16795608216509983
0.7397098852932784
-0.958221398205059
-0.3082894285624245
-0.2337644660259224
-0.23230305906538987
0.6194857862477556
0.5317609764415584
1.250787623255056
-0.33810601124538103
0.40400935060383797
0.29396559958632135
0.07320213815496596
-0.48223004090332844
0.6133397480817955
-0.4429038853950987
-0.24474723005009522
-0.07526000230413116
-0.13636695209100821
0.18546230459569088
-0.11020123924073119
0.40133784059504346
0.348906887937028
-0.2552172907432196
-0.02973811962375734
-0.2895659199174359
-1.548764781506339
-0.19211107310696812
0.07241386066572969
0.20354451513490887
0.875189420459265
-0.8121608710630265
0.14741231904261662
0.4877618201332002
0.11100199862984614
0.24400257121715724
-0.7644710234477746
-0.4265182403556518
0.5037918009444998
-0.39482737960591086
0.5389939339766969
-0.5895866122965692
-0.4163114190048763
-0.2579830352738184
0.20832685007335808
0.030057498805151066
0.5138823052688917
0.5993943150395751
0.8889172532407211
-0.3863615448713633
-0.03918190412400268
0.5418464210991955
-0.524215688305401
0.24316661251325106
0.27206703795587733
0.48879426623021444
0.22745548104826585
0.4213687528515608
0.24498516647225366
-0.11893944599802006
-0.37376875963974665
-0.5113526881643756
0.006521260243652096
-0.045850034205898046
-0.39965268209279764
1.841135651224339
-0.5196820082203562
-0.5608492415848264
0.3658392698142407
-0.45234633743503766
0.05779600141798777
-1.0584673476094892
1.5633305941964886
-0.754498791516684
0.49961770811032097
-0.48984712654336204
-0.1537092670577562
0.2797225748638127
0.1830768331947228
0.6111694785639508
-0.6526566682319374
0.3900941985953119
-0.9665703436019302
-1.0838508213777034
0.37699596242068284
-0.18172074133251187
-0.4995895816921077
0.4320394055062903
0.14477012957951735
0.9979262407685443
0.4990340695586967
-1.3501834315658587
0.39881496096660995
-0.21560605407091424
-1.0586548946259806
0.12050898719191347
-0.7139271243440052
-0.3660680522673394
0.43473009498170057
0.6794702001746914
0.010108583772521195
0.24276801476780593
0.89270224902025
0.49952035094372255
1.2366547107393768
0.5947008705605005
-0.004226205071466118
-0.3960466355369489
0.5248115752455311
0.9100780121861645
1.8527015503816489
-0.011587184795571836
-0.12570268011322328
-0.8841052870314237
-0.500454239489467
-0.21635617735757876
-0.6731170576546703
0.38943796223536337
0.15867949878011745
-0.49159222788408846
-0.7156419921774989
-0.47497574191043057
-0.04259372507008427
-0.45838501819574395
0.4469042978942822
-1.0454973270476213
0.11025426409021927
-0.5385950130573344
0.06976926842969841
-0.49646460105268275
0.6461028960238759
0.5908710610739665
0.05558151596382578
-0.359260630249396
-0.08710913498288411
-0.023954680341157386
-0.1341952458463185
0.2088766737218403
-0.5643173888842726
0.434428157835436
-0.774818794383255
0.16369257510332183
-0.43331898053492157
0.46678790031961953
1.0754553876808868
1.0072639233092324
-0.6957380975273805
-0.7728696558357725
-0.3012486767226
-0.2844740431672566
0.8595072158376376
-0.32945114345378834
0.4504546827780514
0.6554533642202713
-0.1505759643898407
-0.5809839057678101
3.8638787556691683
0.04377215575969294
1.2016519898218254
2.359596832558353
0.7459952712172506
-0.242865461781894
0.1592010417314171
-0.1668346033790912
-0.5536196494867784
0.5061996586320088
0.08791187010985489
-0.0034216524148590484
-0.2699582961170097
0.7108972949112579
-0.2546283408228142
0.05294335668550394
-0.05587730698302855
-0.4672033908109256
0.3608819369505404
0.9204761818949104
-0.22757845014036318
-0.4472407270748859
-1.1509733744717938
0.640912156300609
0.25068291723213953
0.3664237020259614
0.31719560990127027
0.18117801039431572
-0.8661771263173865
-0.7173570555909479
-0.2460112336462704
-1.0214626635883381
-0.010368865366260072
-0.06260477026761714
0.03870138516477408
-0.910461556041522
-0.6827252062442686
-1.2079023110391145
0.48782720097709215
-0.6785815621453121
0.8674898726386651
-1.2956827341661836
0.24260228254334287
0.7186401265216877
1.023660037572208
-1.0826601209823992
0.6258259245843538
-0.5103375756102109
1.2795901398404252
0.3733723663971028
0.4006725846366292
0.36824148927901806
0.5788817658500314
-0.28659530226674657
0.008858768917578237
-0.008054519522189756
1.7446360524290203
0.4892971915725864
-0.5724064557364434
0.7412085825887194
0.3535738321143722
0.2767759416992898
0.48534471536257306
0.35931383892293817
0.734137818411987
0.9349108474248571
-0.04147170182995827
0.3504947107710481
-0.15890587631534095
-0.30892792423324844
0.17689835339292828
-0.16356018017679147
-0.7380423561999049
0.4657995471172185
0.28478857670952806
-0.22104418480765747
-1.0852738933059927
0.8064592681689117
-1.0536122321979366
-0.44901459153016676
0.18377342829835194
0.8618167964678083
0.6410917450492796
0.27201467236805227
-0.22297913016966925
0.2958199952299736
0.02420967510935429
-0.36924250895463195
0.5892949503056987
-0.23085076555997647
1.0204598447887252
0.12841706651818338
-0.300814832344649
-1.8476885525662414
0.4146478068323146
-0.7886076667816041
0.2560135209383878
-0.6732944815222512
0.8064789068497529
0.34423808484534457
-0.16672853532381016
-0.5704697013079163
-0.5428380587980004
-0.4683293475498855
0.17140256748838537
-0.3729334717930948
0.6964187785758328
0.6022937985747544
-0.8546241386933527
-0.15932179079388306
-0.21856075546643472
-0.5169745474432947
0.11212548402378233
0.8507177048582931
0.4852482303551506
0.22040697003065984
-0.845631635130388
-0.40113361758888055
-0.07153948248406544
1.0075726537648328
0.5367380696311711
-0.05481160039611777
-0.9931976226454593
0.1858445534803606
-0.20368876490804372
0.32305456034520114
1.0258031526860565
0.44499286606755584
-1.099761515401331
-1.0793130329589986
-1.0671568721952536
-1.5723476782498385
-1.4861504604012943
-1.3195082469002557
-1.4408110793627813
0.7297003263548236
-0.021216110634369897
-0.10180034593844788
-1.372672069807667
-0.48136804713527453
0.8113502586765973
-0.0975984520394438
-0.5990123427192638
-0.14503474048223777
0.08202427707990771
0.7283625644166556
-0.557516904231428
1.010088593889218
-0.24271070472604128
0.18762301237073925
0.3112534189960974
-0.9869151067220082
-0.7752300988310366
-0.22113472370305182
1.0735934697297707
0.27593558251771544
-0.7609550748129246
-0.38746350171093197
-0.8288720362239471
0.2948182642511221
0.774106202236854
-0.01606986967858607
-0.10977394200057125
0.18683521524581403
0.04944256541497087
0.7662645104803578
0.4986967181391564
-0.3203586441197796
0.2125691920121289
0.033145653533829894
-0.47544342661997735
0.3255304561950198
-0.35420289086237494
0.75737442960025
0.8375685169071208
0.10608243518163779
0.41668799600605877
-0.9153851521884648
-0.7170121028982774
-0.03965569181943196
-1.382845468308222
0.8601304534480668
-0.7303116814915139
0.566568115762268
-0.6207549979665467
0.12364346592252433
-0.33336950093530215
-1.1170616049804023
1.0382600746756812
-0.02737433797078409
-1.2360617638403837
-0.23663998515869444
0.0030710167157960012
-0.5862859879491967
0.568696568249118
-0.8199330098482638
-0.8062629349158257
0.4146352952490339
-2.656361154001452
-1.521056520426291
1.07797499851607
1.0339842768247587
-1.0485306242476211
-0.10293360495690561
-1.097211688077389
0.15029629310693915
0.22665891902284696
0.8103333730670496
-0.8544270025834266
-0.5916811799253331
0.5749870631917523
-0.9857961536393897
0.7951232377643526
-0.7146282364322675
0.1572958956903474
1.120595253052772
-0.06879144830360825
-1.0761109193698803
0.348903622545806
-0.17964018352507147
-0.26059116199209453
-0.6840749550206615
-0.7417836912037068
0.5501572502306559
0.27959874427708764
-0.21778090044913703
-0.3719044354131196
-0.7806485249442272
0.29012920414198395
-0.6678431637685235
0.6938105544519889
0.5346633570092767
-0.07070870757338064
-0.1328797516705327
-0.22142701503521167
-0.25449126681858936
0.020927271842933068
-1.0368442609125164
0.17435172616835565
0.517877911807945
0.1698702621869942
-0.982942634804853
-0.5511013211679054
-0.26946880925206285
-0.5044334138639617
-0.9330001071933703
0.0031605740763708742
-0.1261343293214011
0.7239058858273881
0.5387201747804942
-0.40664908425475216
0.8445273210692901
-0.31364545183186965
-0.9209692360854161
-0.878258672258895
0.6415223312049124
-0.5614064292369292
1.8092097257969888
-0.4537236630079009
-1.2860000395478945
0.3520529506835419
-0.4635544577635082
-0.8741681327044951
1.050345539827103
-0.4482902124742407
0.7298972542507759
0.5817738642654385
0.4197479812457234
-0.5219537754985655
-1.5951727044418003
0.6841877795250738
0.12356566337160993
-0.013458667031322029
-0.20247573005135353
0.20540388825802594
-0.7297944958059273
0.600052268659592
1.0088445821348346
-0.5982521623906206
-0.5427826722062046
0.0649446884693166
-0.5701985906162861
-0.12169681781216489
0.47349813859304424
-1.0572218285216683
-0.2350010731139933
0.9279633769209682
0.20305894140724745
0.48129834200688526
-1.0735184481017923
-0.9364230224759807
-0.46072112947808197
0.4282375138697807
-0.7698010199157395
0.2864345005662205
-0.5017580173853018
0.012745639856594689
-0.10449271456552232
-0.24155259804937726
-0.15690987639364004
0.3548474040570997
0.8947975204452444
0.6857073138169919
0.29325897750756064
0.15672101696023238
0.49089840898286435
0.389681942348227
0.3518347662079174
-0.03253651228202396
0.2753391601166394
0.7008469103469536
0.6438420020884466
-0.9493482500935179
0.02487443623893349
-0.3578717742418982
0.8706303646734429
-1.2176881220775817
0.09978627659567674
1.4911775072095355
-0.20008581900080116
0.4053815838811283
0.14755235242167616
-0.4071564997701189
0.5391138469567693
-1.2568664902100508
-0.4343306559451176
-1.105222008267949
0.15786976259058694
0.7288347504877128
0.13633506076959598
0.6994542284928048
0.007646741031432787
0.21186610692060476
-1.29434902218099
1.1170371409067696
-0.006582086526000662
0.1686996641094584
0.3812342096275863
-0.8068353493438003
-0.08077710076550168
0.20572421969188828
-0.6473098734890779
1.342634979879143
-1.1677221521371297
-0.2729063602766746
-0.3477785883366309
-0.4096369171121955
-0.5555793196718817
-0.06329979091387004
-1.7159218964180876
-0.10084286161952737
0.34931517425591363
-0.017168891585619003
0.08199184273267596
1.6258327179292618
-1.3367667888205508
0.7040721666176811
-0.23544401452187647
-1.0587614364680866
0.47288213588931505
0.15115805190577816
0.021551136367786293
-0.43319633503602856
-1.46065922585478
0.7504877546473097
0.2626796861933229
-0.24433273320562793
0.31905424858046
0.025467082460737082
1.0040556034915862
-0.69572252192225
-0.9166960590934093
1.0157646291152433
0.1187360407135899
0.9027594425223303
0.5401534706703145
1.4407508996990201
0.30688709799966396
0.8502746015417614
-0.4216538749579919
-0.31465702115077354
0.21425484752218835
-0.018803938185592645
0.04832845995857596
-0.7461620336892183
1.2186419509879738
-0.7763752434624599
-0.19707726409123186
-0.4390567092939957
0.022574276299754538
0.36976262391178516
1.9820384180123605
1.5293027601631184
0.7117911666247637
-0.30338824857892965
-0.7074788447724744
1.514933827568113
-0.3621949087299779
1.507347336165319
1.5815027466202616
-1.2913129229129174
0.7793143676104661
-0.06452223397893944
-0.28190348985722535
1.1595202414211885
-0.5572097220178365
0.1542151220926731
0.724684366636065
0.517135386778979
0.7394962020972158
-1.487084178534684
-0.9512464945328043
0.16582304519976104
-0.20428810407686623
0.3749991288804284
-0.06729720339058028
0.2043710316898745
-0.8199746955882737
0.492723917498453
-0.826685558437499
-0.08549417154832527
-0.3986670837709763
0.46057959539251836
0.06582689314795784
-0.3820723411039287
-1.6238469101526531
0.7211577862872831
-1.4771888408999392
0.8202037341674291
0.8303566205316094
0.3979469536106592
0.11919132077446618
0.06608508754457218
0.27752829879175
-1.0327672171616276
-1.4263017676341228
0.16434687815091978
0.36219381615264196
0.2544841020329268
0.5230565132310224
-0.1899354041349503
0.15077347013836379
-1.052909086164552
-0.596336589805506
-0.15837213551388726
0.9152547924430485
1.3467404401162237
-1.3678471773391503
-0.5171185062189806
0.00536896085215132
-0.02116030783664714
-0.2859066255984356
0.051356943982052636
0.4315637610048074
0.22639870292328845
-0.6067533824426026
0.5146296036007849
-0.2742399886795994
-0.8280922674505837
0.9456679937809027
-0.10570910861592761
-1.2159025004726707
0.24870486601783742
-0.5588892327087569
0.4209867250779164
-0.7833592213682423
-1.0654814732963607
-1.1364151979794594
0.3152216987116951
0.11249482305470417
0.4895311142469166
0.6494456672446163
-0.6753730170233901
-0.3708195096875736
-0.6129257296421671
-0.5824451188793603
0.12695638262834566
-0.6823015733552954
0.016726193193602558
0.8542433194871206
-0.0099044123275089
-0.5478605121517666
-1.3600784820016525
-1.3167655860212455
0.30432125968559176
0.940510943483088
-0.7454453300561017
-1.1903091305444746
-0.28019471695983916
-1.1103499449535514
-0.3056597996246892
-1.0795846820967983
0.9716876337150738
0.5092342477465202
-0.22636169918344656
-0.5041255296984141
-1.242934022207474
-0.03315020150582303
-0.9085381363485807
-0.9525743453514518
-0.30166962840915074
1.6034409606594153
-0.4646608055621411
-0.6653007859600069
0.30325901947038125
-1.1048543580724894
-0.7783376698130671
-0.13691221667231562
0.19602893301912264
0.73458369341759
-1.4596091843326837
-0.8609389453606978
0.481063481664486
0.334280655457525
-0.5187599548103473
-0.30790873223322
0.625407158464149
-1.2736247237156035
0.3735928858501527
-0.3642412173968967
-0.7991845534810476
-0.4637655717951114
-0.21757147805061275
0.19610024655713218
-0.0010053871201689984
0.2812328167169522
0.5303000909897801
0.6921236378292615
-0.08338030245920534
0.8733907181682968
0.44140842349795884
0.5235800759046295
-0.14673831082950597
0.6484610597565268
-0.11560068020042674
0.806055976480594
0.04218815532385026
0.22268450243264512
0.6250547435208558
0.06495333913855494
-0.34886207073259334
0.36459694713823576
-0.17850301346627548
-1.3783499446381169
0.04326767222418003
0.6108035029593958
-0.11945471608862862
0.15885950925504472
0.22052965462611854
-0.40331364918624335
-0.1314448531464705
-0.2887532666381752
-0.14324193236128493
0.7185142364909219
-0.9045428115121406
-1.267403327062147
-1.8733782613794157E-4
0.4060821051702016
-0.14094575782766658
1.0507872356775538
-0.28576305495462656
-1.4251043714450025
-1.3437943416279017
-0.5609283166618376
0.8253683462505672
-0.4293936091507996
-0.22348358245686978
0.23682891492770933
-0.039727656213595294
-0.17853275987774234
-0.30829826868717747
0.8215831701843453
0.613517454939965
0.013378043946194554
-0.04959506793593698
0.3473830292800205
-0.18962322341612392
-0.027255890032650124
0.09582984322727457
0.34129513868446903
0.6796807810904574
0.41546776977666383
-0.8117771029469589
0.16912398685871394
0.8144195816292941
0.16091672460502288
-0.29618461526103035
-0.1821113015087552
1.0576373734884315
0.7390817812145347
-0.915441301171638
1.3132129641380306
-1.1534703135503117
-0.4115297880868285
2.134238345215902
-1.8186104595376338
2.1289158697276713
0.40687275074675827
-1.2652288766138007
-0.4279774389854491
-1.124027722145239
1.1234691081879093
-0.34376589083250025
0.30249962235263855
-1.3160200611792539
0.45143107417093753
-0.35994155665490213
0.36718730482854167
0.35087395004933497
-1.2303597850860344
-0.5641418646059383
-0.07350540294550824
0.23027299074280194
-0.7582226389668085
-0.6720614326448527
-0.210265051308379
0.16192835420175017
0.3125094709233509
-0.8711672688806253
-0.11815520447060271
1.2396960822607916
-0.005177617427242342
0.47093043080843944
-0.021649409156629235
0.11448475886481753
0.7128280098616835
0.12962248808547336
0.1816589454090346
0.18741376691972908
0.37520867315238166
-1.248680621506491
-0.5232235067974232
-0.6132229507091661
2.030868133257132
-0.30716981233029267
-0.8244994742572173
-0.38332056969725203
0.5556358327271074
-0.20869333324465444
-0.3690986230779019
0.1842968375870515
-0.2389428557122918
-0.2435352123518443
0.07854585351001948
-1.3364641216899433
-0.3075150655410348
-1.0758010896507806
0.4679019635088505
0.1602260373345476
-0.8823709232448071
0.28481602489155383
1.2224516106656145
-0.5344894385919265
-1.0977232315822367
0.8804340925565312
-0.390685149342821
-1.0796326764696058
-1.8164524285366768
0.5451051910050106
-0.42540209949599245
1.4565040835821836
0.44081236951108377
-0.42837188735132
-0.886816804636578
0.625103336689904
-0.3811503410590077
0.3928009224520295
0.08077088143631414
0.1814530521051864
0.49602537887746945
0.19811068683441965
-0.4494847063103663
-0.9958850566873817
-0.7414189865525499
0.3179794152210891
0.24457145999935484
0.5185194218727524
-0.5838004864396523
-0.015515917421294123
-2.2908191099195014
-0.3042301826711516
-1.0604170589405963
1.3450409093746583
0.2716928296351778
-0.45902792889747646
1.2534797705155496
0.34843201318768136
-0.8264042144661785
-1.5307745171613136
2.1968411245482127
0.3591995525490686
-0.557754295806605
0.40446184324162443
0.10849391941061251
0.7380468948213629
0.3626352661271515
0.5643020586468185
0.553854161715119
0.7500165207627992
-0.002196571526481202
-1.0385760207863837
0.0038791619474789294
-1.2069940917716842
0.25562821130369234
0.009283252729309473
0.2530701220983073
-0.8819622699168922
0.009567167109935751
-0.3774870170843627
0.8793128242584958
-1.1605538193362401
0.0822730001886203
-0.059695602714660324
-0.0777393627952502
0.18152328073826593
-0.0803457815205336
0.6876890391925309
0.39497584819524856
-0.08594794462108626
-0.4692243596265509
-1.3636739276521679
0.16870688948382592
1.2960135837961013
0.9512662851999504
-0.4221926656294905
1.3330371338312188
-0.4517248643114659
0.21909981972234607
0.2614711823867972
-1.8470303073425693
-0.0649014425123204
0.13233198985761097
-0.08376361594395372
-0.6023439006286387
0.3539575638162639
0.15981116762184347
0.6197121550754787
1.1001117118014614
-0.6596118400300478
0.2108297992834022
1.0661441144977601
-0.26998999589116
-1.5298308006178623
-1.5608957344129735
-0.48583274447112595
0.3114695162595559
0.5378210566886622
-0.30339312513423805
-1.3934222599649089
-0.2518398673347738
-0.6709207692178665
0.2736406203213258
0.6849408494274869
-0.10540504960977888
0.49201203973366814
-0.2696801098121431
-0.3638815092210255
-0.7291996201943923
-0.3421094268955431
0.536070403922163
-1.0340320595222863
-0.49482056355270904
-1.4737198159973899
0.10330239367557638
-0.24552339729039044
-0.828906087714773
-1.6830290863045736
-1.5572257884702538
-0.5549970627982478
0.7813126290040079
-0.6974807021176904
-0.25236849826107405
-0.7639740765826265
-0.4885492088955497
0.14174164166578898
0.05792490498394959
0.6490677359769707
0.47398488918257825
-1.5052656656686385
0.43762481101737355
0.5938331067930519
1.7544436529458456
0.03252322624986306
-1.2065685392206542
-0.6777166929614739
0.2001235831130025
-0.40931531961111517
0.13280515686358557
0.694747801014244
-0.44326695196051114
-0.4435263362575427
0.6099371424976318
-2.50233753586392
0.0548735665973308
1.7130722714659645
0.44488977117457223
0.2310453953990973
0.835152554531802
0.3114587591463983
-1.848880328067338
0.3225291316937608
-1.632601152431149
-0.28721459355814116
-0.32074960349389126
0.12757984038831516
-0.6318747454795489
-0.4645229041047925
-0.2956003480636492
0.6955365316481569
0.011889956798174124
0.3823690925555894
0.7290549915592541
-0.664405013156571
0.6625261160630536
-0.06350620049232765
0.810921508402002
0.5658831160690246
-1.4809255796128722
0.2048766779130256
-0.5230670549576105
-0.7745504905143431
-0.30064317982516
-1.2795312828902499
0.34583633692275495
0.029376122763856777
-0.23975638495940021
-0.48228815932147784
0.20527414902548236
0.16661517109471896
-0.22172466590757053
0.11023606743374323
-1.1935285417344506
-1.0320246126559185
0.7228118472619331
-0.8565484038601157
0.035814374410993735
-1.342493137483503
-0.9049882766802145
-0.4716781837469141
-0.5115420431446841
0.5379791429319766
-0.5525290296917261
-1.2052052176115045
-0.5207483104236469
-0.49022469149344555
-0.18311772680927252
0.599833429153624
-0.8419465753367662
-0.5765827815252728
-0.04812611168792025
-0.06856234944657204
-0.8531713906818906
-0.07152601062080369
0.5153749025932439
1.0562609608662992
-0.6256210681744114
-0.05105359253173809
-1.0964956470687788
-1.0127613806282438
-0.5954267290250975
-1.6214863821794436
-2.2349078512115623
0.6453464983937064
0.5039007953289836
-0.3321176790248304
-0.07552451304270183
0.4641332742311279
1.4993563332043363
0.23863148745870208
0.5705039676837084
-0.2074244632097683
-0.04577890915456699
0.6112696366109878
0.6945801914367228
0.07416192323339058
-0.38927862172023664
-0.15587831281369885
-0.7239654426597255
-0.132161680920356
1.5917584905687858
0.384133656695827
0.6462235787635774
-0.1017619425211195
0.7175271654101971
-0.3256595824750501
0.6942221199573391
0.6707574620789322
-0.3429053259940413
0.6332428954351347
0.6729944943362715
0.12667175805448933
0.5999570885259341
-0.970033211977433
-0.760718998319002
-0.2502972376782939
-0.12332092670675092
-0.3716553976888797
-1.1247110197318246
-0.41475970627747827
-0.37271656267228637
-0.11822995909734782
-1.6643444655195858
1.1001227502203714
-0.11447473321487804
0.22776244014497968
0.13377616648763774
-1.1565753546428743
-0.18781053001612882
0.40914911328708636
0.7270014678528116
0.3155499913373669
-1.248804071066081
-0.04298368205717991
1.7696119892374929
-0.3148108789116937
0.7794568551962284
-0.7898617935642819
-0.9228915718214091
0.05611968289193539
0.053302569213398765
-1.7616038559811757
-0.38705141681255545
-0.2579003452731489
-0.9346235258497753
-1.0715921757251785
-0.41818431094098013
2.1843345068396562
-0.40753569889290975
1.0947784864280174
1.3594270893347602
1.7427296966855357
0.4071967375390817
-1.5155745414189934
-0.6576237424483473
1.7139836210043862
-1.1874391288957449
-0.6033945314435726
-0.631922475497483
-0.035904977327202936
1.0322192483328518
0.2797710184075195
0.31496151574098225
-0.991246188078856
-0.17187963258861794
-0.6951669455027291
0.15878695258279682
0.6099199858074146
-1.5057752296204983
-0.05382205461621445
-0.24274341643923772
-1.668190527067695
-0.23083564932430112
-0.2787198885558239
1.3466446175701214
0.9404764661285934
-0.7345809167061278
-1.107713268030514
0.03567950272945886
-0.42533274252281056
-1.0064280951414175
0.7272551705589219
-0.23780698364855132
-1.6998027273791028
0.32089037726670083
-1.9263188859240314
-0.9255086847417731
0.31321648657164847
0.2787886988542639
0.40707509417362914
-0.5419095355838901
0.7253953320500084
-0.762589730748097
0.4081859561692352
-0.7803239163476564
0.4151132999250175
0.2504314991641522
0.6608494477780018
0.14794374661719045
-0.47537049846993734
-1.9033829865426524
0.4411590108796671
-0.6975657256133907
-0.9251652822877017
-0.6560959233995369
0.3797687924296213
0.8626456941206987
-0.841704039645986
1.1019858712967672
-0.3063148757716256
0.59385731119719
-2.2030683170513505
-0.6561235461421709
0.8606403152247263
1.3768520290654058
0.42202224992994475
-0.028091483814748977
-0.015145121914858372
-2.0723381034030828
-1.0180753166106475
-0.050323268748836955
-0.4538113526171885
0.07286000422339395
-0.7875704862729452
-0.6913808201687338
-0.7523398836718208
2.6659687517426307
-0.105613490527063
-0.024035547482502667
-0.8717126891553947
0.767933241530706
0.3762691073272317
-1.1189200112346906
1.0779685478052214
0.09151278895121805
1.6572787822917525
1.224576452364791
0.09397112422939836
1.3106395923874867
-1.3720166407201897
-0.4661528957935028
0.2700548281903935
-0.1008048325512205
-0.41816616521424066
0.06108738077890633
-0.26287574267918257
-0.1221539668005462
-0.3470459365106878
1.0336006266794213
1.2274512333363956
-0.6216713506360951
0.10136504567456871
-0.8454007692212101
-0.7400527532632726
0.38154085467380083
-0.13498949620106487
-0.45117308264318734
-1.4172509916579823
-0.11259735019255465
-1.0779199440870668
1.2899715490113786
-0.4155905992894074
1.435333786199451
-0.23536713323765177
-0.3445756302624255
-0.31459119195679547
1.070215897446645
-0.06394485898586123
0.9928859507770026
0.5868751876381046
-0.2435790541358351
-0.7708754376848574
-0.8520560589067785
0.2665677231285443
-0.3336752692492129
0.40754710279049977
-0.26630611449595454
-1.208263078944693
0.3822691554846213
0.016521096755885433
-0.6345146007488662
1.026482599313782
-1.1851653407673304
-0.20333763818402614
-0.18384640631254054
1.2719246325696694
-0.49333983452784264
-0.10500910352838524
0.5731125199711029
0.07675206961428671
-0.26260769360163655
-0.24728673566830814
0.8685292695311627
0.6301739358018374
0.409844517544369
-0.736850973326667
0.0991648201251446
-1.641178060497931
-1.006620322245621
-0.44558919774725586
-0.7801056165938789
-0.837939659949492
-0.26255936588936546
0.451587513743335
0.24858404277138224
-0.5344633196859043
0.31503314822336936
-0.8815404970874401
-0.614896527642218
1.2134801307384542
0.7395152061880738
-1.5840652275150748
-1.7704579547359829
-0.7401194477601944
0.36107785426541134
0.07186825988671826
0.5790262824057157
-0.03038499597193777
0.7874335051536181
-0.8030831789411327
-0.0010020075355798592
-0.3070809678681386
-0.4181047616220922
-0.12270028661922194
-1.2159980318394545
-0.8370352472143865
2.3781479733725335
0.44145894426155297
-0.7401974643680238
1.1708902976462257
0.5075023906216087
-1.2376756137232572
0.9313056392122339
-0.43291871987072134
-0.9397128403654998
0.4425062047451988
-0.10312682542199907
0.05733706149670372
0.534167494057187
0.4411450984716472
0.6699789871406489
-0.4148899171334698
0.17442189655567442
0.0715830945758425
-0.7333637720692945
-1.2549883715529522
1.6461929862337432
0.13763633338199163
1.0379253054989837
0.9423065228061908
-0.6972958844896683
1.0139412232385006
-0.8311200457443545
-1.1732966723018932
-0.6084309355049293
0.014755482019102515
-0.005492934213171964
-0.1792636789848383
0.34564905891510755
0.06708480372361778
-0.4734621409252208
0.7401108720325676
0.8367529040083571
-0.2539641105411808
1.1020776179630045
0.4640065887290112
-0.08994999408392612
-1.29892290232308
0.08018520251770579
0.046525651424965425
0.5385354620899443
0.6789667019303857
-2.036462715269698
0.44569630354457235
-1.133280617428476
0.011894174348588948
0.20427860024715142
-0.16346147406050593
1.3111063974743151
-0.004255443701807294
0.2876477004618572
-0.5545444998925693
0.0061136737825585085
-0.8165467111287991
-0.8951876626125894
-0.669767161793143
0.4834967593557668
0.6983243650876855
0.42467098114485413
-0.6590348068481726
1.0284960439540523
-0.3411268368844733
0.7128970996878072
-1.0668602891891368
0.3339017352266103
-0.06214624506564624
0.3117794603914891
0.43265335243825465
1.2784240777315254
0.3890988730192155
0.31557474900693944
-0.03810868780792149
-0.5926774840953033
0.4003636324991189
0.02948726917311998
0.08471967558293333
-0.16871942486403416
0.6122661675398665
0.13490579962675375
-1.1509704364791515
-2.950603438291401
1.6779722632430336
1.3815048771975509
-1.0605296261028478
-0.08494554684656327
-1.6679961899055797
-0.9429638968526993
-0.04067680555794253
0.581874558781106
1.6457864475008184
-1.3563080763721256
-0.7983555998083952
1.139980711811508
0.3596902929597419
0.36885401913307286
-0.7948897932967649
-0.07505619549642667
-0.8322103433439844
-0.9105325876874593
0.5240820131455491
1.7691736423993367
0.9127198241699606
0.9693770393934015
2.3648259453807166
-1.2566096187199551
1.1641556845005967
0.48188292037243546
1.1320851993340226
0.05742694374637121
-0.39103100048429984
-1.4506633499758246
-0.337767989244227
0.5545001715735434
-0.5276307823658464
-0.33133593338057993
-0.7850384999513486
-1.0260634642454765
-1.123843253697785
-1.17836150804737
-0.8892708216838294
0.5220124093153525
0.34676547894568827
-0.7249952764292068
2.12421217144791
0.662522131448217
0.5773773770326601
0.261769691392526
0.3701950217642822
-1.2583676464231954
-0.5902527447573167
-0.7367733019989829
0.9223921262521229
-0.3246834591162768
0.4808335229613237
1.2368292019982858
-0.617346599862673
-0.8171264648362161
-0.14039373865979396
-0.24116798971507197
-0.7843372060693474
0.798005287096089
-0.6392176031604568
0.570059843011377
0.24136179443604622
0.6374487918861247
-0.08950872765086527
1.4756097755144744
0.7296469153909779
1.1228765641121317
0.5062675324410301
0.8008156068896563
0.5128547887729419
-0.19490043460463352
-0.6002810503144684
-1.0703316918456316
0.5200296008928268
0.0724672412170501
-1.0569706175964582
-0.17754794375794
-0.02611480764057247
-0.33087536264817413
-0.29286301144157323
0.0035159875390378455
-0.39987227382124746
-0.21523003345928815
-0.6392008699590217
-0.4927187280662172
2.001161860674301
0.5326904608954811
0.05001370627655953
0.45697709431500116
-0.7896048963128092
1.3113776149364977
-0.21997893015161737
0.8322846603257517
-1.083558738197108
0.8347860349264427
0.8634672380561546
-0.5261767684961474
-0.5983753862071044
-0.5116347938654955
-0.1465036063624572
0.4918508652388334
0.6459526111419495
0.7176510982167726
1.3275696778424368
-1.6879789809617483
-1.284910787910105
-0.7237862897622297
0.6765203496295219
-0.6148631348168317
0.6757846076089826
-0.01693434917557328
1.2184495996514928
0.40347925279708063
-0.4000704270203217
-0.1145997411097681
-0.5599253416301645
-0.13641303469094423
0.5204570703729875
-0.6513794886812293
-0.32187797676062874
1.2874679835464684
-0.11139632095535827
0.81647982537953
-0.041931526548756023
-0.7359415718766744
-1.1554647059741545
0.36612019523667666
0.6972269049463254
0.0566205653700286
0.7870044875686997
0.05897657408751135
0.03936664836181616
-0.4452620523956331
0.2253696371893786
-0.4822906905629851
-0.5636393967317964
-0.04725786069940963
-1.344555657899938
-0.5615927380148955
-1.4661998412245894
0.24710800896209287
0.2773682305274333
-0.5684801376894583
-0.425190826301766
2.5711627236715953
0.224706281082399
-2.096302914711422
0.341894729811638
-0.4948786212563209
-0.5632165671655993
-0.11744543236578386
-0.6039562084603736
0.6682663853276518
-0.32844506209457863
-0.17408199183991405
0.4306077508731538
-0.5872963604035419
1.059978452542201
0.839729902692386
0.3019279425911514
-0.42470166749286165
0.16815294494158706
0.9667140835554493
1.5700139956890957
0.4190091280976027
-0.8006762724786453
0.5194106193182871
0.6434827659401281
-1.7288212475332325
0.33460239912908324
-0.10556021216718903
0.4202892144118078
-1.2778843615862951
-2.5193843510386995
0.603933817424794
-0.2071854795973049
1.0883009665867642
0.4945241597013884
-2.089363600038884
-0.15315706273568136
-0.6426120755562053
-0.2644903745092186
-0.341499033801123
-0.21031639622349863
0.5818471293376689
-1.1080624299121324
-0.3850997560346018
-0.32882918093580843
1.3043132392762877
0.022521475239850354
2.169735954231419
0.3296014058508145
-0.6470664190096971
-1.1918492859115435
-0.09966513942983701
1.1942341653540047
-0.753975853528866
1.4366833569846558
1.6592236048292683
-0.11658566836575032
-0.7462433991452148
-2.4441252185321494
1.1541362461544487
-0.5399014083305167
0.7432394351412634
1.203537221777201
-0.09030186568540922
-1.7288058042284364
0.504015312913562
-0.5561586018389629
0.21421853993026002
1.0190305462266236
1.3639721036755565
1.2737829459269912
0.45676689362201933
0.542070820069168
-1.6113898281976669
-2.067051269607391
-1.167723490818388
0.11009345073402904
-0.38752571711823
0.06435889183858166
-0.6650201083138964
-0.03851815043202369
-0.17285694953512162
-2.5787985755427356
-0.8390281887585286
0.05586457252539789
-0.12440910904300817
-0.46146877370840583
0.3891971977520991
-0.9277888638078887
-0.06772738902290232
-1.4596889628924916
-2.403915056194441
1.0398970300274095
-1.565534716157777
1.5303495085811385
0.29808277003041633
-0.7668980712597302
0.8426464713740482
-0.26426248563004295
0.5467302973139951
-1.9331912948782222
0.9295011056029825
1.9879099413438173
-1.3698442015756147
0.8997040862260319
0.12178569823570475
-0.7406097666205301
-1.0625983647408404
0.33490670986716436
-0.3264154471055261
0.1878850953556284
0.42393489045139904
-1.5828580516475423
0.4581646475472323
0.3476100557419844
-1.255371842702701
0.6416944553468089
1.4989760203367246
0.6554988064068104
0.23364736292287197
0.45732737893522446
1.2653976402626155
-0.8728301881245728
0.9596885255099746
0.18789420247287128
-0.5466462102513822
0.11229029984035112
-0.2856573822171556
-2.6601675197177674
-0.6850034699484001
1.2281144452511668
-0.13986783668317262
1.0914947928325849
-0.4142738607746265
-0.9574475233476324
-0.16119290035021117
-0.692316339184645
-0.3662628202830434
1.234897970054707
-0.06556838949358598
-0.6148598194447981
0.08217180827730727
-0.28808237108158813
-0.016296803962826886
-1.9549354539314585
0.6293786008606386
0.7385042597900234
-0.8933646069115131
-1.1209414577554055
1.9147088164748916
1.2163401391308317
1.4523644602735946
1.2421988130899682
-0.3772596316947741
0.3628345349179046
-0.28591642593485184
-1.1107447384489817
-1.53573067755018
-0.0849464544917163
2.2422681758264287
0.8793735085697502
-0.251291825359251
-1.5532401835997207
-0.10115810094308356
0.4901688266774278
0.2844082022112074
0.2337302863244016
0.9747575883238581
-1.0970364994353117
-1.1209234086386963
0.5511531540925825
0.16932310005264176
-0.8348958933903763
1.1827563625052697
0.3307020984228051
-2.1477289813486737
1.3275509329785549
-0.5401958400484351
0.34746904674587165
-0.5333242585150155
0.4980339319332739
-0.40255023549970115
1.816244009326482
-0.7852013529362818
-1.526131144605352
-0.3835338936473788
-0.752749656087815
-0.5699745541671746
0.14499862929958737
-0.4766505256163052
-0.44043076952956445
0.516827878765861
0.7483541029721003
1.220270519553557
-1.5727177988452137
1.360339511193076
-0.9779558422047684
0.14292364283505876
0.38992624948764404
-0.08471715729620855
0.46479090699889
0.8803722963307983
-0.19148843322706002
-0.006036496397973437
-0.5864524297684106
-0.50707951819315
0.5014818626672921
0.34419300486794274
0.6316673564683573
-0.5769401908509673
-0.7424264254748292
0.20633938357505896
-0.9649162798285797
1.0514567901900431
-0.2526514111592599
-0.17123499400268968
0.30595781843180525
-0.7362144480442758
-0.5310476441127139
-1.3007788051393034
0.48865808057909066
-0.7927337540794335
2.592209487707692
-0.07513541836897861
-0.32125767560033947
-0.03907942225210169
0.5495786309860482
0.06824038579827278
-0.2481349222741848
0.48911915205144935
0.6792266966524332
-2.169872664487542
0.5679627561121104
1.526495877157695
0.9943508937802968
0.10888068565448095
0.4096239822356571
0.8277177251980129
-0.022961650937090565
0.15568147159293627
-0.3564301031826159
-0.020473210899414486
0.076255360048477
0.37829205968339785
-1.7772159381757824
-1.8557028596693035
-0.315784163989363
-0.6210050859988492
0.2515014136064434
-0.5038701050672997
4.074895854683031
0.6338473661878892
2.3077731930806684
0.20156160434438644
0.6206013164085644
-1.421666746193522
0.8948383788733058
-2.6368815844422273
0.23730199595373463
0.5219542093653564
0.7092507450132924
-0.18915095166295723
0.611779361528525
-0.3869652353760176
-1.7350490890272123
-1.2733344405332276
0.7614297254453316
-0.4428950183814656
0.5765481139488378
-0.7795427633940322
-1.2164042691030956
-1.7453851859401772
-0.5076325760375497
-0.8220711352697095
0.20293124833790832
0.05279759898943666
0.056238497548789436
0.1530991405119384
-0.337290899396248
-0.8432818186300509
-0.7091914745130417
0.441054750410604
-1.4396130542537857
0.699863996567184
0.5306693849219788
-1.6527653094334465
1.0635956993522837
0.5145587265469064
-0.3975238121337778
-1.0726910956352105
-0.7213380208988972
0.8841014134536775
-0.2511024492416639
-0.5129695484407909
-1.0727089989980563
-0.38121576522599093
-0.07969980488039094
-1.481972758412317
-2.8676532381277173
0.08211065004296388
-0.8088348045501395
2.410650998996553
-1.2840533616421452
0.1793931241996511
0.7520441098702578
-0.10113835648161346
-0.13813899667647278
-1.2930794357533564
1.4162022506609673
0.2692842814455288
-0.3461524689982069
1.083605526116857
2.0804372091646925
0.36579800727695305
-2.3956629295688865
0.5694746809450645
0.4241792650139847
0.6197535685613033
-0.8507879676019924
1.190685536471486
-1.2074065763453345
-0.1891138451468953
0.4233411578100319
-0.8134058726337634
1.905358480342905
-0.5332082436274946
-0.8618748588818169
-0.9542220712180056
1.4546516194030163
-0.6224931308284174
1.3658528218299357
0.6768127511906369
1.053935496944221
0.9366212707234742
0.8843462280815348
-1.0626673194866478
0.6439933691389118
0.7851238604476756
1.1930809053960854
1.3664502610411127
0.10724561286894121
0.37868205541502453
0.21003428415555808
0.9694597232321632
0.6349373492507863
-0.5725671910745138
0.769486584494531
0.10291909862255344
0.24695410036041016
-0.3805047283806255
-0.35173105756211126
0.3422971742527759
-0.4580114878879875
-0.6474394472016683
0.6771139233116651
-1.1423234897445027
0.7009304566208386
-0.18211790525589558
-2.2186600624523836
-0.09979228668075418
0.5407854674201621
-0.13678167463976224
-0.9076940484639561
0.6151376922554801
0.188481273886728
-0.6746858769649309
1.2855194274521453
0.6687712814310448
-1.396175783342725
-0.25545555291831956
1.6210741664098671
0.6257680311007561
-0.7188490281825225
1.1008681367477107
0.7348833845247881
1.0211012172918594
0.17747678625485327
-0.053917613484673055
-0.7747448690639279
0.17939978871715317
0.45955102918051016
-2.1406668353801432
1.3592064027776944
-2.0812588021025227
-2.364300655096649
-0.6843701558348293
-0.36292472523867986
1.3967176945018562
-0.7230921552534338
-0.15462691875835924
0.40486260573623534
0.3612989885063837
-1.0223528708372613
-1.6557920318714683
0.027004651026113848
1.192955718085168
0.40318235829090227
-0.6638603947312215
0.7967074577270441
1.1182103790896587
1.7198951934558522
-0.31303467387645556
0.870122000413423
1.345579538853344
0.3380069471014659
-1.2844013133770906
-0.3876100054543513
-1.682783852059411
-0.014233340890344184
1.810343177595622
0.9647926538055338
1.0742403836905412
-0.19673135450463447
0.3553439045669767
-1.4863096438086256
0.936541716428375
2.2761273555631285
-0.356814092875758
1.2449284748806466
0.7905700740145198
-0.22745100325952042
0.5253706517191349
0.5206984919116819
0.1528801621386829
-0.03164592779963714
0.5765989492388789
1.5349091020108092
0.20358784533309102
-1.635994637499733
0.7712820583498076
0.42064829065325826
-0.0851133436231606
-0.6836818388707708
-0.5550719616419139
0.7247088764182127
0.1819490279376762
0.46667638446178844
1.0645695542151246
1.0401442504065905
0.11669923769601377
0.08381726029449763
-0.7855193749186832
-0.017948244414741348
-0.0015510158789267907
0.12648814068998207
0.2920701772051524
-0.8100693841774566
-1.261582369977878
3.3979163617230164
0.2654752837195241
2.37473578435829
1.8450479038485716
1.1815240173756703
0.21377482588657432
0.0409102843699274
1.8124206634382645
-1.0533158554636488
0.607583075593618
-0.9355700237966965
0.2702642967800688
-0.45556533719595077
-0.7611955042631201
-0.9292901874718218
-0.378831218658856
-0.1699657651450887
0.11568216010934047
-0.8816655769573745
0.8684511844239967
-0.07422689924991466
0.7605105510181278
-1.4651305026461192
0.253695656202629
0.7463753679575634
0.8905358444323226
1.524727577790878
0.4549920184680244
-1.070815523706659
0.817930408676304
0.3473790336498051
1.4272429235041577
0.604852272261752
0.14800827902378402
-0.45026103377028454
1.6984163972816555
-0.7881929065646585
-0.06594685566023618
-1.2387081396837836
-3.658469373024135
-1.2979609239335794
-0.25650845243418535
-1.471627334872585
0.203152760656563
-0.659454391552285
0.47631043378981636
-1.460390134351401
1.3447693047398945
0.7227580071463684
