-0.9753889124611557
-0.9716240722928764
-0.4823816487526664
0.260746773446553
-0.15907191960123004
-0.03615969342926579
0.05296493849107238
0.006660693724160514
0.5038915972735913
0.19813053873638514
-0.14435646738466004
0.01000396106790405
-0.37180003217844465
-0.2078506150495159
-0.12561782251195946
0.003432360941183529
0.2386661764850038
0.22604799123243635
-0.0010515836546074505
0.08682766321513237
0.08730504129742647
0.41406531801507346
0.7861072758267106
1.3746195146449292
-0.13544751399357172
-0.364266451997638
-0.15907635223221261
-0.4618309565882503
0.1627701439966471
-4.8364721265201007E-4
-0.09721203265785675
3.761368744803396E-4
-0.11054075543029596
-0.1471664272948665
-0.09857207132065345
0.017035065941765848
-0.2794481684962098
-0.03581941076887481
-0.15047823286039874
-0.24639291845625066
0.15542689206889929
0.13647993861365243
-0.10758686051159311
-0.4414084058804842
-0.11980355954195952
-0.03143254439594078
0.03393558257139675
1.9753747436193213E-4
-0.09841240927445208
-0.09392808633036594
0.04997908551051686
0.04682827921541103
0.12451950869735741
-0.16743247579931925
-0.029132296023023196
0.034677408561788865
-0.06577292212480478
0.2784893630775187
0.13952644570061268
0.016972291705219415
-0.11458518634056575
0.0019656690274923207
6.032826962079961E-4
5.594624839112312E-4
-0.2006723372175921
-0.30299207193684285
-0.22717357889240344
-0.26620266784064955
-0.013447611097068046
-0.026025389520265854
-0.030379116621995477
0.014802811768775934
-0.15940811220229822
-0.06467950728055555
-0.006833182564256319
8.234591378310378E-4
-0.06205531197627398
0.004618200136721862
6.456362777752605E-4
1.6824911825641964E-4
-0.22361611828541114
-0.04559775166026877
-0.06332325130861956
-0.06684368813604533
-0.2175316601277227
0.05068623821347359
0.0018443551481558094
4.893458243734008E-4
-0.37169824158496034
-0.17834915125726686
1.917702765592708E-4
3.0281031075600815E-4
0.21780084330810492
0.18979460660802946
0.007984927553776408
0.47366924501914953
0.01147925760560809
0.020340582034980733
-0.09812369060593029
0.49468071166756683
-0.10278779938465234
0.010108059015614707
0.03515215353226399
2.4609310107046023E-4
0.0394156455622254
0.06010157384368517
2.063050059007534E-4
7.586943173359283E-4
-0.14118912713363274
-0.044004021039297896
0.0645058463849616
0.08274193244118143
-0.29006348454573644
-0.05128135760084709
0.014990737446406544
7.92693303181048E-5
-0.2185079608462436
-0.04251218106386041
0.003978931119089854
8.967170462380676E-4
-0.1707986130721505
-0.042572132602419606
2.2992252461084096E-4
5.157071558451254E-5
-0.22926031835036423
-0.1933429271174191
-0.11500576523287957
-0.0038783384411764607
-0.09227916427952639
0.061360927000729606
1.6911130069550028E-5
7.936431124517391E-4
0.20284046752789417
0.12268107344254119
0.005629873855240115
-0.3631291533124166
0.02799111715338459
-0.1470341163441118
-0.06530885697270394
4.934822012625435E-4
0.013958256606360525
-0.2772665877416253
-0.08426064412269206
-0.04931403863874444
-0.011951804879368538
-0.025179208216712195
-0.004820450313805978
6.109742111690779E-4
0.11386879165271403
-0.008291874557298204
0.01694776432799256
-0.23620295624550622
-0.19110654715818337
-0.2857107516770015
-0.03717547860135052
6.470353218603457E-4
0.058982081214704135
-0.1925694123037137
-0.13987290794546317
0.4849338813982535
-0.08373998001780715
-0.08216833210098845
-0.04443850197862194
-0.004352667235481394
-0.12456352513619708
-0.3968728136985339
-0.1318822986864008
-0.5282678597433709
-0.03010296778222773
-0.048675579777917546
-0.14815711512516272
-0.04130409915940413
-0.046587444387960926
-0.04222485521070915
-0.06382295422684502
0.0024525065191473
0.02345854677201306
0.049413676198742755
-0.0011099027497752083
6.27884700138261E-4
0.2828699121895993
0.2781580789231153
0.07526891719649911
-0.06895018124411861
-0.15813448056541926
-0.04291695792981589
0.011670465807680412
2.4166499868967628E-4
-0.06436784527788016
0.30730571132347717
0.2429470561189676
1.0232103483489983
-0.09743402420613806
0.24214277254983715
-0.03213507871366454
-0.05595184334084024
-0.3831787058496379
0.31053533607491296
-0.42890507260695615
-0.13191623802786157
-0.10839173074416707
0.2437310487540939
-0.15404988274109982
-0.046967416922708546
-0.03240236173735037
-5.280083919780885E-4
-0.047336524695930304
-0.09115758122654984
-0.104979474042865
-0.12035540228910997
-0.0812808960595009
-0.023160579410886728
-0.01800675733519492
8.954464216163568E-4
-0.0016080165131677625
0.033368520615319655
0.06779413827585347
-0.00893013178046286
0.005375297799469435
0.26292234267168035
0.381711074581927
0.613652133272657
0.02983047351283271
-0.06257723212826682
-0.05996200848960578
-0.11883515042634198
0.009927923115977622
-0.08635785558207433
-0.08397017079095341
2.0671664602470375E-4
-0.09313360467920097
0.028092695526602256
-0.04955624149223763
-0.0063380689592667004
-0.09084642352816208
-0.008782021793941677
-0.04640486998396031
-0.08913157319843092
0.0889534952891214
-0.08449132547668957
-0.021693256962024638
-0.10477765301922314
0.07988457201178492
-8.256725163771899E-5
-0.005769802799324456
9.699496528586573E-4
-0.0540670876120631
-0.033778065759241596
-0.019257941241008415
-0.0033577975342261703
-0.07785240875787755
-0.07670118758615202
0.017786286396296265
0.023318372046096367
-0.05398946916666503
0.002051371404593998
0.029190547289033822
0.0037718616178412994
-0.07962089700418325
-0.010152006586198314
4.624362401564034E-4
3.4062426897798006E-4
-0.03554867662921193
-0.09644308701699901
-0.05586701519395172
-0.10545605564287605
0.018791949787033024
0.012254572099648354
-0.01899236478362864
0.012697568614982436
-0.040697761496435905
-0.07811009248948993
-0.017682435331019215
5.859723640703251E-4
-0.025501365613872364
-0.023148894895956992
6.975106296926023E-4
1.5126121787271352E-5
-0.05226665262917273
0.037552340048910476
-0.01641556510677582
-0.011218789815754537
-0.062068194062246326
-0.013081156759022685
-0.009266062700597174
3.999670768112895E-4
-0.050903295619935764
-0.08339669226989668
2.113120679185545E-4
9.09363982640815E-4
0.025807331930539523
0.03393560580512737
0.027183786568784625
0.04493577304380643
-0.013446945933210344
0.006501707237871868
-0.10623803634566563
0.1321683783174341
0.06688915367832571
0.09699206041840794
0.08134190290896372
7.57424353347735E-4
0.050449680499078636
0.017908808548318268
9.714430908014262E-4
6.970554880476439E-4
0.03621421674761366
0.021871114248474915
0.057304907330555835
0.03497787478271185
-0.05654224585575254
-0.01107736540018103
0.003609811327926753
9.202432149758166E-4
-0.02778081996349109
-0.051471570192809325
-6.84303657383055E-4
6.464990809494763E-4
-0.0810779162167722
-0.011125072346632913
4.964665124438569E-4
8.10614584124405E-4
-0.02372771777643465
0.015682257444909618
0.0029472459810125457
-3.61691844055778E-4
-0.02573224725413112
-0.012542192554386088
3.7148108011794635E-4
4.976846594252043E-4
-0.08664821635928531
0.00981870045978478
-0.0032744438147886508
-0.03953717252020939
-0.04156994596449761
-0.05582711537417132
-0.03330215552490338
4.081887912354998E-5
-0.06628516817618263
-0.10848868175030577
-0.052506257625718485
-0.08362156708306685
0.008637158639415572
-0.0302264045393153
-0.002673130291037166
6.206591361641136E-4
0.004449730452453067
0.0054491458511606704
-0.03745718070833198
-0.04360715311366108
-0.050530227936986125
-0.04525815109782463
0.004739721561876888
2.4208589018252758E-4
-0.12180653518809308
0.059339611497606304
0.02012036544606025
0.13812049701884674
-0.0849495302971591
-0.04099566071896242
-0.009226342199997187
0.005895849798805422
-0.039887791192212786
-0.18111799513319807
-0.013503354547592954
-0.031863454968302354
-0.0056363993096176495
0.07859665694253401
0.049527955515294236
-6.346820328105231E-4
-0.04187691542518097
-0.03074689200034493
-0.09969223588245636
0.09137219126198257
-0.04409570548599785
-0.009015655385247314
-2.565701350703096E-4
3.065904546853916E-4
0.05844590004157438
0.02752836717635408
0.05783862241787656
0.139790678422241
-0.06974380091977431
-0.03847484180674776
0.05127526443766574
1.8225914682915122E-5
-0.015465115637846517
0.0732377160013714
0.13372741841973815
0.09985412476165685
-0.0737173355257129
0.10103490152872249
0.02101290598092681
-0.03348239358781503
-0.11779388769310109
0.07546556613541876
-0.272858348641829
-0.21492520585534547
0.24044045050616597
0.3208987499420926
-0.1268490005741175
-0.06146362560428916
0.025810079725195282
0.002661669294865236
-0.12547005420270763
0.05563527710434234
-0.1844137862162723
-0.29592649846256014
-0.03829714046599453
-0.0233054132117101
0.0027493020779602207
2.02536425394509E-4
0.14028890061597996
-0.06965866297189696
0.035628792163707824
-0.002631504057796372
0.03630633258308377
0.1534070912685491
0.2216837478016738
0.3130488848867206
0.06042510738504699
0.11215152418988977
-0.09415946479462728
0.06324649785632178
0.0760045633231262
-0.07954216359296927
-0.07063477164314387
6.861923113492658E-4
0.00520112382668215
-0.08066323966784127
-0.10089891744247179
-0.05057857145866029
0.02930538597188453
-0.0018504552596057724
-0.10944981699872035
-0.06146883361099351
-0.02106903091741334
-0.12371285857604893
0.03039172597389368
-0.059341854296498735
0.1406485269060237
-0.005286167974731173
-0.03441299273169254
1.7081983815731293E-4
-0.03711560463013378
0.004484591888439659
-3.857027937584123E-5
0.020778040958075696
0.011856222112498012
-0.09089353945408418
0.03782703672936128
0.014882827682172575
-0.09837440818779955
-0.050199317053647226
-0.03320488898944357
0.0014928099227194942
-0.03988903657786563
-0.031125903884029023
8.960354978748225E-4
7.729387960735835E-4
-0.00516833564711566
0.00113201762539146
-0.1233957795251605
-0.0947051763600031
0.06558472555101287
-0.003944955769743501
0.011388457569703837
-0.05976000653566631
-0.03552608897006439
0.038566590757070425
-0.007264095836449689
9.960074594891934E-4
0.18536241359775693
-0.05660130686023295
1.0672911138791696E-4
5.555076236377358E-4
0.053711001178453496
0.0658946640881438
0.027392835836113513
-0.05192591137236144
-0.009127826598265004
0.007430925564163148
-0.014719579858973816
4.122099548472654E-4
-0.2220883977445683
-0.0027389511302837455
4.919749755995835E-4
7.276896013244607E-4
0.08960654772194127
-0.010265814829973473
0.10771008979410263
0.062464267625710806
-0.05181906679430362
-0.10805082081270428
0.04245606402255877
0.09695697671476591
0.06783552705412903
0.010629021256936634
0.0540134475659315
1.7155832496051126E-4
-0.017016832559053462
0.03273137279332856
7.412268455090989E-4
9.601448304166002E-4
0.06648674105786763
-0.0064239685420526185
0.045049955270388305
0.0041681520740787445
-0.042712230631352
0.008118789690780302
-8.599961844044997E-4
9.281137000516338E-5
-0.021518756518432977
-0.039726002270052276
-0.0010002754497057988
9.01142491731077E-4
-0.006025851467490345
0.01141183824420156
8.498088054665922E-4
5.059223985346338E-4
-0.007077727387876788
-7.558324789185805E-4
-0.006980798648743752
3.940093466295317E-4
-0.03550535591073028
0.06535830428715243
4.0574333329848535E-4
9.958663748584051E-4
-0.08116716809977378
0.01646746869751645
-0.03843720634673853
0.03231458605371097
-0.031141993451631784
-0.034487379329373215
-0.021013295309670024
3.0151040050874103E-4
0.11726818806465034
-0.05754501652583765
-0.032869951758952645
-0.003982145901165298
0.053934530750192826
4.4594485810020915E-4
0.0014663851241057382
2.5703695136865745E-4
0.007049747548137882
0.03747094306909791
-0.016522804479502943
-0.055675238418213466
-0.08281216944497224
0.010063692906539363
0.006263791475292904
2.2877732063335265E-4
-0.28206393356601644
-0.12501233719885513
0.00695822514911456
0.23377752987416012
-0.02979030067174805
-0.014750046144813986
-0.008941600131025438
0.01101692079354242
0.005990877620851091
-0.02788146626449431
0.07440676200884284
0.09252475913029845
0.07082933001331412
0.0547802613460998
0.00665744330043573
-0.005849815940463808
0.039234789467493175
0.0391270334699262
-0.03793261522386343
0.13582517162446786
-0.061650275659166545
-0.01054839560004556
1.6252950544432728E-4
2.1535658018068183E-4
-0.08000707257323596
0.2343411354489843
0.2532261236524608
-0.08536246545882155
-0.032072435513813245
-0.028155449530814978
0.045588440772005315
6.418430184236713E-4
-0.14172993009558515
0.1406711236351045
0.19044495588600793
-0.010542960444129099
0.008550191545727727
0.06967796661294741
-0.08290721720964431
-0.2333515602129144
-0.04190926129675779
0.07068824620437399
-0.15053698114272385
-0.725509773224809
0.22760796083440296
0.17774226983053606
0.056477767439736995
-0.02307327136713777
-0.04367606525878902
0.0013702451131279998
-0.07269631003685272
0.03794415878362335
-0.23503172538591963
-0.17310937824049913
0.03381500257189952
-0.030460223653642645
0.0038510812212604463
7.217676583081263E-4
0.009810206435541292
-0.23759348742453695
-0.08915461918095806
0.04514125906592978
-0.011808306643588133
0.03983771723653372
0.11272286825975852
-0.0011202155632170881
0.1821103838054785
0.08279593417603456
-0.005086726632172147
-0.23520162213169984
-0.018046202431134094
-0.15107746859159096
-0.10858667046950704
1.4559162034456208E-4
0.03691958252578432
0.09740437236498539
-0.01825202972010353
0.139614252048806
-0.02917968142045078
-0.14704254229309344
0.1825583663185841
0.027678884571971627
0.13186564255109662
-0.12808859855580224
-0.007634901443530087
-0.06790561903560728
-0.15831802358833394
0.034459328432514466
0.045210090885296705
9.424229833281675E-4
-0.05409270382893659
0.014713630743751918
0.0024329832720477508
0.020176481173955665
-0.23744467204811667
0.10787499684279332
0.08231392003219686
0.17180135676461183
-0.008702633630200305
-0.02274087249925027
0.009817743068571333
0.02159898340767826
-0.03515589870860858
-0.022376123013574917
2.193769725358141E-4
6.049796675871005E-4
0.040963373806056455
-0.035769863228350816
-0.043093982222181235
0.03859718868085577
0.18282727977118496
0.025080426248109057
0.0631674045952031
0.046603100346404296
9.057589168323715E-4
0.08677322753314096
0.02619762566700869
5.665795954767586E-4
-0.14756084273835046
0.022191301492564423
8.977179465035445E-4
9.438874419321552E-4
-0.20510552729446
-0.05478983538683101
0.0366739527931953
0.027884276405770382
-0.12825267199546656
-0.024210561903961758
-0.060935806544152454
1.9630525326537194E-5
-0.07605625279922805
-0.059331930441884166
9.300119475340692E-4
1.0959980942526037E-4
0.024188538970298032
0.15798122030046274
-0.0016566101503486788
-0.0978500823982962
-0.011894541725233083
0.0022975917776060545
-0.0971282575666399
-0.021613922282088905
0.07931972551695501
0.13506947347373865
0.11818822678595181
7.051642740943744E-4
-0.20051433560628495
0.028264726278710628
5.672984650790062E-4
6.810486311465883E-4
-0.04865191157160788
-0.0858353050266945
0.019596599466305178
0.015396942113692065
-0.04534220257987288
0.02209588791058998
0.0027729359852199428
2.3146645574454182E-4
0.19822857928979912
-0.023389033998464693
-0.0010685774307225627
4.404068508546276E-4
0.10964965136286899
0.0055114205921844945
8.216081692360525E-4
8.087148231193384E-4
-0.06959983347886443
-0.029260776385957175
-0.004050832468458786
-7.187300337430673E-5
-0.09192395158706138
0.03303652828514962
4.733257818004872E-4
6.384751364149918E-4
0.005103266899110458
-0.09821535516622049
-0.05415519895248259
-0.006415644751819297
-0.039309850890495365
-0.008655200851121585
-0.005099953787067167
4.458052852543274E-4
-0.08254011577703763
-0.11583523065021635
-0.12720316671482262
3.0948621285404E-4
0.06298158292409739
0.07044506399372985
0.008753531314163657
6.865455161562262E-5
0.31746628232944535
-0.0185481768799058
-0.18225757383746816
-0.020053142116535732
-0.14141806043374028
0.014298289553982749
-0.015993708012686503
7.05960951618828E-4
-0.0923092519874335
0.0210993725465967
0.06331527750682352
0.10452160074248706
-0.10048117942952305
-0.003368063832450607
-0.008619477190935388
0.0035726165314458993
-0.031542043633018296
-0.019256299620157763
0.15857697976746388
-0.032337413662740816
0.022979358092044825
-0.02878609939327947
-0.04162443264544215
0.006634897825101479
-0.09430953955426352
0.0488439513736311
0.006068753022833413
0.2686136195298201
-0.10016169542221427
-0.0125645302358736
-3.2803715625410795E-4
4.031760272844431E-5
0.036547307924707735
0.011357377861355607
0.10637727021004827
0.34096685843908076
-0.09721350479083549
-0.10496563343596202
0.07303898920843917
8.052655273869712E-4
0.10074223820187399
0.17337221551890603
0.29996244573988845
-0.08886124535267084
-0.03713437639772635
0.1473479828491274
0.20116017658233684
0.2756965506685744
0.015117203943812215
0.08388491374110818
-0.11323849240781855
-0.4880037298927906
0.27156717753468085
0.07133464636285192
-0.046348994134528664
-0.008728647117665057
-0.06168705455211315
-0.0016133731406846154
-0.03865890823095283
-0.012057165134098645
-0.2265112437551113
-0.04978451079237187
0.03639540647045626
0.04062049881928307
0.031104090398953108
1.102584427290036E-4
-0.30258542329340193
-0.15209284101524082
0.09642894744331641
0.021988670223494343
-0.09852454077754559
-0.014618124874035602
0.1175713033573771
0.06703155791574732
0.3150703210579925
-0.04840338695432857
-0.026878527459592644
-0.36056371688655087
-0.0638769784129894
-0.17032620192249098
-0.10316196302123534
8.706168356467796E-4
-0.14593263642917106
0.05473856874486128
-0.06757675219127623
-0.03626634430351942
-0.08758827134425728
-0.012180108783309981
-0.1369711752402646
-0.005571891748942705
4.60699902566118E-5
-0.14882389179405003
0.07849390779193732
-0.035530014005244685
0.10372309802615416
0.03539559047997876
-0.0043947678771935625
5.3049057088120574E-5
-0.30583062275793027
-0.038905580694321935
-0.007171768522299882
0.03005477207001825
-0.17688601751692307
-0.08668025230905507
0.08895579081015492
-0.15142800658516042
-0.06012401162755222
-0.1239948632380263
-0.053488365695766024
0.07059100748441705
-0.0954572730251512
0.006644459577693553
1.7575461346308385E-5
3.521862420300245E-4
0.14309824542357102
-0.06735528101089884
-0.1476175135680854
-0.04392846273309036
0.09397182061968073
0.08489269332742445
0.03749048870566458
-0.015819910830354104
-0.17032772314710665
-0.08441400095928195
-0.0029723277843178297
5.463402545719572E-4
-0.10384911279927764
-0.020689927374873133
4.731840696684748E-4
2.633774926957506E-4
-0.04321530759444261
0.15454751444585652
0.0581250275969383
-0.02926093545665866
-0.16827517890203686
-0.012370823554110082
9.333704108974647E-4
8.78937962188047E-4
-0.20416920096636593
-0.033702962783969816
2.5873615405051044E-4
2.2574693475467812E-6
0.3790874863262803
-0.08055256006798724
-0.02522627775227352
-0.02452045296818291
0.04504199604505465
0.14277078160533838
0.01676833112437324
-0.07950154090376053
-0.08288343883080425
-0.03501669836761967
0.009579001595306665
2.9998959457786623E-4
0.138428803693686
0.026857466382864684
6.152270958429492E-4
4.752389293232906E-5
-0.074218718232649
0.07635700066791241
0.10871478631185362
0.031995923508653455
-0.1572382857330739
-0.0895045996675911
0.0030863096027058416
6.430390230105301E-4
-0.2732920441746624
-0.014522979468596538
2.689340775650926E-4
5.660756350301344E-5
-0.05160909473423951
0.02403583418131624
1.3240233665823742E-4
8.012955150120735E-4
0.14098072756210378
-0.016380189878209956
0.022403047689202694
1.577529675300931E-4
0.13787332070942634
0.046710976404516005
8.297215630875162E-4
3.500026951871993E-4
0.18579196247379393
-0.0557748377383605
0.14170546215507882
0.3325814515955869
0.06850193820274457
-0.05582542366901393
2.0846261282327327E-4
8.091497009896795E-4
0.12427757952726441
-0.1935535468405486
-0.06509851754002172
-0.019528521201552577
0.06619951776546135
-0.012965937451503241
-0.0038299275281813085
8.043097229584658E-4
0.06390694055054423
-0.3153409165125738
-0.195950464970723
0.06274883222105676
-0.04780123405941311
0.0437483785561309
0.011592866426828248
7.932378357701623E-4
0.14671592096917793
0.06417864316061492
-0.05176763001496982
0.24954003411008333
-0.0013487608670461042
-0.05447745244361645
-0.024447033481355535
-0.011986116131418211
0.14487239374096542
-0.04168509834927669
0.16298593042049997
0.02110293860058424
0.0016577217705761689
-0.05143539825177697
-0.10129302265936577
0.02814028888637323
0.15612451568991023
0.10007827197616578
-0.047752593720782485
0.017445952793977575
-0.11358479610868598
-0.02715097419546232
8.068481554159743E-5
5.168054247925487E-4
0.04382670460613923
0.1632876230638745
0.29099064939447666
0.15261991378853393
-0.19087963199045427
0.041194089491708545
0.05966056241902464
6.797573213552976E-5
-0.01176018065226814
-0.04785430423528091
-0.009835424476674256
0.04042806118398609
0.001734449818569667
0.08222681726649511
-0.30815085941432996
-0.5767292858885452
0.028264159917747604
-0.022282063683240323
-0.32280242355445415
-0.1092398520674438
-0.18008012318670857
0.1099339366483633
-0.08754775376120343
-0.014149276446343121
-0.006452700551803345
0.0017745645553872511
0.0496674787596808
-0.12914864334478168
-0.17661971652307998
-0.07462009600276862
0.0376939518416269
-0.115985490238211
-0.03768599248109887
9.626616192066463E-4
0.19843515788542365
-0.10902839115856633
0.17937714778463087
-0.2671543096761746
-0.10552923711100828
0.12575931781316518
0.2078060988663351
0.2805950682920783
0.21301461548997078
0.06251324210977989
-0.0761887232683669
0.11160438131531428
0.1541485267988764
0.02264233864366774
-0.05662862057217116
2.202216436805936E-4
0.031663799486798754
0.18805596635073926
0.12219050447419826
0.0459270853034997
-0.10381734558442093
-0.14611829909079221
0.22106486205760797
-0.02220314343017682
0.19011523278489895
0.10240674699160683
0.01753364405654533
0.012097807323405442
0.02299112976957987
0.02785198524953291
0.13405133369860783
2.4133005715741286E-4
-0.026708836863687472
-0.0206691401061166
0.051448090038035736
0.03919452906331191
0.022720998956506883
0.1355701620929725
-0.09693374899928103
0.013135421673765002
-0.31804125348022627
-0.01583124707380333
-0.04214038901815182
0.18260311981981864
-0.1822855280819802
-0.00811428354361891
4.31020330898501E-4
5.005921773647904E-4
-0.09476028532750608
-0.18473327149524765
0.035707178754877285
-0.10780299116524852
-0.0020968845821795193
-0.008135112293711192
0.06440420906353528
0.02587013792919312
0.11065433230729639
-0.14185108006781033
-0.11878281827067352
1.032922614257954E-4
-0.28403924185505214
-0.05007483933731789
5.287074278705756E-4
6.267866138663183E-4
-0.14867255692448259
-0.3964656107640807
0.0014944875582304454
-0.18652976369893967
-0.013485280353900711
-0.02831043698465141
0.05127427175805169
6.663374345400917E-4
-0.13750104526605975
-0.03169749637902108
7.987245833224543E-4
8.91381627689884E-4
0.06089602791602005
0.1929851409265621
-0.1789433425883663
-0.022910698090519845
-0.2978806228214985
-0.1057450657966679
0.018840984249548682
0.1667471827040244
-0.13226796909141106
0.06455967875912284
0.07073202307609841
2.6965748339261155E-4
-0.27060705244641103
0.05704899231842063
9.389023626096663E-4
9.61100743995048E-4
-0.21633357392110547
-0.08181700801763926
-0.01381453984010727
-0.0680089746912467
0.1369346476010885
0.0836425073500747
-0.0037940770402513147
6.817901100495898E-4
0.00958167708503024
-0.008907417454009256
0.0029300485455511813
6.968090324210991E-4
-0.0813352125883633
0.008850120188899344
6.493557310009578E-4
5.252525835369356E-4
0.13915805170695594
-0.01949294533755141
-6.764408300400568E-4
8.540310879481018E-4
-0.36100920315801494
-0.0492315955315043
8.745792888109819E-4
1.0811210047434394E-4
-0.3382217268791277
-0.07328183332349168
0.10349190333507596
0.027648370461409954
-0.13504401907866742
0.003504699216366874
-0.012870304025493171
4.6948714477305833E-4
-0.015685929113867826
-0.05531296850342574
0.07352964640490003
-0.006916066189270196
-0.2413246241482583
-0.026748192781277227
0.004884590995208219
7.755396343775852E-4
0.07061075157880686
0.06185059881236099
-0.10097810157748743
-0.02386099599730557
-0.022013360772149552
0.03677059642789591
0.00939845643410843
9.415321479374983E-5
0.00393565036551561
-0.12322390618069053
0.07689646998115258
-0.055802835281081535
-0.12648300612739366
-0.09125947319391665
-0.034908776716404154
-0.011495085384172953
-0.12361790352962071
-0.18355272445520113
0.1770669438829136
0.03338901811376697
-0.025293250343997646
-0.08675520636986422
0.006040893276435042
0.004621021437424582
-0.07980538076988117
0.04452345180479098
0.06929053279168046
-0.15825987495055735
-0.20887211572602823
-0.03656641920200677
2.641127757233526E-4
1.5012480854681986E-5
-0.04762535770663816
-0.11739534688374609
-0.04610667885206416
0.016541031602303274
0.07134685204308205
0.0198570646390519
0.008301616062695394
2.7874906749767326E-4
-0.1996170207635917
-0.0198025420621854
0.2593976501023722
0.20328513902091497
0.0517931581921801
-0.03313726291065165
0.44015191647017343
1.1686278637406056
-0.11717298793969363
0.10587328939671752
-0.13058812709093467
-0.11280103453996149
-0.38889082623655946
0.4217600908260127
0.03269161695447055
0.10838718216878471
-0.04583918256591883
-7.75946974619088E-4
0.251630119848008
0.010515184029348505
-0.1349801766616249
0.019060781076641168
0.04490056923354303
-0.11052731266462348
-0.013019161076747497
9.432931847456052E-4
0.30108208239351886
-0.038760235703160964
-0.0449930870816448
0.16218508426618053
-0.007282319370650194
0.029944992984589854
0.1897623063584281
0.29768020883958196
-0.3365468522120835
0.1341144993462928
-0.41692335863512003
0.23540882237714494
0.04995409138450127
-0.18135159624119562
-0.03401278668063973
6.986241376544618E-4
0.026607745884715563
0.16589647304196792
-0.07694697949672573
-0.1907983433863778
-0.2669324142972253
-0.09332082172182476
-0.13109808062213363
0.04247831397168335
0.32498158498563273
-0.13300410879710442
0.09639927094915465
-0.019681067783550752
0.18733178038820705
-0.07991437165350318
-0.0071363437619135495
9.738357727751716E-4
-0.11258801180614682
-0.035282389720507
0.0031484461317695485
0.03102004136452339
0.08189640888882674
0.052321080957214064
0.04676150401935804
-0.04636031918066486
-0.3728476091715399
0.14888679679841624
0.015710679441424274
0.15945173990297384
0.05174962794444181
0.09121772659519749
1.7365855587204182E-4
9.130016368928914E-4
-0.01845283150123734
-0.054795599466401154
-0.14463036423950693
-0.29892656626907305
-0.26972304145285425
0.09073786738348483
6.657059000120466E-4
0.01844717152138906
-0.3267892040413796
-0.005414376786372042
-0.007391103420328901
6.676515844482937E-4
-0.09949916027268764
0.15054793349431567
9.907883499692951E-4
4.921386087793578E-6
0.05263699901824653
-0.11911862575283806
-0.049896514766558715
0.19751006144770217
0.16524187004971885
-0.005534198175612115
0.05635132203754553
2.950341111733923E-4
-0.13172024636383223
0.1129547210719756
2.3430703370442728E-5
2.7922965486771533E-5
-0.0543458213108779
0.018520853789117452
-0.2977755539421391
0.037699500750035975
0.045809966458469825
0.22213291048971104
0.0028406748735447162
-0.30064345254716424
0.2969686104431
0.008784502015931861
-0.009624197731185925
4.4751262966152914E-4
8.955565473654191E-4
0.10063521917955205
9.700350231774279E-4
6.755104927086878E-4
-0.09792870059471902
0.20980437019651277
0.12044512454173142
-0.0020494268856366127
-0.0713169360969899
-0.030406232690211143
-0.002714872769792415
8.242852761768847E-4
-0.14151958138984697
0.01885307869141268
-0.0022667674540270107
4.97173411352166E-4
0.2623891865232332
-0.010900134499511847
7.002677783622996E-4
1.8262497439123303E-4
0.2355326333387901
-0.037133585972184066
-0.04544062053921564
5.174651479747792E-4
-0.39347756011021107
-0.10716987490034727
9.28954282108739E-4
3.122606277623425E-4
0.41204128769341336
0.27956777029614693
0.19125381651521137
-0.13957317541872521
-0.016398767797353782
-0.060949312827043516
-1.4206694760661773E-4
5.3519575196773E-4
-0.10635765018006162
-0.16967334129729514
-0.05294339552535076
-0.044173428806011605
0.11215976259885173
0.059760614895376284
0.002444604487555721
8.857984597177066E-4
-0.4022824398841562
0.07569624324711674
7.981978432208066E-4
-0.0886897076750155
-0.19665924193687845
-0.015527082839625268
0.0028378731441344785
7.179840505046919E-4
0.0783514642033124
0.38479973869099715
-0.1924984272173074
0.15761819105910588
-0.10441292357742607
0.1060120644933984
-0.0054770789397574305
0.006039602217273849
-0.3632861319031543
-0.4273293673109445
-0.2263467093319033
0.2143721310998796
0.29674088743808014
0.259956664754478
0.05632014183919317
0.0039019879940447324
0.012224034246043304
-0.059600657492816594
-0.05002573519845706
0.29123729242471835
-0.11909012140354701
-0.020188205785318068
5.747784351297491E-4
7.328846131810547E-4
0.3042903329518384
0.2890199195360691
0.16082336852136528
-0.08080838544087267
-0.18632976452582148
-0.03254097255535368
0.04145540258665226
2.485682313027938E-4
-0.2625337639992947
-0.10274836264092316
0.5003173827791946
0.24405613112210084
0.13718812426361318
0.10597544434251384
-0.3052543188894524
-1.1660523089848862
-0.09473319000494024
0.07737477752940364
-0.09832028043265853
0.06916020028155906
-0.0830804662923532
-0.30385232285241676
-0.053825044108310835
0.0355259661031642
0.09707729939323849
0.002742688517163457
0.4271503234715051
-0.009492748819901982
-0.09025835527689109
0.10518572027033381
-0.04994117982038878
-0.17001110578604103
-0.02438395447779931
8.492527359569123E-4
0.6098952162514305
-0.20726406050176685
0.15399279530027138
-0.10643962227317402
0.28803797731054875
0.07480258563799001
0.2540362198744042
0.31880272411279487
-0.12370949674598769
-0.09545818103476163
-0.2956698559822004
0.037209999461542166
-0.23521631844495955
-0.07282102724561032
-0.02238189030408405
8.94710676311096E-4
0.3927044842755794
0.06382067856557767
-0.34634026501162785
-0.34279586529808304
-0.24247914052273672
-0.20771647920231157
-0.1307129788223875
-0.07892056492446986
0.15824663360545796
-0.10655573795796787
-0.07826940717678647
-0.11141739632150172
-0.030580352649681716
0.08077030305953782
-0.01094547640271747
2.6497081586407834E-4
0.06583336963820888
-0.07735659949019134
-0.11494219282790859
-0.056916027187884737
-0.14749240279772743
-0.24157871597137598
0.0507443248069737
0.052032954067271056
0.2419165956681911
0.2086131558802176
0.12989060914950915
0.17726426140191712
0.15820631280642916
0.02588407958205525
6.648057198675008E-4
5.053162415348305E-4
0.025619269080077403
-0.03415025489460689
0.06433551926093145
0.20924484902452611
0.09449379819750615
-0.024339582201095257
-0.009244798742058505
0.052260197814630024
-0.23873032425608257
0.0938144880609992
-0.007430066496950345
1.1963871284691497E-4
0.3109631783304348
0.08514019857873117
6.98864597982148E-4
4.5207694468091643E-4
0.5859214485955359
-0.04312722070766407
0.06474871269588231
-0.010967675177856233
-0.060518139952903505
-0.09999846192839816
0.022733348429683952
2.5259547992998154E-4
-0.36402953934313437
0.01853406603667508
5.409460999658781E-4
4.1082660735221966E-4
-0.4314129630332392
0.018005862929438968
0.1958820337884117
-0.05810043051847203
-0.18552857376338125
0.18109978170830252
-0.10529620060223381
-0.11754264213643723
0.04900502168843613
0.04483466479293467
0.09753145874117872
5.343669562099035E-4
0.21533834865215368
0.10627930324905853
9.299197942102733E-4
9.824855066939441E-4
-0.4483923779718703
0.0596662331316626
0.22765292074893972
0.007074847113103784
-0.2808568141264908
-0.11990038195425198
0.012552118393973116
3.9428382393530615E-4
-0.047314286673016855
-0.20003999686061913
-0.002664430069526048
2.8206579589901983E-4
0.24337269658719632
-0.018103022320445597
2.225515225639474E-5
4.6210216538457094E-4
-0.09271497414559142
0.03622726158664922
0.13596087553602512
1.3462645647285547E-4
-0.22945787630830022
-0.02784009281794709
8.796299110368901E-4
6.130313903938913E-4
0.21802357515261753
-0.04066939574833335
0.04749803712537467
-0.09511020541426565
-0.09214147939633223
-0.0733085650915915
-0.006711555083495611
8.283474220260974E-4
-0.025954536509609376
0.053194345300899885
-0.0611055405085578
-0.001808152636286157
0.028131615031704547
0.12700809164916474
0.020461137575664538
5.76789388834678E-4
0.06722877206673357
0.21132150734414076
-0.0933915574266382
-0.13660681924341092
-0.2878538216775778
-0.0050540170995923795
-0.025083840693568307
5.660139825302824E-4
-0.052638600794465085
-0.11567712430896948
-0.18108691799636617
0.10175359229799019
0.018155342993893382
-0.010021233835534936
-0.11087471955881747
-0.05763625359282583
-0.11159793923344744
0.18151747045520245
-0.13966882459242938
0.1905890402932674
0.004915042980769111
0.05631336358044318
-0.1552766762935758
0.0020879910288995975
0.024437233951975328
-0.07496432301564988
-0.031940375254833904
0.5010393318769986
0.04355598162876675
0.01304843930085014
7.724094687062384E-4
2.8131533766224406E-4
0.05056522050039371
0.2436321651123893
-0.030512871459410854
0.13417866640745763
-0.10512737443281402
0.050653303335161215
0.028906681668923354
8.479864895439812E-4
-0.17092286066509432
-0.09211945341797954
0.250354006171384
0.5277632066701798
-0.16851280802584667
-0.23126300626152355
0.22244235375012159
0.32139468261807663
-0.040560140127631664
0.049302363461444995
-0.3007490687416385
0.3045918716768742
-0.4525058177607171
0.6840301562372537
0.2621650570593948
-0.1124894188369758
0.11600473726152807
0.0061694204401964705
0.0591783502957043
-0.037894020923643336
0.3235477444562005
-0.1329571855562232
-0.27738917731997187
-0.10054593145180105
-0.02862803687882335
7.841013577875892E-4
-0.0791037877048911
-0.2504469903938385
-0.21841955088557274
-0.013790938320048176
-0.07869200454839848
0.14719064280561917
0.13942416654498851
0.3131330365401853
0.16590860434900606
-0.004520917635363321
-0.32122467290242057
-0.1737211733400662
-0.5878918110385319
-0.07075965639269358
-0.012215124100704123
9.648601006968646E-4
-0.15860723034437071
-0.10482315378858768
-0.06540714331204289
-0.06382839456540598
-0.11884985671040099
-0.10736310389046118
-0.09159596841451956
0.04121396634843904
-0.23731318443413907
0.12382509926443142
0.09944826678327398
-0.02442983418566173
-0.18127815000009828
0.04710256518058899
0.11412152189488428
5.820951606651839E-4
0.05262497542341188
-0.0747646262629889
-0.04125626162827703
-0.08684489366145613
-0.21521717071125002
-0.015539234738189946
-0.1750458519556553
0.04133791420335959
0.06571773011939439
-0.32992542554981713
-0.20108010782816743
-0.04791992310955112
-0.16734280557275563
-0.021122351842607662
9.763103112807578E-4
5.892212793375651E-5
-0.227882901485622
0.09547823945342124
0.15727449687099987
0.06419845962298797
0.28053416199672615
0.020137884260145258
0.01948618698349997
-0.039541234348081794
0.23278733836993484
-0.037162214459289244
0.005531032391329656
2.82629867751882E-4
0.12828900400705623
0.18853192291767246
3.8709689677209335E-4
4.33707409442589E-4
-0.2746454510258031
0.2130781892722543
0.07560489581271317
0.10612421503364117
0.01711117909137136
-0.07753138769747982
-0.011238123647811129
2.4987718883630826E-5
-0.20998752600935533
-0.10022313733882542
6.436349050034374E-4
3.6933833342794365E-4
0.19082617917397143
0.20973445138536106
0.6435087406944852
0.2526369427344527
-0.013245489234320385
-0.3740666200796127
-0.3187979035221727
-0.003357301463677952
-0.4075838715005508
0.07346706156517065
0.1910740223436976
8.682797973655455E-6
-0.05627223996982325
0.05822247027455506
7.326339347344342E-4
2.925071690110515E-4
-0.12123881573665768
-0.15539044624560663
0.07103849352871203
-0.027692786744358724
-0.07216781348306207
0.06183777855254466
0.012109871641877403
6.76438715976257E-4
-0.04662377842358653
-0.035251250067211685
0.0020882636559844143
3.226845942003376E-5
-0.3224330131462693
-0.11584121520316823
1.0907538207218447E-4
4.6304696337895544E-4
0.19764742342262406
0.03410354327447671
0.0546159372347463
-2.0679534838733207E-4
0.10275376586678805
-0.02801682717942741
1.8712724152800098E-4
1.8923005102376578E-4
-0.28770195470620724
-0.1780222581557197
-0.4037528792054521
-0.08484635485341895
0.1851044599376814
-0.06897557600493309
0.005871919837116385
6.823857663029147E-4
-0.3873174758659279
-0.01833811672513603
-0.045490038734942284
5.323663516066181E-4
-0.1155567371452366
-0.013486395543640292
0.06296825048210161
7.983618796649182E-4
0.18757902780594754
0.21718754391509582
-0.014588322474742482
-0.37842885864289316
-0.1455356386325185
-0.1659144713370155
-0.007011078748338642
4.687936042931969E-4
-0.44007071247226526
-0.1321550038894759
0.2529155622418893
0.7756119132333513
0.29360939291735416
0.015307017474983996
-0.09781307266002043
-0.04446401397995889
0.03532704175135146
0.09004808137180531
0.18578169713353057
0.30143234267540614
0.009715322630033128
-0.04284914459119661
-0.18077149459085423
0.0010823915011477859
0.37452895451178375
-0.05107512742220204
0.013872190647589978
0.08147409967166264
-0.12078604049210387
-0.07368492780454372
7.637306544994236E-6
6.20042559813865E-4
0.23131536492920177
-0.17147087349706197
-0.020274554104098938
-0.24100018582005803
-0.24887300952372451
0.21313383624936533
-0.03311370144166995
7.13521516143764E-4
-0.22849453152029026
-0.06465701064845764
0.057921939865163925
-0.6795896406796688
0.055185556681449685
0.275036165982825
0.08720838312494981
-0.7297828793569792
-0.2172631480753344
0.12878497924276974
-0.03186772350934688
-0.6315661227637397
0.488366473814097
0.3772147386921656
0.34700913717547427
0.21756892570848846
-0.0886704883962072
-0.003562633501032819
-0.13796435421175055
0.07778220145183455
-0.18642877866900184
0.597140162951602
-0.27230166343963724
-0.03933747228408005
0.055097826273324414
4.498057142835079E-4
0.29930056134981936
0.036952390887884906
0.19032236358344
-0.1320149709083134
0.23891377644575787
0.06257131151959096
-0.08755926982155955
0.008318430244386289
0.18515148652740965
-0.07229357748619321
-0.29205497140127884
0.2090164350977445
0.09455752940004662
-0.12499119485932032
-0.08426927524124321
9.404911351317537E-4
-0.35624742387250075
-0.2281732317283095
0.03866182708268219
0.36399202890565746
0.08116542621325838
0.3666194702779627
-0.026319409725205307
0.2045919894642747
0.21615691782137103
0.1501888775011171
0.3210829962109832
0.18602447025419114
0.023628170290541362
-0.1289322527145179
-0.09979152541434452
1.9306854924960615E-4
0.07171685990531719
0.15228697524650653
-0.09002288606250135
-0.028848109658787573
0.44568563485285323
0.26882512511476364
0.07941990584325424
0.06628071567312004
0.12053005206229986
-0.11131949133139868
0.02826193302685138
-0.16681488650679868
-0.336542443688196
7.344192195069441E-4
2.4882109048754853E-4
9.108284475780957E-4
-0.20266717560377298
-0.25373917603144336
-0.04012204790247594
0.05898023184859068
0.10399479507667297
-0.015105814572915556
-0.06932617601236574
0.017508590511860087
-0.33183736810711445
0.08448368716906562
0.019112882415161903
7.159607933281085E-4
-0.1045225056348078
-0.14899062166806779
4.174934007163827E-4
1.910522506148179E-4
-0.2240394647894871
-0.9461300392841813
-0.010031579371079452
0.023561403068643648
-0.10031401119814208
0.2228468880800195
-0.031158115545444964
1.605772374791684E-4
-0.22297806822051203
-0.003463108983835536
8.548493892718039E-4
8.555226864156728E-5
0.17796776851529106
-0.05357905118089705
-0.12525333907947492
-0.28298340874605965
-0.24557169439115784
-0.15831303868498275
0.018678350761926546
0.04047097765055674
0.0033442743123779234
-0.05457205122118374
-0.18352129103675885
6.209598861818171E-4
-0.10081805095910333
0.05963737989050868
7.170525118918658E-4
2.3119812223856072E-4
0.38719388677417155
0.07061514430022375
-0.04381918651200274
0.02718041756883739
-0.024409969424091675
0.16016094358790123
0.0062448431427271625
7.483514890873831E-4
-0.2381857496407119
0.2518475955858657
0.013243067613694676
3.711392933625006E-4
-0.2634879182249451
0.08087381847263665
2.924892562804885E-4
5.51630501776718E-4
-0.018822845478957743
0.0052784579911225316
-0.11724647139177076
2.9646578547687483E-4
0.11776778967894076
-0.09479368014558756
4.6924966636402985E-4
5.451800609753361E-4
-0.6465311292901564
-0.3425942987948718
-0.2772582431271997
0.0938840238638417
0.1126024136159362
-0.06770709107248164
0.028496935541528854
8.356984781428298E-4
-0.2067785439074757
0.1309549056618563
0.009010754483166421
-0.01230953651399567
0.05104517388824677
-0.0789856595899846
0.0506979178819831
5.0089025403347E-4
0.12104537115368813
0.11055994305850836
0.13753483535492034
-0.16406008434942213
0.1926618398275197
0.05864415196439746
0.060526593530919395
2.3664171860288496E-4
-0.5213641779960796
-0.028034377222200424
0.3929713449055229
0.1610271262847033
0.0723233885220371
-0.06432741245369249
-0.11100818092266175
-0.06110341503102805
-0.0928841490280617
-0.1486280496537804
-0.07280042262948859
-0.0023570428646102746
-0.21253526252500982
-0.14470964113341434
-0.0985213558024182
3.457051940526725E-4
-0.06899391209246297
0.02386254135749639
-0.10051540211964834
-0.1586827663381658
0.09413608505086606
-0.04580638379527315
8.440926987731951E-4
7.469110322734663E-4
-0.11905966972232272
0.5578714891358078
0.46817768647632074
0.4952552141077592
0.4401960249768002
0.2569383140107758
-0.05240557494075299
8.767657409914675E-5
0.4008104533619694
0.17374251122596102
0.07681896621448536
-0.060268984840969486
0.033495022087929024
0.11473535203083883
0.21659832414714883
0.9714328419445005
-0.2647026988546933
0.42077374032090203
-0.11651362177919042
-0.18525463014506885
0.5324072227083427
-1.709341744931477
0.20296788200894253
0.09864786896003575
0.04787873474766685
-0.009521595467339064
0.24394094366100044
0.39804396353858784
0.2977928285902346
-0.05441686394273683
0.004685046535641699
0.12315427232593552
0.04155392390002684
4.886193177546909E-4
0.03637786638371806
0.4600002118756561
0.23013098502747384
-0.137913644726014
-0.03771778534265991
0.15213508784863156
0.052799601207725116
0.1705659630921469
0.20553809377085147
-0.25404527466806426
-0.208676808451733
0.30531866850822986
0.06344585942397651
-0.2193964251786952
-0.03512595543708384
7.199940127932536E-4
-0.3853706389034235
-0.43090071184316997
-0.2408798777806168
-0.024266751062980298
-0.4308491236236723
-0.285177541440177
-0.014928191655786353
-0.08313023192934751
-0.1446475241464233
0.24437811195654247
-0.02630601684997888
0.30076974505387816
-0.41269771586964654
0.06414916800361714
0.08372131350847262
3.6296842950829414E-4
-0.2784684650321143
0.14521161821961107
0.12507532139368946
0.15652535095248138
0.4266966629212095
-0.03699028208079229
-0.40710350637857196
-0.32550423725797434
0.22284458552601683
0.0786253762734517
-0.02107691072570259
0.01803214203255212
0.5574954382498566
0.03419849886209554
4.981983630453355E-4
5.964890248752169E-4
-0.2048325438048471
-0.3058368005135687
-0.17170558962454258
0.005924560094157867
-0.17339055704248382
0.3368735712563742
-0.11332118281776556
-0.062475686905092156
-9.798258666159267E-4
0.23210835926081425
0.001596321242991093
1.9338834129937365E-4
0.09441497440044634
-0.07965301255319648
9.817704797765894E-4
5.069267167517593E-4
-0.15613014287870322
-0.054885642089109746
-0.2758148314834292
-0.16472622912603815
-0.3973937267828519
0.011198545329725819
-3.377749499485355E-4
3.096034168756252E-4
-0.575473453787995
-0.013198206096731712
1.8424203274048045E-4
7.451764746257877E-4
0.1574165392475066
0.15470424632535418
0.4085221047877509
-0.011930922921394959
-0.41125350439262137
-0.05218436552536698
0.004656181469482176
0.6754341049131845
0.41982006070762534
0.06553894183615734
0.06128819543294259
5.912491237824426E-4
-0.03631104523726135
0.10130254754624235
6.227786886513401E-4
4.8740128033037923E-4
0.26685222366355327
0.05371055220796733
-0.038553894067286765
-0.030671045418125858
-0.23786148379600558
0.027483469196774083
0.03307544812660477
9.145914387303087E-4
-0.4503051932634509
-0.2543710224314628
0.003889813791291781
3.42148329234641E-4
0.1530960128010595
0.04397489659598355
7.868643416427346E-5
1.7928042396948808E-4
0.030138180581617154
-0.21014089762256546
-0.12545505051190636
3.924823765251141E-4
-0.2109826707295094
0.012991213169865503
9.7877978982478E-4
4.4153156529169903E-4
-0.138994729771921
-0.303400199144001
0.033260591911627155
0.3594504954694899
-0.0949956938845525
-0.15411604688464753
0.06499780024675
4.915374753157987E-4
0.23218610467742068
0.3360289384782002
0.06114626119404571
-0.020356449031724223
-0.07661152217049856
-0.22760377384885055
0.03101133322824713
4.892488673675097E-4
0.2094625948314713
0.08604647577361213
0.04851418865982405
0.12472889431210368
0.01718351941503266
-0.09334388134199548
0.015259887301153276
9.80187377696394E-4
-0.07506711901948344
-0.18728692071742886
-0.3159249687842834
0.40795403266885544
-0.13486277039724476
0.05818521227086959
-0.03580434223199086
5.531095741954225E-4
0.1656084170669464
0.07897422672836085
-0.08769994988065173
-0.35335914459951995
0.27613516072265093
0.10532395548514538
0.01616229797409555
5.114880110908304E-4
-0.26701950661027757
0.14583593719415777
0.26793177118185163
0.7570343028539779
-0.17351881440161654
-0.05410121164776364
8.195699222965974E-4
9.194963428567227E-4
0.15755780177960504
0.30095298738495113
-0.2061978891982427
-0.33908541714033436
-0.1716793823916559
0.026406910256918218
-0.04412779484508761
4.6036333725120617E-4
-0.30778706233768466
0.06988848981125677
0.16540620002356124
-0.16480233742310835
0.22590339137057042
-0.23193908632973861
0.46655451634960343
-0.6057453425491672
-0.1434468878130669
0.12014064568288269
-0.6571116356879207
0.06827830373467833
-0.20906502787936831
0.17402877847997109
-0.2952711919748219
-0.18202398727615615
-0.14587890094858144
-0.0057853272342581405
0.29503761809272194
0.1540775189058605
0.3961767115708247
0.4160819950364479
-0.14113102034576205
-0.2105601571048304
-0.06383863921132045
2.0127458741650225E-4
-0.08722416383955278
-0.17676222611331666
-0.24318297700082062
0.20139942955029827
-0.0647918122438877
-0.01683505016609786
0.21462517919928176
0.2403996639001215
0.3387762765041471
0.029868161553478212
-0.03158441931995883
-0.4857741834607504
0.3003722491368986
0.22660450664416848
-6.095178370584232E-4
2.0406262208318095E-5
1.0303666157221236
0.3343410380608221
-0.16944458539013077
0.22668942312287768
0.42121344630627194
-0.10336125906124999
0.0591516347665013
-0.15053146339473522
-0.11986539788349583
0.17905187254046706
-0.5970861477467836
-0.2321153749367081
-0.0020224708966683413
0.09146277103193086
0.006044870789173252
6.080838969867619E-5
0.07178863665385324
-0.12268979914272596
-0.09476304295567793
-0.20902009194073629
-0.7095546886184646
0.08391502410918843
-0.059917462762542215
0.10728270405651921
0.0702741653681729
0.3695335769071024
-0.24453685969999783
0.34305883235329365
0.03255342865867805
-0.018809669546579134
3.5971661984119784E-4
4.251961641864973E-4
-0.2666484399354402
-0.1837930624356924
0.018094565705255767
0.1219773614527044
-0.6124399918265355
-0.14575758032536137
-0.11121061121029453
0.018344588412584763
-0.42089967503119935
-0.14447898498269443
-0.007886804920130388
8.357841871573691E-4
-0.08151068340807116
-0.16352455013766765
7.941761721127217E-4
6.052196489140532E-4
-0.2454670250089525
0.13718783928919945
-0.3612960204543793
-0.4521626815239509
-0.089371548802199
0.10951229827213912
0.04014974675396063
1.0434182527892477E-4
-0.27772443294599974
-0.035278046375504524
2.280129516912759E-4
1.59816275960307E-4
0.28334029566170205
0.06667043563620755
-0.07591101332364021
-0.1345094686464073
-0.13586018443062386
-0.13281791096827217
0.05828365660142726
0.9960011582086518
-0.09522808775068399
-0.10545772722816239
-0.06926834350218573
3.405574946805264E-4
-0.3673858905782536
0.02620076008663192
3.7500807090359536E-4
1.895636832362372E-4
0.6887399655339914
-0.015316089024060496
-0.08332552048799774
0.14541932043885095
0.16292093138982014
0.08837799382157684
0.04101334024890907
5.391798478959009E-4
0.17808178589890578
-0.28520919018800117
-0.0012048127068779806
4.576958295678608E-4
-0.20884697917678255
0.19567222316473518
4.483179107287312E-4
4.319733400982502E-4
-0.06969418432882316
-0.165867255531738
-0.103116612615513
0.0010130210836480336
-0.2310103311138422
0.20149305643323065
4.924498431379598E-4
5.897948023792003E-4
0.043845605529584955
0.307652197039719
0.0051976206665312824
0.2167288254179013
-0.2766444300445894
0.004787311941268296
0.04278830286959077
3.6332510986210174E-4
0.06358087340290905
-0.10904342133979751
-0.03279256427178229
-0.054029028095730215
0.41887145372872775
-0.02722958774609801
-0.0727907228541533
4.1089773583195897E-4
0.13878702014826122
-0.3140912155557031
0.029215375230439992
-0.26604934386189555
-0.10604800416367192
0.08892757301780098
-0.0021906006083288036
6.29091400020474E-4
-0.03962393356518886
0.18283555349365302
0.5818159713879194
0.6745182444397688
0.006355180479167241
0.04846557758462391
0.0047830524604517794
0.001021137606032103
0.33433057295361546
-0.12212076045746713
0.08384246191333278
-0.22900791467932718
0.008519806268279806
-0.17223111527531845
0.06878210897104504
1.0815166736104852E-4
-0.00642329146829869
0.04477438363361752
-0.1160587482011625
-1.1716288777921282
-0.22578333884587737
-0.04666020773439417
3.143099535493664E-4
3.9199262826286873E-4
0.5431262939884131
0.05773554595253806
-0.1846403573236104
-1.2189611045264221
0.11406961014112589
-0.31884479785004916
-0.14287590689611113
3.338464808702435E-4
-0.4361052804594656
-0.22216993890034045
0.15017934559192192
1.5524939296234082
0.14481643397837998
-0.2886138149568809
-0.7717868283873955
1.2090815752201982
0.14357013618210893
-0.19260852561665742
-0.6977062590476208
0.19504637736319072
-0.11744553615534978
0.6250213048786885
0.13776653845819914
0.23535743063876935
-0.2660354120691167
-0.010756885766529648
0.28850653844548063
-0.09965659074912149
0.31616375015470566
0.5560944865382976
0.07967183583633353
-0.13746513256099954
0.06020270328148526
4.8026291894952366E-5
-0.01706587336608174
-0.04552624183428624
-0.35548671016389266
0.3103674106909797
0.14281987070642457
0.03299468019597053
0.04287400374208793
0.2946306952812863
0.331425764555662
0.23957129695077495
0.15413370468933674
-0.18876283316114903
-0.39969589458376964
-0.001289302835150932
-0.005757411297994095
6.658653684221077E-4
-0.09822235237511084
0.10482277444422594
0.17835639252032948
0.10984646754398016
0.16196168998739657
-0.07504261374087669
-0.23390227185877116
-0.010281057030340886
-0.13747867293113497
0.13993746521161132
-0.04816596676418615
-0.22118622190309883
0.29687318140918334
0.18262314589553083
0.020856825617607377
7.693245975554696E-4
-0.28048321572596147
0.03650734386885203
-0.06094813257166504
0.08062422718392906
0.6967394478830863
0.17482720503185256
0.41126556755724597
0.055072128626459604
0.21811655576931685
-0.13768617729044347
-0.41731556098818023
0.23479921830956993
0.24140598903512855
0.10305724524587917
9.569459592281903E-4
5.432409045638446E-4
-0.6113596966680271
-0.052163541717252127
-0.03865275174530911
0.12026290320184879
-0.21206349620791515
-0.05215288103726043
0.2858489876162554
0.042281882870952324
0.4145360762855895
-0.2349743354047857
0.0075715513496912
4.574438731781909E-4
-0.5354452858244447
-0.04921962845197689
9.1965234183481E-4
9.47515082665867E-4
0.5949390092822948
0.1573414580694693
0.16850627206679375
0.5794815713658923
0.2578394793503078
0.15157810179441777
0.02695003113086289
5.585192381347301E-4
-0.27879362220890935
-0.07639030245251585
6.484286393561856E-5
1.0982505159126343E-4
0.46854793574266096
0.06381440678349053
-0.2216457735322819
0.39123480873568084
-0.1062604224196451
-0.3124666290328478
-0.02617593059327203
0.003149676191370651
0.1878682329043907
-0.2521810737876582
0.0196780809901709
7.456837373775682E-5
-0.09743300452702339
0.02548357136768222
3.375428516225426E-4
1.2023600732789542E-4
-0.1710481245029232
-0.218028736962931
-0.17684250838495652
0.019724931756259386
0.01720218479356798
0.11965472474763117
0.04331529213302988
2.246405696793857E-4
0.053337354643174344
-0.21928881726131136
-0.0036684095663189614
9.735922548037325E-4
-0.26972471804010784
-0.02131276652338993
5.151601402043921E-4
5.52036814167494E-4
0.3258530185649468
-0.20349195533343406
0.016757066892720784
3.818385592798541E-4
0.3284341351784481
0.03714562295166249
2.2811993180468592E-4
7.385998001848918E-4
0.010199204579458429
-0.1608404328830846
-0.011036585074262355
0.13025372031077154
-0.41704026377042996
-0.013944058697712909
0.024515917928368193
2.4995890470673763E-4
0.29309808035732066
-0.10359619768505211
-0.01743364288146556
0.053354694063991334
-0.5455294556058949
-0.26117054516861526
-0.059250099069536
3.070755028015847E-4
0.20909936172592727
-0.3205850319417112
-0.08853606943661176
-0.5795602141890979
-0.2521899251146195
-0.16359219372669442
0.041196678273359294
3.676014154247498E-4
-0.032382504310245766
-0.10727560611464891
0.27707950755948896
0.8156519198292908
-0.5114816669043815
-0.18946462671218706
0.09020178867709565
0.0027495841245491685
-0.6273347321779875
-0.47858691920308166
-0.13580049561691507
-0.07212550769279402
-0.20030844673919837
-0.04902805139721756
-0.19249278397689054
1.9610739494900343E-4
0.3446518813919458
5.12854778751836E-4
0.2328064006137055
-0.16041475374403566
-0.12218875246343362
-0.12189968977648041
7.113232865695867E-4
6.16313158173999E-5
-0.2541116063566057
0.4058631046283849
0.14455315082029346
0.14653831271803963
0.27672270465207666
0.4472817590273284
0.0902838538280721
7.912293595412164E-4
-0.07088829739555237
-0.03010252811418518
0.013825697623742965
0.34835072390012983
0.20907593988777745
-0.16627860844646195
0.8061913140877396
-0.041447702153149926
-0.3903437032064004
0.47869985557271777
-0.1275466782230737
-0.06909816360842402
0.13139752905356322
0.6954966428429382
0.2608826064648229
-0.17196932001441367
-0.20809933584340912
-0.011775416088412287
0.4118336907586115
0.47036641598846285
0.04181356784014862
0.6117299807368275
-0.35346876555731704
-0.1511697236569379
0.003407387056741151
5.74839975168124E-4
0.2138909626702836
0.09068751786447679
0.2720068183906603
-0.16633258699680886
-0.010591302317922574
-0.009664686489145848
0.22153107268468697
0.3084909034787694
0.16376364497870882
-0.3212871799032497
0.2728258244676522
-0.12882684628131474
-0.27134131919804855
-0.22443169145557987
-0.10490996998347306
4.6052660503012155E-4
-0.6504587072387055
-0.11617265750773953
0.15008913680014113
-0.029172856442000215
0.06078823277446304
0.07250503972301703
-0.12359346712265329
-0.12070184163877241
0.17732356314799771
0.33159824951758454
0.27321398317115914
-0.14501031682301893
0.042096476281106576
-0.11689184569385734
-0.2090276535543536
3.093056544893402E-4
-0.3191875881226965
0.10600123193170122
0.22941764339866336
0.14068231621599767
0.2063880237594946
0.12243844920069305
0.02905385016214634
0.14235481634493546
-0.21851115735789015
-0.21756236750322383
0.006135508133999698
0.08095604511132551
0.4062696541773188
0.02376338971613716
2.4676973692895496E-4
6.186973662672553E-4
-0.03369641357828706
-0.12832322174125266
0.21355298299765088
-0.3399592156102151
-0.20596442544097893
-0.08811418633040317
-0.011794599606181424
0.14779495116477573
-0.625973269370908
-0.16385883051144445
-0.027277163237094205
8.362005011602938E-4
0.2914389967774665
-0.11348793276123748
4.5887998605254786E-4
3.4167019838906963E-4
-0.0034578031896582003
-0.11096035203809997
-0.04456446543296846
0.10039975968981937
0.02326869641259458
-0.032864795498056466
-0.009144183423472122
5.320242444071654E-4
0.3629624099257059
0.005929386729900036
7.0870532778901E-4
4.897078687926186E-4
-0.022510283264543768
0.1432590953400727
-0.015505033057909743
0.22146310780936532
-0.09441166317375035
-0.06719778131783145
0.11267484653917895
0.13938229731511625
-0.2672080967018139
-0.23566424581415854
-0.1543369839389806
1.9708616371318056E-4
0.3751934882150599
0.02033698085651346
9.630881598950235E-4
4.0606228777184536E-4
0.5083688897682117
0.14942157968113315
0.2389973559695061
0.17462917391938027
-0.8850895553799699
-0.09507758967998348
0.029217416243244226
2.90283278803659E-4
0.30862659214635313
-0.05419293257978938
-0.0033158396322958334
6.065683018044391E-4
-0.46151586564865593
-0.22994622748988466
9.803253804963386E-4
3.0881818034061135E-4
-0.5719073933733639
0.08681436871547099
0.08782132146922499
3.0705020341839255E-4
0.026622893483332924
0.05613146284485513
5.771601061960686E-4
9.976293347467122E-4
0.062424248506270597
-0.23459483068039766
-0.012598218943330464
-0.330064588588921
0.015247850370291603
-0.15602222610461047
-8.258407352074259E-4
4.400496667138236E-4
-0.4035150722274819
0.03509733783750075
-0.003600916015675553
9.533890675255177E-4
-0.43154925957581497
-0.3807027679728645
-0.0921470849468044
3.999204966205464E-4
-0.30518081555107357
-0.04280987770339557
0.22832965337261274
0.09970210703546789
-0.056263765475827086
-0.12244236717590319
0.04792621108973284
3.920460306611292E-4
0.39461079215581485
0.5631113172428456
0.27253033965154533
0.580949072945366
0.49547846634369486
0.15071660153821673
0.06456000984186845
0.0014465423389660097
-0.16926200061563967
-0.4059253410884457
-0.2186919385168748
0.06851657198862002
0.2851568710856002
-0.20306291847276156
-0.05637408405783955
6.774031928782726E-4
0.70283798107235
0.006290446934476147
-0.0752807296976283
-0.29366486207526354
0.44222116999174177
0.05040843932934141
1.4513694918942975E-4
1.5198144025198911E-4
-0.06798413301268597
0.08816450967837278
0.15427340611236248
0.21426905221706066
-0.1379521030636179
0.015520288293817361
0.22040517223222586
5.3670846591824E-4
-0.29491252563305526
-0.08221926117665881
-0.40764583193678516
-0.4649191169374455
-0.09480083759893836
0.18648278749882413
-1.0107785821720066
0.05121294747261322
-0.21306446974889315
0.1962735559875392
0.20382711416365287
-0.39307341297846543
0.19623812154092968
-1.1101118835079027
-5.586623346201539E-4
0.2855500581506032
-0.16676312496921286
0.0074129278275760204
-0.20318730862728146
-0.09900405023551667
0.3224096267729148
-0.43298227971075665
-0.09640575109179722
0.0021811341050811347
0.011673360009861399
7.368912004407645E-4
-0.022533172665396548
0.07498061070462216
-0.0733948754775202
-0.21578445831189846
0.16440598708185905
-0.06484876285478751
0.022128239353021304
0.28183860857757825
-0.32524621937414805
-0.1701397628517432
-0.20592723667035634
-0.8255910577507872
-0.0246012548468288
4.641876948682025E-4
-0.0015294194135217886
1.0065383952600615E-4
-0.32730154177196236
-0.24586723158169596
0.24635898700992317
-0.18733176246719918
-0.17300272396707017
0.06749512680980126
0.04064373389901241
-0.07374216049718259
-0.5191196667348916
-0.16495032606955787
-0.5281916528186315
-0.13440571158066736
0.10905347917976096
0.0653019289396627
0.13411748540731905
4.869033048086564E-4
0.1652625830149388
0.33356300494754587
0.19661332795857092
0.1484914684276116
-0.49998419515570364
-0.2908633238917541
-0.3455540021086747
-0.09075905662360045
-0.30462710623998246
0.12601226773513602
0.09656679645984761
0.07763489204471598
0.3448344067902846
0.012959494956025571
5.039653304224236E-4
6.810913228209168E-4
-0.44224740282889485
0.024042049849465147
0.08915802103320658
0.2652286266628913
-0.12212534440482134
-0.08080896509997007
-0.29568104279136204
-0.18054200319070302
-0.39895025133192147
0.009652665115834281
0.014153093881336044
8.644698449104646E-4
0.2712427173363987
0.09267540764619543
5.910064894444946E-4
4.915267927840543E-4
-0.02396675988913343
-0.05129847544226651
-0.28124555940984236
-0.2875649587289865
-0.3448324149644269
-0.09137370692072895
-0.03843000710354296
9.834582810411272E-4
0.10897817035916534
0.010494500563333816
9.020496898085404E-4
7.593162628064948E-4
0.0021674316276813683
0.3589354741550234
-0.06598104715309076
-0.09312871384779661
0.06824439680808302
0.5307125300806208
0.7837461000560147
0.8103268539970684
-0.23925727250887535
-0.13180998457968113
-0.08292128924732735
2.408080818004552E-4
0.1324755995258159
0.026684895075415573
5.6419634606829085E-5
7.287038946872913E-4
0.08011754380036666
0.1399853936593356
0.17781352105967593
0.1751015704593057
-0.9277960817247688
-0.07682602583171279
0.022903563230929923
9.585524327116345E-4
0.4373192487278967
-0.19596605245866103
-0.0031901969522505195
9.685695627183209E-4
0.2919785578611104
-0.1112833882402118
6.820493001740335E-4
3.019642118013901E-4
-0.05372191917812627
-0.05692958051209021
0.04805856388309322
8.828940031985568E-4
-0.12355732010237748
0.06048051649496802
4.5766814934035816E-4
9.06904148247341E-4
-0.11412262227542949
-0.16900398665157057
0.05971065424916144
0.16498559191523796
-0.020978376802146276
0.026477794025058867
0.03295862270279264
6.322994990689434E-5
0.847771972938579
0.17863207460802924
0.03604448891804104
-0.0239066347336725
-0.15833229759023637
0.11598715989715919
-0.06079077265109531
4.6813891594722713E-4
-0.08604266097163396
-0.039021538448944466
-0.05744806964544854
-0.07073079502588854
0.05470422486120614
-0.045634038444803134
0.030530004165079134
6.388923119029782E-4
0.24258768201425268
-0.025447616795410567
0.5966793071936788
0.10437699836018659
0.5153685226678475
0.18172539520353734
0.0435998865356368
0.0013572529993525256
0.4764405251277416
0.11168166145429076
0.06142614129546687
0.1565065318519105
0.1410239224832738
-0.07437086526200881
-0.2676929181906689
8.608424596787948E-4
-0.43853632904414847
-0.30079941018589407
-0.06811338836263363
-0.33755106778986094
-0.24155350813742202
0.09385120090430951
2.2806338107246335E-4
2.1391115468770926E-4
-0.14460902484306956
0.5485937569701695
0.2919414720493314
0.046074188713568325
-0.29845527211410483
0.03540682451715667
0.05272891069886007
6.054766557617478E-4
0.15101323786986878
-0.2049502028568565
-0.3170501889180187
1.236487256016614
-0.04986614524314217
0.36939986555261517
4.331310500252523
-1.3912517945483887
-0.041230325089665745
0.10924492827876556
-0.09299445356444541
0.3829374991821644
-0.18051531703006252
2.0264513701997147
-0.2240203302005666
-0.41122453191751973
-0.018716057893978524
0.018787280009154854
-0.10764292048197106
-0.5305420169959653
0.3159694395108527
-0.5527712096713572
-0.12591825440691015
0.09775319257571344
0.046037345363158795
6.91821473996855E-4
0.10032194467495878
-0.6890904942600169
-0.34004694050650575
0.22820892129839906
0.06361313751561816
-0.008630404797702083
0.08881864645955617
0.24334632884491803
0.5613572380005611
-0.08981086243931583
-0.06856360630586002
0.4020492330325324
0.13682761886155026
0.08182568548512462
-0.004121257933339063
4.2573356986016597E-4
0.7280779887703973
-0.18061046947420226
-0.39893585773106843
0.2053415070493664
0.25063995129052324
0.018585237568142673
-0.2128805413385844
-0.1936090179441716
-0.37878740688549184
0.11572177118536175
-0.2791673155501464
0.018010899530239422
0.4368512568897415
-0.029569257307508603
-0.08212967402438251
7.746320636429699E-4
0.5451522817666429
0.26368547777358514
0.009236967154559064
-6.289160466938816E-4
0.22286510389843744
-0.3951732168408759
-0.04764247103578614
-0.04238611559682179
-0.07642645107399397
0.1527418065444679
0.14332511041367163
0.22625495789514427
0.16336710894280432
1.927175349320731E-4
4.959050579456281E-5
4.2111312488409447E-4
0.17257631422803335
-0.27496633561674305
-0.22541980573008724
-0.32231190402247717
-0.08929232363067684
-0.06432630559030386
0.04647796874597688
-0.07843367138057751
-0.45275406387884654
-0.12144366678971277
0.003687678142895565
6.519278693856937E-4
0.14183495382711728
0.07112202377931537
5.626414092699068E-4
7.096187532955945E-5
0.07940573923296439
0.13884244928223632
-0.05570363775471551
-0.36113331692610395
0.3258153564078843
-0.019358548920119185
-0.0640920766881458
2.078540746610842E-4
0.08335766884379996
0.01273877824534229
3.4219021417013494E-4
6.091516393191576E-4
0.6732935196363861
0.31996382169613585
0.5567010807849576
0.8067957180690534
0.16738436557786995
0.34764470516347007
-0.05238822102741597
-0.42919944175920205
-0.4095639342790968
-0.04959872857619345
-0.019847555247944213
3.786858134255008E-4
-0.20435368324597658
0.0036095222177129596
8.692047155850382E-4
6.112252143112966E-4
-0.07318465458866634
-0.18361039618708008
-0.4653661702282736
-0.1735045867524111
0.7393848449177712
0.08837245772856309
0.015092136906517156
3.9904585052546093E-4
-0.5887619891226259
-0.09289839245662922
7.106906492756155E-4
8.062811868329622E-5
-0.10198227912682632
-0.40237623600099104
5.506280850480202E-4
7.066422011077526E-4
-0.7299026373995573
-0.06494187494963816
0.13884773957220783
6.63492982256776E-4
0.45131751731955716
-0.034680759619573405
5.990559626309409E-4
3.226251130106106E-4
-0.25231571381905904
0.051538988226023534
-0.1389360953239264
0.12820202599806896
-0.14371070007051046
-0.26689914052875974
0.026897817973104563
6.612607941622609E-4
-0.4356823575656248
-0.2415087137572446
-0.03379155661928265
9.68895306308209E-5
0.24407704433592967
-0.02618206609230305
0.005817371975794813
3.626190426518816E-4
-0.4509090812639097
-0.3151891814915766
-0.5272910273275043
0.1621306149308708
-0.2442637514830614
-0.13215081059694686
0.023306750122125824
8.280852033264097E-4
0.2803233890876233
0.3916117095209581
0.405345921002659
0.10381189247620831
0.3111498806184417
0.008945672769915623
0.02794390291253763
7.46560713713035E-4
-0.7439364152821597
-0.11738734311105017
-0.12674338899645124
-0.2520152750281133
-0.3365725773438864
-0.02138858352102359
-0.24905038133266538
6.303284874840074E-4
0.31256278664912407
-0.22520272158572754
0.10315125745592134
-0.8982864638226709
0.23313241968066667
-0.03238567423374376
5.107232517276277E-4
6.31779439916001E-4
-0.2880469823961635
0.3938034116601539
0.7769195124746604
0.9247608226952001
-0.11490563061209248
0.08151446604467767
0.11491697071212145
1.5775637953110066E-4
1.0488428338928764
0.17724904431868055
0.2090756492054705
0.8138974006999852
0.19380661822423503
0.8139459584776366
0.7302760951173354
1.2641361786468093
0.12594758455462216
0.11375174515724938
0.15324188272394715
0.1377148634651786
-0.31294932765156747
-1.1477551460409308
-0.6028163835805078
-0.7005082037433915
0.12316326562045339
0.00558807740337368
0.9844505256829493
0.12823609267662447
-0.16099190041616301
-1.5781340877791974
-0.17508030739828812
0.09352298159338741
-0.05562722690482585
6.679567291687292E-4
0.8067335757920294
-0.13926763382063032
0.39394517678410235
0.11828208415158856
0.28879458830011084
0.14984124903078055
0.10266613856741767
0.21525468349760338
0.7121130020517973
0.17451760818216483
0.02960754625481139
-0.03421069041632438
0.45455387991549695
-0.05646516117662181
-0.08760013096474197
7.786000693114948E-5
0.006134157649075022
-0.0973330141876086
-0.20351422354803433
-0.9129858446205721
0.1603943869726036
3.4193653470624726E-4
-0.01533816445462371
0.07161995194052359
-0.4715069495258796
-0.2766895406213497
-0.2755788510274768
-0.3884360400554814
0.19098120763980636
0.047046112352400665
0.2049043113969887
5.548061175749275E-5
-0.27140474482252475
-0.07873455864318467
0.15121037225382133
-0.030996729270944958
0.0463776136951748
-0.25219022294818194
-0.0323677410502701
-0.05551104686406678
0.1282958729236589
-0.00856188242872688
-0.25382279108924594
-0.04189981861346554
-0.24213350683362977
-0.158560909394511
4.8789748893684825E-4
9.360660648069307E-4
-0.27701418447257564
0.05745504987342823
0.06001751189432365
-0.09319591840883025
-0.04910814284739605
0.1787468289425798
0.10330780964492697
8.808835298156343E-4
-0.17463194766887316
0.09524370008663471
-0.0188016053185324
8.856182481727188E-4
0.5921199348417497
0.16261179768187062
8.238478439698161E-4
7.603304405560914E-4
0.7749029059837437
0.4976840355786599
0.22727008991458877
0.15113180931729744
-0.11097294956956798
0.09066439334421147
-0.010968274238683223
3.5798552631194357E-6
-0.07154251374705874
-0.012947826844570135
2.1470200522647287E-4
1.6881840572629425E-5
0.18609019413706965
0.3834482229098969
0.6025916501429295
0.22362633551728556
0.5522471274599816
0.7606384887263552
0.4565710384629086
0.08816424013925167
-0.3140913660184999
0.03957613054528072
-0.19218937010361675
2.1889870661705413E-4
0.2488098924507903
0.005375881652755147
7.747585823371922E-4
4.494463600142633E-4
-0.3838505959012876
-0.18028281935463858
-0.18225647120075017
-0.08462210743353496
0.30595055519130854
-0.31378977656906293
0.005157244555492043
1.2256993195566224E-4
0.24984006873127768
0.1157786946523529
7.951746438742235E-4
6.744292909775817E-4
-0.1067705616171932
-0.009653155431726922
8.686111491937674E-4
7.437029397414522E-4
-0.17519730389086943
-0.08919964660746389
0.05160870486061841
3.709656431547885E-4
0.05392664264134456
-0.29533891342172813
8.067774784357226E-4
5.984805916864099E-4
-0.7681383144270251
-0.7937244411283662
-0.22081698957102708
-0.28233016789084225
0.04023125556129607
-0.11082625586082447
0.029488845435996527
4.965258225333141E-4
0.10809920015861667
-0.18214522412688153
-0.10053096607035822
9.380184388924183E-4
0.04677619518394435
-0.06132269920421263
0.0514527294804947
4.985353283174025E-4
-0.10544086605367349
-0.3544787917632808
-0.5554536334702778
0.22006324340035754
0.023195939017198672
-0.18195209075217658
0.019773605088418276
6.949404623459408E-4
-0.22378561046340378
0.19306272398833502
0.4236438292210053
0.2450613412495098
-0.5661369989250113
0.15070220941808507
0.06901019643415886
8.312762861196181E-4
-0.7155764278278859
-0.19823782887625274
-0.021614763276849976
-0.09015196526136564
0.14816816674120686
-0.027022638891662034
0.035295802454124926
1.2057306688173232E-4
0.4213797786831079
0.3393347942642002
-0.031160188118457232
-0.3222081297968403
0.38964852447949455
0.018436453857537883
6.986476516061746E-4
2.9995385778206976E-4
-0.5066686993181473
0.48861045884271076
0.9698163781116347
-0.09344085919034194
0.2540425001042067
0.16191705755053495
-0.15008764409558203
3.0488129134121966E-4
0.4591552092333744
0.3246139327252832
0.6540421359687583
-1.0312488062257101
-0.26201418312667174
0.06097821271364744
-0.4144288381646391
1.3564188954980767
0.04328347156028296
-0.035526846711851086
-0.4148838748650084
0.42623708753686157
0.6158741470770476
1.252388879356149
0.255615405775643
-0.10103264837437996
-0.0795833985524364
-7.730440461779853E-4
0.5230108392234627
0.12470133707279313
0.11279582520784345
-0.4720088667580775
-0.10656906595383715
-0.07996502759025324
0.049287155897140784
3.728183149750281E-4
0.014535095983927984
-0.030547530997970123
-0.14544752704862954
-0.11414740087282679
0.28122903290823087
0.28314999493425264
0.4092395156431376
0.2082443113596825
-0.7817296981992606
-0.40534953850632394
0.08537735007363446
0.023019753785553383
-0.13361407043153087
-0.0035213735203768835
-0.03933399901145253
8.528002370077062E-4
-0.6701408847724469
0.2270228967990724
-0.13329155028260342
-0.028271284232044287
0.40715545190666086
-0.4304020953773623
-0.003696183228964071
8.195627583711943E-4
-0.6222687042608553
-0.6091394082067415
-0.12264388563362119
0.031826830731628244
-0.0750903305641382
-0.16183725777918848
-0.039058971893758135
8.402221546072512E-4
0.13608729924428709
0.18041281473233664
0.11021369476790456
0.12120239801194017
-0.03683603868786497
0.3078812583703041
-0.10581763091090936
0.019751191840908573
-0.1439897212540133
0.02997773958172479
0.185411272918398
-0.0632190756921038
0.4640341833933976
0.03683784648896224
4.683912838949311E-5
2.6640945852066686E-4
-0.15033326051781418
-0.2840802384008436
-0.20703580222981455
0.17028796936569995
0.6896216280590257
0.0983123354742069
8.137303347644848E-4
4.943512919009767E-4
0.08127120893851311
0.22004455234960443
0.001183628321990014
9.916195647635528E-5
0.44927278716720964
0.011220272656082117
7.235459602063125E-4
8.345260531117841E-4
0.022009139687448265
0.2631232654946529
0.11798973959002965
0.10340583497282604
-0.3007337559799743
0.09902827131333135
0.08459194051857219
9.390613566904431E-4
-0.4881511747064107
0.047119359348962095
7.041511897498757E-4
6.189294401429685E-4
0.7881841979307039
0.6877312910549768
0.30089525158079167
0.23464234358067704
0.4189119248717594
0.31426834711789503
0.09436166110983112
0.622372020695812
0.16448524875185092
-0.04116988398668402
-0.02001557925310884
3.2332644562387225E-4
-0.4517762881127867
9.318982544592382E-4
4.957666633080603E-4
9.17901809363588E-4
0.01075857877485929
0.16460007990175954
-0.07203117140676109
-0.03270142761420172
0.6540276655882511
-0.11517465094130862
8.613806874997479E-4
2.1410730200303486E-4
0.577694997475511
0.037134463619723564
2.9075379994422115E-4
4.93118831932734E-5
0.5885921088000482
0.03547621813172183
7.018287198580926E-4
1.437981534351984E-4
-0.20263916079854905
0.10853866991060727
0.09229698586832628
1.5087209572054558E-5
0.622879198588446
0.4825827447537567
3.339923528645411E-4
4.69966081416329E-4
-0.5394565380961701
-0.5383204892551336
0.1675322751112558
0.3306350756920039
0.13616481274671802
0.30267094534069033
0.0036172547851553603
9.398927127742631E-4
0.5238788985999141
0.053043879517822544
4.960675532745264E-4
7.022962361311699E-4
0.3274195789292124
-0.0738539032652914
0.014945391682617517
8.337534958816928E-4
-0.34872080048292214
-0.10426741323188839
0.06338012952816804
-0.4595670465217448
0.07278209143360113
0.04456788735321397
9.860416059551671E-4
7.591323623116911E-4
-0.1700246122313895
0.015674917018949935
-0.08391672721208215
0.6335538304311976
-0.0637538653968635
0.1482855254185091
0.053640121346501625
3.590624289459802E-4
-0.5251568554971685
-0.24808185649376446
-0.044533837022008915
0.05822191840954611
-0.11292029186197731
-0.4580164796443759
0.004112483806828848
6.665351998542314E-4
0.4424957672380372
0.16329064742492425
-0.14324210209976765
0.56293109924166
-0.02775639862882286
-0.04138159442944854
7.907252703709491E-4
7.347755634812829E-4
0.44566809224014914
0.5504238413546431
0.05121523299635554
0.08635989998351411
0.16749186232076543
0.24690590194128537
0.0019039475429806635
1.2987061477048078E-4
-0.07157615213618823
-0.12525568828306705
-0.1567076641786367
-0.6454415639186238
-0.26427560912830655
-0.15499804357783953
1.1082832561877443
0.043113488676027586
0.0879319079678892
0.20834764961263907
0.01558581805106966
0.03631620503348885
0.14341639296691788
-0.5399738484252825
0.6092226786555367
0.3357659064864218
-0.04715560250069245
-0.009358968920046198
0.33875487120343933
-0.1224251227073057
-0.03288246181716933
0.5914728876090077
-0.44344968902684917
-0.2645457436784969
0.023377313705479904
9.748614631001025E-4
-0.5275206405051582
-0.23235804553257017
-0.7459385403602602
0.21289040639599233
-0.18946761750640007
0.11532030955265644
0.36762816106135404
0.18633322604312105
0.01956908974184541
-0.4834897088245298
0.15959095741347967
-0.02483059329715047
-0.33040160218464243
0.19375508003944877
-0.0014210774708265375
6.899552987149484E-4
0.29687773693546243
-0.00642097592380987
-0.3113012313886681
0.4002027062700574
-0.2797946917355559
-0.29954191552081094
-0.19708623295588226
6.744828144842718E-4
0.2916322595369999
0.5639940770317736
0.3225983279124408
0.2318900040166028
0.16252494897360506
0.03412775271565299
-0.023380180192687325
9.405093405607177E-4
0.7137621217333905
0.09713118428243737
0.19271778323492408
-0.04296451629683332
-0.1255474429746755
-0.33390847754809616
0.0035402237780754347
0.0018297131325075787
0.1089679501044289
0.12070207215964782
0.12909242233922613
-0.22896186665129817
0.3578164609396436
-0.0584889376592902
6.770031631146205E-4
3.6244597764013565E-4
-0.11817374573518989
-0.46841264317589687
-0.05659259548105269
-0.1592841084837564
0.10473678296321227
-0.2321215670723047
9.43326205500195E-4
2.1684331425504333E-4
0.4742919775178168
-0.07961723433221744
2.371334980504975E-4
9.330273224073496E-4
0.29031553889484835
-0.004033981832290265
1.7255227053517109E-4
7.192656349501495E-4
-0.3043533837770042
-0.20263954436977383
0.03382437652239143
0.11164139406439151
0.07355851863522046
0.20231310627719007
0.013645543450138558
2.8886632502545315E-4
-0.1079909163322283
-2.9194493210878424E-4
1.1789981010401319E-4
1.443428435244668E-4
0.23310526977956156
0.31950029807564095
0.040733354068855525
0.1500121513717641
-0.0672212431384706
-0.17060701480662904
0.1896910660482686
0.3308704072043182
0.6055068032630708
0.30616938439420305
0.08635636388285091
4.0764533059863053E-5
-0.3600794481227687
1.9488445756344887E-4
5.563278204839329E-4
4.089623519934593E-4
0.22298638214228633
-0.03574318478346711
-0.11679923782187389
-0.08699933703834017
0.8291355515582419
-0.03424020060672851
7.856058849201916E-4
5.79963178319737E-4
0.1778201214451064
0.07420223730490746
7.159078122873799E-4
9.687369752567974E-4
0.3733515445776307
-0.14685339054679075
1.1056640600754109E-4
9.214498106828003E-4
0.11146964414152681
4.583520508131457E-4
-0.16248690585327172
1.2473458340942793E-4
0.23392587452258606
0.33928167376052687
6.205853245789395E-4
1.5996880594866457E-4
0.6208198126493265
0.18124200117649328
-0.024313854665092994
0.5549296865695924
0.18968663169465438
-0.005018658599529371
0.0017005104194052054
1.5747362792737762E-4
-0.1494199498484505
0.1628211808786057
0.0010619978130407797
1.766588233823576E-4
0.10758175338752513
0.10052743729464356
0.0256850122210689
1.9087045932793834E-4
-0.09339826847603931
0.38253554360617076
0.5023033185031723
0.2557499275019925
0.4220962246202813
0.07450795523558397
0.004530018278278604
4.999355953160923E-4
-0.24903849414000667
-0.4388925510369852
0.13353545400079694
0.35316863852730224
-0.4662515624654976
-0.2116697708749963
0.06362835452648999
7.156175797076891E-4
0.10412567112049129
0.38696406896677404
0.23245104157673457
0.28077915942374243
-0.064171870323332
0.017472945420123412
-0.1523630931514715
7.908814188909679E-4
0.5999403199936304
0.593177716102766
0.255273912843803
-0.04129143773595154
0.022820627321010006
0.04605538780597224
9.188653451277204E-4
1.4574847128378854E-4
0.2709016536349853
0.6242003226740651
0.08633171553823525
-0.6729147184139807
-0.35514105268741036
-0.11445001241076498
0.016911244228922033
3.0919233040381224E-4
0.06543961665412731
-0.026633985471289638
-0.16616233011215262
-0.36091239750396575
-0.07004626035216961
0.4187866103913291
1.5716991378056555
-3.3626672008829077
-0.40808604243881824
0.6476604758761544
0.5103181089734272
0.46411526665512776
0.914877460699781
0.632432552168107
0.230499589025262
0.07301838992297591
-0.09453895295545331
-0.013487743650267172
0.6055669806139199
0.1830191950579069
0.04491679066291076
1.7232993743776626
0.03554568249065976
-0.01151011096384979
0.0409821491340259
8.071295849959893E-5
-0.05870788604624751
-0.2068251510056893
-0.10857424733671169
0.7074129170522571
0.07617012446764496
0.06397891533402607
-0.004857706862690823
0.22968327447603412
0.2458206460558375
0.08082719577109548
-0.517319802086811
-0.715737490362804
0.09223125258781333
-0.1381875972891827
1.5741412278584102E-4
1.0114338370585597E-4
-0.07898305760127614
-0.27268485597157743
-0.1554555517035918
-0.38104679427706367
0.7934987311045555
0.018115371379704516
0.0774646370721452
6.115877365146347E-4
-0.011785761239467264
-0.4607683051929421
-0.04214027950743473
-0.06331533224216723
-0.06712907418638608
-0.23903365939785656
-0.2871021643818739
7.089291179297194E-4
0.014499219404599133
-0.06503686779349696
-0.10870822055564223
-0.19471422822140377
0.2098293276412534
-0.6013898780594232
0.20219104187572287
0.09710157533278642
-0.06785903381766818
0.27043973230720064
0.0057386413508038366
0.16935324223427334
-0.5120339115087983
0.014158469616550519
2.7196029492215844E-4
3.3717082057506474E-4
-0.07082386896204826
0.08609294446740431
0.022746174695963566
-0.09143364789625845
0.4919016891860701
0.13547570638268294
3.576324153693737E-4
3.113639679361644E-4
-0.2553371348222807
-0.2883777234763254
2.2526360702717886E-4
1.9052509860470135E-4
-0.4129893765379466
0.1945166587661363
6.350132628566207E-6
5.00528484115288E-5
-0.30511851450829997
-0.15641357458661734
-0.020667899704948266
-0.06949506265429066
0.12101599614279951
0.03665535645941722
-0.0024721969264015695
2.0667197070946142E-4
0.43722625209279625
3.6674944248253936E-4
4.057167583959529E-4
3.911213551814309E-4
0.6376607454491975
0.14517732930939173
0.17615311515137647
-0.9249442292414537
-0.3219841238661916
-0.019571803935722172
0.07794427133115549
-0.09163638399894543
-0.26095850312329755
-0.050399380071665494
0.15707984281114273
8.637294473163349E-4
-0.043416529497417054
0.0010811020302406683
4.392616087911152E-4
7.193916994189736E-4
-0.23640996546929896
0.10978994384429101
-0.15620619019573198
-0.21148084748439308
0.19016217314623343
-0.015572408981739552
8.422068083509053E-4
3.113434017123817E-5
-0.04036476449224152
0.3400644185831499
7.935851692388239E-4
1.299926822165679E-4
0.4954991979801967
0.125186914973603
5.348852156295315E-4
9.660371755042854E-4
-0.0996907978102171
0.054523284398378336
0.1007227628220265
1.5110671541829527E-4
-0.3378553537502359
0.25864131586457884
4.2438399774703003E-4
4.1215267122657296E-4
0.6514525880209615
0.25558198247763564
0.11768338594730425
0.1329169334335116
-0.6623606187477142
-0.1776240412915474
0.001850698001363132
9.545378139688645E-4
-0.19226378347329323
-0.07679502456853404
0.0012025683229931492
6.008034414029198E-4
0.5562464381760868
0.1890544226719106
-0.12566983952145938
3.2250927382763115E-4
0.33451923230566544
0.5284995259218223
0.5948275799754734
0.1536704628202285
0.09138018038806603
-0.03940395473098136
0.0036458595751298244
7.058559514624589E-4
-0.17717870350594503
0.19829131580566842
-0.3221409249503209
-0.007707432599851031
0.3793455869682808
0.3118025613126674
0.05794192837863156
4.911369599126175E-4
-0.7175020181724228
-0.7866012176911052
-0.07775390650053518
-0.3845381414457636
-0.13354371681917923
0.1226264292592035
0.008253758207491054
9.664209755359311E-4
-0.6279792975628277
0.08935682728746709
0.1251595720974799
0.7700492774194634
-0.17913003008963274
0.06306041923805793
2.0171413111249402E-4
6.77522816402277E-4
-0.2207227669919947
0.2874689633747972
-0.37822498330503845
0.04344057629889564
-0.2864044669211152
0.17870946644914917
0.13278403478165
5.993949799100953E-4
0.6378175897100322
0.40056115945957377
-0.16916076844906916
0.5362046339120061
-0.1467775966342277
-0.3765911443670459
-0.7712447241762729
0.9152153545735277
0.4677566230972806
-0.3359287927513556
-0.6859678923243733
-1.0420985759292354
-0.26142134001414324
-0.3946896962316138
0.1622548395242983
0.40612517497171763
-0.0432494764965923
-0.0036744371754583536
-0.5175513448444318
-0.08119119881596487
0.011214138016970828
1.5306721887107504
0.05388351821091904
0.2131205380920816
-0.01372196216900755
4.3986051924421195E-4
-0.10922794970437488
0.0755676760312461
-0.1525936331661736
0.5884260642404316
-0.012309298268453983
-0.14733418978836885
0.015382407576615839
0.2284844142644369
0.8321841539485483
0.5303891605136564
0.8191363906358987
0.3416477302136092
0.28308433741712324
-0.014174457993231353
-8.425395796775267E-4
6.033794478840855E-4
0.28212825488074444
0.013473120957199589
-0.037502758747992984
0.4680531198534487
-0.0030535095235936327
-0.28732264595058554
0.45216277647988606
0.3495025563041953
0.44507265426394177
0.08187182740798374
0.4982139560527257
0.38590416317941634
-0.3352007002977632
0.03894461087539749
0.08177786695281422
9.905066489207131E-4
0.43846669446985276
-0.22610909431978585
-0.02782378479490214
0.005224200166882974
0.7136312448277307
0.4483657106961996
0.07304091762082865
-0.3051256182199053
0.14741058056779435
0.4414917770199008
0.04146840927411191
0.20484151249611252
-0.3492356741111956
0.07983450658164123
2.578569202269535E-4
9.751810154415049E-4
-0.3532281509271138
-0.07134526494354111
-0.36006985028286437
-0.24626709405026456
-0.11763074625009963
0.13262595429135451
9.178508734301766E-4
4.540847957795099E-4
-0.29422978713706943
-0.11533338575965835
-0.03282540516199859
2.017009082614394E-4
0.16079546449669402
0.13448049790877237
5.849430728474142E-4
7.7522055243895E-4
0.8784281167494863
0.18225821247031243
0.0506435516901151
0.020606673054332822
0.15805015680376153
0.0036115329223292284
-0.00400980501871829
7.108023932000607E-4
0.1491713461962959
8.755886439246356E-4
3.0856854670367116E-4
1.8511432165891918E-4
-0.5798490264347756
-0.8757192770598389
-0.43481206689471413
0.885971449811017
0.28925650052880014
0.20808155367124356
-0.11686867084688378
-0.46045745696459883
0.04970834948271561
0.00523179893393819
0.0504675176961258
6.376840406599457E-4
0.26016471786791695
2.8463706052279074E-4
5.975495646135955E-4
2.2350008640736207E-4
0.2312390601425978
0.29220002916900273
0.21146888620706172
0.36871969051846715
-0.38270565549693186
0.03417678012506819
2.1302331305259728E-4
3.8699417118862576E-4
0.17165179966369082
0.044955166381522166
1.756356585510095E-4
7.852027011286616E-4
-0.27711969662507985
0.4031435963384437
9.457982038028309E-4
8.589987634046709E-4
-0.3275192549446843
-0.08310761228474993
-0.1811086048823114
8.026066893574342E-4
-0.4443598903982834
0.173508369634318
4.492101704670428E-4
8.044190111121789E-4
0.3891608449268796
0.4142402645966596
0.09840413462790203
-0.05332482119932342
-0.5926940310061796
0.02482072931863095
0.0025433427943986086
2.2710350273040037E-4
-0.013440042852816326
-0.23436325706676805
-0.09644244238342667
7.250107714117885E-4
0.1439495203421672
0.06409406175431076
-0.1532291194580815
8.614200939788644E-4
0.8795525692058703
0.6057035693331965
0.25859973995144775
-1.9938924005857996
-0.35179206801686397
-0.24094098016172552
0.004692178346489482
8.615001123428613E-4
-0.005376828155321405
-0.42821548071442006
-0.08014377943063768
-0.10743759835143236
-0.6267028261196324
0.08293675817639758
0.035760352802781725
7.498933891332032E-4
0.12482947992264645
0.004740273941644131
-0.1669857549526741
-0.6036278862742582
-0.5802387991430088
-0.5028324605373617
-0.15900072139402446
2.9968836913235727E-4
-0.11937283302104944
-0.6434203891335651
-0.5507432652058625
0.46639569645303786
0.4268657437809084
0.14503188528551225
9.381593383042979E-4
4.0605866433303703E-4
-0.9403935403437964
-0.5530283888867298
-0.8969872829914534
-0.7480709203637024
0.43522470661304935
0.09693521585490421
0.01808570196550344
9.893844842183816E-4
-0.032557491322603674
0.23546404356731368
0.7274828054050203
1.9751860607390295
-0.21301303397964938
0.09750979665076888
-2.8461361714616835
-1.0062278468700963
-0.49305827716686945
0.42443862799474413
-0.10190471365375885
-0.02674906221375205
-0.688106293045442
0.12610334892289546
0.043049239668068284
0.10839843709228257
0.07979135921291672
-0.00378467059221821
0.1967464611285319
0.3424963304455511
-0.02482037435189033
1.4668037605952715
-0.5364325808230404
-0.19482708496452822
-0.14314014539490705
6.717841229680399E-4
0.1524082499440915
-0.12069000935082011
0.13458329825171772
0.16237274583850742
-0.11055789356682917
0.2986898184913743
0.23900323620270228
0.21913619076249782
0.31938535855702865
0.2187181380596564
-0.25512569694736437
0.6303013959111511
0.3199081996218619
-0.13407708706420987
3.7893354091680297E-4
3.566166537045125E-4
0.3465008811043145
0.12093858421040916
-0.31447734221637447
-0.7658565329412051
-0.21424602968548156
-0.2666869552131085
-0.058733757380902245
0.02825002060890711
0.0989039289173861
-0.3630894667996202
-0.3900139022732536
-0.847195957174639
0.16390284014328094
0.21621882511080764
0.09869444293419559
4.511927997769869E-4
-0.39398474875461803
-0.2693314177190526
-0.14918950328697247
-0.049700191774069265
0.37030298251043653
-0.3465468254160732
-0.17171649822662874
-0.07005847116651996
-0.054374497458110974
-0.17945014055766448
-0.1814010894059693
0.253759918397162
0.1801646208075724
-0.001806918958383846
2.493216625785717E-4
6.863421540428397E-4
-0.0302599305024063
-0.08389518427988801
-0.16364875398779083
0.20507207752874296
0.9777637582774592
0.27844217646684005
9.474064031937652E-4
9.01562264976123E-4
-0.18943170404809376
-0.09075172615812706
1.969077650979024E-4
1.2636575478122125E-4
0.16642212230576128
-0.0056210140207523214
4.664775026183082E-4
5.735065767422418E-4
-0.39657141417584557
-0.3428301182052308
0.04646748708960247
0.10273987523558357
0.0757201443753809
-0.06271410162359115
-5.362892660197469E-4
7.218908517146018E-4
0.17030768882600356
9.060776624599885E-4
6.056999575762424E-4
3.1238406965994337E-7
-0.26036513517304866
-0.7469733633101491
-0.4606334856459483
0.2993058224620832
0.2243954770815611
0.5487289230669404
0.2276579818148881
-0.374548458352565
0.3091983791251557
0.10998937723772466
0.05970946148273347
8.443852815070754E-4
0.04884449248473843
9.990677158308893E-4
1.0149084371907913E-4
9.428827919445587E-4
0.21424095101459661
0.017617227456148687
0.23330837223258366
0.03593905737985747
-0.3008053799198558
0.04273673018875542
5.090623510484584E-4
3.4996465081785666E-4
0.4020010368279538
-0.03881746324744759
2.513806115022773E-4
2.6081604850885953E-5
0.3453442984699218
0.17899158860282444
6.961963923758502E-4
2.4200233808217397E-4
-0.3641682761676189
-0.020953940751263445
-0.13571781024541876
1.7946302016300615E-4
-0.25940764248131454
-0.08479734046011059
1.3505764232008222E-5
9.121757633144511E-4
0.17137200171022635
0.2125973587516795
-0.01331757173524129
-0.06749775464377784
0.02656557525924108
0.04658457328826214
6.191409646154139E-4
9.443197793822285E-4
-0.2829789216881527
0.09630629868614925
0.08412978016556924
8.065912576639032E-4
-0.378205209517856
-0.07647309007163523
-0.07959857516913046
9.777755674897457E-4
-0.10251419420990585
0.007077396213142252
-0.08467369618570002
-1.0149548747489152
-0.1119883884691511
-0.23219367705905994
0.02361463587261349
2.7674675813685746E-4
0.014959866447427562
0.45302062108429797
0.10705587186086778
0.28400130730804274
-0.4596264345128208
0.17973857859745812
-0.10225179463792293
5.678760581307983E-4
0.6307370823901164
-0.14464642300941052
-0.14249124300583837
-0.2681260750178396
-0.4071180064230791
-0.10651012938883272
-0.06907407314463307
3.0627828265717246E-4
0.733884622232746
0.2875561652555107
0.08201112453983074
-0.42534826165851486
0.19138000205542396
0.0428005010096129
8.776316303417299E-4
7.174479192726299E-4
-0.7920666717537153
-0.7923738338188336
-0.43370202430679566
1.4599866025616322
0.5654024218780522
-0.02415341737827206
0.1136018621260747
3.3809438352595643E-4
-0.5452540627351528
0.11381647453174026
0.6437035315019043
-1.2729420057536986
0.08406393056890013
-0.3389221100653442
-0.11017129745518865
0.17980727563283247
-0.5942234490820254
0.546283684044646
-0.26079514524364455
-0.07723281100609256
0.11551133196064187
0.278565333896819
0.09462034009665832
0.032022057727297736
0.054366739773200966
2.9622349750936647E-4
0.440892355100016
0.8682121748426372
0.5151012927793887
1.6398070530858881
-0.4814193032840759
-0.226643512898873
-0.18018756034866273
9.442971595915828E-4
0.07912323218161142
-0.3184192901939463
-0.14039844604522717
-2.1645123098747865
-0.2586834346599534
0.4104690938016713
0.29306724447430516
0.20379852225540107
-0.29032553248112564
0.1209134816257821
0.3414382089750751
-0.8854742347407761
0.4330486109520555
0.05896484599814972
-5.2214712799263114E-5
1.5613419284377672E-4
0.694776802819541
-0.1728187941646526
-0.024675452616795584
-0.23655550628464364
0.14414108842449128
0.6459671618427024
0.05194614180220876
9.999688239966818E-4
0.7529549863214942
0.14494551747585124
0.05103479382667996
0.627471276713953
-0.1708247762127675
-0.10942667773964058
0.09069903519992167
2.503074778769976E-5
-0.36164051941114544
-0.2406380910526549
0.07951113401708408
0.2131675710102911
0.07366240838350531
0.747044930395583
0.7779983385750432
0.46157019581097264
0.0032720021540891954
0.2984788307251872
0.4644401775626316
0.5169457103426286
0.10725627124144649
9.223755893047066E-4
9.794546812695536E-4
1.0901207826399195E-4
0.173621096708131
0.20362748153518737
-0.06866026680670215
-0.2781024542799388
0.6794131352813538
0.3364666709268208
0.40772148381708917
0.05391826007791291
-0.2871479515020493
0.01751775753459282
5.284470301226156E-4
7.692660707761483E-4
-0.062725124562353
0.0758742344659083
9.068072485380722E-4
6.251602663306991E-4
0.10982487125195926
0.6194702272347882
0.3306519324902677
0.2900362266415671
-0.23749342075701269
-0.15950071330826007
-0.03949930334399225
8.416737786879333E-4
-0.12548012187583354
-0.01734643738460476
4.076723559278273E-5
4.729251784642666E-4
-0.4259993350149601
-0.14986715627543895
-0.41112453045790837
0.4461973948225146
-0.47067882428039276
0.20044327814657822
-0.1006853145017586
-0.07451009285407016
-0.3966323672108418
0.036508643472627604
0.09114136336539837
6.017000019919931E-4
-0.37352239819365846
8.25977450953983E-4
1.6463941706712838E-5
9.006259031137237E-4
-0.04967622854014058
-0.24007474727802475
-0.0051444195084600665
-0.051316827882788574
-0.1528796816995871
0.162981379741152
0.0010236484819823933
1.465863566044502E-4
0.08717824670278183
-0.14417414313836174
9.472444623454971E-4
4.4921465898906966E-4
-0.4771176758108408
0.07375656380439713
8.32889926424674E-4
2.7554525723147796E-4
0.15816936036339596
-0.12496371877229591
-0.15486071426049666
4.7495634661279636E-4
-0.08892573828361774
0.0014549251985281667
7.550143427013543E-4
7.789530997554758E-4
-0.1045267814732432
-0.15887062535294222
-0.014589218263745074
-0.32775927069901006
-0.011350508308622649
0.023799255249705605
0.0012941591891988211
8.48775502039666E-4
-0.07736022388294557
0.09716990936142812
0.060580155366105205
6.317207617858087E-4
0.1483825369731838
-0.12825201599105007
0.013588127565882466
9.094195470299634E-4
-0.022818111563369874
-0.1966094060274733
-0.004723482942756156
-0.2127791296379317
-0.23561176154756597
-0.15760008101415346
-0.10841918909187463
7.891251054040038E-4
0.4807741234096365
-0.13024290035763555
-0.26479480508613323
-0.07006838361353114
-0.03348188216990582
0.05703883159092588
0.017189309153422462
8.715458761553256E-4
-0.014904938725559534
0.3051731291941317
0.013637270086592922
0.018696206172553062
-0.007536269958171694
0.15522413722235592
-0.0396095480819153
7.487012387651385E-4
0.03733829389697144
-0.05279884411852524
0.04243749676834294
-0.3831661899871418
0.2813278069823928
-0.016181277635469823
6.421826218533598E-4
3.8987877451571553E-4
-0.0950869295365111
-0.5827434268066755
0.24132805178129052
-1.16629446383247
-0.4610911156738824
-0.36204977502117486
-0.02755598711464617
6.042726561240787E-4
0.3397733169263679
0.07905094893441846
0.36405802082130695
1.495010137664655
0.101257517902552
-0.23730350392475708
-1.171177699836004
-1.0168076898836464
-0.49658864509088757
0.5433841573860945
0.23204608009522376
0.034705574864723865
-0.41489142188466205
0.5218024649805728
0.07370510725616636
0.6053794473949766
0.1064559077682123
1.755125760051111E-4
-0.10490120766310049
-0.1304566915202107
-0.9041822734935369
-0.8173056298087471
0.1650152250988222
0.4232237109581404
0.06490881137128816
7.881405198738067E-4
-0.2547167558083366
0.11340339892829628
0.2732407519878179
-0.2340359980737744
-0.22748535868426256
0.20233207097372918
0.03138212192201642
0.21106888685655933
0.691243955453512
-0.259423376514904
0.45594802125220024
1.2429598763054697
0.10438946836354446
-0.12658440626527634
-0.07404027462751867
3.676605094904245E-4
0.05847379389486553
-0.2596761455629814
-0.11745407385990914
0.02887710610007782
0.007230517480942216
0.12789613829173035
0.09548551313948347
4.969439444455891E-4
0.9266013337397186
0.5278627448171241
0.3087949533234597
0.8645615099600006
-0.13984848435743957
-0.11822760597180688
-0.02560852238319669
6.547293887025941E-4
0.382832690035445
0.3863434923623304
0.17404099908260137
0.13803643371621435
0.14548516563952157
0.7213913303719858
0.3434118857622044
-0.002146519696074188
-0.14340419306725974
-0.20849042383231628
-0.35721683655652087
-0.17237472025999998
-0.19566201539412198
8.044961424037509E-5
1.4027695741576163E-4
8.077828154250197E-4
0.19450501621417432
-0.06557612678378925
-0.25637484707610186
-0.6630816386373123
-0.03646927036609041
-0.3095250330603434
0.20296015871718612
5.315654849911136E-4
-0.5400887283431254
0.07513540370794329
0.017488296914800024
8.903568287207553E-4
-0.08422633600948878
-0.06049741773811904
9.502527294472502E-4
6.353678749971831E-4
-0.05166020743924596
-0.26392270497983006
-0.08595662868332228
-0.04865550885038096
0.14084547262238745
-0.04399504235352715
