0.633944721438117
0.5321487120485953
0.5300808674590938
0.554412802150686
0.9593662341810095
0.8431676888778128
0.14902179270085006
0.29641252449794253
0.760915985126192
0.8075710710055158
0.5040130557945891
0.6430438821246411
0.5855526272429781
0.42499553951743957
0.49330128721811534
0.2011032352217162
0.19572277310222796
0.32686465817102744
0.9017126413409547
-0.215538518777892
0.6928912093207608
0.8494226641702491
0.7634719663397851
0.41327121950274703
0.6013332125173642
1.0749084883004265
0.7846619456937075
0.8689940385460512
0.6421346293042587
0.9800470230630782
0.2813706672396454
0.631108685679179
0.1584726793657014
0.23127696012500595
0.5945070880902542
0.6109231598463551
0.4817750923295517
0.42111184404519186
0.42331582777615695
0.29418771508860325
0.5010256289373958
0.5858786736219775
0.32081878721834106
0.4097159374782021
0.5706196002521995
0.5945090767474448
0.48134218762482517
0.5129535126154228
-0.3055101047294426
0.5361742034641392
0.033307908584186495
0.2865514286375984
-0.0027186920041709153
-0.02959555286540277
0.3608196266738373
0.3930239900269827
0.1874387913957071
0.21781598492181306
0.2927395949347229
-0.07345695418270441
0.15598454503000977
0.08834660534304961
0.7042635974249731
0.16552986101205933
-0.08947033939241127
0.517742137636469
0.4788911218286349
0.02177492777967408
0.29793790397436337
0.12482035211912093
0.1377317416470963
-0.00745473401217203
-0.6732553292727997
-0.4745849226198871
-0.00945814242647476
-0.2413772926412006
0.14596175549751195
0.09281642867281811
0.47272287568903526
0.06655552618277084
-0.06503191177684618
-0.0509838672141393
-0.3525104776873347
-0.10042268236415283
-0.0552055897128379
0.005335962123604115
0.2390984005817589
0.06564036214597883
0.2220987268111191
0.0596931916183651
0.06565412403697259
0.16153975587391714
0.1090494927573097
-0.1413030460875708
0.06014314016524595
-0.4412094154697793
-0.46426772144487766
-0.2978236691517964
-0.23243763668743833
-0.5013478477107794
0.10000495877666354
-0.25967028982061785
-0.05226250114232107
-0.12461993527700209
-0.37825804604202606
0.08298571703396825
-0.0602406692135505
0.009086193064341566
-0.18757280957886008
-0.1771776088449254
-0.30267027008334085
0.07850834253809608
-0.6866630528469183
-0.2952336292333077
-0.240072953623054
0.1621339362122148
0.07054058315540096
0.003554533104747249
-0.2127010236745064
-0.1272569508894771
-0.224269953559785
0.010078097291736797
0.16957275788489845
-0.1118110071715967
-0.06578036670833587
-0.7927358569849208
-0.666647943068347
-0.3094100795647447
-0.41711538221885186
0.07877333648555847
0.14761299511840906
0.1894146431233198
-0.24375745927736672
-0.1539321215397489
-0.04649243590624077
0.25235319192693506
-0.42407727785126714
0.13584208850849677
-0.0951340733801504
-0.1280302494187863
-0.20798525343100382
-0.3630705601913337
-0.3498213147579854
-0.05904373934286282
-0.8326404272940863
0.0087180754386742
-0.0030576617575379106
-0.07706886950723146
-0.2315475507834232
-0.18510756919097213
-0.24762262816291716
-2.5943296038005514E-4
-0.5407544478373848
-0.13843412428079951
-0.17154773358884862
0.011311522033527404
-0.2920020646799311
-0.463081709769279
-0.4895569344471273
-1.1455045031423567
-0.730612248659067
-0.7160345214575149
-0.24029290038635642
0.512709608308824
0.11959340189810368
-0.15357916447450307
-0.025487752027224676
-0.3573453374957938
-0.26815418360688076
-0.23439841535711203
-0.40573065683061743
-0.06646531117140869
-0.2181449981262926
-0.7117501479180051
0.04810445250672793
0.19277674590351887
-0.6404845982374552
-0.43124823685632546
-0.15454405297087695
-0.010353301069789355
-0.34032155345324633
-0.8728213332593945
-1.002555494099818
-0.9360119220238676
-0.7065689573343824
-0.018609408848867352
-0.3105788368718152
-0.5685148047897629
-0.4244133187663549
-0.9416239512934504
-0.48247638044164254
-1.5635257093312742
-1.4018178633641998
1.5939612202359135
1.6552241177280287
-2.1482578045762795
0.38295483515847967
-0.24375333197964236
0.1884490798193843
0.15402736658285515
0.06303370796168055
0.5708219132240288
0.287042896878344
0.2435094009347788
-0.03706473645040042
0.035653137378364494
0.22986807389463104
0.010640459382862793
-0.1029862991382002
0.17384073601923217
0.1975552466848469
0.23763047450847757
0.2743534653204425
0.05685670868198722
-0.07289120355294053
0.015093390703392159
0.26256852475970105
0.20611402144460794
0.16415870663268178
0.23035802781494555
0.1716806387346969
0.07972084803462291
0.1422464161345514
0.3012040515641279
0.20725402373389812
0.265621246148856
0.132098697998113
0.28956577514774734
0.16171783892644853
0.1173192563521763
0.023152337960641697
0.060895614868334495
0.12923603247440782
0.2877385790185824
0.14331359777479954
0.03664860809453614
0.21258615045713203
0.08898475299506985
0.20379520468202234
0.16496997871641383
0.078240836853364
0.061358541511293524
0.25138363697175126
0.19190944415987526
0.12810694434590036
0.03960457753930868
-0.03961957291610395
0.2043578573812332
0.050795747615819585
-0.020159803634621016
0.09817907252817654
0.039695257502057976
0.10264070430620308
0.19275739673366257
0.07858677127672942
0.1300250682222363
-0.017470863548984677
-0.05484295170614312
0.07319381110627259
0.110981515182723
0.1365521188049229
0.02185229477614695
-0.17394184093826076
0.21289668009243662
0.1445017278134608
-0.0778445120030432
0.23457063730288938
0.04723826385450821
0.0018328110400485291
-0.04501716447718393
-0.23841612517034402
-0.2632987250148791
-0.11022254805718022
-0.11518005978397006
0.0777034909073942
0.07223097340562458
0.16847810574938762
0.04031454405241817
-0.05850606371561207
0.05558169131992033
-0.1137977923302662
-0.10552424348061085
0.01512507690611248
0.1315413572792212
0.09932175715007502
0.03685524601209409
-0.06423439460124732
-0.0034318704834488283
-0.12320980956902473
-0.03438005381645405
1.2739577024227364E-6
0.018973252030007867
-0.049648640097655086
-0.16875317923559485
-0.15300313138088578
-0.08227927256387976
-0.04806365772190836
-0.16367485697309148
0.12708674922732263
-0.08474428280510296
0.015329682053672938
-0.0494459070049236
0.01641378942163063
0.09034144837258834
0.006076168175690826
-0.016874862372551307
-0.04343321321286028
-0.14111786013530103
-0.1220768358291434
-0.08486156643652866
-0.2876683539804939
-0.18912865033667503
-0.0774339898064097
-0.07250038560340731
0.12916022101993938
0.01544931275970434
-0.08288729635027169
-0.05214182761836224
-0.16385702341312425
0.04330696878859175
0.20364574704339472
0.052517872200291554
0.12496411168008796
-0.22691288884243002
-0.18409906561491177
-0.06154919910061304
-0.07771566375969693
-0.036587702735147276
0.06347051301867292
0.13240853104152148
-0.035922897801357004
-0.01965412801818623
0.1226986697485933
0.02539903037070977
-0.2685927026218526
-0.056851008603408026
-0.14120966840126625
8.163105572368849E-4
0.0032220192907767183
-0.15618623440395096
-0.08907419205034553
-0.09594770792076678
-0.40193392123877214
-0.009023785723118124
-0.057735705357950445
0.04743416274511222
-0.1801357977762999
0.025039814644261492
-0.1254789641461282
0.0602629744870741
-0.05077385367248623
-0.11762559483139322
-0.14198016506732705
-0.021172121418499452
0.0954233671218809
-0.12623860305435256
-0.11302064732815512
-0.3349443009614543
-0.24459649569590466
-0.08580276214485802
0.03177627529590069
0.19616961335774527
0.06403458024014902
0.006913356790917406
0.03801134577321255
-0.13070453791094955
-0.11625076690508858
-0.04746236217191417
-0.09770320103073395
-0.025505482177740273
0.06459219070549754
-0.30193753920527194
-0.044452521103689455
-0.1782891770095325
-0.12332912770555476
-0.15731356261017124
-0.048747004085854945
0.012373317304904981
0.035118850528977535
0.07428735902398763
-0.18678267340323537
-0.24735570420046463
-0.17210565991723875
-0.048744341089548414
-0.0790092225006202
-0.12977513282114564
-0.12832732644268371
0.032686669299947124
-0.1302277947937576
-0.3472699951395927
-0.5819202972811655
0.5446425020776579
1.0740139976454182
-3.546821565776353
0.05938393128490392
-0.08299365583611976
0.23008568208539523
0.15797239683264205
0.13087256837374153
0.28759576858862584
0.26360114746387064
0.29885620334345425
-0.07803535034950917
0.06895322284319429
0.0962168405848654
0.11169631321843325
-0.08211651804133382
0.23131842979634434
0.4434852707772308
0.18075959831873073
0.10211295430242887
0.011721200717807013
-0.011717633997099724
0.03521480536737309
0.3864991123551881
-0.10623090668703389
0.2118977172188669
0.2201493738783421
0.12830819856617878
0.06586891437396454
0.1560488975372498
0.14622940145888527
0.22531744758322816
0.14456952116304292
0.31737424720931234
0.29409884701034444
0.0647563364589423
0.12127369432341528
-0.05692939188643027
0.16145758237846206
0.14147514367287328
0.17407045880995464
0.19734589716552223
0.0471583447522355
0.09071079510653911
0.04572058168827239
0.27116207719774477
0.1422806804582303
0.20416447903770638
0.006504089145078316
0.28329363701211985
0.15557166297948483
0.12672139813589908
0.194854802526956
0.057029588210594194
0.15765203819355153
0.20435227603921355
0.029207924018404007
0.07104881018529512
-0.02047809883219571
0.017853565917385517
0.038513079929821475
-0.09292356713628645
0.2061857510435873
-0.03314769817209993
-0.15450885226210462
0.13019714801507537
0.12994363322805363
0.1230958180924572
0.0109345848400058
-0.18088711576632102
0.1418559495266595
0.007168173336273653
0.04389462114144892
-0.02772744977740756
0.14495805937139272
0.08464329475096459
0.035083697941648076
-0.3167429591024551
-0.18778117744745784
0.06127445508550231
-0.007528231735816667
0.2503738495796558
-0.1372685866142825
0.046541140743298924
-0.04083671606170748
-0.0814253257620339
-0.05564395844649639
0.02460268849319683
0.09446014904430002
0.0667968016658565
0.033139014238569665
0.186010804687234
0.15080711536051952
0.016782090088779514
-0.03945985881534447
0.09323168189798257
-0.11094239020326715
0.30809614458625195
-0.175626481564272
-0.05221894274194082
-0.24351487737635388
-0.16120056099376365
-0.050484348793510006
-0.05314954934392534
-0.1751496355016728
-7.705059702690795E-4
0.054808952325471665
-0.042012178678722784
-0.009458151494944483
-0.026538772266313935
-0.011022490786650607
0.03413153896916401
0.012545561669761309
-0.08239626654359941
-0.04143034771658429
-0.0641841260760001
0.026758207300258675
-0.10342075856136249
-0.06693007902008431
-0.1606458607245434
-0.02244602839941724
0.06766635518148144
-0.02369538359587575
-0.1550904090807455
-0.06537520295477085
0.07363476556015285
-0.048345354811580095
0.021048857289683746
0.0918503822685408
0.10662814082053573
-0.1739808792938437
-0.09016479838826139
-0.10362717714331424
-0.05102744259951965
-0.1423612046714059
0.057498561947318526
-0.059022018515588484
0.06573805872522775
-0.08260626587269042
0.10102169938303206
0.03252479059821283
-0.10826559435080403
-0.1354801994162164
-0.11662911548246807
0.004312239395391226
0.06838076607397434
-0.31222449486598297
-0.03820770751687322
0.018726329970413964
-0.3607333024577555
-0.04350219713593327
-0.07754601095352245
-0.08598362883452655
-0.2816355868612345
0.050986437939243054
-0.030685063577842297
0.040324108909938434
-0.055649708357927506
-0.06657654511361158
-0.050525414784457184
-0.27636975566946054
-0.032131876957030785
-0.03230702338937869
-0.08254487353789496
-0.4743264959325978
-0.22562686409110588
-0.22004314978484668
-0.13912227022354587
0.08379634239767746
0.21928234714309902
0.005665001981475776
-0.057900146547855275
-0.07869572876399991
-0.13823915651345917
-0.11924851090416129
-0.1505659295005671
0.027685657288311537
0.019050922506014614
-0.2943315501899609
-0.12475441412127382
-0.22904255236172189
-0.04562620811925161
-0.13948060557081896
-0.06354274480432076
-0.0780143468017887
0.015598685254406311
-0.03349352154509907
-0.23293561390628176
-0.33829497434437183
-0.06135183008213487
-0.006039141976588951
-0.01383557257540369
-0.1507715937282977
-0.03981458778650074
-0.13872155210615428
-0.08620259255273816
-0.6538747677203102
-0.44984593352163843
0.34162441550715456
1.3584443058443543
-2.176599720537397
0.04856656005997007
-0.060679746574879616
0.140342449576575
0.016633607004667535
0.2635348495656231
0.5003512571808806
0.1790015925603575
0.22096656165744435
0.030353849105459175
-0.018637453084190916
0.14098162926746863
-0.010490704526170975
-0.04151296206737212
0.225670747940499
0.2667737357983189
-6.307430751553804E-4
0.05838857877213943
-0.07901898299051227
-0.15423185028463335
0.035733858150281766
0.22344176349650333
-0.21628633602877473
0.07611452640771135
0.2694849637058122
0.2386969039979572
0.06574036095819268
0.23580692944922915
0.2929270289306802
0.33914933320533763
-0.0184118144947341
-0.05601391719555164
0.6134305171339829
-0.02059111571746137
0.02735997833266891
-0.027879432535221425
0.004654555995082827
0.2863106001648899
0.16414857194069352
0.12686967667211924
0.14330604349282586
0.25715681862496215
-0.05677370306867305
0.02707111301728628
0.1370313710709866
0.10853724822675219
-0.0042379166168246985
0.19179302689014635
0.07325444441694542
0.16858807937342762
0.08540286353054152
-0.23574699702101842
0.08928731079660128
0.14259625827252076
0.11537801806872612
0.11696054381808127
0.0313447078094046
0.10311013573375874
0.09362291066582479
0.2558801487880527
0.16773327712290628
0.10222802282502923
-0.17106711287221707
-0.0033251345624513264
0.15500583550183125
0.023383594735925307
0.029791541639612087
-0.11557694019583722
0.15200961368152907
-0.04597617622775407
-0.05423541216516855
-0.06214690022092083
0.0077871279507504216
0.0757996171373042
0.008657898040173315
-0.24075800362563943
-0.07283787275219326
-0.14917361291665573
-0.09487054007834421
-0.09856601891256846
-0.08423348109888397
0.003391131787261568
0.1671870813172215
-0.145022388914485
0.08188645050408659
0.08017394381469048
-0.14464784215808393
0.02634410621004188
0.14465013298339222
0.03714254293927485
0.005584209608873607
0.14528607831554874
-0.0060229173205763875
0.3196192852182188
-0.017616468075692268
0.20903149307565425
-0.18964282050703798
-0.08342887133954228
-0.10509199632051519
-0.10084113000748716
-0.02907229499037992
-0.06335147140683878
-0.16501970656063267
-0.10457554662528572
0.04865122966988585
0.06706541994409967
-0.08604033655594455
0.046603513735444045
-0.02511179240152808
0.013878110874770894
0.022611302549544538
-0.1271300938728905
0.08440727773285521
-0.019654184289723188
-0.08386573384249328
-0.21778049600140206
-0.3176718357649682
-0.1033132024348881
-0.09238212943081243
0.014921748375909653
0.10021876180001936
-0.0951908358725781
0.12722457178544594
-0.3634577595260805
-0.13800447296371973
0.08562917630923626
0.08605465358989912
0.10034527641306729
-0.19874931926060313
-0.24436429895498496
-0.12689218963508483
-0.09380176117326705
0.07229558570552994
-0.17230046051037956
0.3230700355665498
0.028535951925908163
-0.00420863890838185
-0.08769211532728209
-0.02344255122437387
0.15905378550769692
0.004274718451237204
-0.14847948797668206
0.20132874356068214
-0.008293506329738649
0.07444592429054096
-0.05352262835227385
0.09599515216869953
-0.30823951272344113
-0.10274269496665327
-0.039825898881275516
-0.03926303861741629
-0.12060280242424586
0.0215089489762128
-0.10558768472596984
0.040143575703287686
-0.09648208082194341
-0.07856517753120283
0.04929410503776892
0.1865888101787606
0.004436398313289942
0.08031901049671712
-0.0979246070793483
-0.39164755246077804
-0.15518694638513789
-0.3254808073244098
0.08860539856070224
0.04922361447175378
0.22903046058389484
0.043166892780178746
-0.05846146202687506
-0.08234432238910445
-0.16748016465022308
-0.1315078101510245
0.10191436329693959
0.1949676933115162
0.1382402635210183
-0.11737325111650618
0.11677362653476828
-0.11406680668079743
-0.37508740580010724
-0.2678454474062784
-0.1381448357947305
0.043007397805005565
-0.2199485643543176
0.21268047549967134
-0.13538959812838858
-0.292763246837258
-0.18902952163401718
-0.07975832306150643
-0.052700245355431316
-0.17840743656721822
-0.19751495407247469
-0.062438335448629895
-0.28818628992721723
-0.43572056273887905
-0.3706219201699003
0.2966289341933684
1.1061568405881534
-1.5449287343818854
0.034166436293103716
-0.0257221246556848
0.3134678037112458
0.053728935469781844
0.03553365627691832
0.17742529885572936
0.2229599897203784
0.21095992885464063
-0.10134295290191199
-0.08206283081598606
-0.13804474074015247
0.0764033257535521
0.3329580230998848
0.1106815929639029
0.35173730855450314
0.14378611943440064
0.23848750294786306
-0.25916409078160546
0.3503296235250327
-0.09554561588665304
0.13023984341478148
0.23963880099756307
0.21731895249260968
-0.12503936221644227
0.11800451859876689
0.16644854440760168
0.17491413312696452
0.33926345684527387
0.06905100718905052
0.4126860306005607
0.10402129773809698
0.1338492973234315
-0.10544694072240703
-0.019937599021683856
-0.2181063703094189
0.002862305945294439
0.1318822042338744
0.1072586088491025
-0.05682181007687049
0.0499838301167375
0.12748758369314803
-0.058246636717230994
0.07970203047015113
-0.0572663739063025
0.3416908260670961
0.1792334362943657
0.3648185151554304
-0.0023434564187749182
0.29586490043441077
0.21743032515440647
0.05411052202347069
0.2491505695924953
0.17448139971626975
-0.2680648932729969
0.03793627064231372
0.10925895492085846
8.778916541715316E-4
-0.11133508363357145
-0.22440691206385635
-0.22686047254357766
0.05939639269860114
0.0028386675359456763
0.2184217954991511
0.2023285507152404
0.2193023923600488
0.022932284470477148
-0.004642894525556013
0.18089693394045456
0.25507982533587004
0.05104327501088616
0.3459490266861688
0.06221836937482711
-0.11073879726614332
-0.005437090545497168
-0.1394678720146465
-0.22165693033068679
0.12895883679774459
-0.25524186092427165
0.09048499345876326
0.03425157555969347
0.09264120348049583
0.42747136749675707
-0.2997254312119006
-0.2389969118801535
-0.12735348366890817
-0.06810664515525462
-0.08045355327927729
-0.045742269006910224
0.1224910357990337
-0.3737833907332302
-0.3209338969791963
-0.08177649343546026
0.41292172238039504
0.18017368556937455
-0.08824585367185654
0.2207741549947348
0.03839802413582738
-0.08835360294381887
0.06165115546045227
-0.04643424008633772
-0.030999242511981058
0.1118266531576228
-0.04616038197203263
-0.12902173405080436
0.08868552292788226
-0.004855902539492227
0.2097032265739561
-0.24250449421373615
0.09550120681179998
-0.05729093075829149
-0.13751211656734752
-0.10393425630092262
-0.1105613751872379
0.04946407795903173
-0.4207791445345905
-0.1746591557164032
-0.21219910236771666
-0.010523402674872931
-0.050662944694898925
0.028310962604856015
0.16302355616928574
0.020778871568384198
0.2656330160097555
-0.2038459818490581
0.038680272216514544
0.03868945253604006
0.13317977508286763
-0.11608025411519163
-0.19954125688072774
-0.12829202917559965
0.03661744887903581
0.24616744042236316
-0.2867251366279273
0.24641338549082595
-0.01666906098487349
-0.028304108471436745
-0.18170961561013854
-0.068645037743789
-0.2600381299565325
-0.2752233858607168
0.04030239672930373
-0.18822168572222614
-6.759642121627017E-4
0.13491955268351447
-0.3102868939993229
0.053913082420174736
0.010582867112506781
0.017929951042742004
0.02326769416858748
-0.0497995323910869
0.001006094528070791
-0.3100163653057738
-0.03729866380969043
-0.07250114557251834
-0.16385161084233305
-0.23644018736691486
0.037643821447565326
-0.037364751482944984
-0.23200953275149713
-0.11875692885406328
0.06728450433197111
-0.3492378486397907
-0.11117296424139561
-0.41556766327656597
0.016213929051799955
-0.13346971513751277
0.11840139271638205
-0.02808241028941198
0.2709795380327175
-0.21389436211517182
-0.1605583482222082
-0.1947884877063252
-0.05362112839704458
-0.16070929952146182
0.41332742682962276
-0.17546352401945003
-0.24984328102521355
-0.1405840382665243
-0.09570913855075909
0.019104221747720192
-0.08269285849201875
-0.06170712029752804
-0.12524902395493104
-0.24777789517231927
-0.23016451169339722
-0.1993920576753742
-0.19071696431151355
-0.05628300744916506
0.04974945881005855
-0.21876259088622527
-0.3964427569938932
-0.3797456212703635
-0.18055529684085786
4.0505940513492836E-4
-0.26487734333990864
0.23443542202499013
0.2449100263859636
-1.323804332617196
-0.0053280720371892375
-0.0724612268904438
0.3625411812580154
-0.03400150305726744
-0.20494875907291973
0.3607232662792556
0.2552683594550568
0.016844365816002894
0.08303394628459816
0.19104491752622385
-0.11403831765284916
0.024659911203050666
-0.04609841780603974
0.1432131191558487
-1.5350030495911524E-4
0.057262056860394386
0.19987080969727136
-0.03745197839847509
0.16771554043414047
0.1754475226432116
0.29120191133846596
-0.1781258498800372
0.20447714164363417
0.179513795615789
0.19279523959582037
0.029145423931777888
0.14150527279871183
0.33364654055773013
0.1877857851788693
0.2936527639653098
0.3045442995482353
-0.10972892099680978
0.18398188795551365
0.26781523419545145
-0.03279900444116582
0.3203168218527229
0.18616493083004465
0.22483085961895652
0.09119702975140417
-0.09577644541073728
0.09750772811503564
-0.020694340105937153
-0.023406758236780265
0.3004440559441042
0.0024259409998861926
0.07118513140603097
0.1471816871903894
-0.023543988493495153
0.04621528850431029
0.25814263290635336
0.20394324558233928
0.053317852662882075
0.11993058355040465
-0.05158578459995343
0.04751880410676038
0.03667585361324327
-0.12479881475904919
-0.030213021527896844
-0.46564087565573326
-0.19940670671919875
-0.010366058752939375
0.056463920129590214
0.0025157598201988396
0.5946651364880531
0.32195423928611105
0.04851268855924399
-0.03542403521013173
0.17588922903469714
0.3391499746376849
-0.12425449619182562
0.14121450366964425
0.12251357058630771
0.07544130842991344
-0.03450603839112231
-0.1776059374213934
-0.08374526824636161
0.023195165837941643
0.046825695042356216
0.09385307927236143
-0.16396279138193137
0.2604400729541033
-0.016304050754160627
-0.08200416010977547
-0.017029022892198965
0.05310190726797648
0.1956682644145309
0.39060596808205117
0.04615001639227255
0.30663499239520914
0.0034956531476459905
-0.21141106350901187
0.054629866877758344
-0.2550074660498864
-0.23671763375730132
0.2956567636128596
0.1726592099538869
0.10600670527888796
-0.09411882552350548
-0.31000717680867446
-0.16421539433186388
-0.13922330566782698
0.020793890596307252
0.08778445891946991
-0.0045936970149565125
-0.23488101271186757
0.27713975348432945
0.13167268565138976
-0.20298389502103506
0.20821857148537426
0.060315173183190754
0.09984948034580829
-0.013752193212438136
0.09464851194717029
0.10841709731014498
-0.08113190329043295
-0.10810581881043377
0.11745036606585788
0.33047713376808985
-0.07628948706241909
-0.15355813923461262
0.3700136131906344
-0.1234564347010549
-0.14182120262179843
-0.301657651486928
0.13535641126007958
0.33664388816039253
-0.0031564291539690568
-0.1952038699739341
-0.12062612302408172
-0.029155321664407673
0.06981897213430932
0.3824493014696473
0.2573634091640339
-0.052694404209654086
-0.05161429454321195
-0.09021820677563928
0.024538948611495807
-0.05736806783661607
-0.3195058018381648
0.10267701251375112
0.07059737438772623
-0.040263588645827936
0.058107431370082785
0.02858962616116965
-0.31528423649471693
0.2439613515688831
-0.34719606555266475
-0.1307430212221274
-0.11578686534944589
0.2852819053747159
-0.0185726684199809
-0.3601475474603492
0.007582345676068015
-0.0033389423231351967
-0.1979654074646135
0.030612976309206598
-0.13818671473432753
0.07571373334556186
0.08429114243322497
0.11552041063681613
0.1820195028784675
-0.21792961622353046
-0.22858321344230484
-0.4156793787967779
0.03271380947402527
0.10246319276269915
-0.02197145711864685
-0.13368414049943045
0.038306888689062256
-0.23574213725741716
0.01598241573792543
-0.1127046432097997
-0.12237239111825682
-0.21170073509898502
0.06495016105152313
-0.3979473839170834
-0.2693375086377804
0.34662567717659987
0.18577389630160177
-0.15117542725880326
0.33595600094232997
0.03029750709259089
-0.029504561454256083
-0.07028017349607743
-0.18365010204045776
-0.24093723730158287
0.014331613776518416
0.18341740077667046
-0.18781500513542454
-0.18915439189375657
-0.24216703781919008
-0.23927022123051672
-0.1724281112507998
-0.2714750156850355
-0.24718994203588363
0.44438406960657495
0.6593075510326378
-2.0673053668689283
0.10254828851932377
9.039838306882965E-4
0.10199297608728734
-0.03817532505597376
-0.08004463615375851
-0.8601771323154338
0.5671067008825605
0.10428832511057926
-0.07341097531738407
0.17537746345079405
-0.05010902206454801
-0.08126408334071884
-0.2327122382686582
0.42024552320395514
0.10606661009793002
-0.016127621064901666
0.19109062524153164
0.10011111974252641
0.5281997892528685
0.237926392947469
0.2575131430665029
0.26305489726905745
0.574390014996824
0.43328925607693763
0.06680642009102641
0.10596001505598199
0.3311878413160996
0.35352688427274676
0.18458075251143188
0.3883121948535843
0.4260482700842196
0.40045687141318936
-0.1338946139728767
-0.09251073267590029
0.1958729292803551
0.20966054000491144
0.34782633193630846
0.274151295231867
0.05349783799517428
0.41101959275958455
0.32601419370540907
0.14650364319255746
0.37165139130485997
-0.04260910599434051
0.03827774599440828
0.3043724112183947
0.09000301477941178
0.5143298275331967
0.40595028201819244
0.1396403469761783
0.03253467774259629
-0.11960409213778467
0.12970449778809579
0.06310341270829865
0.010296294949049722
-0.07761845423275628
0.020353993772716114
-0.011586099023645897
-0.1360076265965396
0.015422138135049992
-0.3471363028574472
-0.032365599496541136
0.26996818852931853
0.2120076061493825
-0.011868770023845638
0.0056572505946961725
0.042998600274489374
0.028360597930565383
-0.21638595102227898
-0.23343534163452068
-0.1624090382429205
-0.15153957895248057
0.015425506080738562
0.024110324839146404
-0.17969689214949516
0.04983394627802204
-0.051138427068472464
0.2507912640337741
0.11423401095058477
0.2872179134472772
0.07984865193980913
-0.14900697918596154
0.11614115110150472
0.027303215936407763
-0.06323962161707215
0.16084775679204336
0.2724463952904174
0.09777545452848348
0.31791037761870994
-0.1956009598398685
0.389002382853237
0.2079386168462492
-0.08001532020773022
0.17439649664949955
0.4065038882921251
-0.3346913963746319
0.24599374668965718
-0.37106435738933996
-0.333516097079638
0.06821735683465247
-0.03751033104797111
0.11425046569410985
0.3202572685581951
-0.16801436676181336
-0.2277718711530765
0.18536522151309787
0.3862260753825527
-0.20061642617748351
-0.06456039835314338
0.011190413015382672
-0.5379468555321734
0.07723932043969584
-0.021571104007221717
0.31814125705319124
-0.11963097610480289
0.21827123937272652
-0.18825396481898524
-0.19887586741915772
0.052818712205509835
-0.14504527589214217
-0.36585994292640395
0.11647728342703091
-0.2416876540099347
0.06267794889119832
0.5345811031197437
0.14555315709974345
0.3118758188807251
0.06809613644332066
0.16882412543525344
0.026844225121667082
-0.361389148276559
0.08708300532836037
0.012074872864536606
0.02681128609981994
0.1393846796927835
-0.09032502902282513
0.1361172122533819
-0.1445639118051677
0.12235714573662489
-0.17662136214609225
0.45636134965521696
0.1223722634929659
-0.07171735659913177
-0.21987882688855312
-0.08617118432878546
0.15338641689020618
-0.01586116780877447
0.11318631615224878
0.17094603807301112
-0.2711946086490665
0.16728586259768552
-0.10346171023271433
-0.3489371777443618
-0.20555430814929299
-0.06992721687001963
0.037725467553805514
-0.16139862615320455
-0.0459874327087272
-0.19248178821105735
-0.04430522011107381
-0.12232122336747824
-0.09065396735143125
-0.0966079037511956
-0.20357563653942867
0.05752754112193423
0.10962592970590686
0.2624043387369697
0.16447205074299884
0.2208449479818893
-0.4643993568601314
-0.03649803463421111
-0.04360473431039091
-0.32451756564434686
-0.06286051599170482
0.261769506369878
-0.45021426936380016
-0.2787501897776573
0.814327280587129
-0.4163949548449487
-0.22329306171821622
0.12116027155702822
-0.3931844642601817
-0.3438718150550336
-0.4492213283355314
-0.6390071424907933
-0.21192033615418146
-0.6709395714087272
-0.3025099117597628
-0.3011125535815651
-0.35641486380306775
-0.0895295028736253
-0.12659350065488228
-0.05258612803826692
-0.7464476976083606
-0.16693672843488747
0.6789901163609439
1.6454118933850912
-2.1916048888900503
0.0676434720961066
0.06454142494813793
0.05450056211402067
-0.004708181385704727
0.288102519122974
-0.31090504413111486
0.05219786516418488
0.3571365039774786
-0.2989999771527699
-0.17819490073110766
-0.3199527597004247
0.23912518013592268
0.038234111607926766
0.20797333113875877
0.43965347556268647
0.03795665210461983
0.5271290056523938
-0.36580323030883793
0.39204103469610196
0.1531474866755292
0.31459053193761904
-0.47699495675577436
0.1936874685237892
0.25059712385744526
0.02414016179764847
0.10175967585086539
0.18472893277861313
-0.046401055399547794
0.12646623148962935
0.48722048361058
0.033491532034743976
0.24271034744664385
-0.2843777963962676
0.3675729401697131
-0.19484999209867238
0.5662818597492576
0.32812598313860997
0.6503616036222019
0.15044520407188636
0.7979580330419992
0.739970567888814
0.05740310906693002
0.04104967193194008
0.28127491060967375
0.22620100802470772
0.22115997933718073
0.16241111842203224
0.34497174669963526
0.32166817965163325
-0.17379552913816348
-0.04796639372798576
-0.05970567882166333
-0.23451399128715616
0.20372573766618132
-0.11597048511982919
-0.17512465154318146
-0.4234618050315788
0.1308916658209591
-0.6177904325967015
-0.2902634870759531
0.01336527437685963
0.12612142804075024
0.3497206601873769
-0.24729894719068585
0.13256882980723914
0.02673503849926563
-0.20783836013853033
0.1063489393128973
-0.23798536118156788
-0.30067758438414166
0.39319420736755994
-0.12899779339692755
0.01632806877564012
-0.02017859516699359
-0.19884822341029856
-0.14609111461710256
0.19135982160252113
0.06266360741556778
0.11684498291666601
0.665568905187091
0.5422778561808571
0.056349331048014935
0.06918832709995801
0.21376823149316654
-0.13837817209692266
0.25099907371750607
0.17026808077135053
0.029390807559328613
0.23444714258831062
-0.06958626846720214
0.022265233374873565
-0.07770994689603897
-0.11872979267564793
-0.07059487909292617
-0.47349406886809803
0.11066346773420616
-0.3225108160242301
0.24822938208933604
-0.3532081682732094
0.011306925818007567
0.05426490177629013
0.16902856654763904
-0.25280490828039726
0.3162170472699686
0.2983232126943905
0.05927615491187322
0.4613469984329184
-0.5826607011715854
-0.346499327663353
0.09005727906395701
0.33770054091425855
0.13095738211923189
-0.23896126601339582
-0.13767536918015424
-0.43202783201670364
0.21399007918012403
-0.7547605819484917
-0.1893681618265774
0.03946217108786403
-0.08043415090814188
0.7227815029940429
-0.15910504347817778
0.029915882542053945
0.20186680451303524
0.06240295935702775
0.31124928157010645
-0.26550957627410765
-0.0857680033071781
0.24388259968891793
-0.06521143632619318
-0.01745625805603096
0.2885544341581896
0.20816497807181197
0.3275437301473544
0.10625410338914723
-0.12380408569470566
-0.005652498799686621
-0.002553573106662533
0.018090435534300654
0.27084574911364456
-0.0746231476711761
-0.21560813968016587
-0.007680835337589308
-0.003343657499804597
0.18032896858283723
0.21043365988975804
-0.3530713268379571
-0.08021343343088178
0.3379131151192422
-0.2754623203786383
-0.06473639967349945
-0.05569582202753964
0.16585747111921043
-0.18012753694552303
0.10663439363610386
0.10709767464332695
0.09482845763536747
-0.3688495871723698
0.21569961578974187
-0.4293007102234346
-0.14433687327268138
-0.0918384959108715
-0.12938537270269174
0.24356400970659564
0.25249405183103485
-0.23076224760228292
0.27499896039974847
0.238644111404677
-0.1889140996829081
0.13712701406611127
0.1623418305266335
0.36233420562258073
0.17637717674185277
0.10379638222211188
-0.05781060239165718
-0.35548480599410864
-0.30261080799242784
0.7265738645460109
-0.10194265118928572
-0.1970748144469426
-0.16311667381090272
0.12572885876447215
-0.04545410565214854
-0.26370145908117726
-0.43445202328137855
-0.43173598727321894
-0.3201374558761719
-0.1678532171515817
-0.14616241055878387
0.14538030088847384
-0.7690526959065824
-0.2940720938127257
0.029632602502752313
0.0034237565174809505
-0.4447922748611771
0.548135033656051
2.009976025518086
-2.62393946814127
0.018031114548343823
0.14690685726985792
-0.184346338227375
0.13984933024952517
0.15418278077165817
0.22192367230574322
-0.32526147561414154
0.09711640430862209
0.26145176817709603
0.24431106637044
0.3338604915682533
-0.022742823330518847
0.4216294578212862
0.5119109336506509
0.20467020138662034
0.3980581365556329
0.272777587413161
0.36527447582025746
0.5616257602995697
-0.08970936861175349
-0.0711204408359963
0.27331324682621416
0.4425438242461892
0.19312837880712197
0.3749827503317474
0.05708873728680867
0.34830749606599626
0.2800366492930197
0.4359201120537366
0.16151785217222406
0.35808616410360067
-0.04891989424563842
-0.16931770730390694
0.09937969910988405
0.15546388625073979
0.3636734294935387
0.18191847579626244
0.34609875214650454
0.1460404191501033
-0.12463656392947338
-0.6161524028826899
-0.12671495544456285
0.29641200350427255
0.07613430261898631
-0.10909404792266944
0.03802180471536045
0.12872644673570016
-0.07767760652444324
-0.016834574473051412
-0.2891234378102187
0.3961012690141887
-0.12614671297672975
-0.3626457378705963
0.11823411251863242
0.11693062034018177
0.06815642038699687
0.15674563485641518
0.25909407859351924
-0.07752097353876743
-0.03164094343916264
0.3067598519789567
-0.2035112776612897
0.36209862870418963
-0.12083467655939732
0.3670219391378777
0.031858904445552956
0.1350285212844891
0.46046977877883155
0.09378634649285908
-0.0924118291383725
-0.3808837356038863
0.4849208392709936
0.08672410949793824
-0.08327219984408349
-0.08423884911068695
-0.007383724910565619
-0.2635764312387161
-0.37502842647677775
0.013849681883775585
-0.29462378907088066
-0.0678704101892976
0.13958201259440497
0.681651953885379
-0.2507071896221282
0.1737809950800315
0.0952960701346545
-7.99094340505166E-4
-0.07867835113056798
0.5527580437433506
0.5601051786444452
0.20362980300205968
0.21848316495494446
-0.22152858082251584
-0.5938368130638245
-0.3059824598836071
-0.44681197846734144
0.3509347785340488
0.22484102160428535
0.051684827219317574
-0.42784138507773983
-0.3006448725779843
-0.30901120314073566
0.30601664625332214
0.019850651141021726
0.3960846000068092
-0.23308146369176136
-0.03061840001356486
-0.39921924476942405
-0.3899527355064965
0.06469297471358092
0.08161397343840882
0.1509042275545541
0.03832472876757133
-0.25808967672073385
0.13860138508030195
-0.9213063954160498
-0.46406429820477435
-0.3318635713394347
0.00471737794109672
-0.020675903464463744
0.143766789437722
0.05913832386151111
-0.020379229623544232
-0.19963507197150493
-0.0592436942914933
0.1496242722570976
-0.3446858851931826
-0.45952610178049885
-0.18256697074682107
-0.15961831614339586
-0.1800086040455814
0.06431520871023148
0.3402610335947484
-0.2226370242549234
-0.1468929803921604
-0.37279469253182274
-0.1298390729700554
0.37002156424033883
-0.20004507305195132
-0.0494917672204899
0.049618374745596924
-0.026396090716778814
0.24039138334145835
-0.14527357147573614
0.142888520043029
-0.6035889430144343
-0.573142476587482
-0.22735037647955217
0.17556400833318098
0.25841869481572827
0.09241136385518198
-0.24828134649558586
0.2327584509070675
0.11702659084006675
0.3650347564174025
-0.059022418139099
-0.23064708735677983
0.10701127134887871
0.07973004663342431
-0.25542276004220016
-0.2563685073663677
-0.17182560064981298
-0.43916769511545406
0.21059514191545886
0.38938289412228905
-0.14400097393026443
0.28983730189774126
-0.039473396660818554
-0.19570623633441173
0.2408329017000044
-0.20367981302529597
-0.3516959592473275
-0.24996692835711687
0.048277703134855084
0.3286521134722054
-0.38537790647918857
0.2870811294198793
0.6608928765688217
-0.16483025931461254
0.09358197201176413
-0.22807793475909438
-0.09560836531585795
-0.4114077255334453
-0.29568845959346857
-0.3664368792653437
-0.32166496373345377
-0.14093560363183041
-0.0010874394791632108
-0.14256859074086237
0.18515499988511028
0.3574813801088444
-0.03413098364240807
-0.41658245656373283
-0.4370021934182499
-0.4147800879077685
0.5231943270062217
1.1010773697475527
-2.44476243853719
-0.24795593265782032
0.2591826422713549
0.3986706176739666
-0.3527883028509621
0.3333553659497035
0.22212788691487798
0.44818558561925
0.37932280328903895
0.34286787046952066
0.10102302570521562
0.7747468814817381
0.3854036547530422
0.36495310337281917
0.12358431386859481
0.43576551411800346
0.0750338272436409
0.1287391344973934
0.002716194186538968
0.1751418942996781
-0.37464625025900067
-0.1085372216661295
-0.056237169129133194
-0.1627117449771875
-0.29548683917678575
0.14965986994216174
0.2976420731535975
-0.24594955241057165
0.2115009386844523
0.42439272849275106
-0.03605885862547417
0.158400739598996
-0.0011222359930434245
-0.08994622663872558
0.3877998357043006
0.12006066584105053
0.01732679727582661
-0.2751100310413191
-0.051624039620944
0.20558417983564126
0.4528357358252439
-0.08355364948124411
0.45271316586640525
-0.09295617002609174
0.12426043192041678
0.39048789390148003
-0.19478937549473674
-0.19463912970270003
0.4616400718720138
0.0062075532946633625
0.1492633297560721
0.10676921896181406
-0.28005472256989766
0.3811577333822482
-0.29261697887747795
0.7239855914418878
-0.14273333174993214
0.06045772594492743
-0.049543089685475765
-0.014377529035103271
-0.29338022596535857
0.14207560511578543
-0.25294837276551935
0.0418398200411132
0.04074762257086403
0.27172546696798505
0.09228235662809701
-0.33106065634889287
-0.16910945188295057
0.21054971539542972
-0.04892036747821363
0.3250454010189885
-0.05858811146933236
0.11738663719393648
0.07278269852574105
-0.19392012044600448
-0.15205516353085044
-0.14489889341761028
0.27288565097081396
-0.20461298605762776
-0.07546045192122425
0.12290536674077525
0.6960867574962251
-0.07559812883777413
-0.41237492620787136
0.1883302028052495
0.1888285780988948
-0.1941666250198202
-0.15424041946677003
-7.737295783680666E-4
0.29091578229336085
0.20757606719523997
0.18477405220249316
0.24003034724522151
-0.03821747132032172
-0.05605100898172555
-0.07732324314315497
0.19306213114253584
-0.1944233520230747
0.4221244959230274
-0.3748772911782096
-0.03331415896128616
-0.3475962380104693
-0.12399054862860945
-0.4982887795737778
-0.0706570915627925
-0.1792654685784667
-0.38328247187706516
-0.03917165305716625
0.07959913778802596
0.035260406300138415
-0.0778184400310673
-0.4528568771074121
-0.4225836958867844
-0.0786270841495179
-0.014466470255791085
0.12663711487518775
0.09147479808058491
0.24934966861808616
-0.07666788916890137
0.5826356984249721
0.18441849312353986
0.09909640368462523
0.13061950118514037
0.12839865456943453
0.0012578867057264319
-0.11335203882556374
-0.29954918183455553
0.2898214440392543
-0.5037495981007516
-0.019354296453531185
-0.15327586681142122
0.24713340333113942
0.06610919587725977
0.2466018465418942
0.2844090905798792
0.30261701457489293
0.08688268537886742
-0.138445015764369
-0.40011521834376546
0.35681303952100396
0.05728016460439245
-0.27655571563523706
0.1373934189179022
-0.40672395392422234
-0.35003855824303076
0.40779371285702215
0.05403762288222927
0.18699897847701213
0.020700141767233365
-0.1032506401097101
0.09144006821258116
-0.1410306285971724
-0.0843340514578006
0.21075832694425362
-0.27666975876198036
-0.23729303363433418
-0.03443581657098796
-0.02152829357596155
0.09756150051178195
-0.2634378475275869
-0.3962494738181596
0.07348640561342112
0.003170354128559122
-0.23539103406878578
0.06860463861310115
0.11322985938132409
-0.05764848108329101
0.19385753917801898
-0.144921823956421
-0.19633187693941137
0.01624005177377839
-0.008908943516553077
0.211309316952538
0.1970421002829969
0.3850559890229129
0.34521201000666096
-0.25954037365460586
0.0406991583568025
0.32953100285687825
0.06810861236357997
0.030406616830181022
-0.03663487709434177
0.05074620723127242
-0.2955733724924966
-0.3043577574545388
-0.2757858960653193
-0.8253969028336513
-0.09267767410175218
-0.01344675485727672
-0.5834958253234199
-0.13605868203985816
-0.7033815952756028
-0.11377932829937785
0.22493858709710934
-0.0892338724132946
0.23225766053356375
0.8817588018285253
-1.7975972205266655
0.1735133697243204
-0.08688716864847607
0.6813335441578964
0.5462816185693662
-0.15102727877037092
0.44858092975945163
0.9569943458181018
-0.024848303071551885
0.15410039852899962
-0.043167389820965685
0.21111100064105684
-0.14996818926232908
0.47371979559276983
0.1520774720004364
0.06530035912509825
0.29662750453491826
0.05126307037972175
0.023771230157514242
-0.05086094207049699
0.08912272837956464
0.12730072971929027
-0.14084564973211183
0.502723033497571
0.3894397215470397
0.1079246076183466
0.31455547335380885
0.012828880494522398
0.17143751625352927
0.04130664258263158
0.4855197094550028
-0.29478020080897477
1.0068419651115976
-0.03436994973505955
0.3513827361585521
0.2876357246289024
0.4100678497776674
0.3307136819220139
0.31113012825135533
0.5434741299047432
0.07990183583952723
0.08467928542753997
-0.27748402113975473
-0.04823317171035713
-0.12188491368071384
0.1170787636478508
0.3792546115432754
1.0045101316467704
0.4225431058942106
0.04540497453647408
0.24544864380927364
-0.19811412477409684
-0.12500571973622546
-0.3807572306908263
0.17365343284525833
-0.3671963905621591
-0.2611435901991649
-0.04186360877197611
0.1044511698086885
0.20413261882297032
0.1470466554627217
-0.389224769664048
-0.13085265045539465
0.40752323073216634
0.12346994023767759
0.2808171747995085
0.09014814521808934
0.7182094446826944
-0.01324492678204396
-0.06058650423452007
-0.05379417086294077
-0.08320726660925586
-0.025042539192297975
-0.2965657127669814
0.05897082117413275
-0.5259635480694597
-0.25970635115347585
0.19892742137373304
-0.15779248079258157
-0.3968520671972285
0.16921696393348648
0.17118788929788148
0.08101746858920124
-0.06790224871115849
-0.36185411734264206
0.45698285753587387
0.16729623806496577
0.5402550650215248
-0.2569584013987073
-0.22936877531327918
0.3123597020179192
-0.22974823183390672
0.028237252189778912
0.1417140676357113
0.06449676158894171
-0.4134577080914952
-0.07271397402389011
0.5437747332019699
0.08595464481922709
-0.233112431656222
-0.07229215159856377
-0.18531254413852025
-0.20739545658334127
-0.09284872402041447
0.10095868308979213
0.5686625684070411
0.1267555527257003
0.5299300173391531
-0.6639548006462054
-0.21094508027317888
-0.041581239085001206
0.4418112914079892
0.07522031083839356
0.1958505026363612
0.31385179665831653
-0.30266372512105777
0.3931356380818121
0.2767185845433229
0.4686830075597419
-0.14504655051639584
0.230758902592293
0.6918214444361607
0.1791074889426192
0.12878696938784112
-0.1628708745383993
0.13020226637525525
-0.4359743345505155
0.300156662438289
0.04432572063963252
-0.22751900729761326
-0.7817921052515332
-0.2560575685493147
0.6331101142128716
0.5747003881043645
0.12751458548647193
-0.31231383961055753
-0.3531565190636339
-0.28667880018224157
0.44991480707947273
-0.2950577864755791
0.21186280203328686
-0.09123422372085117
-0.06000091753250105
-0.12376332489072496
-0.14836774833636115
0.10273671645790504
0.0787979401851397
0.2475690397680662
0.3401116900971579
-0.19611061576285535
0.1092576227866179
0.31767891996056186
0.24883592426471976
-0.6473329676875406
0.18565413148807558
-0.3622368353446379
-0.14733318830968672
-0.1336809790044064
0.20152357681978506
-0.3116396321439971
-0.09360104640937744
-0.5482459939293757
0.06954959518343888
-0.6125452768043274
-0.15486245842998997
0.4104726612663655
0.2580540425612274
0.24024851407033065
-0.17078418648475735
0.02682393932811511
0.5734869049258382
-0.14061787683061824
0.16270147196926568
0.15304344463448555
0.012787981448634704
-0.46218586244366444
-0.5181253279891331
-0.14534833426132923
0.20287561648384964
-0.23124744591933233
0.12629552854354523
0.5021614209787891
-0.5876822503110974
-0.48953742997297295
-0.1273853745671767
-0.35081810970231053
-0.3590066238760381
0.004318029482553087
0.04615330941481323
-0.49365238044113696
-0.2305481812588019
-0.7084038083342052
0.19040734113644406
-0.03462930590000693
-0.038440011702139745
-0.11762971106909975
0.6091078387619564
0.7558321671016056
-2.1723083296795833
0.21068590347908095
0.05497738280302337
0.12974051121173946
-0.036161263208907383
0.4306194197155241
-0.14310781377794385
0.6160695964897223
0.13758355019300592
0.33935379154323475
-0.0383836583212317
-0.24464066971397455
0.5515955014381368
0.6580697897050863
-0.3168717395756836
0.3579447890805456
0.4162163974154565
-0.4509739231010987
0.04200003620608353
0.5110245042005089
-0.021017812655331456
0.23237597574349142
-0.059691042461559374
0.4770864620593056
0.34687377250905665
0.1279774046627466
0.24004248137087972
0.8702967468348615
-0.003637033900369749
0.25145708165751607
-0.27022609141538106
0.17403656897509687
0.6831723952129661
0.32755470805186315
0.7081564538528089
0.2566998104754193
0.6385045762946423
0.36042295960321963
0.5999310872673962
0.4992588335731952
-0.2286153172119273
0.450243604994113
-0.15327310932622032
-0.5358447930674162
0.06350726030272258
0.4156335519421636
0.21399807792776526
0.40744292485088396
0.537738878266348
0.1653859009139457
0.34448044120553595
0.4666585079213762
0.33435511744535495
-0.2732549801141229
-0.21116109221484505
-0.16567042469447205
-0.7023226507314327
0.32609957652112287
-0.04980919529667047
0.6552119084242056
-0.008123328007461053
-0.8306944935367331
0.09552438557240281
0.17996293301541186
0.8188493587041309
0.2619255158672588
0.0131952602316079
-0.05181656428559212
0.06927712582581683
0.08567930941253148
0.11738334216126878
-0.011609653260715088
-0.01111182910651406
-0.31918684551001325
-0.11551518444981741
-0.25621305601009614
0.09994173333980301
0.8044561653116025
0.16895071341798382
-0.40442168293869574
0.8358178001163843
-0.265789340650602
-0.0802667040817351
-0.5401498251796143
-0.3691063014115046
0.013861975445261182
0.3685333100631279
0.07749671914241003
0.2758021894315023
-0.6601970949137508
0.05041212575026102
-0.568313123813233
-0.16350277157555182
0.013634099409183907
0.3435845965810389
0.12192876135317879
0.7722709219685817
0.3747965636604063
-0.5775007613166568
0.165335876076125
0.44752596046484916
-0.4481963757888792
0.2810742669212018
0.33858192195788367
0.3388690957235997
-0.3302511325542885
0.23908883005403003
-0.10887331928216404
0.2716376802189645
0.058110445932975534
-0.12589057597944794
0.4615072219011493
-0.17293596300047212
0.3007001680257083
0.16151148419061767
-0.2520722746708017
-0.19645027669549583
0.4338080679041279
0.29605788880217215
0.7092862861597984
0.1374433591842718
-0.38392933381640854
0.2347475793489702
-0.16854380499695978
-0.15085464979751742
-0.3510632263954403
-0.19180122730882662
0.34780718657182036
-0.2898261223110132
-0.0542026523885843
-0.8390553631140611
0.23399468818689792
-0.39976719499187824
-0.46844268936545336
-0.015459043341349359
-0.39979963015113856
-0.19279435923985275
0.06282783601600225
0.8206254516585766
0.03823191043609844
0.05004543419445504
0.13558470657950647
0.3658550138849181
0.28110351334590095
0.1073370260781308
-0.1595648950880115
-0.05271006911933178
-0.0471750205572587
0.3781811774045453
0.12919727100202344
0.6447119830058795
-0.25286636870244333
-7.694254556126299E-4
0.11612780775341738
0.3512013076538914
0.07758791799741946
0.7886189624905712
-0.1021722272809485
-0.9280535863653233
-0.5996472865309213
0.3728314461410392
0.3101164533527161
-0.7564731323750659
0.007596808154096402
-0.4583178114409219
-0.09653750915724071
0.03877335463935936
-0.061271969652649354
0.5309601584788908
-0.3224831088113825
0.7347775071474643
-0.1398966456118632
0.10381562285652084
-0.08637455348764012
-0.30724417239648005
-1.1787558982411532
0.450813538982644
-0.13702379859538313
-0.02072473231568882
0.43963378686637256
-0.1819407151928677
0.3888789680948848
-0.1551406509978877
0.7495310126921855
-0.5656466078087714
-0.21417374492203248
-0.7775768141005212
0.1536090058975871
-0.3903177505921192
-0.24895883067446264
-0.200486513549831
0.5349544409309411
-0.006178761015232823
-0.279407127343398
-0.7974661602584107
0.2140098690366326
0.4475714709583733
1.438890630353467
-1.5256055907410941
0.37254495394634285
0.057060189773903855
0.1210602575320566
0.059217942203425106
0.12624854402703484
0.7752493225436625
0.27545691237964953
0.2760531662459743
-0.04018186114843627
0.01064362316556019
1.027402285082628
0.22837594971963682
0.49367605813893345
-0.1631128113115314
-0.06340944816699351
0.6994480807897103
1.0452613471530023
0.33219892609236945
0.19664492757301652
-0.5706405601235196
0.27487165469344926
-0.10359488052637364
0.6128210070619233
0.384130931601612
0.07248972760963249
0.2037604139902543
0.30322643069851507
0.43995772642308556
0.14762588357519935
0.696997183135754
-0.17417685976404254
0.004901549711170575
-0.3517180986704172
0.1756528564184832
-0.15899249406288818
-0.3973657289112997
0.9936344529746902
0.3867041737153152
0.22194310878182846
-0.04666096145170212
-0.5700927211980906
0.5220267787078469
0.47570932902841856
0.6893096545746507
-0.6436593762814116
0.3175067727921433
-0.11920372251050025
0.40247570794150445
0.151836039622526
-0.06868138612789686
-0.5334248632168381
-0.22317980094913747
0.16932149505645538
-0.19437414350271656
0.4641064885014104
0.04948346570594321
0.2747074090654379
0.2611397369366593
-0.496938330120809
0.5320417252012476
0.012736949010279277
0.34013022827523043
-0.46837208310322315
0.12041204149524273
-0.03720531878646207
0.016247608101348638
0.5354001956945751
0.6019649582403453
-0.19778803601455977
0.2958905666501496
-0.36446874057928497
0.46562015435092063
-0.04714870305495302
0.05610435064467588
0.3185974322378235
0.03207765220922129
0.47302647399083836
-0.45834744440767317
-0.19275157868238396
0.3403051616337963
-0.0503571551339316
-0.025481833759454682
0.15658197404415403
0.17857265017517723
-0.39722717330887614
0.00643410199696638
-0.57198889731293
0.7855608244589737
0.24208398688837893
-0.5088571046250941
-0.6988647674365176
0.4837474716960531
0.5991260000184956
0.023289769364609636
-0.24249678925585455
-0.7918444349056576
-0.12502727174273995
-0.33802878301734424
-0.5009874782487026
-0.513451484592293
0.23799548182449684
0.2844697290938788
0.38129384985172515
0.19165475400144974
-0.10589921287445417
0.37141146303887357
-0.7697352094635113
-0.396969204517578
0.16546881301662694
-0.008037041288015348
-0.546537575975868
0.13766014089073067
-0.15053975202233835
-0.05327590890229026
-1.3034124438982087
-0.49986276374052324
0.718653010352776
0.35618837447897705
0.13153968397230062
0.12683740161223409
0.24808191040714192
-0.2821694633691984
-0.6075626616153149
-0.4572014432097336
-0.33179578480843547
-0.18492531577390733
0.06623679941102205
-0.8046276540390219
-0.3344751552822235
0.09948520209079388
-0.08257217358697941
0.15201368767129314
0.4500937194858385
0.04464279832764081
0.6329566872576146
-0.015456084045763843
0.27187627025808425
-0.34878126963521405
-0.4066799990699363
-0.3408244335119433
0.38981860547972536
0.2318666691464479
0.0748513369046864
-0.4617145691132935
-0.24967937964006748
-0.5558679749168934
0.11070576531717963
-0.5768832316287755
-0.033449039673825884
0.3912645314156198
-0.5609653865337693
-0.5255386195292302
-0.7927713024921389
-0.08820797109390155
0.2486883883955878
-0.16256655718684374
-0.26595653544624087
0.2875114905665309
0.2371579119641241
-0.02370915334586481
-0.08872193965690903
-0.19419986482326976
-0.6438493809397086
-0.41390392924880487
-0.8509244867168497
0.5495298338290795
-0.21373049184790852
0.1781594221838406
-0.5050952685963445
0.2219231797325797
0.044199526612560526
-0.3260391474688556
-0.6207493448781505
-0.03372181882080097
0.4824283159887859
-0.14999011077337573
0.4751763278180602
1.2759195917261452
-0.22998922748176792
0.18546980879438726
-0.8546142766582202
-0.1964398892855971
-0.006437076704055585
-0.5188962249341331
-0.6369028743111913
-0.7518795405173353
0.2612113210688115
0.40255279591594306
0.1520827997812727
-0.4389548656296905
0.5434115171199133
0.3549041337438639
-0.3305568241855778
0.8043155100864294
-0.7128904736281669
0.8979810250320936
1.6037469991952755
-2.0061464438158345
0.4811001146498955
-0.4123689673374114
-0.006772056424397925
0.9675059140945241
-0.10661144842255063
0.7236043716399073
0.33890717000234094
-0.025836822642928817
0.13803363917610753
0.47948016126800697
-0.7150701830986331
-0.29280791104007653
-0.5039829867422062
0.14353798910909388
0.5703752878581817
0.18426954673843987
-0.26150934108512364
-0.22743277779546114
-0.24293138617745375
0.7661667414565442
1.1172623075514634
-0.18461598724270809
0.5875826000915676
0.3149127331967475
0.04292903935908011
0.13899528109798018
0.8129088691274853
0.15356825259051116
0.6890934275127605
-0.20149699371534785
-0.25180762153183484
0.8486278641690923
-0.3085031838974225
-0.5423404734726892
-0.1028890622731862
0.3834003924068326
0.24581708930855414
-0.3176726836674147
0.10317908703542021
0.21240660901711625
0.0015895498176999362
-0.011350497102329748
-0.64216481056019
-0.37852656008867736
0.18657573846285075
-0.07382472042380295
0.369867430052587
0.4878170481977766
0.08881524889367767
0.2104552784369047
-0.6419627010468869
-0.13684594502871966
-0.8685335717329992
-0.05451347273233503
-0.03592564265777267
-0.4250624389731993
0.31915817375119754
0.07020530493072649
0.25537462055322696
-0.3457708544309527
0.17216095364393463
0.4310177485760378
0.39479758884993527
-0.6986256038634723
0.44178573034830143
0.06666753368837804
-0.12042439634634172
-0.5072177555902779
0.15997410083508884
0.4635876277654971
0.674335122862447
-0.3324670176875815
0.23463425553044415
0.1793253338125684
-0.462151649282996
0.43363276945243273
-0.6083062279415826
0.11092399652214871
-0.07738928063736741
-0.5348049585319437
0.3083655605060038
0.19728916269779942
0.1999728239805734
-0.29999903725603405
0.5097583813810542
-0.6355257629640594
-0.8588646600617276
0.7508424785981919
-0.28476007268394093
0.34013339607705967
-0.5806044511785337
0.4441647746053983
-0.6239284975473793
-0.7678496739271254
-0.021142261480686944
0.8643944547622789
-0.2665513543106507
-0.5912537744408493
0.26412021479081965
0.07448098387595045
0.16940310551639848
-1.0376299221434657
-0.1059829012177356
-0.19760414978472052
-0.235814426504142
-0.12198646890641708
-0.5471731548745913
0.40042193332256576
-0.029791811076190878
0.029848704139942197
-0.06170877286328046
-0.18370691247383436
0.33936321043417966
-0.8076720548872645
-0.2777261808006757
0.013235602582287443
-0.05353655851874195
-0.42540236311867624
0.15294394555274596
0.006395307276152971
-0.6555945296953808
0.5647752302363588
-0.6145370721269356
0.3870710563707133
0.42086560382777727
-0.43304479869190726
0.6124372462005253
0.35189447708329
-0.48278769803450083
0.28657524959477476
0.013378518204878929
0.3635123290111606
-0.011246158248979076
0.03753393427642961
0.5319938351902264
-0.20893110200030485
1.0671094483505152
0.4671281351520094
0.07731422237894708
0.21701772341531753
-0.07352629955865352
1.2889137651315563
-0.11152872109577948
-0.5548067585843656
-0.29968346495075554
-0.04453209734792665
-0.3503291464987697
0.1398122475592562
-0.23609036257895877
0.1241158534478758
-0.4971964908794464
-0.1595206599092978
0.22730184229312994
0.33626954065972925
-0.7257717390751114
0.8118953826172775
0.15963378005289786
0.9671731766381599
-0.027619573149260862
-0.35910721773578896
0.08582475043626679
-0.5629177333233516
0.15727687572883112
-0.04320940215408812
0.15829858226593035
0.1558916283757811
0.03777818967600701
0.033394169789903075
-0.016255069312598094
-0.21501076273129763
-0.24349569992951095
-1.0916266968234931
0.44493080002892094
0.31028404946949445
-0.006524604584708138
-0.5059479189771016
-0.06226369358838452
0.29688310492718234
-0.9121995783481557
-0.077361981068001
0.1331310734851632
-0.2980866828492448
0.5514352912026914
-0.4842738318957099
-0.6944376712125946
-1.4230040366576102
-0.40177214201679046
-0.5705588649831996
-0.7681293939539191
0.21519003837107345
0.04151611101356391
0.2233874196626959
-1.1380509153565155
0.05216985359065016
-0.5601077746895614
0.14028046950322362
2.0630369615089688
-2.3237594342361634
-0.9441942209095106
0.8214715083711066
-0.3986148964588292
-0.21822122474663483
0.18634889380839392
-0.5066613138828598
0.5780333437907107
0.26948711506236045
-0.3021631827826969
-0.29459321715859116
0.13541433059450397
0.717196387324398
0.37456620029982257
0.9589184591183804
0.1424978601586495
-0.4156876758379935
0.4480680867849031
0.07191971017377388
0.030306072871106617
0.3107958639141226
-0.1849302389644954
-0.6537367834927328
-0.4971534699955463
0.9123714873581319
0.21774264047623942
-0.09143592987957719
0.09009701854563061
0.6385615902150787
0.6099756917844855
0.47097219865409556
0.5776554064983863
-0.14333313707126322
-0.04582592138342734
-0.838775845538741
0.8437546299112725
0.34097416737203007
-0.48008448598763115
1.37180692147311
0.21622575816652023
0.6117827161040608
0.11363991836328141
0.3993991956062011
1.1208551994149456
-0.07734578476644037
-0.8465287559931077
0.1485169095536753
-0.43057076256915305
0.3208238498877264
0.3000524473329389
0.04981636375115914
-0.0875200902649019
0.3568447023805977
0.6210321340391787
1.4723913835577982
-0.10192470143557708
0.13315398679010199
-0.13610845306849118
0.05842818793140859
0.34252950476548677
0.1249963749396708
0.5592217726076452
-0.340699938038437
0.6026063282506935
0.30458845274761864
0.07081412677705362
0.0333523902479392
-0.46216400504989263
-0.9290647707652904
0.5189258527605806
0.11549754384393957
0.043264063287332614
-0.14306887751382197
0.3438676351695035
0.10660794320997703
-0.4831304176377532
-0.026838593154249215
0.13642663740681762
-0.7810616252862204
0.023125087082043656
0.4628885749506234
0.14634296963954832
0.00892945653876772
0.3697016184330925
-0.5324786737639928
-0.41333994016306336
0.6520191551837802
0.4757760618288759
-0.820584154259393
0.13985146554517386
-0.6770988110152701
1.294149360164934
-0.11842903456258867
-0.11958273677206249
0.7243816445027846
0.43311234575521296
0.434608787504165
0.7202180152457985
0.10997694649030602
0.1488590170414455
0.2544985716790521
-0.26375031620637474
-0.29755715667186067
-0.2755352805130183
0.2665314138451219
-0.3724163048925424
-0.23160415130459266
-0.30074905531033497
0.29198473724618534
0.32532322312332534
0.005631477066505911
0.487681745516074
-0.5897667444379264
0.35507901258844154
0.5576745509782169
0.8157910132936079
-0.418378095534366
-0.5362346557788545
-0.5296108057462234
-0.33400363521008813
0.5327332519720912
-0.07824347126437389
0.6733523848492126
0.4984036459890765
-0.8018160513758799
0.3584148366250287
0.021702998513313913
0.36939414005717724
-0.6881379614801787
-0.5873520556661408
0.8047931875081409
-0.6847428819537551
-1.0578946617115106
0.202280195946231
-0.7764602137068618
0.36694109418693616
0.29202884588950884
-0.3199525865950189
0.33332830437623145
-0.6037633048192693
0.7476639544497864
0.37629659059765885
-0.8181621094514749
-0.5109132988264341
-0.13335179627989047
-0.14229817931678254
1.2758036904141203
-0.6774193250659181
-0.866285751878343
-0.5144181344975087
0.43636931673690355
0.5907419108070507
0.4696699689033573
-0.11596519525947663
0.3271876790137802
0.08115017025664656
-0.3276164990163405
-0.0639756788809322
-0.29644532922985845
0.3557974268172926
-0.7490059734353718
-0.13899439985553846
-0.9616775010118206
0.47255922143954165
-0.3834352924638705
0.3886377068707768
0.11856895356574856
-0.3449173710008674
-0.9917817186873575
0.44080809881909644
-0.6072399026995999
-0.8543272849769684
-0.635466500655181
-0.23414846439912593
-0.15428305202024103
0.14534988158837847
-0.7076497594509474
-0.24135567868925453
1.2638354326355896
-0.34027660667653065
-0.28730528758034807
-0.44465074972447727
0.1564693183803791
0.36560948486364847
-0.8781183893699245
-0.1946585968526749
-0.5335378939250517
-0.10720014204129395
0.732581969125784
0.0722290864358675
-0.32876948315404964
0.7568537277131188
-0.440180859403792
-0.36062540528018866
-0.738297075783992
-0.3235964954232207
0.425381989832304
2.896504840061249
-1.437634826718337
0.4921341695123008
-0.28624319253352093
-0.2464895501649127
-0.4288965096204814
0.4558326386190499
0.026146580624828705
0.007470859888020317
0.5909345004830215
0.4427537307256958
0.25437644843147983
0.6787654431080407
0.6225936123745142
-0.05636945670560538
1.4216180898370177
0.29271344300247243
0.16051670517266306
-0.11313690079662117
0.1458925967506479
-0.11778179401267859
1.0687344133378605
0.1087380602490827
-0.289272022633614
0.1148998977791847
0.4348661580800362
0.40149059955545763
0.13452579268859352
0.60755249027
-0.42095906271049294
-0.21789405878411358
0.3274068823703585
1.0259742120125985
0.6191669515296321
0.09739299458308874
0.8929843693392842
-0.21960221509282277
0.3332894654000389
0.9202660773190521
0.679704796702251
-0.31085440398909864
1.143765016822216
0.3081940206219355
0.15770412931359198
0.5438980187751957
0.24643150630553012
0.22715164232946955
0.4132401691532662
0.71426835821461
0.10745513664340475
0.5290761278023095
0.3474448897625156
-1.0128283447991477
-0.3476413519464675
0.34340412886865795
0.3215290578921891
0.7838308240265924
0.6424530469708829
0.6474441996228426
0.05153270720057911
0.7657964271454462
0.6094443459434057
0.4641831361051575
0.5023812025675675
-0.06850452651364658
-0.42571897684600346
0.36428799818493535
0.0023313875720187005
0.023137004894799307
-0.15704777378748513
-0.09317079480712435
-0.6200875725534918
0.11081397127267213
0.08237155059261718
-0.24472316545037373
-0.2864512183819559
0.4381528322561283
-1.4003537114906266
-0.27179507430931726
-0.10505963097247366
-0.48898300777169496
-0.754566454485766
1.3294777336173553
0.03981043797338066
-0.18229459735035758
0.16184006891672312
-0.3075661470163055
-0.34585511444086814
0.07224660962871152
-0.11500074578490291
-0.3256027510210195
-0.5520349245917467
0.5569255051364662
0.23148253507444685
-0.6841425587719169
-0.5769689481301681
-0.12659264189001884
-0.42117668784634854
-0.7194336177006749
-0.1264536416874725
0.6560593678696321
0.2610779288478544
0.06441883840976652
-0.5917798491357222
0.2624408775442971
-0.23903816520202975
-0.6794185780014975
-0.5011736289472112
-1.0671860827334534
0.6133558780269449
0.37232325007414824
0.019467443747533914
0.12171622956075924
0.06260618840855652
0.5142380422564292
0.31239817170717143
-0.30978168771122094
0.10824000809016157
0.45388017794016894
0.2432870632649614
0.27406563484029395
-0.18444881563600876
0.4560513414399827
0.07032671457879774
-0.12896163071360445
0.38291857499338483
-0.8686946833756966
-0.26494006967781014
-0.5434718804842279
-0.4925753435969623
0.7455084150425106
-1.603243142428555
0.13959183324350707
-0.4427472049015437
0.48793091158907503
0.40429068638229676
-0.654080798361126
0.5912026148705007
-0.0754536821444652
0.011475704752119502
-1.7101937070159834
0.1671200246690377
-0.05535917301468487
-0.6115707093629054
0.002411598171613292
-0.2130808999409685
-0.22241117180253878
0.12340859536810773
-0.25926263044511005
-0.22971895777312282
0.3367460680446858
0.1335091191755481
-0.005937232980728079
0.9761377417724437
-0.03699939654615812
-1.9914721787326455
0.04772865119870302
0.024398312080456955
-0.25138590059361615
0.5349456569426263
-0.2992742347317466
-0.14720856278335767
-0.024744986964979218
-0.018277084466619256
-0.3623898454595249
-0.6538909862567457
-0.10889700920157508
-0.3509196229074796
-0.6468867210782423
-0.18965982932614278
0.1466740284994613
0.7852565054159448
0.06519031643785653
-0.21999097598208703
-0.058283475304601755
0.017537841446850288
-0.5696018913104661
0.013012881330731117
0.7813493178421358
-0.3487702631842036
0.011972271935297265
0.023279883158915052
0.20949615054463158
-0.14933880771743138
-0.8741716223623496
-0.6025787882506007
-1.1732518750241554
-1.0459221657450974
-0.039125740003997864
-0.15243988528945376
0.00811626043257144
-1.0637499803238544
-0.3218827023282413
-0.12050757075118158
-0.9332494159502104
-0.7381471244014003
-0.7572145108771519
0.7588786413954663
1.432980984431754
0.5048493545246037
-0.5952833393384823
0.6427839340062689
-0.05710955406410994
0.1846487393696632
-1.300799134779993
0.3047334985737148
0.14359538369071773
-0.2992899404290974
0.4468948586927843
-0.1740044212300013
0.07459208808254073
1.3275498925191545
1.361945150935144
1.2157031633915067
0.16937835520606667
-0.1143626065755192
0.0523188785950374
0.014948854589163469
0.5463242439059014
0.0940990585101444
-0.12221678897927503
-0.8858407561907793
-0.7782147446499506
-0.057412142225380484
-0.07831331880963158
0.1150091116080315
0.3957494448594515
0.17964217345668893
1.1043800954007985
0.9130007579152903
0.7832427131708505
-0.19271134374753773
-0.09122625461109513
0.06430507158437976
0.6552970285416998
0.37117164647136774
-0.26859983543328997
-0.24355392289722605
0.15854812425563952
0.04603330045864678
-0.4899123677993027
-0.5957349772517836
-0.7755150814412005
-0.9863683404829613
1.0476419676236068
0.19094578319089853
-0.5197304233972376
-0.09751473059749714
-0.6789933420722223
-0.044181755957379394
-0.6880593943174923
0.6359682881883709
0.08661710973077145
-0.7966215686633242
0.06439644825320971
0.2146126972989724
0.4339558864108891
0.1061877423357323
-0.13226829269021614
-0.5060113140025148
0.007187283888284219
0.3993434419672709
0.3368068089804345
0.2066234318376672
0.3524210380377652
0.012720585362627736
0.9509119283355523
-0.25173967039104184
-1.1962321809422516
-0.5946543815434526
0.8676966722520563
0.17117467012914067
0.09600939057376037
0.14486179501852323
0.5198430961796972
0.5214383300132207
-0.007210076753160163
-0.2271890775337955
-0.44961799784901174
-1.012141943396649
1.0956609894820746
0.052926819868237024
-0.4685468137270639
1.05465156567269
-0.22121100979506778
0.2752993595554273
-0.1071605285877872
-0.563289507858988
0.3451973937443678
0.6895217299533892
-0.26098213716090396
0.48077723832230446
-0.6828494531301643
-0.41326874561538046
-0.6051597408466002
0.055109967728134396
0.5789840787703956
0.4815578350675543
-0.3853594422529746
-0.6845940147791894
0.6623243729908298
-0.3384747993496723
0.6630066993685634
-0.8206825103180944
0.8294598651090814
1.0844250710181031
-0.5255859844288607
0.589652717298923
0.4036497043881432
-0.013012601063330555
0.2586088565653479
-0.16107450942375803
-0.6814970142765443
0.22324617414098888
-0.775371899064183
-0.23561625131176853
-0.4935541715453516
-0.09065194907060962
-0.10710508021712623
-0.4924332275129161
-0.7743658838915117
0.37406634007464207
0.5505666193904271
-0.19031882892310614
-0.1978812289805194
0.1809443004801464
0.03802330611682251
-1.338621774353624
-0.626898964506575
-0.9843091467935654
-0.11330877627179689
0.16727883562774176
0.820699236658281
-0.7804223352676039
-0.06956614988384405
-0.013665883323618781
0.42173513386662204
0.8703860931192847
-0.3253217736449382
-0.666482951708178
-0.326998959559517
-0.11938098896161588
0.6896405252493293
0.992545404078868
-0.36503433030108823
-0.09659774385332148
-0.31569991741459447
-0.37840642655107853
0.13259931810676193
0.05689510967721562
1.3577354919009959
0.8644099313880783
0.11582560416705519
-0.1993674156802739
-0.7087077224133078
0.31526068838819166
0.901929548813243
-0.5847477589401556
0.04746534918058621
-0.8407843358651792
-0.1187992113711483
-0.4541815303536556
-0.7784511057426712
0.0037751190910772004
-0.45833692555837713
-0.1337701933262005
-0.2654899284058499
-0.06194294115881382
0.02389658134836041
-1.3131289049321067
-0.9423006576810048
-0.3299755122176006
-0.4336784521857765
0.08451471275897485
0.20547840609334322
0.9623394511545412
-0.28122881464491667
1.771594977306314
-0.5984913294764792
0.7455188367252535
-0.3600039513922753
0.4038628067263908
-0.3443625028505904
0.11480477402896953
-1.2042358480842268
-0.8152297135038413
-0.9049772308091493
-1.2618897377726699
-0.020115933256920238
0.9625333155595801
-1.1980962110263063
-0.5535126993773892
1.0915173978571089
-1.004443926573018
-1.0483451511127473
0.008656279633533919
0.23273107624638326
-4.724085078468564
-0.07745115835093846
-0.2953003569121186
0.4879134162044554
0.8827214007489202
-0.7781619330962205
0.4590451008215768
0.9124826427126126
0.37639310805226817
0.3731214340399452
0.39843070001155556
0.5560658651181734
1.118331254422523
0.4205133029034754
0.28023271040699405
0.3605221695531839
0.1752654008332315
0.12750358506376552
-0.0017178127722335202
-0.2843032378902329
0.7765057448211226
0.5272521311295157
-0.6511174472107917
1.1217653501478648
0.9231115785102166
1.554905401439979
0.25142389677095667
-0.14662828167887457
0.6273618595906421
0.513579784934792
-0.13534966771019213
-0.4302060864886368
-0.19284487274395087
0.07561014732928312
0.7647957459450263
1.4594827657981817
0.3195918632108761
-0.03052183796445182
0.2975180472085699
0.2723132711025428
0.031878509729537895
0.8699305568836038
0.2915326140110493
-0.3251485668673885
-0.3798334529579373
-0.30116370253039565
-0.1383853191233277
-0.5267787453306985
2.1118375127227305
-0.16471422455126833
0.3204550865181638
-0.846109842309377
0.1675875556768164
-0.675369627764757
0.8435368667300419
0.342524347895775
-0.015373066454527885
-0.09945762120228861
0.13778083034717875
-0.28642306342730234
0.28583776267984234
-0.4468555158305679
0.6692010573982167
-0.7666989905327025
0.23664453289696916
0.09116582979271814
0.039066611843365476
0.2406803923703586
0.2156519723412568
-0.2897191624050928
-0.38053073576024626
0.5203593608486826
-0.04720152180655431
-0.027570021389044096
-0.04251368367205131
-1.8216905074601397
0.8673063759323245
0.14351140786964223
-0.38834125939903025
0.24809072766908333
-0.0058706837139992
0.007154792306283405
-0.21975405648746532
1.5094276861304443
-0.08527769036203506
0.05783142693216227
-0.5569175514465649
0.2990272923331937
-0.46097983134027
0.24524336931888507
0.14822388109065754
0.41083879428845926
0.7453227426059205
0.4536649750008435
0.4016345224020657
-0.2844646559741912
-1.172196592604906
0.8250851565796247
-0.6168970187460344
-0.3933411797199469
0.1124108164069167
-0.8846235200197258
-0.39904666157661756
0.2320620871955306
0.42067029366064296
-0.3018705587958021
0.6997525066086338
0.25927914407728075
-0.11628006369511983
-0.15965116682478406
0.09246491092664005
0.24160982749396487
0.05560754213331402
-0.09735206297940024
0.350550019180849
0.05355614606619204
0.0035058204930450824
-0.8762866312904214
0.15422749386432716
0.49639650404976043
0.7870459990421859
-0.16152261815166566
-0.3103521574315234
-0.7768514612721465
-0.2693854828851227
-0.2999200483308363
0.6004762151599954
0.23529093727464565
-0.2108087401191172
-0.500545632252896
0.042340711921540916
0.14646472675697014
-0.30423387656604434
0.06010994256523584
-0.5698374830569434
0.011612583690656953
0.5102552322328696
0.23939881503551538
0.6438184453284274
0.07505584893206967
1.3791492491009005
-0.23515027867182428
-0.07575110009441272
-1.1353587252551518
-0.46640283389226206
-0.27725041637122777
-0.9740996915487834
-2.042040539067169
-0.5578980931101402
1.0658267356617581
-0.3699647264503104
0.3087238949882661
0.22206067207563143
0.11319368755839458
0.3306370827019154
0.6627921203090655
-0.978027369523287
0.4452553257013229
-0.2563639572108781
-0.6237018122853928
0.6569361222914792
0.9566078701724856
-0.7602126932801576
-0.16031120429728682
-0.15498203502919067
-1.0678892665238333
-0.13788681076294887
0.22805928933294972
-1.156434395043057
0.722558008600505
-0.6670189617496289
0.7734868786839286
0.6647323210145697
0.42692937832616645
0.10865416815296187
-0.8445245034914358
-0.28969037908270134
0.00276704995523927
3.6427246152793947E-4
-0.09554420848301051
0.5738644714973772
0.2963888906991171
0.28954064548758496
0.023168717556347685
-1.0481968085528628
-0.18387092012824893
-0.32528851497335454
-0.35531434015891966
0.4033323542551051
0.6320653490337983
0.08149168360606596
-0.6504810562526816
-1.2537077113192308
-0.09412574783688893
-0.4568200121585205
0.44663566383700126
0.7917666475022428
-0.0496620575747018
-1.2473896923195698
0.9994961611810171
-0.6374555477124457
0.2361364788216637
-0.8892963199109828
1.665766918435967
0.5654855223624555
-0.35078644150372157
0.3829804069231649
0.8954906793041066
0.2547672553255756
-0.6322564933417785
-0.9779913754089362
0.2315260558648954
-0.08180723580930657
0.327972067323754
0.5591673922918589
-1.3320987245083715
-0.0272181170155447
-0.321842386937776
0.5433514147155701
-0.10530121898348088
-1.0614313836632758
0.7462383243302348
0.11212236367055158
0.03995908462154825
-0.03730712257944348
0.3888469594369373
0.44030086273149593
0.6023599927304747
-0.5225182422784119
0.770175903401314
0.6090935954771409
0.46216198734776864
1.0141965341389338
0.6254391349628283
0.05453467869500548
0.5762130039307476
0.21871243330478937
0.6327257921637559
-0.44075587941299765
1.3139559601762631
0.34526373952529765
0.6960526478738223
-0.2836362893775521
-0.38622319065883687
-0.08952386402633494
0.2035600396945409
-0.6778922572901733
-0.020591312315078908
0.03525508653426615
-0.7014509055187684
0.8282292657181163
-0.3001036952726025
-0.392633409271064
-0.2194365461107881
0.5885625259955172
0.5476662166726425
0.5520337517661421
0.3560612856830066
-0.3555711583041791
0.09581813289543065
0.07510638098040115
-0.10865102720635894
1.1157166477188187
0.36895641729211626
0.09034928194779371
0.04007810237570001
0.17690546524114445
-0.24194856321253919
0.3302550239666112
0.468637017403201
-0.22815518826093595
0.07504587618438438
0.02118921591658003
0.2824591749301516
0.0657909644530546
-0.33764130678917637
0.43209314506748925
0.05905568215379301
0.34201742943420416
0.130954023788922
-0.1496211876743287
0.5963619814784316
0.05926000694153498
-0.031348088534772264
-0.23839477936305253
0.11494066569514798
0.5567582941983643
-0.28668848029870087
-0.8018421927949718
0.8107843098909793
0.30200988069857915
0.8318513614992774
-0.0950757255280407
0.7845986175218876
-1.2150514206340084
0.93588867582576
0.5984404910492193
0.9359240844666302
-1.382109067050156
-0.4380843199432423
-0.43953131003071877
0.7844961357371647
1.149832847071775
0.16459474838631521
0.013090888254514337
0.4432380230227421
1.4071348135676598
0.4061682358327942
-0.21777563929160204
1.0267833942657403
1.4966133567220798
0.18815811955563855
-0.8640383326249307
-0.29488884700336443
-0.04109207776093965
-0.08252101349616954
0.3696524260227724
-0.5992879050384474
0.47793221021366694
0.617960468156184
0.026462537338797547
0.10712121492388949
-0.6274811442879938
-0.23699036250059008
-0.3751964733659484
-0.5668604730480507
0.8002847461937403
-0.7354739382231908
-0.6657632554631846
0.13372483631315327
-0.34160285493421483
-0.22174051271244966
-0.13812513248524835
-1.3117709707674616
-0.388532101173017
0.035423380267964724
1.0220401688190275
-0.31336972119603823
-0.17559123285937248
0.37394411669711486
-0.2702076359416277
-0.027876033285088378
-1.3170302675219332
-0.2842531826490098
-0.19233593994790216
-0.2862532529117742
0.02449735524060504
1.1909395531367173
-0.3559716634653854
-0.14897243746482586
-0.4900904743365662
-1.1088427807742192
0.30199766462960514
-0.2395302912131233
-0.727343508002816
0.3788915951023555
-0.14886765621452006
0.22671384821469648
0.09655346377589978
-0.9431062724777767
0.4213110055643139
-0.44486407488568086
-0.25218176174217427
0.054134138301862124
0.20830179026068932
-0.47561335588604703
0.20647705648440567
-0.25566268519808444
1.2568665770590124
-0.2800230736029339
0.4879388251474804
0.3051847820648712
-0.08962218154022376
-0.7276448798018186
0.8537540608690318
0.5110023336991392
-0.10931930825531733
0.6972156687103417
-1.12981799763114
1.010078776936207
1.0359371603018934
0.03674853785270783
0.051529915707898735
0.1876882607600739
-1.4799339732551127
-0.8123932975965148
0.6687791560662241
-0.3255319552453118
-0.26814903113782146
-1.344493099509517
-1.4563012475737531
-1.4341077343481856
-0.4382526879611106
-0.523347144736515
0.0795484581521619
1.090035192140906
-1.4972434636111913
0.09176581914666065
0.1333150738778787
-0.6268257705638395
-0.29080170380764925
-0.08989095233356678
-0.1769117268645718
0.9788137768548737
0.25548927666829097
0.21325051853383378
0.13886660319054928
0.09345931575360242
-0.02356889705158867
0.4482698109335483
-0.20801528531875665
-1.561429147344038
-0.4036804936845422
-0.4270714281904821
0.2695870001163558
-0.06379140322853401
0.5814405684032943
0.19993787273984082
1.1330502413755277
0.2277640387340089
0.38464277547465364
0.08543410115903498
0.10632775062877654
0.10397631535942681
-0.377660810412977
-0.6346190757653891
1.8240098579610202
0.316203941139177
1.0633661470971973
-0.6672985039834638
0.2339744266038925
0.2041447200675172
0.45908676177101665
0.3117191656800514
0.26320766233943577
0.3622076576335795
1.1450905440210326
0.3866189100649573
0.39028399063904373
-0.14649856963596852
0.4146466720007129
-0.18025764835179325
-0.19456353929706466
0.9073266556910592
0.15437922419846717
0.755338215461822
0.6001567342204197
0.5841715584154972
0.8700552013052838
0.7703105381459814
-1.7947105084222508
0.09878129837368126
-0.22178467944488509
0.16164445617942538
0.15017197621308467
1.791577645885545
-0.04188479548323719
-0.02184895630879035
-0.2530032702614943
-0.08516632987252486
0.2286993462764625
-0.011077310707549226
0.0031308544466349575
0.14357837913672994
0.11319746520929046
-0.10827278223592657
-0.8603447443916324
0.19910808441092703
0.7516979776718351
0.17224519933805324
0.04427262503922101
-0.31299610624784296
-0.5604675271295368
0.019895968579607383
-0.3033536204278091
1.1746540625527255
0.09345403769006104
1.2090249238795978
0.2313861762237379
-0.567300216121931
-0.045105404408153825
0.2921405918972197
0.508935628343106
0.21125163413782527
0.3616833438707243
0.12194800490411767
-0.7198006165344739
0.2034616599732984
-0.5964541745031194
0.35694943455683786
-0.25830668869098256
-0.24377205710388292
0.09512785875160602
-0.5519858467730114
-1.1551565638148784
-0.9127236366494835
-0.005611778509725938
-0.9955047710197181
0.5686835335091244
-0.8864356074740992
0.9264369326333498
0.2496757782194764
0.044912976249091775
-0.9670218025539546
-0.09596218368188066
0.007575665800463685
-0.00768632221837299
-0.19656776127048162
0.4079552884024837
-0.5410579628770572
-0.6166277664759509
-0.33579048656019755
-0.7281668446197844
-0.5445226742518917
0.27794265670458945
-0.34887831469441793
-0.2457320852194326
0.3723902041500527
0.09642231959440026
-0.059188775917585694
0.9640005824765444
-0.337550186015053
0.07192183817730488
-0.9386321261535102
0.974305578076856
0.5583087465558215
0.27858457731796044
0.9520764474323424
-0.18308718385581838
-0.01313051777359531
0.862398967102224
0.5227289600462421
-1.0624774251965754
-0.09015286535044634
-0.4307684966845733
-0.14231460709805488
0.7808854156551039
-0.6376536597920746
-0.8425978636888299
0.22073589934652144
-0.5886747814230113
-0.863819194646561
1.418352384142549
-0.026730233946277937
0.05699593360266185
-1.2883264784458033
-0.7994135759964729
0.7698216524101845
-0.8560717346776057
-1.0189032358354309
-1.0930004475151733
-0.27873129187624346
0.45341155882292933
-0.012090077939231694
-0.025251886515957084
0.8420189152459762
0.015193778759326504
0.34487156943841407
-2.0706559362168973
0.11316294201387044
-0.350384714713272
-0.011665901844810304
0.7968656362125905
0.36436508834595344
1.2004813080848182
0.27156940235884847
-0.010526988913267598
0.1691300510837111
-0.3635216781449463
-0.32200545619987075
0.03570749557556613
-1.0080964230948926
-0.5575936162505023
-0.9437653406180417
-0.040587556936466956
-0.32219851019400375
-0.06314431206602567
-0.79373267698352
0.10413187846815758
0.9260482950790573
-1.3048374935390534
-1.7041029813076018
-0.07651634622197623
0.035337606786896895
0.4955461095969168
-0.32135439829757817
0.6765234568287487
-1.598016690019789
-1.0687045544024267
-0.027786190619180775
-1.3070738235210824
-0.7568120384174956
1.333728088533894
0.09919396792361589
-3.040451754861182
-0.26420585759694354
0.07409305044607101
0.9505836357321867
-0.9565380832980162
-0.555989819547262
1.2043564889685412
0.7081423435693294
0.29526442886840976
0.22314705505561686
0.3439740783972724
-1.0542727344459748
-0.8429281431982376
1.1518524856872892
0.18806420549874744
-0.10230257312267958
0.4254834291290983
-0.2141634996454812
-0.04198311634816138
0.20263962741870342
0.15417483271390192
1.8856260878508302
0.6564886495624607
-0.5558450103708003
-0.8243682137916987
0.19852996685073657
-0.0757577945538327
1.0347458335358497
0.6475878330195677
-0.8843224410086267
-0.06709744189009954
1.6617752105734849
-0.2577984553888103
-0.16069938814960427
-0.21696601845014746
-0.6301387839910907
0.9643750741364858
0.7178973200818207
0.5216116451553414
2.1589647904653337
-0.1870901690909602
0.7940243811701309
-0.07381292221279655
0.6791962766293428
-0.13657197103963978
0.7072310687230338
0.7795923355880571
0.9184085290059268
1.2693519683734857
0.5074693347268481
0.09764345552430503
1.287828361806935
0.14704991053299424
0.7589334037312064
0.03139783028131416
-0.9030317724595869
-0.8824323997812792
-0.1987604687940629
0.007831917968763268
-0.11694450157117532
-0.27253110977343736
0.188248746552955
-1.519540556977336
0.8069901872355641
-0.49244358414349676
0.10602720855883563
0.012009639288553557
-0.6941665693006276
-0.42833159145443883
-0.08469083382387312
0.2835957140701319
0.7373429162656678
-0.12017911101180823
0.5594541674019022
0.2638608240205939
-1.4027769126650378
0.07216852041322824
0.856081718650181
-0.785872355672853
0.37150026989378193
0.15618561569273232
0.08051835749282608
0.2368625104811004
-0.2645888319496934
0.17116801881707633
1.1594043249194452
-0.052531236497053185
-1.304964604481041
0.15709972033131453
1.1553996250983625
-0.21835673627152014
-0.23978548514815906
-0.19257248094446267
-0.7899418420963357
-0.5889858102021039
-0.4275349843601377
-0.6001658847221026
0.7087924080957518
-0.0444515208484533
0.7875807771899697
0.4428360336030839
-0.19532411433874605
1.0034438628041862
0.3479761906201531
-0.5918858461672485
0.5465028890664037
-0.31947016147022417
0.21111805778144865
-0.1525887547120551
0.17700933113003878
-0.0015360140191435882
0.5180765895842255
-0.44795513176462864
-1.649960298585453
-0.6560447857383502
-0.3410743986382649
-0.7127839525776297
-0.24385421879734084
-0.3205932663808293
-0.8556845554297807
-0.4153053992539473
-0.20113835867305033
-0.027149656096186862
-0.8226304012246618
-0.8844633191417105
-0.6883812278976842
-1.432131151316957
-0.2733302494040122
-0.9245086082409445
-0.9872638224641359
0.7933877201105571
0.5837006482008611
-0.3331968533717284
-0.042802045665213825
-0.8233853903743347
-0.7618022720467481
-0.3018950263940351
0.25751310383601406
-1.7460520029159976
-1.253857585635095
-0.03575184284389311
0.3382162268471755
-0.002497497359042193
-0.2609317726020315
0.5489373154450826
-0.7623578611244457
-1.0699049224750101
0.09564673443288775
-0.2794355125059591
-0.8529440519589252
0.6587715712645738
-1.7790636688687418
0.6969042218530865
-0.48162623241598806
-0.49752933632530416
0.18679492675150064
0.14218324553506098
-1.098776441058656
-0.42916643296037743
-0.2522637277486791
-0.678185960526072
0.4351469091191538
-0.5179499247740615
-0.4575845825572554
0.2174759900448593
0.003023708439951194
-1.1718885791279443
-0.6068937863626849
-1.148550892583135
0.4071598686250845
-1.5536228952532114
-0.43853562454782463
-1.2181338905911319
0.22435239588443845
0.021357785064900468
0.7701115582485447
-0.5251522947825993
0.8325109479124485
-0.022285517559811147
-0.2576626862857003
0.3313804266353118
-0.030656670490987126
-0.336434876519893
-0.18725008847970015
0.7724349541809944
-1.102327804372655
0.26538245784805037
-1.546808422778104
0.5838265688018648
-0.13569389410098986
-0.5836541596400876
-0.9259808075337297
0.1876457978898201
-0.8520437328356898
-0.11889385479730039
-1.1842601015973757
0.876783334375949
-0.11545552514466002
-1.4456505624328615
-0.3759878661967985
-0.2106624097369127
0.15163663275371186
0.3774982904778247
0.7398900004212919
-0.3776154681385764
0.8439375323376339
0.6486703922633639
-0.2285525892085955
0.010480877282523983
-0.4101001503395219
0.6973802100011527
-1.3943876323372766
-1.1716316830787603
0.6370190884130575
0.2455378264711839
0.45156359144582153
0.5555977567074527
-0.11290267980372741
-0.34552308177260244
-0.009814874300213952
-0.12380172576385562
1.3345568779216848
0.10778116672178263
-0.16167781303589315
-0.3204952480268505
-1.0544715180228856
-0.27051981479245724
-0.7413756222720445
-0.3317360915602191
1.0100731811528652
0.14199681661194458
0.037130531873693744
-0.13516648845714782
-0.09317026782152114
0.6232928932827055
0.7098868606854016
-0.5761203696367302
0.5608407048247851
1.2160959408803396
0.9473503620032597
0.0388812813912199
1.0902567004613408
-0.37575090750891627
1.4894348032771356
-0.322868206080667
0.434589180602674
-0.6648475435847306
0.38741404395850926
0.23895146446896592
0.3484730198901076
0.7439934795866644
-0.1823203760388032
0.20922729561442774
1.459242086351226
-0.7097572350573061
0.17550810892700192
0.21184460933505148
-0.053881148215796135
0.36014890390820775
0.947018095239757
0.6095948583862935
0.5166661276973871
0.6110997634343275
-0.19179207888251637
0.001490514102343658
0.09605471046080424
0.9263819911864898
0.6757777942486384
0.17231071389959499
0.6403157922850871
-0.18987112249539387
0.36691194793612725
0.09007855281070129
0.39972764286157897
-0.7029378394261145
0.13796351431116988
1.1907122063590427
0.38412580174272254
1.1457938314131098
-0.4605308763808077
-0.31166853406257833
-0.49573893258566476
-0.5548130515345578
0.540122643312489
1.5706425722973587
0.5588069732947817
1.367833962141907
-0.08650819521174445
0.3651979966418944
0.5722336751809622
-0.5298008314893841
-0.9451111357070311
0.115862321158783
0.6575226178665134
-0.12319031787274552
0.12006513759840833
-0.5629415635127503
0.168926233817582
-0.6153176243754074
-1.2565701159686038
-0.3302932947057688
-0.11579820557321316
-0.8286145495497099
0.4945724408205859
-0.3970551308088969
-0.37263528718419525
-0.5556358726013307
-0.29048637758211876
9.431214820802812E-4
1.0174945585995467
-0.1236835690759513
0.38793917692805685
1.4537057255184525
0.05793532382175947
1.5292884696360403
0.7759598049956948
0.04210255542089657
-0.3416058573775374
0.4162201098815943
-0.692156575599707
0.239205733195981
-0.5660043057676012
-0.4692076959216106
0.3404006248297461
-0.5061866908946264
-0.5203252927220455
-0.15919237258390448
-0.26370994922690927
-0.24405407747922941
-0.43447805782017274
-0.9148843581103062
1.3207816333814155
0.7626357342894559
-0.7595560103901009
0.7461271861360773
-0.49569494402868164
-0.9257378777948542
0.06715852629082368
-0.58050874595198
0.40252535299166525
-0.15888373779960416
-0.270738553574247
0.30984493437334415
0.29872431550207074
-1.1266069813631059
0.8782680775894682
-0.4676099296446527
0.2645405158678572
-0.007044224978843645
-0.6903323496975844
0.35514238198112846
0.39794964357651974
0.6091094253966055
1.446405624385441
-0.9751883140492552
0.5625341002538848
0.8187994406464238
-0.9456360024958169
0.9656780538727728
-0.8562385791724527
-0.6259104560041038
-1.195192700346898
-0.4774925197046409
0.34899680970235925
0.5127081551380475
-0.7456876570893689
-0.5736148664985546
1.263480774091494
-0.9061982700726949
-0.3880809833633365
-0.4458828626744243
-0.6506719997844188
-0.3437854075504652
0.5569853578541946
-1.136941483071273
0.026907137342040015
-0.2655384882719355
-0.11076490295857415
-0.4774288994059702
-0.11350299373615992
0.5810873149923105
-0.7244004210008995
-0.10153201123147801
-1.000919319789268
-0.9515388970304759
0.41798150773229287
-0.6523554255037253
0.42547060664386005
-0.7098135219302885
0.302096589083807
-0.02255616394991998
-0.147246636099935
0.34627099508861864
-0.06764585117182124
0.08928759932621028
2.7543988157286137
-3.1801066789938814
0.6676456727496145
-0.36376540164369964
0.09835573392195136
1.3136074878923936
0.3728047666389158
0.8956040365140858
-0.02399360934991429
0.10549617070924243
1.1815444105651651
0.08837085271935535
0.9557470966175683
0.939737573155002
0.49979155823882826
-0.22482342227626123
0.7773258730529886
0.6692889756013226
-0.4648477725474817
0.2916066191679218
-0.44811335828405546
-0.008826122222131817
0.89313129022666
0.812434681309177
1.1217666961459445
0.6544561597032917
0.2886873781567225
0.37488361519971125
0.7342548847829636
0.9583957134937555
0.41248669912037156
1.492665712430721
0.7792599029575742
0.5416235907760246
-0.4250806124098963
0.08129784160781328
0.09471204293510892
-0.18888870391079385
-0.814345858590396
0.45161657943241673
-1.1949584901761745
-0.341100941008354
-0.4083328280066816
-0.06589135129521233
0.6727534610183886
0.8668659343610033
-1.510415157545155
0.07751050448753925
0.8326448912582274
0.6750648069001046
0.7059588390223951
0.35161264736662107
-1.5053366446861975
-0.3041865657018884
-0.5515690051823805
-0.2514332109078698
0.9846279360287408
0.07750230026558856
-0.17908512871904353
0.056934112641154465
0.6720967208957311
1.5164719759384355
0.3244663010931988
0.5367560735855966
-0.4986988278665763
0.04353159802810657
-0.38704603043540625
9.656481375820069E-7
0.22624555556020848
0.28842781988343397
-0.9500575827781771
0.3975940985464244
-0.4545425214102534
0.3180289731663349
0.3209234633428995
0.005783713321272544
0.017930702531757856
0.6587115909976687
-0.08477613141929762
0.17232935264474042
1.0809064774863797
0.8545952537504062
0.29841017008788
0.20606247190015606
-0.4000977249071687
-0.38068109029189745
-1.8425505672694324
1.0695731456106048
1.361552059852896
-0.1543058343280337
0.40270096996532956
0.23171423737624947
0.3161057500483288
0.03304710101950532
-0.01367525649028153
0.2842864957330297
0.7598715948845628
0.31104820004946115
-1.6553951999770835
-0.049877633631274565
0.6543423802726916
1.531814262669713
0.7408371428842705
-0.45767352549754303
-0.050055468909777766
0.13293501896109616
0.841854316947345
-0.1896539994713217
-0.48250991889836986
-1.074567783055936
-0.44057827403672023
9.006365216182731E-4
-0.6169440426562188
-0.5338469260616635
0.23999241003505048
0.2429028781918553
-0.6354442223025197
-1.2812295762913322
0.3482433418422103
-0.0259541450773407
-0.9653137851146365
-0.3574533417682626
0.3799861390876701
-0.7322756721199194
-0.23267760453100317
-0.5044671567739548
-0.6151465123840199
-0.1861391200230885
0.25718944469705923
-0.5846247636799287
-0.8020639797016913
0.3298958415668409
-0.31899309533692416
-0.21169862354407906
0.059571240241851085
0.20347759852023148
-0.3295711640895242
0.2607792916730382
0.4600927536091559
1.2008485261125013
-0.0014249082770875672
-0.2515687274623567
-0.982064504127635
0.3031438434642796
-0.6174393024683834
-0.7324413682277761
0.659938410756749
0.7559412008431534
0.448930466040286
0.39325232292442336
0.4467441947256422
-0.3250955805701099
0.051445586714602955
1.047252681976037
0.03672305828915177
-0.11214837533532368
-0.21211964642639763
-1.052973552352506
-1.1973665024867297
-0.40070019037544224
-0.7515622146707196
0.3712288650785695
-0.5901513962607261
-0.6060605229618375
0.40896272438311726
0.020413180517477227
-0.17173702726507395
-0.012309417826115457
-0.11030885831312887
-0.6053468515211036
0.22888294883288063
1.1391128225466969
-0.4655078073652266
-0.6011123226572342
-0.3818075038903553
-0.25493448297400856
-0.7693093611997681
-0.2867370517923207
-0.5061286815599029
0.8792024275435472
1.107779068564701
1.3530217488089988
0.22361710291676712
0.1062047851903163
-0.1984831200048933
-2.2398853468970854
-0.32109670702905063
-0.24118088002735383
1.2155127259381495
-0.7817549909076132
-0.5115181683597153
-2.316227458258175
0.5572630449556674
0.6538306453874556
-0.8947302944323113
0.32330953085181297
0.22811957533029964
0.7758579723461331
2.4827754522330543
-2.6972605808220984
-0.17441521888381817
0.5509935359315974
0.6125426528799839
1.5833700095449816
-0.18031937897562048
0.568509844267382
-0.060852071847434616
-0.014310001720763434
0.20819900730571492
-0.2984353405625485
0.7238917079887659
-0.04051785366370422
0.9390481474766886
0.01930378574346743
1.3172437101203036
-0.6942653714469226
-0.0743787500039532
0.08549410978853803
0.23530597369747733
-0.24981613174099693
-0.7162505757598889
-0.4112787640117567
0.6906578320966401
0.3384721974091259
0.5960150640344959
0.13219842652575872
0.7896985988729635
-0.8132828753253744
1.3228649680696356
0.11541725514030493
0.7389696665613329
-0.2662876484893218
0.5553565192833433
0.6394898402899822
-0.07153064649831944
0.35589763086858595
1.0278629698676787
0.6144653606059892
0.2030319131973431
0.7611595504034123
0.5952471377993506
0.030679061706185562
-0.5329756389351633
0.6828162771432464
-0.6535925910581514
0.3963442929722587
-0.5373920495717547
0.8122247967250066
0.4654162434500203
0.4961683285422684
-0.6151489896494391
0.24816258255349125
1.190536768561884
-0.542905275278624
0.27513030748239575
0.19483004328437464
0.24613117115813862
0.08999303058850883
-1.8163373749182135
-0.856923096134376
0.23364812669595192
-1.2940297827615581
0.6053209320678768
0.606217919463994
0.1529688591256149
0.09893130857657884
0.693974310238539
0.49540819213456067
0.9435849492471481
0.022026109380296047
0.2809920471174491
1.8478955438047404
-0.022045302542427807
-0.2988067478024769
0.49583915646868654
0.8623763849429968
-0.3467307505521026
0.4554153898125228
0.029544133084293402
-0.6154852154715383
-0.6569675539523361
0.5199991454717452
-0.6964805922788347
0.5036611640540573
-0.04710922198564183
-1.297753598054328
-0.29100660085586755
0.5914148822154202
0.312012342441805
0.4093104033172048
-1.2633374161819586
-0.8800376368195354
-0.39178998424908046
0.06930173586910064
-1.0058780890703383
-0.30676572440898325
0.6427325549250416
-0.14942717921975618
-0.35484684439050884
0.1756851164800574
0.48193371659771234
-1.21431336102117
-0.5434371505480329
-0.3643839697833289
0.7635926983620996
0.8159562362634755
-1.9407874495191375
0.04559276171404872
-0.23855508894116065
8.127738324601998E-4
0.5639218643690436
0.9448870186628033
0.2931999601897781
-0.036487525450597975
-0.1996618870666068
0.276321223417061
-0.590955346961278
0.015314903083522083
-1.3376375476868545
-1.3474543219846757
0.4503568398990282
0.021306200805207717
-0.3509194082891377
0.7967965337462293
-1.4181847457113828
-1.174839109712132
0.330061395041036
-1.207468176669184
-0.6244258373209098
-0.024017799060598265
-0.11130144283863415
1.4589641181194293
0.8383572001189631
0.6857680844311155
-0.05938979870546018
0.007502094005642813
0.1645471509399735
1.2085415323617326
-1.1721362602976815
0.31024038713635665
0.6362606955051181
0.8367117436156487
0.45192181889915684
0.010459510666786992
0.9836413168644671
-0.8357112342124057
-0.6974881388486871
0.6212865099086082
1.010423543792545
0.1942395889966986
-1.114501576649425
-0.9670730932655598
1.3746752916355836
0.8878877111153991
-0.10600048845441401
0.477642217332275
0.6946759354721146
-0.3008528337639026
-0.5890033365901399
-0.5683950483821933
0.007965151419091349
-1.6589036224065672
0.48737770629252025
0.52262271086155
-0.07905349638592649
0.04441926796904647
-0.6604402010624985
-1.3443730269490823
-1.0598586388363922
-1.2070016175287734
0.09522834119486745
1.7307483443511191
-0.08866567789009075
-0.2216350268547797
0.3638756681969359
0.10863515303198291
-1.4043170999810135
0.6271390886913965
0.48825748587878337
-0.26092274983293107
-0.6471309870637579
-0.8768111407595698
1.6841879867054743
-1.979788867245996
-1.166733925705789
1.7971939736510683
-1.6423314509522942
0.041226884391625494
0.5859575263503184
-0.7387635511188559
-0.11638828561113536
-0.5540043894781435
-1.2302344841228925
0.06693373610248997
-0.14648592228192073
0.7699765591937621
3.3250705577690094
0.9017505907304475
0.7983336701927061
-0.4908210623334325
0.9386861356277985
-0.4746633882138572
0.9948444420654804
1.8798265509628016
1.7604911511669064
0.5602689738131388
0.7349759161635917
-0.19604792521103878
1.1748897482573284
0.5994449960468915
1.515516427485333
1.4567997054048474
0.5097065041438134
0.4589660003325439
0.9305101243300411
0.07753903241572357
0.4005443280288284
0.49641240836519757
0.6169901631541194
0.9305144752745961
0.6901111827288084
0.6918795176591542
-0.0031198712929120845
0.10196001014640996
-0.014730691080383263
1.263834704119289
0.42635775509307244
0.6114373061080295
0.8745197013561881
1.268461622590734
1.4956798057869176
-0.20837159304618
0.4623862477641171
-0.24879233435950035
-0.24063721375651492
0.40479183066225505
-0.4445285234937187
-0.44063016743654326
0.0012662303926013372
-0.20395906666209312
-0.4416234347070415
0.1714756382898083
-0.2447342781656293
1.2899907499522927
1.3535399027067703
0.7664414192695663
0.2248176412514093
0.17884199617958152
-0.710159274828613
0.46509587344740744
0.647871437680852
0.4380096607670995
-0.9189094099475622
-0.45235398988890485
0.34266092578130103
0.310217307709176
0.3942255904077928
0.22162683544231185
1.4223657947640702
-1.1167087482869993
-0.2930948140242844
0.9364443796190779
0.4268319096805425
0.2068983290117724
-0.3735870690793928
-0.49902790497598076
-0.38455462251061545
-0.21925223344200975
-1.1665236815395816
-0.3091121350840898
0.016563406793171608
0.12820838474151883
0.26268598510834
-0.8476848194275859
1.382052300079715
0.6145444506878839
0.6162298226387455
0.8296911422963128
1.1027825856427338
-0.0020189795751070954
-0.8904565119394393
0.6330980492077607
0.21700324043688365
-0.569862871938277
2.7863637018246497
0.5421559223992063
0.4627042401922711
0.8303936618720423
-1.787583644941462
-0.4621329485677564
0.392832627583299
-0.39168166487057443
-0.7868581890628017
-0.25948173647782896
0.03436987235151934
-0.7186980572465353
0.026527457863329097
0.6065226052150092
0.3308841078422334
-0.16733357667254536
-0.07276112142150391
-1.081319789818326
-0.7242926494433636
-0.9861545417279856
0.25034660585866614
-0.024841636430739545
-0.17942829393701526
0.002659616230826501
-0.21408778724270028
-1.2072855671542866
-0.36203938822862775
0.19654424267142045
0.6406805583717665
-1.7526207311037532
0.8182767985402071
0.2324135730046805
-1.2934481446825077
0.24350205414507367
0.801332681870833
-0.6415313104214792
-2.0537284797253648
-0.7730492189426262
1.0340838035664595
0.9572275611526662
-0.6978800476472133
0.0770389101370856
0.5533892289252107
0.05895384679256309
-0.15828229163758945
0.5477910771566441
-0.27210699883318157
-0.8002784063254388
-0.48161943587925765
1.7709669897391123
2.035684371435801
0.8147088051746252
0.3743235087410349
1.773978431639959
-0.3114352773015485
-0.10402507128815713
-0.18972161208111754
0.5791750269549683
0.28571030623717686
-0.1076529404642232
-0.5467855329177816
-1.7357119023790661
-0.5082283482034254
-0.6088147290882455
1.4976478479587272
0.19209784566603896
-1.274752950000266
-1.0611875462330194
-1.6760877256560465
-0.1867772710002442
0.10671562502754081
-1.130835635619339
0.1385905603036283
-0.8308462996584421
-1.7912037810711492
0.008535673966636615
-0.2613678225040762
-0.7907671792262635
-1.1623461811395817
0.6354227925457565
0.50941965337989
-0.6354676935405403
0.06605571065770884
1.6542590385349032
0.16172416942727047
0.6917914129261343
0.04077000274127755
0.48162432901518176
-2.188341891046469
0.11441868657300489
-0.44100537163538045
0.26782228594600566
0.37011497593657555
0.19953773776560138
-0.18518272519834467
-0.8945383747044415
-0.4613870936494114
0.6713770428135915
-0.6522732745576645
-2.1638478977890174
-1.452852477132711
0.3962281166474133
-0.9112416591752975
0.2283653535732192
-0.9359271408432721
-1.0090277599096058
-0.22575518419691867
-0.2404446011222074
-0.4285971848247058
1.0078680110977
2.8436462873702686
-1.3778195743727517
-0.4201906755691043
0.8880948693747084
0.20608187537333394
-0.1601035293025695
-0.9790885188694122
-3.556495087268416
0.06508921442070562
1.3737243857019978
-0.19129168000654095
-0.16174737258412164
1.1738832683589953
2.0045781660968247
2.7800267924354864
1.3289974257611665
1.0866228451927917
-0.769447020769736
0.4428022126346728
-0.13518661543216243
-1.0547193861715807
-1.4926390385697392
1.2875074510027145
-0.5134284184879282
-1.1677745589146304
-0.1521705526607073
-0.12278024826908396
-0.0178270138024604
-0.025641548741122636
-0.10773782148823828
-0.01036386766199672
0.6948994613387206
0.19936970277663918
0.4318378867364379
0.22958306210209364
0.3317812324163607
1.2090250569522665
0.06699944484810175
0.04864572625183769
-0.21257232555172015
1.2340172949508899
-0.8281003714258784
0.8753386907179233
-0.08608920680824142
-0.0055848578034785505
