0.3264137551243753
0.7067184827436425
0.6729840084541279
0.8453541213203556
0.7414831490385569
0.3571228714836708
0.8275228649145432
0.4633969705603463
0.6571440977652167
0.991535239587009
1.1958336400847847
1.891690427907607
0.9984381188427682
0.9500789043482524
0.8496245926241434
0.6285520250642828
0.019400638592320694
0.6842167427166004
0.49033064190394887
0.5390818340570228
0.528904926072133
0.45657545817173406
0.40520256535361043
0.8558340261530272
1.3839100574756698
1.3710317802842018
0.9635399535751089
0.5681755092305842
0.2206981271345355
0.2210520499438149
0.708086211726976
0.53209141546862
0.3885435376253937
0.7219430687287501
0.13551205890849655
0.043492094677196176
0.711257871508357
0.782137066194801
0.9432083199030302
0.15469578791646243
0.13665900622486374
0.38715769765616564
0.43386936038496304
1.0552191141317613
0.6342871596535028
0.7887918272326757
0.7655850880864274
1.0522880098195204
0.027159477757556935
0.007952754142304492
0.3127101647427552
0.49110220442363056
0.5300692594061627
0.5098628852041572
0.28007989573187286
-0.0060965667301050306
0.2197323722721969
0.06909482380322844
0.3905589532905888
-0.03794580416339497
0.36682784310979183
0.784594870331212
0.42134784125832303
0.4442284957822672
0.4803483636885727
0.41122582868353147
0.46807894742359873
0.45215671415855546
0.39715476920539294
0.7236716375916015
0.19163294501871936
0.21272639664070872
0.04641442071441347
0.19339093648321856
0.01757584651496255
0.49577045287952665
0.2960775184122634
0.43377269426842097
0.42663291413735926
0.4855861551198074
-0.14187875357597235
0.38462421146591386
0.7299610011688155
0.08275811927404819
0.40294061846915874
0.6178543955364997
0.46536169897806184
0.4218494770040638
-0.37807889420980845
0.07493432928818973
-0.05320005943926746
-0.3082699416781263
0.523284311472418
0.48581205528251786
-0.11817743618493147
0.04176462632059443
0.08289475119672848
0.2948805684649059
0.13065861139120238
0.25766868360457246
0.22065410103967656
1.0270209307430525
0.6079615612865896
-0.005033079466379463
-0.3878256969744077
-0.17916377036307085
-0.053864377713986354
0.23736280555165262
-0.21782126677569566
-0.11358408902292569
-0.7053546402196894
0.3451260736906527
-0.3793977173495087
-0.30125569471484415
-0.11846584919428722
0.34891404018431355
-0.02376319479568147
-0.23786611230368346
0.2585342526957052
0.6326551939914427
-0.8193521846447481
-0.26437902471515107
0.15398741332144122
-0.05057350935715413
0.03212471596825986
0.1715371712970805
0.07395723166699374
0.09891927660471102
-0.32199864568854775
-0.2678082905531508
-0.24591155604110965
-0.3494042208809315
-0.5270520855882695
-0.383769730676042
-0.3647658906357928
-0.28912553385101225
0.0787240445854995
-0.13512667933067266
-0.08740616794976488
0.26625225225799
-0.17395627173252046
-0.7168641704683875
-0.25182549901690005
-0.3055216668861798
-0.4806113863240319
-0.15363546202856293
-0.5028549507160415
0.2461315320509713
-0.28581490988705005
-0.4935980463757019
-0.42009972949990915
-0.41044027071909445
-0.6562893153275905
-0.385145592210677
-0.36354603904728633
0.2604926494018709
-0.36315931331807316
-0.4016893244946101
-0.20693602049844737
-0.06468036471756046
-0.555199305031276
-0.4320226199018664
-0.365965867226978
0.04742650315758026
-0.12956366894660432
-0.4469692482297642
-0.7949293549681472
-0.27935809148929663
-0.8936627669943229
-0.4378341394011562
-0.0060141652232973035
0.5196292870706246
-0.07344259302817009
-0.45512207201357413
-0.9184722925503827
-0.4248468075236457
-0.20316920716555972
-0.3753354299612021
-0.4353506620261527
-0.4104191543581383
0.10335510328159668
-0.8450838199658561
-0.8355377789643021
-0.7823853622879422
-0.542786865680055
-0.9413159503407132
-0.6234663574288914
-0.5593807416780088
-0.49610280117346345
-0.4689986195696741
-0.6539217713895413
-0.7319750453072182
-1.3060743797553218
1.978117035107135
4.214765327992759
-4.8540079271908025
0.6947152231590175
0.12301388457102179
0.09013148514456233
0.15026863716262853
0.4715943787891674
0.1532158380297779
0.08070045964351591
0.017210551892080924
0.20737611797478334
0.011912860728629468
0.23027482532796037
-0.09910673874506844
0.025407460735490134
0.9650438049109149
0.4110293540120752
0.3138238590083972
0.15557731410889997
0.19745256510773668
0.012372639668383072
0.24449053296640566
0.10973048467303301
0.3947049828733914
0.11610888554120857
0.22227408001206417
0.12244133506396286
0.23810989245400316
0.42361799131446215
0.4012519886778502
0.24926599862445287
0.2397843748706267
0.0034371285248363742
0.13605915294579343
0.04812551081499508
0.059382822651473634
0.38379462132554815
0.4866763017298245
0.10295927274592374
-0.11105667716372991
0.23679763434057752
0.2035800274012481
0.39150339566871845
0.011938073605963918
0.005528847303739136
0.060309250410230074
0.21782016739002222
0.5276041369386734
0.2812681738717259
0.2921415209870567
0.3819562480695407
0.3092304983140854
-0.01033247785084454
-0.07316366215362508
0.03750198107975825
0.11013149640781075
0.14124518424064855
0.14272935122543362
0.09846559811076293
0.09499101184278035
-0.06579956299925657
0.02774463592253119
0.024446908979641784
-0.12050832311136064
0.05296982486522415
0.23144066106517872
0.014039191111619114
0.15899509898475078
0.23315546972747017
0.18003662225231457
0.12015851432899627
0.1908406727047146
0.053507423278485615
0.3017297200015959
-0.03846687628912436
-0.06948800484944957
0.030845098522608885
0.037685080281848755
-0.11531680656420637
0.31710021590913656
0.02821235502958359
-0.10590056679822965
0.1351100065145676
0.18023270135695063
-0.023899609667314584
0.19296252038728887
0.20631343864021473
-0.046809973179429226
0.09543021893360834
0.24083448608895175
0.2329931756433382
0.10138994537433031
-0.2739321737644417
-0.017125631920075254
0.07697151908029647
-0.03603097231651297
0.13316954799271613
0.21876307393367536
-0.024166601375794666
-0.0632660611556568
-0.08612060050483947
0.07628846720117798
0.1432864191141039
0.1920096119694975
0.24367453728103267
0.45175097404252906
0.2368080926820234
0.02371912022537347
-0.24056740841327057
-0.15532502158896994
0.045176445909484116
-0.030485067568164752
-0.03606315092508128
0.06421419828302606
-0.14207715951281216
0.2743150549539182
-0.12919420148866903
-0.21575628092135363
-0.07649659961155897
-0.013773536015742518
0.03573353405601108
-0.004084692848779628
0.038407149685968235
0.26657558368940243
-0.21415346914522748
-0.12553564515429483
0.03133033266542372
0.04258147415937397
-0.09119812861412696
0.037270068743220204
0.036995974068519746
0.1002232852704312
-0.33213992923162095
-0.041095021096366625
-0.11097286830759864
-0.1375744142108195
-0.16715289959301302
-0.10733680087559026
-0.25375688947896297
-0.10917231576387071
-0.11307998851631904
-0.18887042293662723
-0.14996634210076312
0.26102010945821974
-0.0518133669957035
-0.1594191397383895
0.014026158825425968
-0.02904811860547824
-0.28598748504886407
0.0036117792327788126
-0.18480678339701523
0.20478820921832358
-0.14981180779248848
-0.2720499066569241
-0.045427541866760145
-0.1175610564156349
-0.39246101985991527
-0.24902181307247118
-0.1951734989631198
0.07265970793152943
-0.14100107213152666
-0.0016097777996749486
-0.09986793698388927
0.09091817047957342
-0.14647462461032137
-0.08023339926465135
-0.16317438705700382
-0.06145562180014552
0.05091407461357828
-0.08384448007207314
-0.28294368146448334
0.01799276875591508
-0.19697186336259997
-0.19839577031400482
0.05363013177462864
-0.023316831051135623
-0.018491209792844993
-0.18928706627396932
-0.4452751200671275
-0.19723899295317715
-0.09493634472997459
-0.22441864518697766
-0.16774579177385193
-0.18016374311291666
0.21671765349118866
-0.19600623053850086
-0.24339141066932715
-0.23997962087070976
-0.3178709234573718
-0.3815341155925828
-0.20501662281689598
-0.22500922374546087
-0.138980670253379
-0.21509878084347828
-0.25318941680953416
-0.09365979650107849
-0.5987707918085122
0.5723018799929634
1.933251542385668
-3.3015556779886617
0.12483511863293852
0.023796959421657927
0.10323923064923786
0.053827314919663236
0.2715116770400854
0.3497015731933373
0.10919062044878254
0.09859184175100794
0.17856885033747236
0.0871506566800579
0.07854402599744449
0.2125759766372228
0.26729184580842896
0.5281361039633607
0.2862499965876265
0.1794093629636581
0.025849445123236753
0.20781520967553876
0.2226871744281232
0.19498743370533822
0.2377439621656997
0.1439640023312227
0.13943788606655838
0.10477885194613437
0.1580394077914928
0.19502713205464656
0.2704098163031363
0.265814677219118
0.27660632235435534
0.07520351010410288
0.03367868234270662
-0.004338168633852161
-0.042402094242579846
0.026786716336998532
0.132877173853049
0.31272967588230055
0.28791220246052673
-0.007602138274314695
0.1669265551337927
0.1938864238087292
0.40269403116682984
-0.04715534478982251
-0.03698042903569252
0.17842441779005513
0.17671164135953457
0.44452543937993383
0.23513533015273885
0.3631226687668766
0.3087718449160359
0.2150926489770231
0.10421431105893218
-0.10862756544476251
-0.017885478370687432
0.2634062841100088
0.20225616042084943
0.11261309988730793
0.03490323163705771
0.04439043244759036
0.016124668235011613
0.12521174369596677
0.08414946082835914
0.0013927182669781681
0.19636311678010102
0.1517289532975713
0.1906480011399015
0.07868683000967915
0.11601845759617463
-0.1335889465497617
-0.023612753870853598
0.17994850966494302
0.11067300265662784
0.16830181957670345
0.052379949396966226
-0.08383402184979798
-0.039436535304589
-0.061441966084841745
-0.11793114793540402
0.29574326876743656
0.046477018323002606
0.17709243254213416
0.014811109326046436
0.005134926732342234
-0.1954186340470163
0.11575292284920036
0.29730856019909135
-0.11710211617652971
0.3273963209027005
0.21779862441970296
-0.0227252805826305
0.10380982556009043
0.033373774972228945
0.05142213223534174
0.031164138498381493
0.05039910160707057
-0.20507665984215312
0.22582683673010917
-0.011062572795737184
-0.008486984981570099
0.10951961991235243
0.10588692519612566
0.14937511015700988
0.017684388174272245
0.021383880944139174
0.21963743272958713
0.13705497460765453
-0.08053498623481876
-0.2806999532672389
-0.08002208137492407
-0.039111528329904166
0.17501214760620235
-0.012814027895577784
-0.12403857876459765
-0.245338481694218
0.07598869601181561
0.04228824875275912
-0.30323481343287784
-0.2992243119797968
0.11266628042247494
-0.061081876634292376
-0.02853220931744567
0.06290494855831845
0.41093796033034946
-0.2699217281092062
-0.31401141344477046
-0.1183447645659792
0.07732730276120145
-0.02495290159484979
0.12341917803064548
0.014578911621962088
0.00713882004192982
-0.3769935439588072
-0.19179668985456017
-0.0316948583448036
-0.343736493924841
-0.003951190953975725
-0.19833046834400503
-0.06844638459231295
-0.08207204373305196
-0.07185511687773004
-0.29911883762619057
-0.026485962496886135
0.3567107488524355
-0.08624877507650515
-0.00698781506307081
-0.06794215170322253
-0.11846948823162685
-0.2819276536327692
0.11859747155109271
0.14456755677625469
0.09728214730455231
-0.23234456593348873
-0.0274141012441389
-0.008261910058127268
-0.0369533765388292
-0.20485487374195396
-0.0617915056493145
-0.15070609462521822
-0.06591529306482839
0.002107465065833044
-0.060607647264856464
0.08001448209998947
0.1157882917665255
-0.183786335060201
-0.0663639553002778
-0.13212420613748166
0.052435359438942925
-0.10638857914104717
-0.10916222728768624
-0.22010981273930502
3.8934069596504586E-4
-0.2266070638697612
-0.20176764293108504
-0.12786479673300208
0.05839504731599734
0.06327633114598219
0.10512799052002683
-0.24640573618399908
-0.19289120013461616
-0.11685575360547765
-0.11993652304946409
0.016861819834661687
-0.03499383776317436
-0.36314005027839696
-0.12003057350389874
-0.29880910000712374
-0.1331643764259353
-0.2656082700092782
-0.251778393429934
0.033547472724081984
-0.1779118044112994
0.06612818625506575
0.1950069119794626
-0.11026071860085836
0.13517017278546303
-0.6969537837847052
0.31834470180606267
2.559804347440142
-1.6464260221263924
0.1231222604707916
0.08097985470853115
-0.029414842164114014
-0.1070365846717099
0.06820825466552446
0.02767743365213178
0.12231459488981135
0.18833057842583223
-8.35230569511177E-4
-0.03245492292949036
-0.1920311965737697
0.13800402455466232
0.1441288599456803
0.6359259017630348
0.2075695923835659
0.27317990201646597
0.12075404435293023
0.04539419536729913
0.041231864430087285
0.430539748108232
0.202135558044533
0.5764879070969132
0.041792746203454245
0.15923037431148682
0.046943251525662956
0.20892233900295384
0.27875535156838077
0.21388056457297241
0.2037410128662093
0.0712844254815651
0.1977875239928872
0.22505226725558725
0.15843985078756892
0.2613383850754977
-0.020350425277061546
0.1738367614594111
0.36791005397066223
-0.07864112004039564
0.14753685615805442
0.28132358149629494
0.18131650976326172
-0.17385275069162362
0.05462016022634065
0.08329818248393356
0.18240794495724377
0.1221120084761896
-0.12283114338209696
0.16309040492244875
0.083715569489494
0.20201212505956076
-0.10825669245818963
-0.16019720852724206
0.18164999172945295
0.2643076126581515
0.12014177400655499
0.20381211244081554
0.22438465646854697
0.05487377145854807
-0.012275872792053756
0.08365444695035834
0.22210741276480078
0.028276902746194908
0.019290572595325465
0.13453575721090774
-0.061310146721142544
0.053657175948014224
0.06375485488184875
0.15249132179640387
0.13917248963584405
-0.004410950013363388
0.26490068835640285
0.16506786329492676
0.2743573785095688
0.09072749626271309
0.16901367597238895
-0.07026771147481956
0.002955424147320501
0.3138638686200685
0.35928532703373695
0.1101318154044133
0.2806138535380964
0.15866589991494698
-0.026048691761644475
-0.03760010122164754
0.17468701785569968
0.1045616270066884
0.01841904057366745
0.08677505910545918
-0.018528139226191606
-0.021258470002465907
0.001856475288150854
-0.1690754304891634
0.4671571636501177
-0.23926231361773592
0.37585415692840607
0.06290901139143122
0.10271265703880404
-0.06238105344062635
-0.14889818621786483
0.13505106014979057
0.07224692688523858
0.2974693645073549
0.36536976214867184
0.47217697670446673
0.06559535240073372
0.06691119413028095
-0.18275585162515975
-0.07545384005702035
-0.13371956934777904
0.1657174529269459
0.003768206256369652
-0.04674077639088865
-0.15094803234873552
0.130613194050533
-0.11149065992202196
-0.3721927292433761
-0.26453132828872183
-0.05096637754637395
-0.004597000754492134
-0.1243634035019095
0.16710619980825023
0.18619946435364018
-0.3461904822674899
-0.06132066649057138
0.07453138381147704
0.09728184047517939
-0.01797016091365086
0.12565731443461764
-0.07743345885028227
0.0018767150288113296
-0.03544500343849687
-0.020121565817214058
-0.24301025846141888
-0.05252732643246794
-0.15161300910656988
0.09401819275471834
-0.25274010678840736
0.030544512979931594
-0.07529283414288827
-0.04372671270457044
-0.08698410556147078
0.18333719681619534
-0.09872134571479191
0.0675744738237543
0.10571245923275155
-0.10716950247199433
0.14334442091126778
-0.05118252904778511
0.00498323419500934
-0.02823431205282616
-0.2958855427805741
-0.1424073502512145
-0.0013317710656591904
-0.2729148558571381
-0.4502470624174715
-0.027179620753961697
-0.16264411663204706
-0.020467111485902606
-0.026689475004256467
-0.1905736202751059
-0.018044030823443604
-0.1923961695508326
-0.23049928594400038
0.0650044644760153
-0.022380471562787697
0.0980553264446522
0.18487867549416345
-0.4234618106588967
-0.17005023567539512
0.1832105823846719
0.032460919743786565
-0.15588212423509348
-0.04363703670288569
0.053024503026588024
-0.21111638992642076
-0.296162295036203
-0.28601604871813013
-0.1356449133666601
-0.2637918965396611
-0.11702271707496005
-0.09397318185963306
-0.12265688509267438
-0.16433925296316915
-0.31679600314269857
-0.18519391106684013
-0.04748054538212651
-0.2751713391241906
-0.3429141212900462
-0.22246065621321337
-0.2516694710197023
-0.005789919616679259
-0.024404332585318336
-0.2234508992200814
-0.2702610703019784
-0.45779202273008796
0.6378367773802527
1.605756125378637
-2.519579198323047
0.011032598821830837
0.12355072747980321
-0.1805427654213462
0.16442543502192236
0.15497736941131238
-0.2363617073664469
-0.05431100762997521
-0.1660187987765553
0.06406845144525723
0.08155975703299376
0.06721939650775187
0.16047709301305826
0.4896426882556658
0.4556206318200951
0.04103758767985409
0.1313241732646374
0.06337476522349428
0.10617759044292979
-0.11153176593914903
0.1824958796642194
-0.2126802044261919
0.24563909443450097
0.31468790022320436
0.35447314330450685
0.28532214537976186
0.2301912797927086
-0.036959146077871485
0.0809698326026168
0.3744819417971091
0.20697997723270672
-0.14293150640251395
0.03599123104161366
0.09806418349501389
0.38707842477859145
0.32181246407243813
0.22346243487260883
0.33615231315292987
-0.13669007940209332
0.19793603852804942
0.2856781113557069
0.2554827657225594
-0.07848790152242355
-0.19099747626656793
0.15954400488000633
-0.033968696544498564
0.2657185435166436
0.5489305657661229
0.4821437964979223
0.08917193014108298
0.07190085806080787
0.10938197837884088
-0.31577940840419116
-0.15889891434282855
0.1568691271618382
-0.11120935386551611
-0.012032764360207721
0.27872080655402326
-0.043283759747153344
-0.3770994004642352
0.3303009769285362
0.17477670512602786
0.15217525443897462
0.1124251807128007
0.04558064935614381
0.1779286182662242
0.03742012111368033
-0.1150064725410981
0.1236164915711835
0.18726202368926706
0.05539705519750793
-0.009340459948725793
0.12603904845970643
-0.31089167393844236
0.049195610109709714
-0.06114977824239431
-0.10116441265408688
-0.05899709174014847
0.1179520165766042
0.026213267884319404
-0.13317806492993886
0.0048643889887277705
-0.007694861478692961
0.07597962681733603
0.06780281516382305
0.14360348869493866
0.047014562081358534
0.31373290331970316
0.3382985535379422
-0.011388661447988342
-0.41828914480342017
-0.2232900975420991
-0.17980732252567638
-0.08253233124252504
0.010950752940767278
-0.10231572919058694
0.5428680201254901
-0.05849614994131965
-0.004104172330876484
0.04086759568932446
-0.11368082934155685
0.13550802318162933
0.09112365914604381
0.10470183252927948
0.2333516771954577
0.30649282965457214
-0.3479930229439473
0.3365363693702712
-0.04497274733638086
-0.14107775139681317
-0.06235884992983995
0.0795911447770398
0.11686829433311312
-0.3598853524195504
0.1008959572215913
0.1588117880883336
0.0651691041415416
0.09137718167886723
0.148565371559618
0.12690052893600828
-0.18375369158224825
0.09355152013931439
0.4255419070283506
-0.498481032330885
-0.3511883273399316
-0.11304419551502158
0.13343097961094788
0.1280670401622473
0.007263631768513307
0.22578887433185432
0.38135608068914273
-0.043057300474002906
-0.416160958658097
-0.16126329320711696
-0.3352797807453022
0.09959955066096883
0.07564272731453744
-0.22427284142457052
-0.2796007047421561
-0.02156427485165127
-0.24344878489172736
-0.059580178131247885
0.2128352788965359
0.23343383358644393
-0.4278991746553448
-0.024244631303250223
0.019670318763299867
0.0033351432261360795
-0.014162141753414861
-0.5398838675250319
0.0462548701862933
0.04102498665358509
-0.3503807047905477
-0.12656483048573994
-0.07109891497026011
-0.006487086895232929
-0.2301192615871002
-0.23778822278813622
0.14049717371256248
-0.1678825889833086
-0.21953474659705421
0.21552867705195888
-0.19387208051835805
-0.21362568415924574
-1.289560931934386E-5
-0.2166281321699055
-0.2478843206136955
-0.12948134125954205
-0.13407854231486438
0.0599834841893453
0.019179967023548208
-0.08019763734414435
-0.003523809218174011
0.19252777679993088
-0.35224389647899396
-0.2956486819627736
0.014948276740477513
-0.20808794529126706
-0.21211278499625766
0.008643774378194117
0.07218633999391566
-0.40560549329580387
-0.010183543855995052
0.046609105862066014
-0.1560386536794347
-0.23098617573974786
-0.521213672262314
-0.4012259710500301
-0.06346345323611202
0.11521493211510327
-0.0750124758012349
-0.07278929969147244
0.024017210643565063
-0.17048059212821232
-0.028968528847523437
-0.24820408205476444
0.1353744690763296
2.382693504418183
-1.8293469349858078
-0.1296527494632703
0.19421217700678364
0.13430823725747257
0.3109495094819331
0.4750800471386503
0.09788681984632412
-0.09909699451627776
0.08435383889189375
0.26845223663595097
0.13258196987866214
0.10975601151845721
0.12834813258878153
0.40985005733772084
0.646133397507382
0.36499398339164085
0.16159924645196996
0.024623692186309838
0.2587175081521251
-0.3098354938098282
0.25183882401071533
0.028760193452213718
-0.25140700050422343
0.3118055071091761
0.059591949170829286
0.06502828489358475
-0.059662421567457574
-0.19961009038351366
0.17581344283144928
0.5540379181142728
0.26772886258380724
0.02991023036323462
0.3436042313240493
0.19987955148642905
0.061346594944480644
-0.03512341231632292
0.21187155414254777
0.29109724157939154
0.018186010746949952
0.37811340235134894
5.291992815148962E-4
0.23824692000267367
0.06102478257104129
-0.06332342923091865
0.022620639144012585
0.07440809807357551
-0.09334674329049267
0.006320786991213728
0.14933102680407717
0.17974755015070548
0.06136595976797979
0.05414977905793524
-0.1757497086600022
0.053584486733660466
0.2631735337367921
0.0848848754965933
0.029140283581812684
0.1269448195381208
0.2893133962136887
0.7487716648940278
0.01630104696657888
0.1350080438957802
0.15345522608755016
0.15983983174945754
0.326352942724746
0.092088930350248
0.08451096887308554
0.24005923886906033
-0.16442213897492428
0.25139140261283915
0.16887162821023555
0.12315303207445602
0.04141602897754481
0.24067050450348046
0.03090956272270719
0.08088018922757947
-0.2903663482860142
0.11160181577912087
0.2067862691374069
-0.2447558379268137
0.34158788182156125
0.13540490472511457
0.04003375214023109
0.08800052770441706
0.008380166812536494
0.11239954401233505
0.060822367043443806
-0.008192573221056916
0.5587828649192847
0.296849644465458
-0.17435422770504228
0.2355843443210992
-0.16343377136636836
0.30237175509988734
0.00569664620297756
0.15738926001584272
0.06121795817972324
0.32992747462994076
-0.22927629976767772
-0.1224458314004097
-0.23259614670451065
-0.19993228173344507
0.22236212329133936
0.11198864459580062
-0.3905106612077786
0.2199489237940694
-0.07762265559219331
-0.18714591347214005
0.15996959041457504
0.3088491787720838
-0.5067680369604575
-0.488183794321155
-0.2810943741331404
-0.2504038030647592
0.12649376324310138
-0.47604395982811576
-0.35028071579592995
0.3752013175406689
0.27624351022885935
-0.35853056642129105
-0.5399535376353064
-0.1415879053621295
0.2697729104759184
-0.007156093645816635
0.01575670334892712
-0.4187928037303232
-0.24033768159597
0.13079486060141163
0.1788175783618541
0.03500835405611421
0.14857460892028979
-0.028903708423438246
0.24094222802567986
-0.1334900805422432
-0.6636462478723439
0.06461340469344927
-0.032250715047056344
-0.08067933736211297
-0.0796970525897977
-0.37595231148098585
-0.2481842598760118
-0.09345998223360062
0.16328507649247145
-0.1400903541778243
-0.18310012273961876
0.0908684712315187
-0.29122407318844035
-0.619274146922774
0.3700272774179311
-0.316934012923731
0.036122110932671946
-0.3308704711140449
0.2165078119280851
0.05113728980414611
-0.048153673613857084
-0.06158071496217027
-0.10346459497671574
-0.06003713959942536
0.3011795584075834
-0.09014500046731343
-0.3097367655192658
0.17140958461021458
1.51961586042007E-4
-0.17065155950055177
-0.24461890060839506
-0.058757739585494864
-0.2452546096808388
0.21422462687775523
-0.037241537311279646
0.07499007030668892
-0.2042483674536282
-0.07406648292661243
-0.20790774056110378
-0.018681916701534768
0.06249127736455559
0.5174736395603171
-0.13657952659753966
-0.023774012774019092
-0.3698300170311561
0.10655020043989014
-0.2256355519009167
-0.500803555821434
-0.10303423196757784
0.09703085493255559
0.09003966654431157
-0.29441589548342734
-0.2225514073840065
-0.1554351788298171
-0.2933542733595682
-0.1771708882771409
-0.2074849922044215
-0.16430250771473826
-0.11575904536657751
-0.056768838770424226
-0.3235551928667276
-0.31552973568296894
0.3163079159244716
1.860542454973324
-2.056546069320772
0.2762447697326178
-0.179330274736521
-0.078328862019032
0.02099570205014078
0.02517931860770656
0.5746393011405037
0.005718648298916824
-0.21420777888104517
0.0012465983176983937
0.1387217893116345
-0.07961947095012432
0.011212153458889228
0.2332290172620919
1.2150511830042827
0.2465096770351348
0.4485739236702849
0.4792635866299525
0.32906760604227936
-0.031364135960120276
0.15251038889174887
0.14448561895127832
0.1994896038094848
0.39052477970069227
-0.019393599884073534
0.038382816174441614
0.16888714993362228
0.6178343035893413
-0.2533534673463439
0.09351674332489844
0.16336771925245067
-0.021120090227183943
-0.4337159792027169
0.08131307591921559
0.008737407897323683
-0.13219799117481007
-0.0421623752824468
0.5426145780225018
-0.09269048822921254
0.11088977304350019
0.3584346892977879
0.40669606253795076
0.19251533612767788
0.136226780102829
0.40241337663287796
0.21587060208087505
0.28986136167546733
0.40324277702424377
-0.019756472723700225
0.6639616462925538
0.3049680941600536
-0.11901866613018164
-0.3199530547933435
0.3843154543666597
0.49357894008834713
0.027697319290138914
-0.25823186887749217
-0.07255470111631748
0.04564915840088202
0.23476674124386931
-0.06166860011998505
0.26359706344978584
-0.3738386054401005
0.7207272044678743
0.24901185578096946
0.06617589047912624
0.055149347621115764
-0.39861613902869464
-0.3986344944078678
-0.04645335965274246
0.45220111571765403
-0.5150559939059604
0.35198845868512973
-0.09473795354145353
0.062110302342131565
-0.0022545928815328273
0.23553835524370512
0.29417459422038317
-0.10723928368498159
0.43105955824757974
0.2121018915199053
0.14166134272445877
0.128572585285783
0.34871222358737464
-0.1493646036667741
0.03690722087661287
-0.02817255451302964
0.23120728284869604
0.17653654152127995
0.07232655125403989
-0.2738800500647948
0.034081646744028644
-0.1887787399847192
-0.3035407511339007
-0.1931230472427493
0.14789112507873844
-0.19500140385496956
-0.0026699126946468726
0.004685379943727765
-0.24504121290170708
0.21992354952437887
0.04554913513799257
0.4101350841728453
0.08924349334470916
0.29565955088429985
0.13444697283006884
-0.2761424464920643
-0.6492048266129457
0.15057892431125558
-0.353123089125666
0.02165314357624352
0.30528590355942914
0.10713126082264135
-0.13380229378760317
-0.04937768624146676
-0.1558379070121566
-0.25532802240737384
0.17128841216631585
-0.4062916326673929
0.3404799692919466
-0.26141476990889634
0.022679723195611175
0.4936579308454304
0.16319812244351561
0.26063764802866823
0.13511406471454224
-0.3148947465322246
0.04431474820022033
0.23243597319134313
-0.07313774157489117
0.07855467758090592
-0.4340260162829949
-0.23505125348958178
-0.06675099153516206
-0.15927057146917598
-0.2615501397802029
-0.05834645953539104
-0.3105088343111297
-0.08573407363633631
-0.2863169587549761
-0.21757334833521927
0.04602187053329522
0.4459152174270705
-0.642652343657199
-0.24146347149191658
0.07979427619596252
-0.1313217466617573
-0.041700519429424675
-0.23298362303769307
-0.01980159499927235
-0.014770952998187793
0.07053647584858602
0.11314381390598618
-0.1789309711527624
0.3448906048367705
-0.22507344565151607
0.2590081302927418
-0.21127628471795118
-0.21657452841587105
-0.34435962076364657
0.3489255842098811
0.24058880818605025
0.20069167371051175
-0.3687929731556774
-0.29602416791883757
-0.18674807089672213
-0.03265564953881825
-0.1769926069187845
-0.04360541677682272
-0.35109468255765197
0.451984694807195
-0.4821360397997315
-0.16275414520172854
0.38998246970370326
0.18349972341545678
0.15779972917290772
0.20471077949651226
-0.39230312193863215
0.0797494407569792
-0.027637452398066906
-0.02245371610321166
-0.4742589713056238
-0.2996193658081184
-0.024660600271137957
-0.07565142438513028
-0.19207645347792895
-0.3463397364813134
-0.18455295712422368
-0.45047589571499846
-0.20893257405481397
0.2584860379254435
-0.14907688737842684
-0.17340148133881245
-0.1800013548795146
-0.43177733665527607
-0.42065661862851195
0.3534980875887131
2.7229312666511873
-3.8134387349976224
0.1785975402068395
-0.07995489843683226
-0.1956786596533434
-0.1078793094461498
0.21287248835022957
-0.1226448024101878
-0.19962685402298483
-0.11867268342926415
-0.03518828145490668
-0.05467874526226445
0.16736410903077273
0.5234387583137264
0.917934434147448
0.9944030002435871
0.4497443387523369
0.12505781853592948
0.4684758405024604
0.00373283224125555
0.23504536921221744
0.46175271730132844
0.11209118492748794
-0.31730594968941483
0.2683986741349288
-0.09975623515218636
-0.09536608211868043
0.1410867276497865
-0.19768678448551286
0.46409009765122955
0.026793138116681624
0.027915404122924405
-0.05827823914921644
0.0955474702453218
-0.12352658773583404
0.47224876136138494
0.6102631438273434
-0.08007366633828548
0.0850489959436209
0.12943970542916722
0.17191193799568733
0.3189288742296953
0.35351493766036496
0.3603528444251042
0.005147396980084635
0.03991069097206218
-0.07274125545194782
0.22999215780189428
0.2582772199978232
0.4533905571964825
0.5131732177094629
0.22691099561499115
-0.2968605681960935
-0.1352242572004468
-0.16270686766412634
0.324208951806383
0.23461468566752783
-0.029368379038823233
0.1553917339273814
0.2390017319128256
-0.11394711920929558
-0.3228552025107138
-0.13598293608709186
-0.012520955056489778
0.1080316441006661
0.37539581757074125
-0.04361756406588066
-0.1847697643656286
-0.5107177583770671
-0.08382200350652458
-0.25381567496968904
0.4639406139747574
0.2717935174555121
0.17917968225629577
0.14858576954925717
0.0296675053862086
0.020333381726846865
-0.1686628728252044
0.04579415498997393
-0.45588912780481605
0.3620287005836334
-0.06906880427882435
0.22974823341101125
-7.675135810442548E-4
-0.1352109516746505
0.46518658039193095
0.16241931370602758
-0.07934756913722352
0.11323148292187059
-0.05961272275176608
0.2516358125396952
-0.25607454493565884
0.11630118851038725
0.2528587833013406
0.01777829448423828
0.08278760912448396
0.15110809742385817
0.25526812464602405
-0.10957008653067701
0.3834863627443808
0.22474681519485384
0.29128185286800096
0.40821422587799133
0.1062314936007432
0.09638525032738225
0.2632568538522892
-0.06885228357764321
-0.14653594112733134
-0.013996352148769988
-0.0029248550811148332
0.3458618438358484
0.14864915546310403
-0.22997557556860615
0.23264869623499695
-0.12408512326417703
0.36050415713434725
0.137514343804301
0.06950728780019907
-0.3567180733195174
-0.08661040753894557
-0.10966222377630787
0.15383440452167227
0.27745579332515974
0.07923157836354605
0.03334441329892329
-0.18581047017949584
0.06587767627489537
0.06974482506728762
-0.04552508841130485
0.2223754143857322
0.05868387244292111
0.07939999261075464
-1.027222026821878
-0.266397780268891
0.5588433208624564
0.05346055832671218
-0.30978955199826985
0.1598814699236849
0.10623080945554685
0.3445658120961045
0.07099861012513291
-0.155357332352482
0.13594949147836413
0.13201845506423535
-0.10191749462478351
-0.06953522039913554
-0.1276981958459167
-0.23056465669405465
-0.12822239878520394
0.1465187664359878
0.21280432349478562
-0.08867697040617813
-0.3543511945022561
-0.04124083595753834
0.13823120310159215
-0.3627600891388019
-0.36170900607623074
-0.0897850850547211
-0.9134709904713627
0.2972047315557977
-0.03871546842576526
-0.15200302434700536
-0.44451804891817354
0.1722180961082771
-0.46291111899999043
-0.4474683339238964
-0.3169009743680617
0.2469433851296382
0.1122638997155473
-0.31145810492529197
-0.03530381781668222
0.00762856198733647
-0.27041828066850576
-0.20756882866226004
-0.37953534549666584
0.04042899033808468
-0.12306856695397324
0.0031676678643285474
-0.07993296507710261
-0.236654372880045
-0.05043300491298917
0.3150892000795062
-0.35738453397182296
-0.04251180395221341
0.2707762977006207
-0.7465780683013423
-0.021799792651027286
-0.4429290827505683
-0.23764891268155483
-0.5350715657814624
0.09489758506912682
-0.4940491877514141
-0.07920763318169692
-0.10591254625357742
0.13841820494695695
0.3075483831057842
-0.01662569314158245
0.4718993650894363
3.7077415467919876
-2.379685909047274
0.11158478506561599
0.1279266832012135
0.0031993967782137436
0.6079588515207898
0.10278988808283816
0.2556472408546713
0.4339742592735009
0.19004430239512124
0.2056760618838468
0.09775035737094323
0.36788402091996164
0.5124973286068708
0.563766268813854
0.17333092367888775
0.3984303728071964
0.1443342062390365
0.34016204270296885
0.5915419687307717
0.0670458749407386
0.1622483734336061
0.3864916766775512
0.24260165493833583
0.03109703808441813
0.26972580788181566
0.33563922199511076
0.1923094574412076
0.5727580988729063
0.6150324747199226
0.10390362832573338
0.22493745110866403
0.42326459298063646
0.06599925621501099
0.4229345829346603
-0.10730528020350995
0.09036697080479052
0.2351311838944646
0.2536013433950087
0.07784471895251543
-0.22981878672122785
-0.455366259994814
0.013170277428412622
-0.09962034971720164
0.4821708318124397
-0.06537461746490202
-0.22114245930594204
0.39329451101284724
0.19437062944133898
0.44431728761783285
-0.19150617093743197
-0.04955286986622699
0.6528703833473969
0.22070595817538594
0.08081253938661853
0.015046861179558188
0.21003317240197
0.7321430280533083
0.2197107019019882
0.08805248509061868
0.3401157552136526
0.4156165174583436
-0.23681659360393015
-0.101913323556477
0.3646931961101043
0.031081936963772726
-0.07809456368922157
-0.03840575703366506
0.312253514144793
0.18219704535892853
-0.3496544128742988
-0.026611310999942062
0.40592742560051315
0.0801120180837607
0.427454418423974
-0.07544479252503818
-0.055525043584428904
0.06666162927344972
0.06464666398167493
-0.45082656971837276
0.013234668540258045
-0.30174349427678254
0.6311565914727629
-0.14144935515464285
-0.20766934376320234
0.1533132801730952
0.31942025760580445
-0.3171983243876527
-0.10513828392961852
0.5953178914041786
0.6576313129066514
0.34621604104144843
-0.06209268428722027
0.19313220296343875
0.3728098944990999
0.6218839156602931
-0.6479801130999265
-0.751239765527038
-0.1469532825777895
-0.2603649720707848
0.2637658222240824
-0.16398242423776502
0.17404331765940184
-0.043507539174523796
0.07515998192691144
0.45765552419745464
0.25160852701839337
-0.6219097362585129
0.10626121145204405
-0.42280092246363726
-0.7615603023467447
0.530915874054272
-0.220923223896641
-0.3134304274215284
0.16053888049558493
-0.15820020239975086
0.05439522105185263
0.22676660358957068
-0.015227056159881066
-0.2085348402946492
-0.3689121647596378
0.1544468731359892
-0.1497351466329968
0.4164636852837787
-0.6189555856676389
-0.2163092889670412
0.0020459027008510097
-0.17957620369766825
0.10816352716346822
0.13828782688325914
-0.17745639120714418
0.3408016596803331
0.15354799465597296
-0.19991667440959798
-0.47931333501853385
0.14544257054235216
-0.320170714591194
0.31589149956447465
-0.3100784847930035
-0.5839491099801086
0.11475126541865653
-0.26292110746335656
-0.17192365626030381
0.10593947089901677
-0.14947733497145324
0.09336098013312677
0.07859254640407223
0.0707517350755677
-0.4005588429730825
-0.1345764360734059
-0.23061380323447614
0.3809259176730443
0.21061555397489554
-0.0231213256022206
0.02258980244184169
-0.14446766358456017
-0.21784964999225997
-0.6623553225259077
-0.4025712747484984
-0.648993364557672
0.45913370849721874
0.3085813201928363
-0.2865990824440964
-0.23263425339590452
0.06691893540230996
0.23992669256691163
-0.13179958734550432
0.17075440781116247
0.06365919151743892
-0.259818062171753
-0.486005245033921
0.42105849238348203
-0.16375456236755384
0.21461924390591536
-0.043779945829224926
0.1970957035565438
-0.4731875812845741
0.10303282714451552
-0.21481832000815673
0.2767256700936718
-0.5405487545754964
-0.00550541442582218
-0.22563146461670464
-0.34235404117840235
-0.3506795976239182
-0.4261170649851717
-0.06293387768899542
0.12450674642750786
-0.6346471817705884
-0.6725208488628373
-0.14536760223437045
0.046622498664436005
-0.520846693907584
0.13578309173732306
-0.022482113475255333
0.17914543947297304
-0.5641887643828721
0.5977330238811281
2.3230319322745845
-1.7511084874409746
0.41836947854526463
-0.1901045992372398
-0.1636438108430256
0.3416072012307648
0.24423497539146583
0.889360091195881
0.4353921079693391
0.7345983996523532
0.38761722507748464
-0.0060254059930937316
0.059808272775919165
-0.08447026338929835
0.7153596373557307
1.092894236143312
0.3235772679308842
0.048420187852948667
0.12972772517116643
0.29206229161177355
0.6631260703854162
0.7277167211792075
-0.023100307362187354
0.8320918186457116
-0.105871873642215
0.5129201610925408
-0.30932870483772307
-0.003194920392070832
0.5281953499845915
0.8805329926241668
0.059137712359895185
-0.07913818628377783
-0.4725843047856105
-0.29213456455942566
0.39664292832334974
-0.19026673188513787
0.34621348005263963
0.11699158847342875
0.7900170198350064
-0.6702522891844418
-0.23544066007056305
-0.3156912187860262
0.06396956333477331
0.2127205490886667
0.4608294385494216
0.10253515100794343
-0.46479511680393804
0.4412611491578291
0.47934983512889656
0.597244807147396
0.5717449887050643
-0.1334201183980657
-0.15127285692430523
-0.37052627215497247
-0.0868642139852106
-0.1842962781796713
0.4053846736253645
0.20903962194634984
0.3210537412348326
-0.04245971719492332
-0.5739454663698026
0.05958529614278323
-0.29288866143576275
-0.3749582816770534
0.3667043648179953
-0.032354009853982464
2.1259994188674463E-4
0.3291254739909414
0.6437938401470292
0.04265483030417801
0.017024432483632983
-0.5242657350656312
0.4269310136848253
-0.234492507141785
0.1443726030303307
-0.0061053393681458476
-0.414969365812576
-0.17119612514506266
-0.08470053858203694
-0.00460332754511168
-0.8298968066878792
-0.37577312752080394
0.5263358603001792
0.6575816146517818
-0.47855171969630983
0.7252884098537065
-0.14011351626007285
0.09147501077653804
0.37807778223455835
-0.04573803022326959
0.3399024316670253
0.02463820453729895
-0.09782525909438443
-0.3617798588217686
-0.8801736852593846
-0.057230502440420834
-0.17170868717838852
0.3195702592532471
0.055432571229582256
-0.26444770521156663
-0.014606791247050832
0.19886353815691907
-0.3182919090036015
0.12066495521556327
0.43873078409654787
0.3616093588697185
0.2721725361118727
0.1009856694373437
-0.11475533710016021
-0.15021772977724643
0.2554226585708341
0.38726020269206074
-0.510528909276721
0.2096234682892931
-0.44337200424068285
-0.1654233254464227
-0.08224777626476239
0.09036819109023972
0.07972077297773339
0.0014854081265551627
0.3690088002609359
-0.14040607871178512
0.40388097265273903
-0.4712990682140633
-0.11899063263115295
-0.29646486116877707
0.5638034761102668
-0.04596713448305794
-0.21480374576207084
0.4367409348427708
-0.27414302916109845
0.053939479480752776
0.535095485230749
-1.4308596327434628
-0.3143199449546258
0.3606264170653378
-0.4358573294581595
0.10329077701966125
0.0015456325846770183
-0.33951832667562476
-0.6081848638184312
-0.5279432792364327
-0.06265257051480205
0.075095912899924
0.18866305424064098
0.3839207353777009
-0.16682518158424328
0.2832840739103143
-0.29851587230484916
-0.5375121647206665
0.180342829543068
0.5346051733571017
-0.6049725950692763
-0.7139905630122554
-0.399135122477652
-0.3932900190706648
-0.10338048903205728
-0.3675630487679399
-0.08413513945256575
0.10732051621666198
-0.02901562060986708
0.41268611974838565
0.1153409349720257
0.05245388695386704
0.14131967229163137
-0.4791189974250788
0.11277805163949113
-0.09904966495832425
-0.18140527274069257
-0.009797552165078197
-0.031604057254710646
0.02462401086886619
-0.6612006539595859
-0.2368162075021528
-0.4539996219056443
-0.002410894100193852
0.03914303910682669
-0.2480967455958799
-0.26484737036332695
-0.37322854844577424
-0.5721745869196696
0.06238753717255518
-0.2454358393002198
-0.04131726780952071
0.45870015521079827
0.7083704152225822
-0.1554977594078185
-0.8613135302552852
0.2628732030165439
-0.679974435659801
-0.5352768124033179
0.02204708555697818
-0.23208279238402743
-0.19496405155770752
0.2642820445495705
-1.239201783545898
0.08783829612231657
0.06032241380136943
1.7910478529678315
-1.623854764987414
0.2658196742542335
-0.22088406618549317
0.2305386246661405
0.586111446386136
-0.26893443077071916
0.9093701877912524
0.3745246450259552
0.14598613975177005
0.29422071188956594
-0.18384032356894325
0.7944649475471334
0.42762285317744275
0.39556285492565685
0.18557991630266943
0.20221983551051315
0.4882549773892809
0.3763974439727477
0.06468690515641605
-0.3077520249461941
0.42511503420142466
-0.34462305664418214
-0.24527618629277617
0.057437012736560294
0.5915278001762584
0.2724496633500055
0.08068560853456111
0.35395739323761644
0.9353970519179201
1.234593112550794
-0.010004580594590414
-0.08592874091143411
0.587534627906192
0.2943902239845703
0.06264931480182497
0.06411989769117968
-0.06314739616536598
0.14904934752542773
0.09816658247359743
-0.2529030617093522
0.9199679343154649
0.311587637196686
0.27969835283062305
-0.3363648291764657
-0.1130294940520224
0.20065932524494626
0.405433060880993
0.41315240651393803
-0.09095543565592736
0.49143715997386256
0.149127908241063
-0.03751347931802622
0.2766006302472379
-0.0491123878873957
0.20486082648219334
0.26285028546670325
0.285688323362245
-0.3670333673922719
-0.22661803272375117
0.5903891964096236
0.6958557292766759
0.47213082799840494
0.3661087430086244
0.08236208497657942
0.3295748420619966
0.07340841579610718
0.2957911928202758
0.19573731574156933
0.2088433954655434
0.41822243429807604
-0.06143557491732745
0.40896800694796004
0.6420286483914512
0.47862587554857444
0.22546291661192816
-0.5170915719910507
-0.26506624114872684
0.13870785551407563
0.47727789107955637
0.4540780059232555
0.7419536423614705
-0.34185308337798426
0.21329718268235537
0.13622359484161065
0.17690355328186913
0.32477552772785223
0.14985012508433157
-0.21624171836784759
0.128009561119115
-0.09714961076510338
0.10196970786229098
0.03789077045340895
0.3077832583142332
-0.07233400303331164
-0.2604866902927772
-0.2931156231781264
0.1493618319047294
0.11868226403300307
-0.5558719925921373
0.6816760141675398
0.4842736242036112
-0.32271594967980033
-0.008309244609193148
0.21368989858148044
0.28210235656695776
0.0012247212489755594
0.29255221397764886
-0.3813776509778918
-0.3125615731599165
0.5854466636742734
-0.3293542802147755
-0.5313054862471053
-0.2375890602492263
0.2766924843144687
0.2667506154676296
0.05453956701978828
0.3033111092431697
-0.29858854897035825
0.4536452744453741
0.41307096633992507
-0.05300904864644869
-0.0929064653452563
0.12853250072371436
-0.5999896719411568
-0.1856317078503289
-0.7092909766550505
0.17319906449515599
0.1792974751246306
0.3053375690325851
0.1783711169733246
0.2724186177242455
-0.15373810664627405
1.0034598558431815
0.5407939265385938
-0.2033296899255395
0.1317877353787142
0.08070307201639307
-0.37757441137815045
0.6226433351787607
-0.3139257827616858
-0.053660284891452255
-0.1160908666402849
-0.1219431751118716
0.5671341080464528
-0.18285418660318398
0.563261835623585
0.4529288281340091
0.0166229330274554
0.12163287584483479
-0.1625585977950086
0.303921185999262
0.05641197775191091
-0.406819772128405
-0.14285409076960434
0.2180403770524013
-0.25488627524102786
0.07516175786844323
-0.12207070283387211
0.05981875565413037
0.8468009063715467
-0.8872002334231123
-0.07356846718409271
-0.20704606243510623
-0.5661462780415705
-0.527281630787681
-0.47394283196637055
-0.14287607911453848
0.04408736053428991
0.4879000582791124
-0.4779094540992305
0.4185367292548517
-0.23350222502776496
-0.15346103384692392
-0.2915957042524535
-0.3581952561575705
0.02965984167613983
-0.5925170259676681
0.029650544337605386
-0.5244862488964396
0.13854089183942592
-0.13056427557825018
0.4242882734952726
-0.05838123743844606
0.07850589870713535
0.40607287578728585
-0.2427263141196764
-0.40867080968420805
0.31889033674481604
-0.1043636913279597
-0.2589753775448913
0.33770275014425444
-0.2229787275925521
-0.16164726070778257
-0.07000306004786892
-0.42537005205714173
-0.33616519726251204
0.33538850984363094
1.3404235808771099
-2.5152897856073144
0.259222931266972
0.29956792380861796
-0.31142140122984746
0.30158031497295007
0.08835006082843126
0.5671192498263135
-0.026590121003575436
0.09606224576495208
0.2923596802412309
0.2851544779739086
0.5252019257588986
-0.0393561360303893
0.1862461353140859
-0.6228888303650482
0.28721944708376945
0.1982335013303959
0.6797416779420558
0.6114762845530765
0.22867933977250535
0.27563338721101854
0.07963492181798522
-0.284391642127595
0.17335249599666375
0.43921443168591817
-0.004100107720811415
0.36953381107176597
7.619709162868289E-4
0.4008829089479839
-0.1166968903843741
-0.43403193736775003
-0.16494016542693657
-0.2697786633467525
0.6530224146952126
-0.140796250232669
0.4363402942198687
0.247722249536697
0.773644822139554
0.4698345834002199
0.30671748778622804
-0.22306106412048973
0.4425513357473827
0.5577968640549132
0.6368112091239198
0.49093318590659274
0.2889110860705343
0.39167504733266545
-0.01791456844896564
-0.08680260382695824
-0.14371730236182004
0.503478036691485
-0.07526296333204502
-0.09162828509576561
-0.3181160309552972
0.08641022904755671
0.2066618762440983
0.10871222916121341
0.04463480224530881
-0.3123818605807991
-0.22929972944556973
-0.45707149724584617
0.3874237043826597
0.0037684094589678953
-0.39419479669024654
0.8592395766325757
0.33545759682309073
-0.18427487941515133
-0.5546276850426816
-0.5070260990747372
0.030112617265654347
-0.08238423927518736
0.5013529426626806
0.21382668568021054
0.10036043059768657
0.13447099728089795
-0.16737447439485467
-0.1402345510437777
-0.3799897042020565
0.5121322126500987
0.3568071240468815
0.8449908148843279
-0.21839807237383227
-0.49130077391704047
-0.2181265698015317
-0.38875099115145145
-0.2952524947320095
0.25234702760940525
0.8400954950966442
0.06777524901116422
0.2609171910864095
0.32487535330393547
0.22447266882712288
0.17131163886424755
0.5257792804974205
-0.43419679107238374
0.5290938390133487
0.8707809249858213
0.590223361143419
0.24314776706164057
0.7020635306934471
0.1923038780499722
0.3203754271278536
-0.24117670581807898
0.051499351329369725
0.18171231000685395
0.23515661293352286
0.9830066102421997
0.4432429453448846
0.09413213601645683
0.6247348179527115
-0.33095060601540394
0.998646119959579
-0.40996201671362387
-0.3978098691751707
0.1861467616528345
0.10452560251871831
-0.13915718049588444
-0.1049366170083793
0.45034958624288257
0.7304578937707642
-0.41628645830276173
-0.8869646368737273
0.12389584559560271
-0.33739287833970505
-0.36296156767243126
-0.47381278524841036
0.44579544002689697
0.9185634871015379
0.4625659677721719
-0.1939228382634988
0.166146970387939
0.5698270113953705
-0.04542036661520253
0.7150371637866251
-0.7650066222696191
-1.091157819423285
0.20109881961114953
-0.5875019052520082
-1.0924460589647191
0.8666603846599927
0.0872926941278409
-0.22965891446887254
-0.3755430490193212
0.007856848521266153
-0.7795218778887409
-0.2985907275990272
-0.2706995893405123
-0.014255400185119378
-0.014497452006494983
-0.5184793056803324
0.6801412970654507
-0.9042234701281183
-0.0852223399035471
-0.581610673604411
-0.5138571124462845
-0.30051699411941407
0.21700262317301364
0.3607346830246857
-0.7286591130194536
0.22458702616630274
-0.4858603461114936
0.33887139819039197
-0.01435644520313553
0.3378267575531611
0.41837116001148766
0.34602563536704173
-0.32356984143201056
-1.1215562917050537
-0.47812387831327713
-0.18562032603794643
0.1182578518114616
-0.4482867677092464
-0.9112952418513778
0.5694086817907639
0.7604485770364519
0.13625955192482084
-0.8658019236346536
-0.9552101823489723
0.7408779945677327
-0.416103576060063
-0.28991300824331434
-0.4400074282856483
0.30628445675397886
-0.48062193590855884
-0.2228801139769821
-0.2316543018767856
0.399282671956766
-0.1151128991527287
-0.5391519471014449
-0.3614163261277618
0.35601217911510574
0.5738697069115173
-0.3017371485641528
-0.9151474660483869
-1.2568723058285622
-0.7019252846982967
0.8987549580501727
1.67438390035564
-0.3575569323679335
0.15299204270882072
0.10029957267355
0.1887762735033744
0.23567592746085872
0.16189370686230936
-0.36332442885707095
-0.24229174195681946
0.12879769498717922
0.4343231762558206
0.688026959023722
0.638100430389163
0.1110389930519829
0.9443793058925918
-0.16335705197320544
-0.01271410338145576
0.6058587859885246
1.0071334676366883
0.45776827922654384
0.5235656794435068
1.4265951644325445
0.7606130909350183
0.03154223541111797
0.29198584194742827
-0.20259270451701925
0.022397051642059015
0.9760509458922336
0.18871235964395663
0.6415843903481014
0.2582960564017474
0.095303301808854
-0.1984096422078817
-0.15826024259300758
0.34819579420609525
0.3263117441297311
1.0056674703187956
0.15291345945224788
-0.5161435867924904
0.22763995103072748
0.6416267264694302
0.0036038455387769792
-0.24883377878458068
0.07043718682149419
0.03366079522657863
-0.07684802804662791
0.2392184522356812
0.732563181282455
-0.2254634525601472
-0.013722562067426022
0.2602304053613334
0.22729852247788668
0.6754283052579213
0.4090906297245142
-0.0399016918987462
0.3866865810387797
-0.3361096834866872
0.34774502645948924
-0.13509366509906642
-0.15797595606821113
-0.8541379704791336
-0.06080866260877024
-0.2060726130045811
0.9092397043592797
-0.19634464827934078
-0.23307268173484597
0.5303210406253118
0.3619010038056223
0.4801703695786972
-0.5660026948580941
-0.10305267050745827
0.3279045906958795
-0.5675432066619018
0.34200570422365056
0.513003095904904
0.15360993414329924
0.2562952436249954
-0.3321312463201478
0.5103778502305363
0.07416548233715788
0.5136659067985944
0.6804263226908279
-0.18325578626780858
0.31142329157584236
0.09256296917345505
0.612610964524622
-0.5838963763639032
0.31818720979958603
0.028925542776231196
-0.35937901694973673
0.11213009165492048
-0.12041173371247083
-0.4277271393440236
0.33280945838099973
-0.40843538011294883
-0.23583140974340328
-0.40239058187093185
0.09554589600736596
-0.3777350957708478
-0.041117865719017634
-0.33397466100280887
-0.16137175180077207
0.5833222208456498
-0.45705695104188226
-0.41330589348341906
0.16437365128862863
0.5142812819236602
-0.0766496322868654
-0.9373327726029166
-0.09765488715541287
0.15926682909156448
-0.5069620823369123
-0.25237783721863566
0.11424912827003994
0.3273277389968369
0.4190716566997754
-0.35608234770414116
-0.46648924058576924
0.26813535964635254
-0.10999456743953252
0.812543618737051
-0.23848724654281464
0.635714122490075
-0.3995976691408181
-1.0189176076992628
-0.16433306125044286
-0.22376194470143318
-1.4300115670204772
0.07154765270435191
-0.3149968833435859
-0.21912323729291133
0.12073381134206372
0.37823592606396284
-0.6691635350628017
-0.010481823109651857
-0.47671425011123186
-0.5430379544758877
0.35184295432899804
0.007888955099462427
-0.03404513399536405
-0.17310638645920146
-0.12578101595977556
0.3066943278070803
0.5387549226091106
-0.29315696995865
0.12938404586983693
-0.05720770006723575
-0.5036898065065746
0.4482055448620103
0.39335553689850766
-0.05970407258293919
-0.4514600801784612
-0.6215067523500699
0.13157714614452415
-0.13028629340475034
-0.6563084377807689
0.11591236811760446
-0.30687332089557706
0.08814095171746722
0.6901344610625456
0.512125625466735
-0.3523821393030318
-0.17274151622593265
-0.16428256550373077
-0.3298648149643274
0.12852229509417967
-0.7182373149314277
0.4235843234829065
0.17315644336820496
0.005749790191660515
-0.020653425362361578
-0.3674597683313058
0.35287082923109175
0.19546075263023804
0.06881809714017802
-0.11613443409286182
0.3354496299223119
-0.8990027911087956
-0.009359465301474022
0.2835327617813443
0.30239494545978074
-0.2879765331672501
-0.4231783624193751
-1.1070573767585832
-0.019946371748869856
-0.5312809960005669
-0.6478192763553233
-0.6252336732667891
-0.45645584690561514
-0.2483111341766285
-0.15608725345452126
0.18500873822336675
-0.4886713776240946
-0.22066848318933838
-0.3780233134012957
1.5031444842397406
-0.1136795968661211
0.9280169463297735
-0.11599309292490706
-2.9339169338712487
0.10011446825374057
0.027506809889151437
-0.336552756647652
0.4315908772689708
0.5202511942784462
-0.13100312450465576
-0.43865762392500557
0.5057906394521807
0.11679818835960089
0.512762373819127
0.36028441130564526
0.5366970897259877
0.5760245609282655
0.9515016489529301
-0.2314504515612056
0.7497932972402261
-0.45029399639950607
0.0077715186873927086
0.05901472294074784
0.6682022286526186
0.6017271070267399
0.4801095955428859
0.48393794814359886
0.2565238614290588
-0.2372268404222053
0.4924126382342969
0.9749255028726646
0.7186783007851166
0.4650446402870187
0.20891677049180865
0.5821000961608648
-0.16796663517033253
0.7727327211981837
0.12289051174182108
-0.10588959490886567
-0.19755086663545385
-0.5460542618060111
-0.9205015255112499
-0.33614326571823566
-0.29068269460154644
0.5722798339691437
0.49735571581832083
-0.28830755633045024
-0.27564958119722405
0.01822396257706597
-0.24089511094907495
0.444109529345065
0.5184234722079191
-0.022121317677632712
0.660068980004155
0.3264208336327093
0.04145365773468283
0.3571546725756488
-0.143656385571723
0.7844612231400736
-0.008403967050977942
-0.2064620577667759
0.42968862153364323
0.10878410351459654
0.2565008206349239
-0.3698347318240563
-0.3150801962307
-0.10556804087869086
0.1442150160163133
1.0632226534326752
1.0652516896891764
0.13261873955492098
0.37042796665768013
-0.21056749680096162
-0.33201027299955715
-0.8201627581970082
-0.2832176769269764
0.22576782485352098
0.3193519515467934
-0.48362944873196684
-0.177938101366455
-0.057862577690002796
0.18422787591995413
0.07642949220105
0.2705696394826253
0.15864463109427002
0.02235270674454851
-0.020255300256387606
0.38604386053370215
-0.36906703938281504
0.14310708859062438
0.43860728573273605
0.714029844297857
-0.6247793215687993
0.18837213700735636
-1.0916139641866236
-0.25359164670695433
-0.07215175893841197
-0.6273421447137184
1.28024139055637
-0.1685448182492854
0.1358942856097883
0.04464633073252159
-0.4629849420602239
0.11919700278570668
-0.16200631648658395
0.30274242873815815
0.42364760838641885
0.755895234963324
0.47677268467391
-0.42431619859392283
-0.3567560429070254
0.11038490502413661
0.1758244519867914
-0.25534217528712916
-0.5053994211972302
0.0697306469076171
-0.22312161276319226
-0.06456807459154101
-0.4398775128065118
-0.43271907752149213
0.13907843663359154
-0.5469354250014171
0.35697764581121577
-0.19299345377021018
0.1172558607076127
-0.5962476711052596
0.13629994424262556
-0.2452500423180334
0.19086159035277153
-0.7467880349553541
-0.2173744896872415
0.06641097094632435
-0.5727083926522726
-0.21686688290852188
0.29740192317371994
0.015870603602531154
-0.7296658058953317
-0.2517447502971358
0.34664632883854174
-1.0691733197860123
-0.2648268781484213
0.023364282980597215
4.855190430757755E-4
0.18455626229187388
-0.5034712193793421
0.8845088537107327
-0.2927676454816569
0.5896725124682677
-0.7331971573377362
-0.04835284648024667
0.2741200200719039
0.3518690770323437
0.023140230837023275
0.31180349278849445
0.23853184904334385
-0.8633812355018887
0.0028875749554360336
-0.3793248425687775
-0.40771588218316085
-0.2236760805893835
-0.3210724374471232
0.8000043894273796
-0.36252282772571726
-0.1695043000141637
0.39496573689681336
-0.514219363311827
-0.2133707056853621
-0.05498512824493133
0.28184345394047206
0.6471659514779198
-0.6139741263128223
0.44553430260027194
-0.6469329232740268
0.2867977006778644
-0.4450567079425697
0.4019036878340114
-0.08939205845879589
0.1817261210242544
-0.3888778992679803
-0.389635889278993
0.31865682885534075
0.4379271599247219
0.34087799623739695
0.37148219881382327
-0.20864713071497462
0.14409244261615603
0.20657456219425693
-0.15681022591155808
-0.49700821928765276
-0.018131398907814563
-0.20051738726117335
0.4199479451972675
-0.1986659257845457
0.13258020163824008
0.04382422102097679
0.12588592805434468
-0.9791098818501508
0.6854551411717655
-0.4419420041152624
0.3843312133477867
1.9495821251386207
-2.9256705449964957
0.09105640310151566
0.11404878809518892
0.031621517559042224
0.1572062855319202
-0.18131730333426999
-0.5179965445001182
0.28662497599858344
0.8035042649979789
-0.05048928302458663
0.0914437428541586
-0.3629321378788983
0.2579717076602499
-0.11736561857692183
0.21908948744155696
1.0898509674329666
0.481675280784298
0.9975730206960384
-0.36726784424576
-0.19795399711456305
0.6511877753353632
0.7503553775996658
-0.027825877450636055
-0.16121267951388904
0.16092887005628867
0.5278506399280538
0.23625572050196922
0.8306916009840991
-0.2943464221745988
0.13317842948297412
-0.4831626135932525
1.5303402642290054
1.0572082352970478
-0.2620239257004245
-0.11976507930180436
0.14748137168486763
0.6317392150931948
0.27996720308641576
0.016270878717916003
0.47380564100297234
1.3794854282879951
0.751110201884482
0.6281092802416752
0.4652834741916919
0.37523834174547543
1.472500410370895
0.8715071445448668
0.9916598127874087
0.37084743910836104
0.8697199174757352
0.3420630169931857
0.9280571061225089
-0.8189201977234482
0.4955650176825696
0.759588480317036
0.30256949778685793
-0.0434340932860792
0.4310011817411277
-0.37719646669278756
0.165830593152448
0.18730738980291903
0.26186252828003226
-0.07383092272516392
-0.34333812854977463
0.9662846852815056
-0.05012616147478723
-0.1823323368930621
-0.042551107064301645
1.1404398019201585
0.5056991283736115
0.7832021124235227
0.5425697368772215
-0.23242232304350272
1.0230048476590707
0.4891447608946724
0.3515501908530995
-0.08438674984701708
-0.30970496812203946
0.29115264287889225
-0.48501311484214954
0.0740906843869303
0.6137014277320556
0.8137382207026577
-0.38705851916353734
0.25288310277449755
0.3587528859697846
0.25920865298783635
1.1597559860590267
0.0029392164318242605
0.11123471156038445
-0.882172492840511
-0.3650887634931137
-0.10176143027368545
-0.17303665261923787
1.0015653948056433
-0.1614420758944057
0.2729990390727795
0.7694066562831795
-0.34135344999727757
0.3937925589064911
-0.3520927446431592
-0.1208710051274322
0.16936580447467608
-0.6020995346833449
0.3106786216507904
-0.155941152097815
-0.4008083117732905
0.6492663132445262
-0.16780362208044572
0.6557801045735984
-0.8151207311508836
0.24725972069252716
-0.5745179867242249
-0.2033903028590229
0.13913947324937836
0.028444999508456845
-0.39927738136364294
0.22345958404782848
-0.28220429651087714
-0.1055207170485214
-0.8724321136562698
-0.6342806495175127
0.16887452930055902
-0.5050116850733519
0.3278926544805334
0.4693277797617643
-0.2857100589233911
0.6310759720957554
-0.5510375272801887
-0.22885743889502272
-0.3304533736216514
-0.4357034293045746
0.2778455294707019
0.9583500702930325
0.6433923511331774
0.2779596814746152
0.4016407007845572
0.16134303416618817
0.1580693646818074
-0.13167146680777236
0.25799699190822956
-0.09772995525653239
-0.5048387621356981
0.273849201965718
-0.23246671290136872
0.02366333817071688
0.0875738641768009
0.6646780814074066
0.12553214747225108
0.16553477939505717
0.0987121986079962
-0.3104742215692352
-1.7363495026972429
-0.18694695567734781
-0.9001154629675627
-0.9812667277460624
-0.544840703529183
-0.7047306024029254
0.6273456475706127
-0.42346086436235303
-0.053887980491382124
0.051879614219889555
-0.31554498869795605
-1.0091654768066838
-0.14295174441867986
0.09116091220651003
0.36361016848688904
1.0829354826575615
0.19286960856525245
-0.3172927349306475
0.4033275984577446
-1.1319328504479629
-0.5865416035687823
-0.4523656270900968
0.8651632885479782
-0.03025860698714973
-0.08051914609780018
-0.6162239766947578
-0.12095967816369908
-0.4491271952274882
0.2931165910891279
-0.9218841695888296
-0.2786055463725722
-0.19376473837279162
-0.4177565759663723
-0.35185061267670625
-0.24918960176057314
-0.3517507116695478
-0.7895808099783842
-0.576895249754344
-0.32243651584009536
-0.572774585848689
-0.10409051239249001
0.26935194727508466
-0.5641809336469821
-0.5308591651350831
-0.34602579432838415
2.3760669370914473
-1.5250607552526803
0.5200849286628486
-0.0681678155812125
0.002815645598008929
-0.37643612310751995
0.1583505842193461
-0.40511316578711665
-0.4277425566843936
1.178781977869294
0.23302880108972276
0.43624311895136264
-0.9994177546713197
0.3911380995538554
0.24309465552609824
0.6995421489349626
-0.3039552849152601
0.35093769800140945
0.7863662158416616
-0.30312222391151067
1.3688137980605704
-0.2846046063880333
-0.20667809560325348
0.8137001394522079
-0.2696719887455855
-0.7429060981543589
-0.5568755756986724
0.4897994848306853
0.1678163541594723
1.11929080526767
1.3030421725724937
-0.17619625682058546
0.2260906706208375
-0.25361698291685303
0.9931796136960819
-0.07984985640391885
-0.3273983473607781
0.04428334649008548
-0.25115795783114975
0.23246589523275957
-0.17406431797128824
-0.25483401570230463
-0.03390645466911737
0.04163048578571403
-1.0074736371275603
0.2868745477909293
-0.508335690977607
0.08064364644690443
0.41063066020118383
-0.04844687199013277
0.4095848520918009
0.24757050027310215
-0.220694733839412
0.3517701966834533
0.791241686559494
0.4445300348265097
0.009882294045255516
1.5878675766435795
0.8081641727468578
-0.12209943452315683
-0.2691454054951986
-0.45409024088098443
1.5634557328043528
-0.18763470292380166
0.7308330685779859
-0.3487394274323989
0.5751504929695597
-0.17518159557706695
0.1700871169536599
0.7867218989606399
-0.4460839314669511
0.09174558907286497
0.9863038954598182
-0.005192703974264717
-0.4053212887589532
-0.043734090817461185
-0.5313842616174557
-0.4670820397977436
-0.30348152782955307
-0.21174849715886748
0.40580688579425067
-0.5675669116610055
0.2777534073123053
-0.8330748845639884
0.5197993411491516
-0.163333826928844
0.5146716896986767
-0.27586117872269333
-1.732801821853532
-0.10995880045660697
0.04561151386904366
-0.3351911220846182
1.2047509186975567
-0.08992113396289994
-0.7711669358715229
-0.7689803947661271
-0.6069342825445334
1.1114258207676009
0.31307499539506956
0.3089037290522498
-0.17355239454803537
-0.45730920684691323
0.5726532788675408
-0.0628537425317769
0.10342958225337043
0.4484217978095445
0.5534433610553301
-0.4099939806608864
-0.08333454252460336
-0.4289379892620874
-0.39394465487968366
-0.23098501340711233
0.5009710170020034
-0.7302599256499962
-0.5200769256341637
0.3251573096177005
-0.43166048405971624
0.27431645869268356
0.2487989710892967
0.16425301860103633
-1.0281916957222201
0.5930956180686991
0.22525706466916043
0.5829249786921957
-0.6630149506066089
0.8197522532821673
0.7721819445487833
2.015866635913358
-0.9652587096456907
-0.23872370064608037
0.37668763338612776
-0.53354273410818
-0.8729130382285075
-0.7161134316905758
-0.8175001815934304
-1.071638950968133
-0.4386424550771519
0.00755121141190854
0.7775052777672977
0.7010624851672576
0.665784959044211
-0.090603134850501
-0.45205060107844525
-0.05532377853471568
-0.04213899363096996
0.3668606103269475
-0.035553508885891975
0.1039107703447228
0.1699209463222671
1.1444754887808959
0.47701071277916557
0.3772331538219531
0.10263229908991268
-0.6536669229464738
0.29514160740974704
0.33750324444921725
-1.3951578167865388
-0.20488068173756685
0.7610416421266551
0.4467133156206385
0.2665860967887772
-1.0393148085522648
-0.4946640440666026
0.6776504455455991
-0.3117633704538695
0.2341104630749243
0.3364078235120955
0.4106824578546847
-0.1909052047941733
-0.9537044752389218
0.3487685338281795
0.2407257093529054
-0.8456137945249304
0.16581267338715833
0.3180073084805162
0.6278018091063889
-0.312339219308087
-0.196385369915099
-0.5242222887429697
-0.27545078186338734
-0.43253246410024254
-0.22204756665731035
0.24828252568190173
-2.4716049024268153E-4
-0.5932467868796555
-0.5732731223423377
0.4967255498875409
-0.17625899371917506
-1.0169904305783484
-1.5490994498959185
0.6056378032513451
0.057768953986614774
0.2800220006462894
-0.7257862184295542
-0.016667449235758816
-0.26509210779388215
-1.0772932843823595
0.6715923260008801
0.3508511288157354
-1.5789703275787883
0.09275187312868761
-0.043548597326634825
-0.03241424122415537
0.04233981487826009
1.2026702031263141
1.7157599418552194
0.775530083656982
0.33648210764216996
-0.09467470801611644
-0.22541345824747913
0.11784213183324012
0.14051684672679388
1.264753470173763
-0.9724908646083252
-0.35049052198580055
0.3483512385792536
0.09980224086415153
0.10489125587501451
1.262096571460348
0.49807149793371763
0.2879142076410051
-0.3936588484664548
0.1666545567084367
0.5004129431918398
-0.15281277442739835
0.7561167646157018
0.5174372120688826
0.9437350369204401
0.9765377820786199
-0.7034787626760146
-0.4706694952224953
0.5055182334684905
0.6942271649836802
0.3201718486870647
-0.12747223348037254
0.29211336083163614
0.7556147307253062
-1.3125040220236928
0.610456533031066
0.3860468697598111
0.6621757583757385
-0.41353608261444386
-0.3303663214351687
-0.9332368021156248
-0.5982654372401899
0.3221795355683809
-0.11265792725183044
0.28168689703331756
0.5429924122500545
0.06675894216967578
-0.811220052949611
-0.8319980200216804
1.2098556805052174
-0.26603966689544395
-0.1730916144917121
0.1057549927946464
-0.5435825259678669
-0.6557836258369735
-0.938673191431896
0.5112889561178287
1.223026075914024
-0.47486268388515757
0.5957509853435691
-0.04594464526983778
0.3797292155396098
-0.029317653283278594
0.7365276383233608
0.009149813579168912
0.4258641730286001
-0.11685505155662747
-0.5527047487642999
0.1374807474726201
0.37681641254988496
0.11669029834256828
-0.6260120274183804
0.18215070492076546
-0.2879229062623973
-0.2983721949665045
0.1198300091540567
0.23314990002499852
0.0816894191536879
0.3952262026315566
0.6837177482344972
0.553297195401698
0.5472521823588596
-0.5739760733696844
0.7999818409240732
-0.3674312178886557
0.3096995219675661
0.5264021137974785
0.2886849760181529
-0.14400588553801658
-0.10391014234605768
-0.23010103936291704
-0.04900565719132632
0.45859857222239664
-0.2656827148839802
0.6962746663529361
-0.7413499518763219
0.0896114179176999
0.028883476132693736
0.055023596467632066
0.3534415318561695
0.46194945164038803
0.6182371627213329
0.0706960248521302
-0.8029968517828772
-0.21715639036391854
0.025442424784116752
-0.4006801879759041
1.1219711961367387
1.0945056691232868
-0.815714513249479
-0.03293806633113786
-0.3280487770823526
0.9721388744252627
-0.5589023662339088
-0.1375661898997553
-0.7020409908519878
-0.2700086038285189
0.5310230084498467
0.4056256931911497
-0.7867032238298061
0.38010132778150285
-0.3632357623551488
0.47453171913957864
0.8363895633477683
0.654556528367645
0.5533395983725619
1.271905296045611
0.30144728048122865
0.21235344812638185
-0.32813385141676366
-0.16228566951556142
-0.9800668182048017
-0.9666029155470647
0.8214076678255054
-0.9351328444462189
0.5344741252734807
0.18508954677846906
0.8840972551608475
-0.36459213486356756
-0.018433804641193683
0.10128260611831719
0.3657432571423965
-0.6822790737033901
0.4226948500098921
-0.38403390604731574
-0.0035151871322455655
0.1672565741779647
-0.12588011508024574
0.3772204043458388
-0.32132767650946065
-0.16933037145325275
-0.10729560634482967
0.17998182372351787
-0.20862393823527137
-0.8887686997755454
-0.2704627021868416
0.11633706938291913
0.39428689167094144
0.6087783373147504
0.0598894393740758
0.08803743957293596
0.46960679134572797
-0.37759083192800597
0.08954665196306888
-0.7159177906035545
0.010857808779433101
-0.23490570205834096
-0.7183031612187654
-0.16380283614446015
0.9399401133092234
-1.1385116332498486
-0.39867566803533294
-1.6451906052132796
-0.062067355884393466
-1.6567598357595341
-0.5132486539552079
-0.5368531398762761
0.10614245611901198
-0.16529342411207418
-0.4836912513320326
-0.23354888222065381
-0.6393569925693251
0.9023191312011671
0.27353727668665945
-0.2712528403110275
-1.1488623880052522
0.5536310978926169
0.03563766265276198
-0.04471333458554658
-0.34762834012165167
-0.514527741504232
0.41763316122676325
0.22464129843613306
4.275858531468442
-0.6679593605873851
0.6895464159558305
-0.2728832929410986
0.9715241244754466
0.01415478692700971
-0.2207217261357973
0.5988024351618342
0.2947140199141051
0.4305437650494446
-0.3351558963394226
-0.11228982555212111
-0.5376064440924051
0.44097090775206477
1.4869213888972295
1.6229265112393678
0.7133017549142288
0.9410585642897352
0.19148301407810903
0.7421946663476416
0.5872981841107593
-0.7021170133124737
1.4556160059896506
-0.757756378156857
0.3627961574529221
-0.10748839035487896
1.0236814179984104
0.0025321180197421826
-0.023664622216052585
0.32895551457657407
-0.7821252699621378
0.9978205835182695
0.5031919016325566
0.4114265482198379
-0.4480481783029647
1.5913078714157216
0.35056353097855875
0.5139851971815079
0.6880391822523158
1.6026761419008342
1.121482895310269
0.02520812254471888
0.2879209799362336
-0.3237715148128203
-0.040332535544655414
0.94309276654123
0.2127677594539871
0.5314672818812421
1.7319906082004508
0.922925415891448
0.8155129391454038
0.5587086743556161
0.5041155170717262
0.42373037344713704
0.3558877080483855
0.18680534048468853
0.09800855142922245
0.15147327612813183
-0.17996965423134256
0.9602612345334277
0.43386886278933445
-0.4472141473822601
-0.2319024413881016
-0.20973502304611433
-0.10880113400075378
-0.39500426044758935
-0.06184242897447815
-0.05759918701202194
0.08622864008132877
0.6362204546206437
-0.32308094795525455
0.6935233948816576
0.6934367197368646
1.3389652692299
0.18218821666974425
0.09163449743334925
1.0697547219716683
-0.1868626082510493
-1.2063859024351604
-0.4697540063513872
-0.034658139466376386
0.13525824562708047
0.010087748808258854
0.4294977163032957
1.0069845128218302
0.14756711357474983
0.5552111085960941
0.47498910366142993
-0.6822062852674774
-0.3232331763202958
0.6139214939375603
-0.30506746043228394
-0.02026738697614836
0.23216681343634804
-0.14730776537781193
-0.019215948842350575
-0.39785661587737164
0.0016947773903746742
0.10140457514512945
-0.2515727988144124
0.7263997020926152
0.7179494040835693
-0.2619850560441214
-0.9634759611966437
0.685043004287415
0.07743297932552287
0.2696872879892957
-0.06935847600509074
-0.3033009607673125
0.7348911056606152
-0.7676066016951605
-0.6131187901499671
-0.043841677292990724
-0.8537481305213643
0.6009037019023408
0.8789843939985321
-0.6709416360535098
0.31858234818831
-0.3308103342978844
0.3045283453546296
-0.5642705492639367
-0.9355004397241048
0.9801111419434465
0.15030029910835185
-0.639495400295746
0.08687603445822537
-1.164918285588956
-0.5744294538395911
0.42088618845361997
0.3513473044871354
-0.614886598728962
-0.29544549079050236
0.5373022663262406
-0.8126514129767262
1.041245025362254
0.34373324386728893
0.14279158774039746
-1.0368648661746187
-0.3745955738203457
-0.4477971258870749
0.020228178174073214
-0.31704555592124234
-0.1087122391051991
0.6878799402204361
0.5534513116465853
-0.7108793392052467
-0.7640866440232104
-0.4724339599424007
-0.6346129562249369
1.109183316860071
-0.9417318236727691
-0.9559342200030898
-0.0492894855222826
0.49897550809334784
-0.3196969390419163
1.348814118234487
0.41810391076128955
-0.5824788386128678
-0.4954026137711171
-0.5236295195642644
0.8335611913770171
0.3838124183250054
-0.33255984810787687
1.2877942306869823
-0.8353771518000613
-0.9334013853987813
-0.6502020394694086
-1.286270899298272
-1.1400819524324586
0.6035658643720055
0.15237064904032113
0.03266802927687618
-0.5811810510527395
1.521944665873399
-0.04356153977382463
0.01968653624980593
0.349425430498654
0.3439626763772475
-0.406895819883961
0.9765785512239636
0.7931863407371478
-0.4227732281664982
0.45937185810778475
0.37061960010976913
-0.05518109197109513
-0.07431857372053206
0.346701082984325
-1.201431074271148
0.5414269992991881
-0.19593554493777623
0.19059379655269043
-0.4258968021255997
-0.5814478954493422
0.17426997932838517
-0.013099221663861235
-1.0080260295127526
0.451983519438195
1.0053085139063274
1.4512915628557836
-5.354860251245054
0.28712150888050586
0.38373956688266486
0.7670975846130007
-0.3973867786863498
-0.05686175498485455
0.7351102948676744
0.9506694675924057
0.2940984506584545
-0.7273565277895162
-0.06510015236566687
-0.45145014354761487
-0.834727827613169
0.877042308322576
-0.1489807645129611
0.956015699866783
-0.047470872835763546
-0.24258283474096057
0.6486556247243387
-0.512380726280762
1.051156138827567
0.8222656375883433
1.886178955376358
0.9690557821873148
0.33472261511001555
-0.09140585226813813
0.5759183762294986
-0.7735043281660519
0.5160060652164495
0.5559147907850621
0.20534006598788437
-0.07989395231756684
-0.5973408901116909
-0.8008041148036203
0.4143717723245852
-0.927381388721776
1.117723274889178
0.394990256827298
0.5899166907186049
1.2217126590000928
0.5073533017693926
-0.07602389800884835
-0.7500789337283814
0.5168805346685906
0.0017480855722660108
0.05660690259979226
0.28532376471796866
-0.3232486553908561
1.0776923592311114
1.0604998511141503
0.9319378521670988
-0.6066669972099539
-0.05088084497422029
-1.616919036627574
1.2091488917056685
0.5239256946122723
0.7082850346668748
-0.4457694739461483
-0.35744074123478914
1.1679043646792566
-0.2814962042193497
-1.2557311379000107
0.02873944809767406
1.3372958983193046
0.1982563237335831
-0.34275567847061406
0.08630237946331844
1.3662503060218185
-0.9038818825426297
0.44686492677771217
-0.2621759260407577
-0.34989480479641966
-0.2710832540990053
0.232903008277335
0.17728130674039025
0.10957516969898859
0.8448343672499794
-0.3297213072731821
1.1148491608035078
1.3511669082893016
0.14097076107620657
0.8328804017792123
-0.0838782694945843
0.4992247747059582
0.3417733323785924
0.17577547631180082
-0.060981771964912106
1.092623711696589
0.37305705248095533
0.7320668684693048
-0.6114053184190209
-0.6722824861907065
-0.12551653046450492
-1.0036743905662275
-0.31362397004977866
0.7030908054890065
2.1895943594674336
-0.5700693192811203
0.08266628131833995
0.7858314884300629
-0.4117917835373312
0.34248669371389445
0.024518244413259633
1.0181497103475594
-0.3292188624779449
-0.8478243743941755
0.2765707500713733
0.002019089585114279
0.7673591468085796
0.30925473947983134
-0.3504582425927317
-1.077094563784919
-0.2895847381694833
-0.5586060669919576
0.5433296230959048
-0.0883393107534023
-0.7272209867941172
-0.5038567962259028
0.19300554559670868
-0.5941380472285528
1.0042122201192518
1.3892497039165301
0.9756506788749346
-0.02154059697847816
0.30302798112624996
0.07584673461289776
1.5980675085130538
-0.4506839390177175
-0.8824777940361103
0.26449658579725593
0.8437840302267876
0.7852770534236115
-0.526962374745343
-1.0102051957716085
-1.5671231126623049
-0.292805377402587
0.016907151543928915
-0.10761260600130824
-0.7060854226868091
-0.9403439538233739
-0.31681506109316326
0.8746931089633426
0.23547001600951234
-0.740679612554284
-0.7596373854257352
0.7815224197651885
0.6038705314738101
-0.724022764233541
0.24757147583718864
-0.5259412567647622
0.9596756900773903
-1.1592111798189169
-0.2681318214148756
-0.04465121438056694
-0.3772322903412517
-0.7463676616653837
0.33931678562649525
0.008436144160429293
0.20361662412269751
-1.856781668094296
-0.799141526929784
0.1464862628037175
-1.6430169875212457
0.22963717114252913
-0.768221537909188
-0.6180017779747172
0.29281778233923544
0.579232749305989
-1.0295214667734092
-0.17515232500980835
0.07860427295032077
-0.19569229426976967
-0.5438508918129145
0.042919343960741506
0.3177573985668491
0.8778611188148472
0.17564137867574245
0.13925240849498804
-0.44975047607325164
0.81026196039755
-1.729346795505603
-0.6716654573579527
-0.06467168188287319
0.5890638342977591
-0.7392114680155636
-0.2037836772972372
-1.3000610324096773
-0.9503408690309643
-0.8231044311520508
-0.3176766870505742
-0.2465216596296315
-0.380688747519836
-0.030409888495236626
-0.6612094776324073
-0.7464271616909529
-0.7923369657559058
1.1585339561603527
3.430277183185389
-4.685864369535056
0.5762339848829513
-0.424798568485265
0.5385073733157448
1.0685860147770352
0.07343857765771465
-0.08380232587412052
-0.3089717490963966
0.0700661209930149
1.3090742874037253
-0.28495188505672264
0.9336061308581561
-0.5299141114477018
0.23491457280843647
-0.3156730241622293
0.24591968505425973
1.0213087665376142
0.03729855025268033
0.445304422277361
0.715925143573235
0.13086415022210743
1.2682284171917224
0.2382190180488018
0.7227502631414938
0.9356716392367745
0.2197554250643625
0.7170247820039024
0.8459000095984397
0.2642745376465785
0.35372762975729577
-0.16331698911268094
0.48105985729392226
-0.0950826537473511
0.043896243425474
0.8301693041769785
-0.18203580014973453
1.0020751100803948
0.4112884453127624
1.0108183834411004
0.3755455475761031
0.24219393673412581
0.7677068667096787
0.29278904924019
-0.36253656197928585
0.8700210182824587
1.5813140603921512
0.6323182844391392
-0.04743960069549055
1.8530190402954305
-0.10212055497530004
0.9015950309131829
0.7231344809076409
0.6588558814885611
-1.3408376768888355
0.561794841043466
1.1179009667203172
0.345317005148886
0.28156478985950417
1.0303715429137255
-0.19167280167495593
1.1740864110398357
-0.015763305958323023
-0.1338460185962361
-0.4213307209224313
0.5783053143534339
-0.533297726641241
0.2578955848395579
1.103188279890885
1.4945170577260265
-0.11581315669234518
-0.11007367006049953
0.010103632874212554
0.425721918096469
0.3125894199476291
0.017073928372757334
-0.18851602004539367
1.0972234051357597
-0.9582676273571539
0.4670940625005867
1.2929699278100504
-0.4269461303278482
-0.3315763801086667
-0.585303256725369
0.15383906758964433
0.1011039440124704
0.18561426031214454
-1.573783588038476
0.28142231970788273
-0.2557235506385165
0.16696202120514272
-0.09316894181112548
-0.009063119312957356
-0.5162326547924356
0.3495845607726193
-0.06789958164407703
0.3045766949675005
-0.27139842515095086
0.34004441481129183
-0.8859238516428335
-1.0314710132853249
-0.8096101303426336
-0.4257128384001459
-1.4144289906254777
0.1346940778039585
-0.06652669662785843
0.5898434401621653
6.828626399335274E-4
0.3702850619965764
-0.3492807258086146
-0.9087160754614694
-0.8935002928613263
0.2614708761306031
-0.5981562814387258
1.5495833414456048
-1.0451242026282785
-0.33010432440545096
-0.7097070639809356
-1.1783365328093331
-0.02536172245186099
-0.7730180153516018
-0.043353054320268224
-0.2328040806282664
0.862005727888754
-0.6309974793114906
-0.6146782457034333
0.08948299926463535
-0.788889242529618
0.41514416865897313
-1.8408938940690154
-0.32507024883267865
0.25736610883324196
-0.12947191515072135
0.12801836799420338
0.09675910318745999
-0.1929206369486428
-0.6341975288600685
-0.23026082313186416
-0.3654541149725563
0.16620806772280156
0.44635310561874064
0.00797845698972856
-1.6776438362331914
0.27867094445434604
0.3681004056904768
-0.8779619359886124
0.2562591347345493
-0.1281577892843506
0.14784501702037076
-0.5145988986487854
-0.6443623075679691
0.7114591908864911
0.6924303227874586
-1.1801919167158978
-1.1353522848716087
0.9797224599542493
0.8190752335095552
0.5626428277229428
-0.16960355398753355
1.5751013932098936
0.036313965032642524
0.35349779587485936
-1.1011525134173508
-0.6088266805904168
-0.005378222009019751
0.7810128140949465
-0.5372135851685605
-0.053419297926761054
-0.2326350999279263
-0.9109529597561022
-0.9602855516183909
-0.14674070906237574
-1.388938541095972
-0.24120536485790345
0.427674157387603
0.35566794024146986
0.1544438265627435
0.8115927958370034
-0.6654946525314537
0.0857500407218028
-0.48211683322162474
-0.6887804404900748
0.43143463094961976
0.07661067063334204
0.565621399888671
-0.8132373464151209
-0.8082056720267563
-0.7804632307442793
0.5639477189712779
-0.7945172712121502
0.18379013594634966
0.8030651541457254
-0.2286150310861577
0.2600103009092296
0.40393009839062466
-0.4873964238417141
-0.5673345768794115
1.1605513413797741
1.8926661587435651
-2.5713269293525545
0.2547521718389984
0.10142499465031957
1.3329557072788383
1.1064665890725092
0.5782098655217087
-0.6020614799499852
0.34550578773412616
-0.19477461043550956
0.740762762731567
0.2912924690562615
1.1640762801040203
0.8620084691426638
0.8820312865448294
-0.6282058192329177
-0.11140593692314693
0.2258157322834204
-0.2342449482789722
-0.6454286253600958
0.5457478811459819
0.585681247986309
-0.15880589746750298
-0.35562394079567144
0.23358293719076847
0.7941781125936536
0.9588554759595065
0.13125143750251247
0.3214753239533335
0.6274099876921844
1.5772331430957431
0.7735766564997479
0.2753490775817756
-0.12830206654437393
0.033451748265898196
0.393004985025229
0.24331475420463355
-0.08281685768307781
0.5564391027823217
-0.501689225621006
-1.1538400597314296
-0.04209765290679449
1.1765431683080094
-0.13272514702686614
0.3899670639111678
0.04745652424805473
-0.6819878356060816
0.329202441247039
0.5579801625896829
-0.43601298291489426
0.9900608604449171
-0.296130851750451
-1.2172909771155558
-0.13252826850940533
-0.21886427794447239
-0.0659626442821695
0.9109023809192234
-0.923364960426889
-0.3217712637095276
0.20755348333294926
0.5121580208074945
0.21870229821943327
-0.32506855443904503
0.7913065390275339
0.5105065719017433
-0.7736900498540293
-0.010112009927473504
-0.3345620735551881
0.2184402465332115
0.994937129922886
-0.6466042224989812
0.1845695489170827
0.04517872221443976
1.1098473025316957
0.40453326314266536
0.3541262979115922
0.7745267411072062
0.3197205594859366
0.35578191328251446
-0.09678002101943056
0.2146177278439144
0.24865619574263914
0.0032597678548403446
1.3253016711431824
-0.5372672867330511
0.08358189033343122
-0.24730877117338398
-0.5806268277109702
-0.5172495359144454
0.7596159203167171
0.919999311700637
-0.5281073558493575
0.1588425676125421
-0.14488759572217477
0.3382535628492813
0.7468185048906142
2.297453738227416
1.059962628002826
0.23472084529889342
-0.24331064926971185
1.056478188219788
-2.0668022391569703
0.8631987574407683
0.20349995070054452
1.2078820510374697
0.5565251080069528
0.12405151741594754
0.5147569380602922
-0.5708292815482304
-0.13464830784890683
-0.34377336301478006
-0.2599746076656289
0.1984539542477495
0.6905060481912649
0.43378793045036723
-0.2503568521580361
-0.3155251668939607
0.15278300381430168
-0.01946362545598587
-0.37152096256096273
-1.2133721996281617
-0.6481386743807245
-0.40195982108043415
0.9352181049051478
0.44849186593654455
0.07446179259667601
-0.7745359472668759
-0.6675669596164395
-0.12129284805799642
0.23990148871482805
-0.4037788160091864
-0.5378393184922506
1.0607176941044631
0.5374398655616536
0.3677006596853607
-0.43593718066159076
0.5223026305566864
0.34262563017720565
-0.8688777127470813
-0.11817803001124946
-0.33279861631331253
-0.05703328782462557
-0.010198906584391551
-0.2124321115502654
0.42104055792497036
-0.2409283678369151
-1.111610622105989
-0.5885068857175513
1.202663554110906
0.7561332729551477
0.1624199975998567
0.5766456258154627
0.8943033668375912
-0.49557717829807574
-0.5305998946654703
0.0020701966283023852
-0.099196279108504
-0.20162154094185877
-0.4052129301620773
-0.3253436112625292
-0.12455754807290323
0.060751574349160585
-0.489551750261549
-1.4852452190140235
-0.4729291852401438
0.24008873291464275
-0.9365545019308479
-1.1318789260436999
0.6616323079418465
-0.187222356854048
-0.8445407100957821
0.21587857879615246
0.023923752812163537
-0.09688263603250474
0.6015867962668534
1.0796523529316833
-0.45067618762476985
-2.025216776496946
-0.048630824648677885
0.0591027020577122
0.34276787142819604
0.7799346915431629
-1.4610004990690328
0.6647821066742414
-0.18006970823984964
0.01295675121318773
-0.0630750781335222
1.8947481833662647
0.44514647457371026
-0.876739003064744
0.5650094206714297
-1.1506428398979456
-0.2681301947788811
-0.476117786085999
-0.5386671410373511
1.6808731350742263
-0.7969121064259083
1.1549383971765486
0.13748772903326997
-2.575611671115127
0.679707911837198
-0.18813394407159556
0.37996164614679495
1.259552434307972
1.845618211403062
0.11285382948894852
0.15003514545575672
-0.09801946984885102
-0.04437803563476419
0.3321615695810972
0.6489464426264618
1.2199550443660143
0.08371676834422309
0.545023674733175
-0.04541891178591242
-1.5152874616850183
1.6024434170038737
0.6193780703835057
-0.47389080171255055
0.1294010663933298
1.690505975365383
-0.04984023599433624
-0.0663647122648977
0.5502297861517031
0.31353767290782286
-0.03058930391022188
0.12966414730061593
-0.0167566138328602
0.5858714074180866
-0.6019894750976604
-0.4160804744817699
0.5341449990733245
1.0854451787566397
0.5071167482244848
-0.3123612496036558
0.3810585536369774
0.09453935578786508
-0.922281641114891
0.02293070684174268
0.020549179974202858
1.3188967218900518
0.8371836482253255
-1.670943035470201
0.17927120224551235
-1.5540549449832668
0.7564214989294344
0.2558671380790771
2.0068393659419397
0.3611934472072698
0.27059514440044247
0.2445616836734591
-0.7840190692456068
1.13716674903999
0.1810613555093499
-0.12396519096522864
-1.1701497032861237
0.549027350967933
0.8395299854074124
-0.07871364371297772
-1.5134378352983902
0.07588202655221117
0.3966717711966887
0.09021884949724901
0.27216325316606116
-0.14797320645035253
0.06123407436249121
-0.6555391845004825
0.18740169660996325
0.8105384679691879
0.11654747629772823
-0.016041772927198498
-0.14073111304022626
0.7026402514791269
0.09103749819067504
0.41154712508880203
-0.3539669944879926
-0.4252563053658404
1.171358486725366
0.41929492931390633
-1.0726534183279643
0.046736963596284126
0.059206343385943806
-0.41457392000539023
0.735128297846606
-0.4010993744393629
0.5285602107063467
-0.8013503478357026
1.4620560182131697
-0.5158369101030099
0.5034764553038319
-0.23153784001789388
-1.1018941669965239
-1.88466217122423
1.238620733911321
-1.3203142992162822
-1.1766065640605086
0.3921046289615707
-0.7764640685670505
-1.0533206243791344
-0.9238756382250729
0.06246617473603725
0.8684546022470347
-1.0863607055440503
0.5714494459312636
0.7129211867086321
0.021901175466609885
-0.5805547678623794
0.18789954008297916
-0.3474169884035436
1.1215407896555483
-0.37358537795361485
0.9018774829333251
-0.06119725008246712
-0.1788353039783975
-0.6036053610068934
1.5719594514196993
0.40200112856096076
0.2670037380144437
0.9021453904607943
-0.04097415698946964
-0.38370415468823893
0.5509422622857911
0.4228022870196976
-0.7084093809184371
-0.2920351975587066
0.4422124664090049
-0.31264491829816726
-0.025560386122770163
0.19583910705322857
-0.06482211747095873
0.5444050976588027
-0.43979050050518764
0.11765261940343241
0.1044129066375632
0.31697254574381895
0.6232979834980874
0.554619715955794
0.4912730256400907
-0.5059627201506146
-0.5622021796133118
0.22054655493619715
0.09695592503643477
0.11043832243595954
-1.3271296260386425
-0.3321688430690198
0.3825491507753046
-1.4412241178852165
-0.9991381322055126
0.29237544145943495
-0.4815803750061649
0.4015536987247922
0.48276033869321
-0.7157617325034727
-0.29302252019771025
-0.16879633627356488
0.7951565568429136
0.23533569148861053
0.5501674303269634
-0.5720367248497118
0.7693656711154149
-1.0511639948334026
-1.042183526060312
0.26890090866384214
-0.9583943076988629
0.4472018682228812
0.7266714850471518
-1.3778169635117075
-0.33364013106724877
0.3488532860839781
-0.11416182784352374
-0.6249055958659675
-1.3266603160714387
0.5776250320593936
-0.5113120538991628
-1.382222095351386
-1.3126957480801986
-0.5934196951798829
-0.7972354032508072
-0.12963125342194246
0.6040553189859078
0.28645713905828285
-0.15055433399290247
1.2735010935136837
0.17503989484147
-0.19116179830986568
0.5214093230255042
-0.22076969837130642
-1.099466557810615
0.9141284424270967
0.3987879340333045
0.3339438495556587
-0.02191470433569891
-0.02177689687287324
-0.37147864531252656
-0.5525975780736001
1.7858816869474066
3.131671167259427
-2.376860585769506
0.33461200637810057
-0.05360795374453193
-0.12140423645724112
-0.4003591488186222
-1.3911486343955874
0.9321971479184514
1.7632672027500553
0.3794052053237926
0.9112834818916868
0.622330030614393
0.7179210983409616
0.3751398473771224
-0.6176935089909155
1.1644383001481353
0.9456906517330953
1.3724501361863766
1.1629233451699346
0.06682679871509406
0.6935269644689406
1.018800583676348
-0.6542562543325369
1.5880260602097773
0.6302872446128375
-1.5090390870735857
0.7129456658162351
0.9931050890073868
-0.15239343587636572
-0.502377102923529
1.4453998633794314
1.9388157618752027
0.9049171129279031
0.3971185691222891
0.3234498648393812
1.5766783050564397
-0.6335550914955961
-0.11961397613808626
0.5644129308202703
1.6514187786462151
0.9899853736433292
0.17332096890577267
-0.3004222036656156
0.8977644792984948
-0.6333970958424933
-0.8167030860536746
1.0637666056042479
0.8049590445559154
0.7123805557469627
1.7438822658374507
0.9374116636636334
0.14579959180727392
0.11126748396547478
0.06876209908631337
0.7854880365937057
0.4597725712749246
-0.6967314113529125
1.0740342218165608
0.5728309295667768
-0.28846053136860506
0.7185543216325652
2.699815206039659
1.9363292978897506
1.2422149960217175
-0.2558464656872438
1.4754198949680621
-0.24749859455082907
-0.025018942392556667
1.1527158020979364
0.56722071532691
0.14122921942303
0.539301325380536
0.5356430342338246
-0.5337169833579424
0.2583838166617575
-0.15242115556359953
0.05671093065791514
-0.5047616683926612
-0.07401406801535818
-0.4661616232055711
0.39900316875238995
-0.38470973667189856
2.4280367799315763
-0.2974554252889727
0.2527403403052052
-0.10167496967113247
0.34209417587329616
-0.16772546464630309
0.42108740669888406
-0.30682687997862323
0.7162780385767662
0.6684373386111997
1.544650826140448
-0.042457587510330554
0.6391707532346292
-0.9615286956877471
0.8118977431461805
-0.6818857692462743
1.5201885536766948
-0.09824946155115624
-0.733383217058837
0.9267537652652027
-2.545149692867746
-0.4687432600243329
-0.22622684021783948
0.8852508834656325
-0.05596872463278899
0.79506593711117
-0.76369146969354
-0.21887151768966673
-0.6905198749357192
1.6485671086742886
0.0753101668898264
-0.9428561095988447
-0.4374684502728342
0.17938905586172574
0.6523475942054132
0.26741975040216753
1.2109439199372216
0.13499442989884372
-1.258319734123406
0.09302968871386066
0.7124160920439385
-0.8383782395451931
0.1712546919844608
0.0594366788107654
0.456579815140206
0.26663701606949186
0.8875618083852163
6.969957628558149E-4
0.46960892616386174
0.5020120524774327
-0.47230169901593444
0.5982282640489474
0.4838202663651442
0.5199159942880982
1.5147879335387309
0.05720949531352177
-0.787340595827473
0.44860645850376324
0.13244778451629038
0.4582281692741771
-0.34831084191473904
0.3611108717969622
0.14003168911529998
-0.5724177820813349
-1.2009930652804073
-0.27919716562812447
-0.4002275310201319
-0.11575683010719498
0.6170824883346914
0.1724980977730352
1.3045239464172607
-0.5925315588696141
-1.2715660772573358
-0.35224615372476636
-0.299462813386032
-0.699021654476165
-1.6185430936169332
0.04362755931774436
0.39381125734550304
-0.33647585975827454
-0.01402132679890579
-1.6733998051791765
-0.29337652099963024
1.2540986337396085
1.4999412246864035
1.33965654035369
-0.42290248507472533
0.05994552249013149
-0.8296445253975785
-0.13389939023620032
0.20229665182442277
0.7540220612207221
-0.42884773232698115
0.21509885660892045
1.126396152398287
0.1393647318848936
0.8903722616524868
-1.2995292013899038
-1.1531152383100067
-0.10774851356222306
-0.7069551660764231
0.05737661500537239
0.32596327716247425
0.024150853946951153
0.45212238095178225
0.42174960747761986
-0.27269918009737903
-0.3652420679217944
-0.5282059527320823
-1.333944336183684
-0.20879244362437965
-1.2097650948536478
0.44555495620684304
0.6691040842629377
-1.1007140483993276
0.48407497277283523
2.5609584547451036
-3.352041308684186
0.6159951837542176
0.6579304256126339
-1.797362364983138
-0.4369073395631228
-1.2702816034208382
1.5766154818010387
0.9318792687419379
-1.2045315109287202
-0.28473475459321784
-0.1290856867695117
-0.5230335990022081
1.4974651270305572
0.3961494379423003
0.7960974962706866
-0.08237734107814043
-0.44884739190100886
0.8494647372640193
-0.07609374222993749
0.15275880481987192
0.6809008278189956
0.493839585905207
-0.12373911253119392
-0.6450112990695074
0.5783729056132908
0.9706335125630188
0.3579090821621554
-0.08509560891505247
1.0959505753895982
0.48499975464080414
-0.3975214489862759
-0.15875169991112525
-0.6383834623848725
1.0517545319258423
0.7488262962249513
1.4792488828723023
-0.8682128055642843
-1.0116251522200788
-0.6106105393383774
-1.2823063493001656
-0.11826093238278991
0.6722166689531252
0.3698012373348915
1.7175052566801998
0.8488669420588152
0.8126514013428922
0.6966307318968475
-0.06758357216097999
-0.5367341086586157
-0.6418176236107479
0.763686466702427
0.3729818714629882
0.9707284439740297
0.09561178490930443
0.900753113842255
1.1420104749757587
-0.5199400384623778
0.4751427023424182
-0.26582602263442384
0.7563945882512175
-0.6492814460985123
-0.22095936505272892
-1.1631878281355352
-0.1349026091081419
2.4382181041412228
0.2302160808434575
0.21825176923506892
0.05485186423314932
-0.3581882111122719
-0.821862403218982
0.9712410099346765
0.48372998879730084
1.4335009411602262
0.8285760202801473
-0.2585246691984729
-0.06829188527384282
-0.6187510427333297
1.6045380562248919
-1.6295942534450856
-0.3261974324405577
-0.6551054043330383
-0.4117113998681512
0.7422257832322697
-0.8522930461492174
0.4635307130767404
0.8377863274779392
-0.6835102041343549
-0.4529614741988044
0.8871641868839445
-0.04013306617363331
0.661367708610712
-1.1044752426996227
0.0675631867398421
0.46452148137615107
1.0414269104744964
-1.8156873621752396
-0.1223463700156019
-0.2728366754485737
0.33496555945583545
0.9959255242483831
0.6847300321088547
0.05454635711526563
-0.08560260605278391
0.11311632587318057
0.8751063398491141
-0.5187293096433954
-0.10091306344165038
0.3343725853042207
0.14240521038018308
0.6972421207398887
0.6988997206893434
0.7160661056848446
0.2552103197745783
-0.47980887337560607
-0.2760472815906986
-1.5409516291507028
1.4906872244260636
-0.0271692918253925
0.07832532088293208
-0.8102111463131463
-0.3550896841201381
1.0428032093426767
-1.105530842322194
-1.8550497021606056
0.6173123070499046
0.2605592722252227
-0.1566247671605938
-0.9573217861106813
1.957175553038054
0.1530029792867469
-0.4802936042710215
-0.8774852861461858
-0.48067648741356217
-0.3873354655225619
0.29542574490864315
-0.3790231819249768
-1.3079364221080767
1.2469957019967668
0.13016293833274256
0.5328915781592715
-0.39593351076863725
1.6009422074324131
1.055514186470636
-0.04200350129726195
-0.5574283125229439
0.27212338045975576
-0.224607625189498
-1.3113534613706763
-0.34275280155000776
0.27907099504710875
0.11776597483797305
-0.4880934811056741
-0.6975816716909481
0.36303379706971645
-2.5891913465359626
-0.9295008168383256
-1.419334778419012
-0.10521303017149772
-1.4969707407487713
0.041369632816563154
-1.1087887910234298
-0.03024673059071681
0.8657875449505918
-1.482879397915329
-0.5642275641294181
-0.5033138589790435
0.17278054036972024
-0.5439885459634524
-0.9698921408238497
-0.15140966058372438
-0.5150650766042938
0.44464505578771124
-0.7557132880701922
-2.237762609748726
0.014151932379892884
0.984548850603829
1.7120333451840035
-0.2000038386823215
0.433612476935703
0.2609788743624307
0.20357297498261534
0.14019311963114028
0.4268832823970921
-0.16750693645344392
-0.34940516894844986
-1.1478799271430244
-0.7619251072156923
-0.3858882587585112
0.9160968707132934
0.5515532628815435
0.6608290133347926
0.032967101263524666
1.7699916392910073
-0.2044758423100309
-0.41963642129698236
-0.8240280367553408
1.9458983611311538
2.6259406256735263
-1.0909458304505324
0.493266813400044
-0.2684650104338021
-0.2938731887238364
0.5168080398321278
0.8261196060742091
1.0072403778919319
0.11825406192753682
1.3810238971447222
0.6855848281630424
0.45144804561095675
1.0841086685415278
0.5548838307982438
0.6728601823868747
0.4066376912564903
0.9469655098296968
0.29861957378865
1.476907611995317
0.2874983858109091
0.5937192044738767
1.2544485440539999
0.07402145628301735
-0.24408534566378542
1.1546759860995544
0.12135700266842343
-0.8737411008492807
0.12111097569457649
1.4331481820242744
0.5264274576430056
-1.212513389664969
0.17160832979916132
-0.8096291397318799
-0.48355960727580954
0.943909420867181
-0.1569927017675911
-0.5280486713591032
0.10679830927038537
0.3340264290164263
-0.7200349360466162
0.9126183970969236
0.6753092861670978
-0.36245620530226
-0.6619457131149566
1.462739245945951
0.21353319229055645
-0.4746253587722319
0.23580864405247948
-0.28605884979692114
-0.8502259753908334
-0.7986013837802133
-0.26333197738184494
-0.07518022974998997
-0.8941468890408757
-0.43907317791727823
0.8585786149476136
0.060192554453170635
0.5122453318773628
-0.48575372189929616
-0.3038408865736406
-0.8212728531845159
-0.6113536704900783
0.6345305790103585
0.6225459141883674
-0.4467028410945746
-0.07096131963945995
0.43344620134737327
0.8169349161702476
-0.147249790933519
0.05518028623045125
-1.2218782846330873
0.874486538993359
-0.9158064152016129
-0.1829282517903585
-0.29874514294995935
-0.035229509167127096
0.1991769691194442
-0.5745655874261857
0.629567863557097
-0.9388572337295172
-0.19764746030572625
0.031062580926161446
0.0061827154293066025
0.10504052817840225
1.0900607265296212
0.4236917996556421
-0.38494811647953747
0.7910828642438662
-0.5395003275761967
-0.49144213547914045
0.04081700099509207
0.6769773691542175
-0.9949792224622814
0.8006627284005071
-1.4747742748334598
-0.5917972253541779
0.6347702693837137
0.38026930526064273
-0.9139385170028955
0.382867397007292
-2.0837886645554367
0.6248702430190496
0.6572538417082119
6.174023166578927E-4
0.21766010688979684
0.6712538727257047
1.0650633411476456
-0.3253299452146946
0.004007485892733388
0.37438714466021045
-0.893434120811824
0.4466819395165134
-0.1427287101429886
-0.6269233003327356
-0.320181327323841
0.3893662801637489
-0.4378143371622272
-1.646414295681208
0.14808482685057828
0.16661249362766434
1.1750582481993888
-1.509584919144394
0.6079878697940341
1.0774074133196587
0.8490411684915494
0.25334570901391984
-0.9554187367979484
-0.9374834419146298
0.0032705147198063547
1.1249984834493458
-1.807741172981636
-0.8377851794523277
0.953098873830822
-1.0925181966242297
-0.7305615734062507
-0.8145212329703542
-0.941482877583444
-0.6329283154235039
0.4697189618383347
-0.4201250642448176
-1.2277670294546532
0.3904959166253598
0.6654550167839784
0.18701822717880706
0.5281625292337544
-0.4602333509870913
-0.9540144695281373
-0.045899108422872904
-0.4918508505081018
0.6949629373294155
0.2504871786293652
0.8093499687310544
-0.3929063523298108
0.6584701391899752
0.17151902122946625
0.2242801059547555
0.39075074946071475
-0.10050221309485546
0.3021651364562852
-0.3497177397832988
-0.15511407248303494
0.20957080704378328
-0.2932781540053694
-0.8037968438278608
0.41620598310597307
-1.249641991338168
-0.2780792810164346
0.33150373903309976
-0.20637608005596317
0.5367292870844678
-0.17973648191212455
0.8867434177476929
-0.4661627657721559
1.0520026064177406
-1.769229544598432
0.1714118331998984
-0.8416792834607529
-0.6076576987437835
0.05636851455378729
1.1784155242207799
0.2909288136023745
-0.4271428797069764
0.3196749301162264
-1.0825007445706318
0.1265155461331085
-0.9051238782466772
-0.44601628978823915
0.1965878508386636
0.12084031895151227
-0.8978585561507606
-1.235404936760715
2.194641889128532
0.09832438964054603
-0.02762263554095563
0.2929280820552822
1.1639188149717046
-0.8411188188478712
-0.2992594880624721
2.336106668426649
-1.5127952773532254
0.302213212400081
-0.28036763818017
-0.4635885880709905
0.6233388819172762
0.6665804090857411
2.7461179882219695
0.09416727572841602
0.5360100572275613
0.8094724236048464
-0.189673230426678
0.7878403350422789
0.30942106343134324
-1.1452063025477992
1.1942118350660598
0.05865133491138489
1.3929323335446437
-0.09452457202365644
0.1444819978463126
1.1129470583508125
0.0160995808594429
-0.6014724394970186
-1.169221555446223
0.8345947158204768
-0.480812651165118
-1.0754149491488245
-0.15834290789321845
1.7107396335481537
1.4258217142437266
0.6456406156058079
-0.04288022530020386
-0.6025175691847457
-0.36765985517531374
0.08798080263828383
0.7185261112216255
0.0417726383899699
1.2267553641523967
0.049089563399964044
1.8689026032318263
0.5204770756105999
-0.7395452394554685
0.039289694990201914
0.08276895023087052
-0.35613653737622253
0.34559064756032276
-1.749759792794598
0.567466771995724
-0.147329661245464
-1.929142566211683
0.24907294937590174
0.6790374579664048
-0.12310545776028378
-0.6435901138014242
-1.321784447016978
-1.3513778698037484
1.0962576631057213
-0.16339438346957605
-0.9508057479760459
-0.38284994130377503
-1.259745865091651
-0.5395922492413359
-0.9782118739086926
1.0259934304605511
1.4075809701341098
-0.9084886015013292
0.18010931712432562
0.3908901273218603
1.2997793808557196
0.9385561617481092
